{"learner":{"attributes":{"scikit_learn":"{\"_estimator_type\": \"regressor\"}"},"feature_names":["x1","x2"],"feature_types":["float","float"],"gradient_booster":{"model":{"gbtree_model_param":{"num_parallel_tree":"1","num_trees":"1000"},"iteration_indptr":[0,1,2,3,4,5,6,7,8,9,10,11,12,13,14,15,16,17,18,19,20,21,22,23,24,25,26,27,28,29,30,31,32,33,34,35,36,37,38,39,40,41,42,43,44,45,46,47,48,49,50,51,52,53,54,55,56,57,58,59,60,61,62,63,64,65,66,67,68,69,70,71,72,73,74,75,76,77,78,79,80,81,82,83,84,85,86,87,88,89,90,91,92,93,94,95,96,97,98,99,100,101,102,103,104,105,106,107,108,109,110,111,112,113,114,115,116,117,118,119,120,121,122,123,124,125,126,127,128,129,130,131,132,133,134,135,136,137,138,139,140,141,142,143,144,145,146,147,148,149,150,151,152,153,154,155,156,157,158,159,160,161,162,163,164,165,166,167,168,169,170,171,172,173,174,175,176,177,178,179,180,181,182,183,184,185,186,187,188,189,190,191,192,193,194,195,196,197,198,199,200,201,202,203,204,205,206,207,208,209,210,211,212,213,214,215,216,217,218,219,220,221,222,223,224,225,226,227,228,229,230,231,232,233,234,235,236,237,238,239,240,241,242,243,244,245,246,247,248,249,250,251,252,253,254,255,256,257,258,259,260,261,262,263,264,265,266,267,268,269,270,271,272,273,274,275,276,277,278,279,280,281,282,283,284,285,286,287,288,289,290,291,292,293,294,295,296,297,298,299,300,301,302,303,304,305,306,307,308,309,310,311,312,313,314,315,316,317,318,319,320,321,322,323,324,325,326,327,328,329,330,331,332,333,334,335,336,337,338,339,340,341,342,343,344,345,346,347,348,349,350,351,352,353,354,355,356,357,358,359,360,361,362,363,364,365,366,367,368,369,370,371,372,373,374,375,376,377,378,379,380,381,382,383,384,385,386,387,388,389,390,391,392,393,394,395,396,397,398,399,400,401,402,403,404,405,406,407,408,409,410,411,412,413,414,415,416,417,418,419,420,421,422,423,424,425,426,427,428,429,430,431,432,433,434,435,436,437,438,439,440,441,442,443,444,445,446,447,448,449,450,451,452,453,454,455,456,457,458,459,460,461,462,463,464,465,466,467,468,469,470,471,472,473,474,475,476,477,478,479,480,481,482,483,484,485,486,487,488,489,490,491,492,493,494,495,496,497,498,499,500,501,502,503,504,505,506,507,508,509,510,511,512,513,514,515,516,517,518,519,520,521,522,523,524,525,526,527,528,529,530,531,532,533,534,535,536,537,538,539,540,541,542,543,544,545,546,547,548,549,550,551,552,553,554,555,556,557,558,559,560,561,562,563,564,565,566,567,568,569,570,571,572,573,574,575,576,577,578,579,580,581,582,583,584,585,586,587,588,589,590,591,592,593,594,595,596,597,598,599,600,601,602,603,604,605,606,607,608,609,610,611,612,613,614,615,616,617,618,619,620,621,622,623,624,625,626,627,628,629,630,631,632,633,634,635,636,637,638,639,640,641,642,643,644,645,646,647,648,649,650,651,652,653,654,655,656,657,658,659,660,661,662,663,664,665,666,667,668,669,670,671,672,673,674,675,676,677,678,679,680,681,682,683,684,685,686,687,688,689,690,691,692,693,694,695,696,697,698,699,700,701,702,703,704,705,706,707,708,709,710,711,712,713,714,715,716,717,718,719,720,721,722,723,724,725,726,727,728,729,730,731,732,733,734,735,736,737,738,739,740,741,742,743,744,745,746,747,748,749,750,751,752,753,754,755,756,757,758,759,760,761,762,763,764,765,766,767,768,769,770,771,772,773,774,775,776,777,778,779,780,781,782,783,784,785,786,787,788,789,790,791,792,793,794,795,796,797,798,799,800,801,802,803,804,805,806,807,808,809,810,811,812,813,814,815,816,817,818,819,820,821,822,823,824,825,826,827,828,829,830,831,832,833,834,835,836,837,838,839,840,841,842,843,844,845,846,847,848,849,850,851,852,853,854,855,856,857,858,859,860,861,862,863,864,865,866,867,868,869,870,871,872,873,874,875,876,877,878,879,880,881,882,883,884,885,886,887,888,889,890,891,892,893,894,895,896,897,898,899,900,901,902,903,904,905,906,907,908,909,910,911,912,913,914,915,916,917,918,919,920,921,922,923,924,925,926,927,928,929,930,931,932,933,934,935,936,937,938,939,940,941,942,943,944,945,946,947,948,949,950,951,952,953,954,955,956,957,958,959,960,961,962,963,964,965,966,967,968,969,970,971,972,973,974,975,976,977,978,979,980,981,982,983,984,985,986,987,988,989,990,991,992,993,994,995,996,997,998,999,1000],"tree_info":[0,0,0,0,0,0,0,0,0,0,0,0,0,0,0,0,0,0,0,0,0,0,0,0,0,0,0,0,0,0,0,0,0,0,0,0,0,0,0,0,0,0,0,0,0,0,0,0,0,0,0,0,0,0,0,0,0,0,0,0,0,0,0,0,0,0,0,0,0,0,0,0,0,0,0,0,0,0,0,0,0,0,0,0,0,0,0,0,0,0,0,0,0,0,0,0,0,0,0,0,0,0,0,0,0,0,0,0,0,0,0,0,0,0,0,0,0,0,0,0,0,0,0,0,0,0,0,0,0,0,0,0,0,0,0,0,0,0,0,0,0,0,0,0,0,0,0,0,0,0,0,0,0,0,0,0,0,0,0,0,0,0,0,0,0,0,0,0,0,0,0,0,0,0,0,0,0,0,0,0,0,0,0,0,0,0,0,0,0,0,0,0,0,0,0,0,0,0,0,0,0,0,0,0,0,0,0,0,0,0,0,0,0,0,0,0,0,0,0,0,0,0,0,0,0,0,0,0,0,0,0,0,0,0,0,0,0,0,0,0,0,0,0,0,0,0,0,0,0,0,0,0,0,0,0,0,0,0,0,0,0,0,0,0,0,0,0,0,0,0,0,0,0,0,0,0,0,0,0,0,0,0,0,0,0,0,0,0,0,0,0,0,0,0,0,0,0,0,0,0,0,0,0,0,0,0,0,0,0,0,0,0,0,0,0,0,0,0,0,0,0,0,0,0,0,0,0,0,0,0,0,0,0,0,0,0,0,0,0,0,0,0,0,0,0,0,0,0,0,0,0,0,0,0,0,0,0,0,0,0,0,0,0,0,0,0,0,0,0,0,0,0,0,0,0,0,0,0,0,0,0,0,0,0,0,0,0,0,0,0,0,0,0,0,0,0,0,0,0,0,0,0,0,0,0,0,0,0,0,0,0,0,0,0,0,0,0,0,0,0,0,0,0,0,0,0,0,0,0,0,0,0,0,0,0,0,0,0,0,0,0,0,0,0,0,0,0,0,0,0,0,0,0,0,0,0,0,0,0,0,0,0,0,0,0,0,0,0,0,0,0,0,0,0,0,0,0,0,0,0,0,0,0,0,0,0,0,0,0,0,0,0,0,0,0,0,0,0,0,0,0,0,0,0,0,0,0,0,0,0,0,0,0,0,0,0,0,0,0,0,0,0,0,0,0,0,0,0,0,0,0,0,0,0,0,0,0,0,0,0,0,0,0,0,0,0,0,0,0,0,0,0,0,0,0,0,0,0,0,0,0,0,0,0,0,0,0,0,0,0,0,0,0,0,0,0,0,0,0,0,0,0,0,0,0,0,0,0,0,0,0,0,0,0,0,0,0,0,0,0,0,0,0,0,0,0,0,0,0,0,0,0,0,0,0,0,0,0,0,0,0,0,0,0,0,0,0,0,0,0,0,0,0,0,0,0,0,0,0,0,0,0,0,0,0,0,0,0,0,0,0,0,0,0,0,0,0,0,0,0,0,0,0,0,0,0,0,0,0,0,0,0,0,0,0,0,0,0,0,0,0,0,0,0,0,0,0,0,0,0,0,0,0,0,0,0,0,0,0,0,0,0,0,0,0,0,0,0,0,0,0,0,0,0,0,0,0,0,0,0,0,0,0,0,0,0,0,0,0,0,0,0,0,0,0,0,0,0,0,0,0,0,0,0,0,0,0,0,0,0,0,0,0,0,0,0,0,0,0,0,0,0,0,0,0,0,0,0,0,0,0,0,0,0,0,0,0,0,0,0,0,0,0,0,0,0,0,0,0,0,0,0,0,0,0,0,0,0,0,0,0,0,0,0,0,0,0,0,0,0,0,0,0,0,0,0,0,0,0,0,0,0,0,0,0,0,0,0,0,0,0,0,0,0,0,0,0,0,0,0,0,0,0,0,0,0,0,0,0,0,0,0,0,0,0,0,0,0,0,0,0,0,0,0,0,0,0,0,0,0,0,0,0,0,0,0,0,0,0,0,0,0,0,0,0,0,0,0,0,0,0,0,0,0,0,0,0,0,0,0,0,0,0,0,0,0,0,0,0,0,0,0,0,0,0,0,0,0,0,0,0,0,0,0,0,0,0,0,0,0,0,0,0,0,0,0,0,0,0,0,0,0,0,0,0,0,0,0,0,0,0,0,0,0,0,0,0,0,0,0,0,0,0,0,0,0,0,0,0,0,0,0,0,0,0,0,0,0,0,0,0,0,0,0,0,0,0,0,0,0,0,0,0,0,0,0,0,0,0,0],"trees":[{"base_weights":[6.0222327E2,3.3841373E2,8.5116943E2,2.1606078E2,4.5393878E2,7.035657E2,9.824688E2],"categories":[],"categories_nodes":[],"categories_segments":[],"categories_sizes":[],"default_left":[0,0,0,0,0,0,0],"id":0,"left_children":[1,3,5,-1,-1,-1,-1],"loss_changes":[4.5749696E7,4.736032E6,6.285664E6,0E0,0E0,0E0,0E0],"parents":[2147483647,0,0,1,1,2,2],"right_children":[2,4,6,-1,-1,-1,-1],"split_conditions":[4.926181E1,2.2460482E1,7.35071E1,2.1606078E2,4.5393878E2,7.035657E2,9.824688E2],"split_indices":[0,0,0,0,0,0,0],"split_type":[0,0,0,0,0,0,0],"sum_hessian":[7E2,3.41E2,3.59E2,1.67E2,1.74E2,1.72E2,1.87E2],"tree_param":{"num_deleted":"0","num_feature":"2","num_nodes":"7","size_leaf_vector":"1"}},{"base_weights":[3.3609643E0,-4.7828278E1,5.1981407E1,-6.378397E1,-8.020024E0,4.017564E1,1.0699946E2],"categories":[],"categories_nodes":[],"categories_segments":[],"categories_sizes":[],"default_left":[0,0,0,0,0,0,0],"id":1,"left_children":[1,3,5,-1,-1,-1,-1],"loss_changes":[1.7471658E6,2.1671594E5,2.2953206E5,0E0,0E0,0E0,0E0],"parents":[2147483647,0,0,1,1,2,2],"right_children":[2,4,6,-1,-1,-1,-1],"split_conditions":[5.190598E1,3.732518E1,8.7357864E1,-6.378397E1,-8.020024E0,4.017564E1,1.0699946E2],"split_indices":[1,1,0,0,0,0,0],"split_type":[0,0,0,0,0,0,0],"sum_hessian":[7E2,3.41E2,3.59E2,2.43E2,9.8E1,2.97E2,6.2E1],"tree_param":{"num_deleted":"0","num_feature":"2","num_nodes":"7","size_leaf_vector":"1"}},{"base_weights":[1.0751758E-1,-6.934464E1,4.3038607E0,-7.941301E1,-2.5841047E1,1.4855593E1,-2.2378994E1],"categories":[],"categories_nodes":[],"categories_segments":[],"categories_sizes":[],"default_left":[0,0,0,0,0,0,0],"id":2,"left_children":[1,3,5,-1,-1,-1,-1],"loss_changes":[2.0460147E5,1.5468297E4,1.8671875E5,0E0,0E0,0E0,0E0],"parents":[2147483647,0,0,1,1,2,2],"right_children":[2,4,6,-1,-1,-1,-1],"split_conditions":[5.808361E0,8.065611E1,7.35071E1,-7.941301E1,-2.5841047E1,1.4855593E1,-2.2378994E1],"split_indices":[0,1,0,0,0,0,0],"split_type":[0,0,0,0,0,0,0],"sum_hessian":[7E2,3.9E1,6.61E2,3.1E1,8E0,4.74E2,1.87E2],"tree_param":{"num_deleted":"0","num_feature":"2","num_nodes":"7","size_leaf_vector":"1"}},{"base_weights":[-1.608814E-1,-5.8544865E0,7.1012276E1,-1.0126335E1,3.2747944E1,1.0627186E2,4.7490944E1],"categories":[],"categories_nodes":[],"categories_segments":[],"categories_sizes":[],"default_left":[0,0,0,0,0,0,0],"id":3,"left_children":[1,3,5,-1,-1,-1,-1],"loss_changes":[2.8448325E5,1.0751904E5,3.8079375E4,0E0,0E0,0E0,0E0],"parents":[2147483647,0,0,1,1,2,2],"right_children":[2,4,6,-1,-1,-1,-1],"split_conditions":[9.29376E1,9.090325E1,5.1726906E1,-1.0126335E1,3.2747944E1,1.0627186E2,4.7490944E1],"split_indices":[0,1,1,0,0,0,0],"split_type":[0,0,0,0,0,0,0],"sum_hessian":[7E2,6.49E2,5.1E1,5.85E2,6.4E1,1.9E1,3.2E1],"tree_param":{"num_deleted":"0","num_feature":"2","num_nodes":"7","size_leaf_vector":"1"}},{"base_weights":[2.516224E-1,1.707236E1,-5.0407662E0,-5.8130717E0,6.294703E1,-8.763182E1,5.598675E0],"categories":[],"categories_nodes":[],"categories_segments":[],"categories_sizes":[],"default_left":[0,0,0,0,0,0,0],"id":4,"left_children":[1,3,5,-1,-1,-1,-1],"loss_changes":[6.249039E4,1.7674266E5,4.6972847E5,0E0,0E0,0E0,0E0],"parents":[2147483647,0,0,1,1,2,2],"right_children":[2,4,6,-1,-1,-1,-1],"split_conditions":[2.2460482E1,1.4866273E1,3.1435598E1,-5.8130717E0,6.294703E1,-8.763182E1,5.598675E0],"split_indices":[0,0,0,0,0,0,0],"split_type":[0,0,0,0,0,0,0],"sum_hessian":[7E2,1.67E2,5.33E2,1.12E2,5.5E1,6E1,4.73E2],"tree_param":{"num_deleted":"0","num_feature":"2","num_nodes":"7","size_leaf_vector":"1"}},{"base_weights":[-3.5522528E-2,7.3219643E0,-2.0151016E1,-1.3830618E0,7.199016E1,-6.9640915E1,-7.163427E-1],"categories":[],"categories_nodes":[],"categories_segments":[],"categories_sizes":[],"default_left":[0,0,0,0,0,0,0],"id":5,"left_children":[1,3,5,-1,-1,-1,-1],"loss_changes":[1.0389518E5,2.8944988E5,1.8077228E5,0E0,0E0,0E0,0E0],"parents":[2147483647,0,0,1,1,2,2],"right_children":[2,4,6,-1,-1,-1,-1],"split_conditions":[7.35071E1,6.375575E1,8.101134E1,-1.3830618E0,7.199016E1,-6.9640915E1,-7.163427E-1],"split_indices":[0,0,0,0,0,0,0],"split_type":[0,0,0,0,0,0,0],"sum_hessian":[7E2,5.13E2,1.87E2,4.53E2,6E1,5.2E1,1.35E2],"tree_param":{"num_deleted":"0","num_feature":"2","num_nodes":"7","size_leaf_vector":"1"}},{"base_weights":[3.525194E-4,1.3597832E1,-1.29172535E1,6.9781774E-1,8.089976E1,-8.805624E1,-2.9838533E0],"categories":[],"categories_nodes":[],"categories_segments":[],"categories_sizes":[],"default_left":[0,0,0,0,0,0,0],"id":6,"left_children":[1,3,5,-1,-1,-1,-1],"loss_changes":[1.233041E5,2.968665E5,2.6843606E5,0E0,0E0,0E0,0E0],"parents":[2147483647,0,0,1,1,2,2],"right_children":[2,4,6,-1,-1,-1,-1],"split_conditions":[4.926181E1,3.972873E1,5.4264465E1,6.9781774E-1,8.089976E1,-8.805624E1,-2.9838533E0],"split_indices":[0,0,0,0,0,0,0],"split_type":[0,0,0,0,0,0,0],"sum_hessian":[7E2,3.41E2,3.59E2,2.87E2,5.4E1,4.1E1,3.18E2],"tree_param":{"num_deleted":"0","num_feature":"2","num_nodes":"7","size_leaf_vector":"1"}},{"base_weights":[-1.3477331E-2,-1.8243074E1,3.4839048E0,-2.1832972E1,-4.020836E0,1.8177235E1,-7.584609E-1],"categories":[],"categories_nodes":[],"categories_segments":[],"categories_sizes":[],"default_left":[0,0,0,0,0,0,0],"id":7,"left_children":[1,3,5,-1,-1,-1,-1],"loss_changes":[4.4756418E4,5.681586E3,3.672879E4,0E0,0E0,0E0,0E0],"parents":[2147483647,0,0,1,1,2,2],"right_children":[2,4,6,-1,-1,-1,-1],"split_conditions":[1.676192E1,6.960298E1,3.732518E1,-2.1832972E1,-4.020836E0,1.8177235E1,-7.584609E-1],"split_indices":[1,0,1,0,0,0,0],"split_type":[0,0,0,0,0,0,0],"sum_hessian":[7E2,1.12E2,5.88E2,8.9E1,2.3E1,1.31E2,4.57E2],"tree_param":{"num_deleted":"0","num_feature":"2","num_nodes":"7","size_leaf_vector":"1"}},{"base_weights":[-1.2034298E-2,-4.04736E0,1.0630416E1,1.2208037E-1,-1.2511058E1,1.4624246E1,3.8648834E0],"categories":[],"categories_nodes":[],"categories_segments":[],"categories_sizes":[],"default_left":[0,0,0,0,0,0,0],"id":8,"left_children":[1,3,5,-1,-1,-1,-1],"loss_changes":[3.0147996E4,1.796357E4,5.158414E3,0E0,0E0,0E0,0E0],"parents":[2147483647,0,0,1,1,2,2],"right_children":[2,4,6,-1,-1,-1,-1],"split_conditions":[7.384492E1,5.190598E1,9.007018E1,1.2208037E-1,-1.2511058E1,1.4624246E1,3.8648834E0],"split_indices":[1,1,1,0,0,0,0],"split_type":[0,0,0,0,0,0,0],"sum_hessian":[7E2,5.08E2,1.92E2,3.41E2,1.67E2,1.2E2,7.2E1],"tree_param":{"num_deleted":"0","num_feature":"2","num_nodes":"7","size_leaf_vector":"1"}},{"base_weights":[8.704731E-3,-4.8050687E-1,1.7594116E1,9.819559E0,-1.1195164E0,1.2558707E1,2.9181519E1],"categories":[],"categories_nodes":[],"categories_segments":[],"categories_sizes":[],"default_left":[0,0,0,0,0,0,0],"id":9,"left_children":[1,3,5,-1,-1,-1,-1],"loss_changes":[6.0391484E3,4.50639E3,7.421162E2,0E0,0E0,0E0,0E0],"parents":[2147483647,0,0,1,1,2,2],"right_children":[2,4,6,-1,-1,-1,-1],"split_conditions":[9.699098E1,5.808361E0,6.1949036E1,9.819559E0,-1.1195164E0,1.2558707E1,2.9181519E1],"split_indices":[0,0,1,0,0,0,0],"split_type":[0,0,0,0,0,0,0],"sum_hessian":[7E2,6.82E2,1.8E1,3.9E1,6.43E2,1.4E1,4E0],"tree_param":{"num_deleted":"0","num_feature":"2","num_nodes":"7","size_leaf_vector":"1"}},{"base_weights":[7.194776E-2,-1.026954E1,1.2537179E0,2.4548817E-1,-2.270383E1,1.5418893E1,2.4150889E-1],"categories":[],"categories_nodes":[],"categories_segments":[],"categories_sizes":[],"default_left":[0,0,0,0,0,0,0],"id":10,"left_children":[1,3,5,-1,-1,-1,-1],"loss_changes":[8.579979E3,9.419351E3,9.02929E3,0E0,0E0,0E0,0E0],"parents":[2147483647,0,0,1,1,2,2],"right_children":[2,4,6,-1,-1,-1,-1],"split_conditions":[9.9441395E0,5.808361E0,1.4866273E1,2.4548817E-1,-2.270383E1,1.5418893E1,2.4150889E-1],"split_indices":[0,0,0,0,0,0,0],"split_type":[0,0,0,0,0,0,0],"sum_hessian":[7E2,7.1E1,6.29E2,3.9E1,3.2E1,4.1E1,5.88E2],"tree_param":{"num_deleted":"0","num_feature":"2","num_nodes":"7","size_leaf_vector":"1"}},{"base_weights":[-9.697347E-3,-1.5749722E0,3.3971212E0,1.1184834E0,-1.19792E1,2.5702509E1,-6.549017E-1],"categories":[],"categories_nodes":[],"categories_segments":[],"categories_sizes":[],"default_left":[0,0,0,0,0,0,0],"id":11,"left_children":[1,3,5,-1,-1,-1,-1],"loss_changes":[3.7435083E3,1.3492618E4,1.9991244E4,0E0,0E0,0E0,0E0],"parents":[2147483647,0,0,1,1,2,2],"right_children":[2,4,6,-1,-1,-1,-1],"split_conditions":[6.791023E1,5.4264465E1,7.35071E1,1.1184834E0,-1.19792E1,2.5702509E1,-6.549017E-1],"split_indices":[0,0,0,0,0,0,0],"split_type":[0,0,0,0,0,0,0],"sum_hessian":[7E2,4.8E2,2.2E2,3.82E2,9.8E1,3.3E1,1.87E2],"tree_param":{"num_deleted":"0","num_feature":"2","num_nodes":"7","size_leaf_vector":"1"}},{"base_weights":[2.0242967E-2,-1.6918509E0,2.4668677E0,2.9303548E-3,-2.2576025E1,1.9941137E1,-5.024316E-1],"categories":[],"categories_nodes":[],"categories_segments":[],"categories_sizes":[],"default_left":[0,0,0,0,0,0,0],"id":12,"left_children":[1,3,5,-1,-1,-1,-1],"loss_changes":[2.9405579E3,1.4617831E4,1.5005168E4,0E0,0E0,0E0,0E0],"parents":[2147483647,0,0,1,1,2,2],"right_children":[2,4,6,-1,-1,-1,-1],"split_conditions":[5.843143E1,5.4264465E1,6.375575E1,2.9303548E-3,-2.2576025E1,1.9941137E1,-5.024316E-1],"split_indices":[0,0,0,0,0,0,0],"split_type":[0,0,0,0,0,0,0],"sum_hessian":[7E2,4.12E2,2.88E2,3.82E2,3E1,4.1E1,2.47E2],"tree_param":{"num_deleted":"0","num_feature":"2","num_nodes":"7","size_leaf_vector":"1"}},{"base_weights":[-4.467827E-3,-1.710857E0,2.9683995E0,-3.052169E0,6.9691205E0,-1.276059E1,4.070168E0],"categories":[],"categories_nodes":[],"categories_segments":[],"categories_sizes":[],"default_left":[0,0,0,0,0,0,0],"id":13,"left_children":[1,3,5,-1,-1,-1,-1],"loss_changes":[3.5611594E3,5.213852E3,4.488342E3,0E0,0E0,0E0,0E0],"parents":[2147483647,0,0,1,1,2,2],"right_children":[2,4,6,-1,-1,-1,-1],"split_conditions":[6.6686424E1,8.556965E1,6.337497E0,-3.052169E0,6.9691205E0,-1.276059E1,4.070168E0],"split_indices":[1,0,0,0,0,0,0],"split_type":[0,0,0,0,0,0,0],"sum_hessian":[7E2,4.45E2,2.55E2,3.86E2,5.9E1,1.6E1,2.39E2],"tree_param":{"num_deleted":"0","num_feature":"2","num_nodes":"7","size_leaf_vector":"1"}},{"base_weights":[-6.812282E-3,8.3733535E-1,-1.0558527E1,2.8471622E-1,9.487735E0,-1.5010844E1,1.58055725E1],"categories":[],"categories_nodes":[],"categories_segments":[],"categories_sizes":[],"default_left":[0,0,0,0,0,0,0],"id":14,"left_children":[1,3,5,-1,-1,-1,-1],"loss_changes":[6.2527915E3,3.1045435E3,6.3410845E3,0E0,0E0,0E0,0E0],"parents":[2147483647,0,0,1,1,2,2],"right_children":[2,4,6,-1,-1,-1,-1],"split_conditions":[9.29376E1,8.911431E1,8.707499E1,2.8471622E-1,9.487735E0,-1.5010844E1,1.58055725E1],"split_indices":[0,0,1,0,0,0,0],"split_type":[0,0,0,0,0,0,0],"sum_hessian":[7E2,6.49E2,5.1E1,6.11E2,3.8E1,4.4E1,7E0],"tree_param":{"num_deleted":"0","num_feature":"2","num_nodes":"7","size_leaf_vector":"1"}},{"base_weights":[1.5065692E-2,2.133352E0,-1.9973482E0,9.6062845E-1,1.2074819E1,-1.6736073E1,-8.47485E-1],"categories":[],"categories_nodes":[],"categories_segments":[],"categories_sizes":[],"default_left":[0,0,0,0,0,0,0],"id":15,"left_children":[1,3,5,-1,-1,-1,-1],"loss_changes":[2.9925322E3,3.9756396E3,6.0869224E3,0E0,0E0,0E0,0E0],"parents":[2147483647,0,0,1,1,2,2],"right_children":[2,4,6,-1,-1,-1,-1],"split_conditions":[5.190598E1,8.7357864E1,5.4669743E1,9.6062845E-1,1.2074819E1,-1.6736073E1,-8.47485E-1],"split_indices":[1,0,1,0,0,0,0],"split_type":[0,0,0,0,0,0,0],"sum_hessian":[7E2,3.41E2,3.59E2,3.06E2,3.5E1,2.5E1,3.34E2],"tree_param":{"num_deleted":"0","num_feature":"2","num_nodes":"7","size_leaf_vector":"1"}},{"base_weights":[-6.4892787E-3,1.221927E0,-5.118821E0,2.7155784E-1,2.7153427E1,-1.9761353E1,-2.5720737E0],"categories":[],"categories_nodes":[],"categories_segments":[],"categories_sizes":[],"default_left":[0,0,0,0,0,0,0],"id":16,"left_children":[1,3,5,-1,-1,-1,-1],"loss_changes":[4.4085854E3,1.3941412E4,5.0207256E3,0E0,0E0,0E0,0E0],"parents":[2147483647,0,0,1,1,2,2],"right_children":[2,4,6,-1,-1,-1,-1],"split_conditions":[8.101134E1,7.9157906E1,8.383287E1,2.7155784E-1,2.7153427E1,-1.9761353E1,-2.5720737E0],"split_indices":[0,0,0,0,0,0,0],"split_type":[0,0,0,0,0,0,0],"sum_hessian":[7E2,5.65E2,1.35E2,5.46E2,1.9E1,1.9E1,1.16E2],"tree_param":{"num_deleted":"0","num_feature":"2","num_nodes":"7","size_leaf_vector":"1"}},{"base_weights":[7.2653494E-3,-2.874088E0,9.3514514E-1,3.313888E-1,-9.462681E0,6.6109443E0,1.6052796E-2],"categories":[],"categories_nodes":[],"categories_segments":[],"categories_sizes":[],"default_left":[0,0,0,0,0,0,0],"id":17,"left_children":[1,3,5,-1,-1,-1,-1],"loss_changes":[1.8768458E3,3.614584E3,2.7698994E3,0E0,0E0,0E0,0E0],"parents":[2147483647,0,0,1,1,2,2],"right_children":[2,4,6,-1,-1,-1,-1],"split_conditions":[2.5224102E1,1.7389524E1,3.732518E1,3.313888E-1,-9.462681E0,6.6109443E0,1.6052796E-2],"split_indices":[1,1,1,0,0,0,0],"split_type":[0,0,0,0,0,0,0],"sum_hessian":[7E2,1.7E2,5.3E2,1.15E2,5.5E1,7.3E1,4.57E2],"tree_param":{"num_deleted":"0","num_feature":"2","num_nodes":"7","size_leaf_vector":"1"}},{"base_weights":[-3.575944E-3,-3.7370235E-1,7.7460575E0,5.126039E-2,-1.3509516E1,-6.854909E-1,1.2195226E1],"categories":[],"categories_nodes":[],"categories_segments":[],"categories_sizes":[],"default_left":[0,0,0,0,0,0,0],"id":18,"left_children":[1,3,5,-1,-1,-1,-1],"loss_changes":[2.0136039E3,3.7407874E3,1.2087875E3,0E0,0E0,0E0,0E0],"parents":[2147483647,0,0,1,1,2,2],"right_children":[2,4,6,-1,-1,-1,-1],"split_conditions":[9.539286E1,9.29376E1,4.0193092E1,5.126039E-2,-1.3509516E1,-6.854909E-1,1.2195226E1],"split_indices":[0,0,1,0,0,0,0],"split_type":[0,0,0,0,0,0,0],"sum_hessian":[7E2,6.69E2,3.1E1,6.49E2,2E1,1.1E1,2E1],"tree_param":{"num_deleted":"0","num_feature":"2","num_nodes":"7","size_leaf_vector":"1"}},{"base_weights":[-2.7841958E-3,1.5897304E0,-1.5156653E0,-2.6574716E-1,2.8590574E1,-1.741532E1,-8.219934E-1],"categories":[],"categories_nodes":[],"categories_segments":[],"categories_sizes":[],"default_left":[0,0,0,0,0,0,0],"id":19,"left_children":[1,3,5,-1,-1,-1,-1],"loss_changes":[1.6913185E3,1.7141615E4,3.9561763E3,0E0,0E0,0E0,0E0],"parents":[2147483647,0,0,1,1,2,2],"right_children":[2,4,6,-1,-1,-1,-1],"split_conditions":[4.926181E1,4.524395E1,5.107473E1,-2.6574716E-1,2.8590574E1,-1.741532E1,-8.219934E-1],"split_indices":[0,0,0,0,0,0,0],"split_type":[0,0,0,0,0,0,0],"sum_hessian":[7E2,3.41E2,3.59E2,3.2E2,2.1E1,1.4E1,3.45E2],"tree_param":{"num_deleted":"0","num_feature":"2","num_nodes":"7","size_leaf_vector":"1"}},{"base_weights":[1.4404558E-2,2.0529144E0,-9.661748E-1,-3.1705734E-1,2.319036E1,-2.7075754E1,3.6454752E-1],"categories":[],"categories_nodes":[],"categories_segments":[],"categories_sizes":[],"default_left":[0,0,0,0,0,0,0],"id":20,"left_children":[1,3,5,-1,-1,-1,-1],"loss_changes":[1.4032267E3,1.1429045E4,1.647881E4,0E0,0E0,0E0,0E0],"parents":[2147483647,0,0,1,1,2,2],"right_children":[2,4,6,-1,-1,-1,-1],"split_conditions":[3.1435598E1,2.7864647E1,3.4566727E1,-3.1705734E-1,2.319036E1,-2.7075754E1,3.6454752E-1],"split_indices":[0,0,0,0,0,0,0],"split_type":[0,0,0,0,0,0,0],"sum_hessian":[7E2,2.27E2,4.73E2,2.05E2,2.2E1,2.2E1,4.51E2],"tree_param":{"num_deleted":"0","num_feature":"2","num_nodes":"7","size_leaf_vector":"1"}},{"base_weights":[-5.4781176E-3,2.819247E0,-8.941454E-1,-3.940413E-1,2.6617283E1,-1.9614311E1,2.526299E-2],"categories":[],"categories_nodes":[],"categories_segments":[],"categories_sizes":[],"default_left":[0,0,0,0,0,0,0],"id":21,"left_children":[1,3,5,-1,-1,-1,-1],"loss_changes":[1.7621997E3,1.285744E4,9.191425E3,0E0,0E0,0E0,0E0],"parents":[2147483647,0,0,1,1,2,2],"right_children":[2,4,6,-1,-1,-1,-1],"split_conditions":[2.2460482E1,1.8657005E1,2.5243694E1,-3.940413E-1,2.6617283E1,-1.9614311E1,2.526299E-2],"split_indices":[0,0,0,0,0,0,0],"split_type":[0,0,0,0,0,0,0],"sum_hessian":[7E2,1.67E2,5.33E2,1.48E2,1.9E1,2.4E1,5.09E2],"tree_param":{"num_deleted":"0","num_feature":"2","num_nodes":"7","size_leaf_vector":"1"}},{"base_weights":[9.460564E-3,1.8176166E0,-1.24841E0,2.5851628E-1,2.2696636E1,-2.7636887E1,-4.595511E-1],"categories":[],"categories_nodes":[],"categories_segments":[],"categories_sizes":[],"default_left":[0,0,0,0,0,0,0],"id":22,"left_children":[1,3,5,-1,-1,-1,-1],"loss_changes":[1.5966418E3,9.369248E3,8.605448E3,0E0,0E0,0E0,0E0],"parents":[2147483647,0,0,1,1,2,2],"right_children":[2,4,6,-1,-1,-1,-1],"split_conditions":[3.972873E1,3.7330933E1,4.1824303E1,2.5851628E-1,2.2696636E1,-2.7636887E1,-4.595511E-1],"split_indices":[0,0,0,0,0,0,0],"split_type":[0,0,0,0,0,0,0],"sum_hessian":[7E2,2.87E2,4.13E2,2.68E2,1.9E1,1.1E1,4.02E2],"tree_param":{"num_deleted":"0","num_feature":"2","num_nodes":"7","size_leaf_vector":"1"}},{"base_weights":[-7.336686E-3,4.4076598E-1,-3.9896667E0,-2.4370262E-2,6.2208495E0,-5.829652E0,2.6996346E0],"categories":[],"categories_nodes":[],"categories_segments":[],"categories_sizes":[],"default_left":[0,0,0,0,0,0,0],"id":23,"left_children":[1,3,5,-1,-1,-1,-1],"loss_changes":[1.2526879E3,1.6966117E3,8.896211E2,0E0,0E0,0E0,0E0],"parents":[2147483647,0,0,1,1,2,2],"right_children":[2,4,6,-1,-1,-1,-1],"split_conditions":[9.090325E1,8.4417046E1,9.840835E1,-2.4370262E-2,6.2208495E0,-5.829652E0,2.6996346E0],"split_indices":[1,1,1,0,0,0,0],"split_type":[0,0,0,0,0,0,0],"sum_hessian":[7E2,6.3E2,7E1,5.84E2,4.6E1,5.5E1,1.5E1],"tree_param":{"num_deleted":"0","num_feature":"2","num_nodes":"7","size_leaf_vector":"1"}},{"base_weights":[4.374636E-3,-3.5406911E0,3.970174E-1,-1.6617671E0,-8.876373E0,5.221332E0,5.3500917E-2],"categories":[],"categories_nodes":[],"categories_segments":[],"categories_sizes":[],"default_left":[0,0,0,0,0,0,0],"id":24,"left_children":[1,3,5,-1,-1,-1,-1],"loss_changes":[9.771587E2,6.870235E2,1.047091E3,0E0,0E0,0E0,0E0],"parents":[2147483647,0,0,1,1,2,2],"right_children":[2,4,6,-1,-1,-1,-1],"split_conditions":[9.553532E0,6.279004E1,1.6703394E1,-1.6617671E0,-8.876373E0,5.221332E0,5.3500917E-2],"split_indices":[1,0,1,0,0,0,0],"split_type":[0,0,0,0,0,0,0],"sum_hessian":[7E2,6.9E1,6.31E2,5.2E1,1.7E1,4.1E1,5.9E2],"tree_param":{"num_deleted":"0","num_feature":"2","num_nodes":"7","size_leaf_vector":"1"}},{"base_weights":[-7.514491E-3,-1.4981449E-1,8.932196E0,-7.248915E0,7.6985494E-3,1.2485758E0,1.0500936E1],"categories":[],"categories_nodes":[],"categories_segments":[],"categories_sizes":[],"default_left":[0,0,0,0,0,0,0],"id":25,"left_children":[1,3,5,-1,-1,-1,-1],"loss_changes":[8.930947E2,7.7273254E2,1.19478455E2,0E0,0E0,0E0,0E0],"parents":[2147483647,0,0,1,1,2,2],"right_children":[2,4,6,-1,-1,-1,-1],"split_conditions":[9.865153E1,2.5386355E0,1.0973619E1,-7.248915E0,7.6985494E-3,1.2485758E0,1.0500936E1],"split_indices":[0,0,1,0,0,0,0],"split_type":[0,0,0,0,0,0,0],"sum_hessian":[7E2,6.9E2,1E1,1.4E1,6.76E2,2E0,8E0],"tree_param":{"num_deleted":"0","num_feature":"2","num_nodes":"7","size_leaf_vector":"1"}},{"base_weights":[6.4366567E-3,6.4554443E0,-3.832412E-1,1.0713126E1,-9.400251E0,-1.2085954E1,-1.6693431E-1],"categories":[],"categories_nodes":[],"categories_segments":[],"categories_sizes":[],"default_left":[0,0,0,0,0,0,0],"id":26,"left_children":[1,3,5,-1,-1,-1,-1],"loss_changes":[1.7641118E3,2.8010466E3,1.6737543E3,0E0,0E0,0E0,0E0],"parents":[2147483647,0,0,1,1,2,2],"right_children":[2,4,6,-1,-1,-1,-1],"split_conditions":[5.808361E0,8.065611E1,7.4550643E0,1.0713126E1,-9.400251E0,-1.2085954E1,-1.6693431E-1],"split_indices":[0,1,0,0,0,0,0],"split_type":[0,0,0,0,0,0,0],"sum_hessian":[7E2,3.9E1,6.61E2,3.1E1,8E0,1.1E1,6.5E2],"tree_param":{"num_deleted":"0","num_feature":"2","num_nodes":"7","size_leaf_vector":"1"}},{"base_weights":[-1.5602868E-2,-9.141283E0,1.836705E-1,-1.1200872E1,-4.1850867E0,5.5648136E0,-4.489871E-2],"categories":[],"categories_nodes":[],"categories_segments":[],"categories_sizes":[],"default_left":[0,0,0,0,0,0,0],"id":27,"left_children":[1,3,5,-1,-1,-1,-1],"loss_changes":[1.276451E3,1.0623938E2,8.452349E2,0E0,0E0,0E0,0E0],"parents":[2147483647,0,0,1,1,2,2],"right_children":[2,4,6,-1,-1,-1,-1],"split_conditions":[2.5386355E0,5.679452E1,6.337497E0,-1.1200872E1,-4.1850867E0,5.5648136E0,-4.489871E-2],"split_indices":[0,1,0,0,0,0,0],"split_type":[0,0,0,0,0,0,0],"sum_hessian":[7E2,1.4E1,6.86E2,9E0,5E0,2.7E1,6.59E2],"tree_param":{"num_deleted":"0","num_feature":"2","num_nodes":"7","size_leaf_vector":"1"}},{"base_weights":[-1.4063206E-2,-6.564729E0,9.9881805E-2,1.3896561E0,-9.370598E0,5.9174526E-1,-1.2360909E0],"categories":[],"categories_nodes":[],"categories_segments":[],"categories_sizes":[],"default_left":[0,0,0,0,0,0,0],"id":28,"left_children":[1,3,5,-1,-1,-1,-1],"loss_changes":[5.238932E2,2.808493E2,4.5414157E2,0E0,0E0,0E0,0E0],"parents":[2147483647,0,0,1,1,2,2],"right_children":[2,4,6,-1,-1,-1,-1],"split_conditions":[2.094496E0,7.562875E-1,7.35071E1,1.3896561E0,-9.370598E0,5.9174526E-1,-1.2360909E0],"split_indices":[1,1,0,0,0,0,0],"split_type":[0,0,0,0,0,0,0],"sum_hessian":[7E2,1.1E1,6.89E2,3E0,8E0,5.04E2,1.85E2],"tree_param":{"num_deleted":"0","num_feature":"2","num_nodes":"7","size_leaf_vector":"1"}},{"base_weights":[-1.2301262E-2,-7.996789E-1,2.6987479E0,1.3595017E-2,-1.425849E1,5.38818E0,8.1032413E-1],"categories":[],"categories_nodes":[],"categories_segments":[],"categories_sizes":[],"default_left":[0,0,0,0,0,0,0],"id":29,"left_children":[1,3,5,-1,-1,-1,-1],"loss_changes":[1.4985264E3,5.9546553E3,7.980823E2,0E0,0E0,0E0,0E0],"parents":[2147483647,0,0,1,1,2,2],"right_children":[2,4,6,-1,-1,-1,-1],"split_conditions":[7.885972E1,7.35071E1,5.0836056E1,1.3595017E-2,-1.425849E1,5.38818E0,8.1032413E-1],"split_indices":[0,0,1,0,0,0,0],"split_type":[0,0,0,0,0,0,0],"sum_hessian":[7E2,5.43E2,1.57E2,5.13E2,3E1,6.4E1,9.3E1],"tree_param":{"num_deleted":"0","num_feature":"2","num_nodes":"7","size_leaf_vector":"1"}},{"base_weights":[-1.1477526E-2,-1.7117255E0,1.2647971E0,-5.2500606E-1,-6.674619E0,7.7237053E0,5.077445E-1],"categories":[],"categories_nodes":[],"categories_segments":[],"categories_sizes":[],"default_left":[0,0,0,0,0,0,0],"id":30,"left_children":[1,3,5,-1,-1,-1,-1],"loss_changes":[1.5233235E3,1.7692543E3,1.9568613E3,0E0,0E0,0E0,0E0],"parents":[2147483647,0,0,1,1,2,2],"right_children":[2,4,6,-1,-1,-1,-1],"split_conditions":[4.6147747E1,3.732518E1,5.190598E1,-5.2500606E-1,-6.674619E0,7.7237053E0,5.077445E-1],"split_indices":[1,1,1,0,0,0,0],"split_type":[0,0,0,0,0,0,0],"sum_hessian":[7E2,3E2,4E2,2.43E2,5.7E1,4.1E1,3.59E2],"tree_param":{"num_deleted":"0","num_feature":"2","num_nodes":"7","size_leaf_vector":"1"}},{"base_weights":[1.476364E-3,-1.205824E0,1.0786057E0,5.5251217E-1,-2.1075873E0,4.9753146E0,4.278088E-1],"categories":[],"categories_nodes":[],"categories_segments":[],"categories_sizes":[],"default_left":[0,0,0,0,0,0,0],"id":31,"left_children":[1,3,5,-1,-1,-1,-1],"loss_changes":[9.1289404E2,5.2599915E2,9.3871497E2,0E0,0E0,0E0,0E0],"parents":[2147483647,0,0,1,1,2,2],"right_children":[2,4,6,-1,-1,-1,-1],"split_conditions":[4.7206696E1,1.4866273E1,5.4264465E1,5.5251217E-1,-2.1075873E0,4.9753146E0,4.278088E-1],"split_indices":[0,0,0,0,0,0,0],"split_type":[0,0,0,0,0,0,0],"sum_hessian":[7E2,3.3E2,3.7E2,1.12E2,2.18E2,5.2E1,3.18E2],"tree_param":{"num_deleted":"0","num_feature":"2","num_nodes":"7","size_leaf_vector":"1"}},{"base_weights":[5.4859864E-3,-2.023759E0,4.7540674E-1,4.8914882E-3,-1.3384445E1,-3.77142E-1,1.8640097E0],"categories":[],"categories_nodes":[],"categories_segments":[],"categories_sizes":[],"default_left":[0,0,0,0,0,0,0],"id":32,"left_children":[1,3,5,-1,-1,-1,-1],"loss_changes":[6.694247E2,3.0422512E3,6.754985E2,0E0,0E0,0E0,0E0],"parents":[2147483647,0,0,1,1,2,2],"right_children":[2,4,6,-1,-1,-1,-1],"split_conditions":[1.7167929E1,1.4866273E1,6.567367E1,4.8914882E-3,-1.3384445E1,-3.77142E-1,1.8640097E0],"split_indices":[0,0,1,0,0,0,0],"split_type":[0,0,0,0,0,0,0],"sum_hessian":[7E2,1.31E2,5.69E2,1.12E2,1.9E1,3.53E2,2.16E2],"tree_param":{"num_deleted":"0","num_feature":"2","num_nodes":"7","size_leaf_vector":"1"}},{"base_weights":[-1.696755E-2,6.530866E-1,-1.7840172E0,-1.2667239E-1,8.696083E0,-9.716972E0,-5.9994686E-1],"categories":[],"categories_nodes":[],"categories_segments":[],"categories_sizes":[],"default_left":[0,0,0,0,0,0,0],"id":33,"left_children":[1,3,5,-1,-1,-1,-1],"loss_changes":[8.3116235E2,3.1933452E3,1.8070535E3,0E0,0E0,0E0,0E0],"parents":[2147483647,0,0,1,1,2,2],"right_children":[2,4,6,-1,-1,-1,-1],"split_conditions":[7.384492E1,6.8952675E1,7.79851E1,-1.2667239E-1,8.696083E0,-9.716972E0,-5.9994686E-1],"split_indices":[1,1,1,0,0,0,0],"split_type":[0,0,0,0,0,0,0],"sum_hessian":[7E2,5.08E2,1.92E2,4.64E2,4.4E1,2.4E1,1.68E2],"tree_param":{"num_deleted":"0","num_feature":"2","num_nodes":"7","size_leaf_vector":"1"}},{"base_weights":[-2.4935333E-3,-2.2412353E0,3.4363183E-1,-2.0451424E-1,-8.519612E0,1.068877E1,-8.229643E-3],"categories":[],"categories_nodes":[],"categories_segments":[],"categories_sizes":[],"default_left":[0,0,0,0,0,0,0],"id":34,"left_children":[1,3,5,-1,-1,-1,-1],"loss_changes":[5.439648E2,1.2002642E3,2.2132417E3,0E0,0E0,0E0,0E0],"parents":[2147483647,0,0,1,1,2,2],"right_children":[2,4,6,-1,-1,-1,-1],"split_conditions":[1.2429723E1,9.9441395E0,1.4866273E1,-2.0451424E-1,-8.519612E0,1.068877E1,-8.229643E-3],"split_indices":[0,0,0,0,0,0,0],"split_type":[0,0,0,0,0,0,0],"sum_hessian":[7E2,9.3E1,6.07E2,7.1E1,2.2E1,1.9E1,5.88E2],"tree_param":{"num_deleted":"0","num_feature":"2","num_nodes":"7","size_leaf_vector":"1"}},{"base_weights":[2.7926685E-3,3.4648743E-1,-2.1155179E0,1.5806982E-1,1.278542E1,3.5852644E0,-5.200078E0],"categories":[],"categories_nodes":[],"categories_segments":[],"categories_sizes":[],"default_left":[0,0,0,0,0,0,0],"id":35,"left_children":[1,3,5,-1,-1,-1,-1],"loss_changes":[5.110976E2,1.4135822E3,1.7419154E3,0E0,0E0,0E0,0E0],"parents":[2147483647,0,0,1,1,2,2],"right_children":[2,4,6,-1,-1,-1,-1],"split_conditions":[8.7357864E1,8.6236374E1,4.8296886E1,1.5806982E-1,1.278542E1,3.5852644E0,-5.200078E0],"split_indices":[0,0,1,0,0,0,0],"split_type":[0,0,0,0,0,0,0],"sum_hessian":[7E2,6.03E2,9.7E1,5.95E2,8E0,3.4E1,6.3E1],"tree_param":{"num_deleted":"0","num_feature":"2","num_nodes":"7","size_leaf_vector":"1"}},{"base_weights":[1.6153822E-2,1.3951829E-1,-4.4193244E0,-1.06232345E-1,3.4672554E0,-6.170786E0,-5.352783E-1],"categories":[],"categories_nodes":[],"categories_segments":[],"categories_sizes":[],"default_left":[0,0,0,0,0,0,0],"id":36,"left_children":[1,3,5,-1,-1,-1,-1],"loss_changes":[3.8419003E2,5.5892126E2,1.2594928E2,0E0,0E0,0E0,0E0],"parents":[2147483647,0,0,1,1,2,2],"right_children":[2,4,6,-1,-1,-1,-1],"split_conditions":[9.699098E1,9.109272E1,5.6573196E1,-1.06232345E-1,3.4672554E0,-6.170786E0,-5.352783E-1],"split_indices":[0,0,1,0,0,0,0],"split_type":[0,0,0,0,0,0,0],"sum_hessian":[7E2,6.82E2,1.8E1,6.36E2,4.6E1,1.2E1,6E0],"tree_param":{"num_deleted":"0","num_feature":"2","num_nodes":"7","size_leaf_vector":"1"}},{"base_weights":[-4.761167E-3,3.9127466E-1,-1.0875146E0,-8.667235E-2,1.6296757E1,-1.4312561E1,-1.8475722E-1],"categories":[],"categories_nodes":[],"categories_segments":[],"categories_sizes":[],"default_left":[0,0,0,0,0,0,0],"id":37,"left_children":[1,3,5,-1,-1,-1,-1],"loss_changes":[3.0102075E2,3.9088293E3,2.2418894E3,0E0,0E0,0E0,0E0],"parents":[2147483647,0,0,1,1,2,2],"right_children":[2,4,6,-1,-1,-1,-1],"split_conditions":[7.35071E1,7.132448E1,7.499605E1,-8.667235E-2,1.6296757E1,-1.4312561E1,-1.8475722E-1],"split_indices":[0,0,0,0,0,0,0],"split_type":[0,0,0,0,0,0,0],"sum_hessian":[7E2,5.13E2,1.87E2,4.99E2,1.4E1,1.1E1,1.76E2],"tree_param":{"num_deleted":"0","num_feature":"2","num_nodes":"7","size_leaf_vector":"1"}},{"base_weights":[2.447191E-3,-1.1329644E0,5.0034803E-1,-4.0694594E-1,-1.07376795E1,8.447778E0,-3.8670886E-2],"categories":[],"categories_nodes":[],"categories_segments":[],"categories_sizes":[],"default_left":[0,0,0,0,0,0,0],"id":38,"left_children":[1,3,5,-1,-1,-1,-1],"loss_changes":[3.9685788E2,1.4878951E3,2.0908284E3,0E0,0E0,0E0,0E0],"parents":[2147483647,0,0,1,1,2,2],"right_children":[2,4,6,-1,-1,-1,-1],"split_conditions":[3.264613E1,9.265876E1,3.732518E1,-4.0694594E-1,-1.07376795E1,8.447778E0,-3.8670886E-2],"split_indices":[1,0,1,0,0,0,0],"split_type":[0,0,0,0,0,0,0],"sum_hessian":[7E2,2.13E2,4.87E2,1.99E2,1.4E1,3E1,4.57E2],"tree_param":{"num_deleted":"0","num_feature":"2","num_nodes":"7","size_leaf_vector":"1"}},{"base_weights":[-3.8953936E-3,-1.2351496E-1,7.510742E0,-4.370613E0,2.2683501E-2,9.639418E0,-1.3788656E0],"categories":[],"categories_nodes":[],"categories_segments":[],"categories_sizes":[],"default_left":[0,0,0,0,0,0,0],"id":39,"left_children":[1,3,5,-1,-1,-1,-1],"loss_changes":[6.31055E2,4.2915427E2,2.2144543E2,0E0,0E0,0E0,0E0],"parents":[2147483647,0,0,1,1,2,2],"right_children":[2,4,6,-1,-1,-1,-1],"split_conditions":[9.865153E1,3.6549668E0,6.1293957E1,-4.370613E0,2.2683501E-2,9.639418E0,-1.3788656E0],"split_indices":[0,0,1,0,0,0,0],"split_type":[0,0,0,0,0,0,0],"sum_hessian":[7E2,6.9E2,1E1,2.2E1,6.68E2,8E0,2E0],"tree_param":{"num_deleted":"0","num_feature":"2","num_nodes":"7","size_leaf_vector":"1"}},{"base_weights":[5.571085E-3,9.5907116E-1,-6.5774673E-1,7.0247006E-1,1.1159419E1,-2.9024396E0,5.2478564E-1],"categories":[],"categories_nodes":[],"categories_segments":[],"categories_sizes":[],"default_left":[0,0,0,0,0,0,0],"id":40,"left_children":[1,3,5,-1,-1,-1,-1],"loss_changes":[4.4399478E2,7.45978E2,1.100454E3,0E0,0E0,0E0,0E0],"parents":[2147483647,0,0,1,1,2,2],"right_children":[2,4,6,-1,-1,-1,-1],"split_conditions":[3.972873E1,3.8673534E1,6.0956432E1,7.0247006E-1,1.1159419E1,-2.9024396E0,5.2478564E-1],"split_indices":[0,0,0,0,0,0,0],"split_type":[0,0,0,0,0,0,0],"sum_hessian":[7E2,2.87E2,4.13E2,2.81E2,6E0,1.42E2,2.71E2],"tree_param":{"num_deleted":"0","num_feature":"2","num_nodes":"7","size_leaf_vector":"1"}},{"base_weights":[1.3533341E-2,6.94261E-1,-1.2326921E0,5.360683E-2,1.7159689E1,-1.4453735E1,-7.3176676E-1],"categories":[],"categories_nodes":[],"categories_segments":[],"categories_sizes":[],"default_left":[0,0,0,0,0,0,0],"id":41,"left_children":[1,3,5,-1,-1,-1,-1],"loss_changes":[5.9554224E2,4.7881655E3,1.6318667E3,0E0,0E0,0E0,0E0],"parents":[2147483647,0,0,1,1,2,2],"right_children":[2,4,6,-1,-1,-1,-1],"split_conditions":[6.375575E1,6.220867E1,6.519613E1,5.360683E-2,1.7159689E1,-1.4453735E1,-7.3176676E-1],"split_indices":[0,0,0,0,0,0,0],"split_type":[0,0,0,0,0,0,0],"sum_hessian":[7E2,4.53E2,2.47E2,4.37E2,1.6E1,8E0,2.39E2],"tree_param":{"num_deleted":"0","num_feature":"2","num_nodes":"7","size_leaf_vector":"1"}},{"base_weights":[2.8948274E-3,-6.6464156E-1,9.29262E-1,5.716044E-2,-6.9559913E0,3.9512846E-1,4.746243E0],"categories":[],"categories_nodes":[],"categories_segments":[],"categories_sizes":[],"default_left":[0,0,0,0,0,0,0],"id":42,"left_children":[1,3,5,-1,-1,-1,-1],"loss_changes":[4.3410468E2,1.8531699E3,5.9752515E2,0E0,0E0,0E0,0E0],"parents":[2147483647,0,0,1,1,2,2],"right_children":[2,4,6,-1,-1,-1,-1],"split_conditions":[6.169269E1,5.4669743E1,9.109272E1,5.716044E-2,-6.9559913E0,3.9512846E-1,4.746243E0],"split_indices":[1,1,0,0,0,0,0],"split_type":[0,0,0,0,0,0,0],"sum_hessian":[7E2,4.07E2,2.93E2,3.66E2,4.1E1,2.58E2,3.5E1],"tree_param":{"num_deleted":"0","num_feature":"2","num_nodes":"7","size_leaf_vector":"1"}},{"base_weights":[-2.517213E-3,6.079451E-1,-8.7489927E-1,2.5615165E-1,1.0615762E1,-1.3713933E1,-3.1754923E-1],"categories":[],"categories_nodes":[],"categories_segments":[],"categories_sizes":[],"default_left":[0,0,0,0,0,0,0],"id":43,"left_children":[1,3,5,-1,-1,-1,-1],"loss_changes":[3.7385388E2,1.4513234E3,2.0636816E3,0E0,0E0,0E0,0E0],"parents":[2147483647,0,0,1,1,2,2],"right_children":[2,4,6,-1,-1,-1,-1],"split_conditions":[5.843143E1,5.700612E1,5.9684284E1,2.5615165E-1,1.0615762E1,-1.3713933E1,-3.1754923E-1],"split_indices":[0,0,0,0,0,0,0],"split_type":[0,0,0,0,0,0,0],"sum_hessian":[7E2,4.12E2,2.88E2,3.99E2,1.3E1,1.1E1,2.77E2],"tree_param":{"num_deleted":"0","num_feature":"2","num_nodes":"7","size_leaf_vector":"1"}},{"base_weights":[-4.5123734E-3,-1.9016348E0,1.5995105E-1,-1.6126242E-1,-5.884768E0,5.565156E0,1.38424225E-2],"categories":[],"categories_nodes":[],"categories_segments":[],"categories_sizes":[],"default_left":[0,0,0,0,0,0,0],"id":44,"left_children":[1,3,5,-1,-1,-1,-1],"loss_changes":[2.1902126E2,3.8725055E2,5.1009958E2,0E0,0E0,0E0,0E0],"parents":[2147483647,0,0,1,1,2,2],"right_children":[2,4,6,-1,-1,-1,-1],"split_conditions":[8.023375E0,5.808361E0,9.9441395E0,-1.6126242E-1,-5.884768E0,5.565156E0,1.38424225E-2],"split_indices":[0,0,0,0,0,0,0],"split_type":[0,0,0,0,0,0,0],"sum_hessian":[7E2,5.5E1,6.45E2,3.9E1,1.6E1,1.6E1,6.29E2],"tree_param":{"num_deleted":"0","num_feature":"2","num_nodes":"7","size_leaf_vector":"1"}},{"base_weights":[-6.705106E-4,-2.7977183E0,9.4075836E-2,-3.8870897E0,1.05842285E1,1.0620443E0,-1.7771584E-1],"categories":[],"categories_nodes":[],"categories_segments":[],"categories_sizes":[],"default_left":[0,0,0,0,0,0,0],"id":45,"left_children":[1,3,5,-1,-1,-1,-1],"loss_changes":[1.8603522E2,3.7643387E2,1.7882399E2,0E0,0E0,0E0,0E0],"parents":[2147483647,0,0,1,1,2,2],"right_children":[2,4,6,-1,-1,-1,-1],"split_conditions":[3.038706E0,8.9026375E1,2.5224102E1,-3.8870897E0,1.05842285E1,1.0620443E0,-1.7771584E-1],"split_indices":[1,0,1,0,0,0,0],"split_type":[0,0,0,0,0,0,0],"sum_hessian":[7E2,2.2E1,6.78E2,2.1E1,1E0,1.48E2,5.3E2],"tree_param":{"num_deleted":"0","num_feature":"2","num_nodes":"7","size_leaf_vector":"1"}},{"base_weights":[1.081958E-2,-6.775285E-1,4.436073E-1,-2.9402852E-1,-5.748474E0,4.6049194E0,1.760267E-1],"categories":[],"categories_nodes":[],"categories_segments":[],"categories_sizes":[],"default_left":[0,0,0,0,0,0,0],"id":46,"left_children":[1,3,5,-1,-1,-1,-1],"loss_changes":[2.0913449E2,5.253255E2,4.7910205E2,0E0,0E0,0E0,0E0],"parents":[2147483647,0,0,1,1,2,2],"right_children":[2,4,6,-1,-1,-1,-1],"split_conditions":[4.254933E1,9.265876E1,4.5437733E1,-2.9402852E-1,-5.748474E0,4.6049194E0,1.760267E-1],"split_indices":[1,0,1,0,0,0,0],"split_type":[0,0,0,0,0,0,0],"sum_hessian":[7E2,2.7E2,4.3E2,2.52E2,1.8E1,2.5E1,4.05E2],"tree_param":{"num_deleted":"0","num_feature":"2","num_nodes":"7","size_leaf_vector":"1"}},{"base_weights":[-1.8016908E-3,-9.3974635E-2,3.9502258E0,-2.2737941E-1,1.4715661E0,9.161697E0,-1.1211073E0],"categories":[],"categories_nodes":[],"categories_segments":[],"categories_sizes":[],"default_left":[0,0,0,0,0,0,0],"id":47,"left_children":[1,3,5,-1,-1,-1,-1],"loss_changes":[2.557245E2,1.4360612E2,4.33137E2,0E0,0E0,0E0,0E0],"parents":[2147483647,0,0,1,1,2,2],"right_children":[2,4,6,-1,-1,-1,-1],"split_conditions":[9.800326E1,9.362122E1,3.0560421E1,-2.2737941E-1,1.4715661E0,9.161697E0,-1.1211073E0],"split_indices":[0,1,1,0,0,0,0],"split_type":[0,0,0,0,0,0,0],"sum_hessian":[7E2,6.85E2,1.5E1,6.32E2,5.3E1,7E0,8E0],"tree_param":{"num_deleted":"0","num_feature":"2","num_nodes":"7","size_leaf_vector":"1"}},{"base_weights":[1.32398615E-2,-7.565706E-1,2.7079386E-1,-1.4581126E-1,-1.2073347E1,1.3045205E0,-4.0408373E-1],"categories":[],"categories_nodes":[],"categories_segments":[],"categories_sizes":[],"default_left":[0,0,0,0,0,0,0],"id":48,"left_children":[1,3,5,-1,-1,-1,-1],"loss_changes":[1.3919055E2,1.214721E3,3.674852E2,0E0,0E0,0E0,0E0],"parents":[2147483647,0,0,1,1,2,2],"right_children":[2,4,6,-1,-1,-1,-1],"split_conditions":[2.3818277E1,2.2460482E1,5.4264465E1,-1.4581126E-1,-1.2073347E1,1.3045205E0,-4.0408373E-1],"split_indices":[0,0,0,0,0,0,0],"split_type":[0,0,0,0,0,0,0],"sum_hessian":[7E2,1.75E2,5.25E2,1.67E2,8E0,2.07E2,3.18E2],"tree_param":{"num_deleted":"0","num_feature":"2","num_nodes":"7","size_leaf_vector":"1"}},{"base_weights":[-1.6139206E-2,-3.4558424E-1,7.717421E-1,-7.637741E-2,-8.955111E0,-4.756575E0,1.42148E0],"categories":[],"categories_nodes":[],"categories_segments":[],"categories_sizes":[],"default_left":[0,0,0,0,0,0,0],"id":49,"left_children":[1,3,5,-1,-1,-1,-1],"loss_changes":[1.8222076E2,1.146599E3,7.502965E2,0E0,0E0,0E0,0E0],"parents":[2147483647,0,0,1,1,2,2],"right_children":[2,4,6,-1,-1,-1,-1],"split_conditions":[7.036578E1,6.791023E1,1.5860511E1,-7.637741E-2,-8.955111E0,-4.756575E0,1.42148E0],"split_indices":[0,0,1,0,0,0,0],"split_type":[0,0,0,0,0,0,0],"sum_hessian":[7E2,4.94E2,2.06E2,4.8E2,1.4E1,2.1E1,1.85E2],"tree_param":{"num_deleted":"0","num_feature":"2","num_nodes":"7","size_leaf_vector":"1"}},{"base_weights":[-1.7652743E-2,1.1356721E0,-3.7199342E-1,6.943315E-1,5.5027895E0,-6.5122986E0,-1.3419788E-1],"categories":[],"categories_nodes":[],"categories_segments":[],"categories_sizes":[],"default_left":[0,0,0,0,0,0,0],"id":50,"left_children":[1,3,5,-1,-1,-1,-1],"loss_changes":[2.869001E2,3.1419794E2,7.832198E2,0E0,0E0,0E0,0E0],"parents":[2147483647,0,0,1,1,2,2],"right_children":[2,4,6,-1,-1,-1,-1],"split_conditions":[2.434823E1,2.266564E1,2.7307081E1,6.943315E-1,5.5027895E0,-6.5122986E0,-1.3419788E-1],"split_indices":[1,1,1,0,0,0,0],"split_type":[0,0,0,0,0,0,0],"sum_hessian":[7E2,1.64E2,5.36E2,1.5E2,1.4E1,1.9E1,5.17E2],"tree_param":{"num_deleted":"0","num_feature":"2","num_nodes":"7","size_leaf_vector":"1"}},{"base_weights":[-6.4116844E-4,2.8253812E-1,-9.999858E-1,3.6140212E-3,1.0174805E1,1.1278402E0,-2.3928072E0],"categories":[],"categories_nodes":[],"categories_segments":[],"categories_sizes":[],"default_left":[0,0,0,0,0,0,0],"id":51,"left_children":[1,3,5,-1,-1,-1,-1],"loss_changes":[1.9866112E2,1.509241E3,4.6206934E2,0E0,0E0,0E0,0E0],"parents":[2147483647,0,0,1,1,2,2],"right_children":[2,4,6,-1,-1,-1,-1],"split_conditions":[7.9157906E1,7.615106E1,4.8296886E1,3.6140212E-3,1.0174805E1,1.1278402E0,-2.3928072E0],"split_indices":[0,0,1,0,0,0,0],"split_type":[0,0,0,0,0,0,0],"sum_hessian":[7E2,5.46E2,1.54E2,5.32E2,1.4E1,6.1E1,9.3E1],"tree_param":{"num_deleted":"0","num_feature":"2","num_nodes":"7","size_leaf_vector":"1"}},{"base_weights":[1.27230985E-2,-1.8429986E-1,9.4928527E-1,-2.8092677E-2,-7.575765E0,9.75914E0,6.4517856E-1],"categories":[],"categories_nodes":[],"categories_segments":[],"categories_sizes":[],"default_left":[0,0,0,0,0,0,0],"id":52,"left_children":[1,3,5,-1,-1,-1,-1],"loss_changes":[1.2952644E2,6.69455E2,3.2055826E2,0E0,0E0,0E0,0E0],"parents":[2147483647,0,0,1,1,2,2],"right_children":[2,4,6,-1,-1,-1,-1],"split_conditions":[8.2645744E1,8.12901E1,4.16729E0,-2.8092677E-2,-7.575765E0,9.75914E0,6.4517856E-1],"split_indices":[0,0,1,0,0,0,0],"split_type":[0,0,0,0,0,0,0],"sum_hessian":[7E2,5.79E2,1.21E2,5.68E2,1.1E1,3E0,1.18E2],"tree_param":{"num_deleted":"0","num_feature":"2","num_nodes":"7","size_leaf_vector":"1"}},{"base_weights":[3.993656E-3,7.3325485E-2,-2.4885132E0,-9.849054E-3,2.831054E0,-4.5606976E0,-5.668612E-1],"categories":[],"categories_nodes":[],"categories_segments":[],"categories_sizes":[],"default_left":[0,0,0,0,0,0,0],"id":53,"left_children":[1,3,5,-1,-1,-1,-1],"loss_changes":[1.21322334E2,1.566895E2,7.307305E1,0E0,0E0,0E0,0E0],"parents":[2147483647,0,0,1,1,2,2],"right_children":[2,4,6,-1,-1,-1,-1],"split_conditions":[9.8118614E1,9.556515E1,9.877224E1,-9.849054E-3,2.831054E0,-4.5606976E0,-5.668612E-1],"split_indices":[1,1,1,0,0,0,0],"split_type":[0,0,0,0,0,0,0],"sum_hessian":[7E2,6.82E2,1.8E1,6.63E2,1.9E1,8E0,1E1],"tree_param":{"num_deleted":"0","num_feature":"2","num_nodes":"7","size_leaf_vector":"1"}},{"base_weights":[-3.2959746E-3,1.5705615E-1,-8.3034647E-1,-2.0415723E-1,8.8608706E-1,-1.3615037E0,4.26699E0],"categories":[],"categories_nodes":[],"categories_segments":[],"categories_sizes":[],"default_left":[0,0,0,0,0,0,0],"id":54,"left_children":[1,3,5,-1,-1,-1,-1],"loss_changes":[9.309655E1,1.550223E2,3.1446304E2,0E0,0E0,0E0,0E0],"parents":[2147483647,0,0,1,1,2,2],"right_children":[2,4,6,-1,-1,-1,-1],"split_conditions":[8.4651436E1,5.982253E1,9.082659E1,-2.0415723E-1,8.8608706E-1,-1.3615037E0,4.26699E0],"split_indices":[1,1,0,0,0,0,0],"split_type":[0,0,0,0,0,0,0],"sum_hessian":[7E2,5.87E2,1.13E2,3.93E2,1.94E2,1.03E2,1E1],"tree_param":{"num_deleted":"0","num_feature":"2","num_nodes":"7","size_leaf_vector":"1"}},{"base_weights":[5.1157377E-3,1.8698415E-1,-1.1158397E0,5.756149E-2,2.5773592E0,2.7079625E0,-3.5827138E0],"categories":[],"categories_nodes":[],"categories_segments":[],"categories_sizes":[],"default_left":[0,0,0,0,0,0,0],"id":55,"left_children":[1,3,5,-1,-1,-1,-1],"loss_changes":[1.4311899E2,1.8671034E2,9.3412E2,0E0,0E0,0E0,0E0],"parents":[2147483647,0,0,1,1,2,2],"right_children":[2,4,6,-1,-1,-1,-1],"split_conditions":[8.7357864E1,8.172222E1,5.6573196E1,5.756149E-2,2.5773592E0,2.7079625E0,-3.5827138E0],"split_indices":[0,0,1,0,0,0,0],"split_type":[0,0,0,0,0,0,0],"sum_hessian":[7E2,6.03E2,9.7E1,5.73E2,3E1,3.8E1,5.9E1],"tree_param":{"num_deleted":"0","num_feature":"2","num_nodes":"7","size_leaf_vector":"1"}},{"base_weights":[2.5201163E-3,-5.6999826E-1,3.8691932E-1,-1.24739476E-1,-6.726752E0,8.4071726E-2,3.4291222E0],"categories":[],"categories_nodes":[],"categories_segments":[],"categories_sizes":[],"default_left":[0,0,0,0,0,0,0],"id":56,"left_children":[1,3,5,-1,-1,-1,-1],"loss_changes":[1.5449353E2,7.722213E2,3.8666766E2,0E0,0E0,0E0,0E0],"parents":[2147483647,0,0,1,1,2,2],"right_children":[2,4,6,-1,-1,-1,-1],"split_conditions":[4.376031E1,9.265876E1,9.208724E1,-1.24739476E-1,-6.726752E0,8.4071726E-2,3.4291222E0],"split_indices":[1,0,0,0,0,0,0],"split_type":[0,0,0,0,0,0,0],"sum_hessian":[7E2,2.81E2,4.19E2,2.63E2,1.8E1,3.82E2,3.7E1],"tree_param":{"num_deleted":"0","num_feature":"2","num_nodes":"7","size_leaf_vector":"1"}},{"base_weights":[-4.752133E-3,1.9114606E-1,-5.403209E-1,-1.3123153E-1,2.172009E0,-7.0159736E0,-2.882885E-1],"categories":[],"categories_nodes":[],"categories_segments":[],"categories_sizes":[],"default_left":[0,0,0,0,0,0,0],"id":57,"left_children":[1,3,5,-1,-1,-1,-1],"loss_changes":[7.365006E1,3.285181E2,3.048073E2,0E0,0E0,0E0,0E0],"parents":[2147483647,0,0,1,1,2,2],"right_children":[2,4,6,-1,-1,-1,-1],"split_conditions":[7.35071E1,6.279004E1,7.4543945E1,-1.3123153E-1,2.172009E0,-7.0159736E0,-2.882885E-1],"split_indices":[0,0,0,0,0,0,0],"split_type":[0,0,0,0,0,0,0],"sum_hessian":[7E2,5.13E2,1.87E2,4.42E2,7.1E1,6E0,1.81E2],"tree_param":{"num_deleted":"0","num_feature":"2","num_nodes":"7","size_leaf_vector":"1"}},{"base_weights":[-7.509381E-3,5.3194344E-1,-2.6697716E-1,1.6836737E-1,1.1986506E1,-7.371532E0,-5.0641503E-2],"categories":[],"categories_nodes":[],"categories_segments":[],"categories_sizes":[],"default_left":[0,0,0,0,0,0,0],"id":58,"left_children":[1,3,5,-1,-1,-1,-1],"loss_changes":[9.826143E1,9.4751184E2,7.281498E2,0E0,0E0,0E0,0E0],"parents":[2147483647,0,0,1,1,2,2],"right_children":[2,4,6,-1,-1,-1,-1],"split_conditions":[3.1435598E1,2.9712172E1,3.2866455E1,1.6836737E-1,1.1986506E1,-7.371532E0,-5.0641503E-2],"split_indices":[0,0,0,0,0,0,0],"split_type":[0,0,0,0,0,0,0],"sum_hessian":[7E2,2.27E2,4.73E2,2.21E2,6E0,1.3E1,4.6E2],"tree_param":{"num_deleted":"0","num_feature":"2","num_nodes":"7","size_leaf_vector":"1"}},{"base_weights":[6.761178E-3,-7.787692E-2,1.0222931E0,-2.1107446E-2,-4.106164E0,7.276632E0,6.4180636E-1],"categories":[],"categories_nodes":[],"categories_segments":[],"categories_sizes":[],"default_left":[0,0,0,0,0,0,0],"id":59,"left_children":[1,3,5,-1,-1,-1,-1],"loss_changes":[6.0332447E1,1.4810039E2,1.23833206E2,0E0,0E0,0E0,0E0],"parents":[2147483647,0,0,1,1,2,2],"right_children":[2,4,6,-1,-1,-1,-1],"split_conditions":[9.362122E1,9.271778E1,9.372285E1,-2.1107446E-2,-4.106164E0,7.276632E0,6.4180636E-1],"split_indices":[1,1,1,0,0,0,0],"split_type":[0,0,0,0,0,0,0],"sum_hessian":[7E2,6.47E2,5.3E1,6.39E2,8E0,2E0,5.1E1],"tree_param":{"num_deleted":"0","num_feature":"2","num_nodes":"7","size_leaf_vector":"1"}},{"base_weights":[5.4158526E-3,6.4076823E-1,-1.1648607E-1,-4.114517E-1,3.8497021E0,-6.365915E0,4.6745088E-2],"categories":[],"categories_nodes":[],"categories_segments":[],"categories_sizes":[],"default_left":[0,0,0,0,0,0,0],"id":60,"left_children":[1,3,5,-1,-1,-1,-1],"loss_changes":[5.436757E1,3.831289E2,6.011374E2,0E0,0E0,0E0,0E0],"parents":[2147483647,0,0,1,1,2,2],"right_children":[2,4,6,-1,-1,-1,-1],"split_conditions":[1.676192E1,1.2210992E1,1.8513292E1,-4.114517E-1,3.8497021E0,-6.365915E0,4.6745088E-2],"split_indices":[1,1,1,0,0,0,0],"split_type":[0,0,0,0,0,0,0],"sum_hessian":[7E2,1.12E2,5.88E2,8.5E1,2.7E1,1.4E1,5.74E2],"tree_param":{"num_deleted":"0","num_feature":"2","num_nodes":"7","size_leaf_vector":"1"}},{"base_weights":[-4.1164095E-3,-7.7552205E-1,1.0358652E-1,1.6063088E-1,-5.217355E0,5.206972E-1,-2.8639016E-1],"categories":[],"categories_nodes":[],"categories_segments":[],"categories_sizes":[],"default_left":[0,0,0,0,0,0,0],"id":61,"left_children":[1,3,5,-1,-1,-1,-1],"loss_changes":[5.832127E1,3.584463E2,1.0034979E2,0E0,0E0,0E0,0E0],"parents":[2147483647,0,0,1,1,2,2],"right_children":[2,4,6,-1,-1,-1,-1],"split_conditions":[1.1483683E1,9.9441395E0,5.4264465E1,1.6063088E-1,-5.217355E0,5.206972E-1,-2.8639016E-1],"split_indices":[0,0,0,0,0,0,0],"split_type":[0,0,0,0,0,0,0],"sum_hessian":[7E2,8.5E1,6.15E2,7.1E1,1.4E1,2.97E2,3.18E2],"tree_param":{"num_deleted":"0","num_feature":"2","num_nodes":"7","size_leaf_vector":"1"}},{"base_weights":[-6.8825847E-3,-1.3403678E-1,1.040557E0,-1.1189348E-1,-3.549347E0,1.1085266E1,4.7590783E-1],"categories":[],"categories_nodes":[],"categories_segments":[],"categories_sizes":[],"default_left":[0,0,0,0,0,0,0],"id":62,"left_children":[1,3,5,-1,-1,-1,-1],"loss_changes":[9.350311E1,4.6944878E1,4.2577643E2,0E0,0E0,0E0,0E0],"parents":[2147483647,0,0,1,1,2,2],"right_children":[2,4,6,-1,-1,-1,-1],"split_conditions":[8.995746E1,9.949078E1,9.041587E1,-1.1189348E-1,-3.549347E0,1.1085266E1,4.7590783E-1],"split_indices":[0,1,0,0,0,0,0],"split_type":[0,0,0,0,0,0,0],"sum_hessian":[7E2,6.25E2,7.5E1,6.22E2,3E0,3E0,7.2E1],"tree_param":{"num_deleted":"0","num_feature":"2","num_nodes":"7","size_leaf_vector":"1"}},{"base_weights":[1.1262967E-2,-2.2417104E-1,2.7361032E-1,1.1231223E-1,-4.184623E0,8.899358E0,-1.05806835E-1],"categories":[],"categories_nodes":[],"categories_segments":[],"categories_sizes":[],"default_left":[0,0,0,0,0,0,0],"id":63,"left_children":[1,3,5,-1,-1,-1,-1],"loss_changes":[4.3358944E1,4.9354153E2,1.0874968E3,0E0,0E0,0E0,0E0],"parents":[2147483647,0,0,1,1,2,2],"right_children":[2,4,6,-1,-1,-1,-1],"split_conditions":[5.2475643E1,4.926181E1,5.4264465E1,1.1231223E-1,-4.184623E0,8.899358E0,-1.05806835E-1],"split_indices":[0,0,0,0,0,0,0],"split_type":[0,0,0,0,0,0,0],"sum_hessian":[7E2,3.69E2,3.31E2,3.41E2,2.8E1,1.3E1,3.18E2],"tree_param":{"num_deleted":"0","num_feature":"2","num_nodes":"7","size_leaf_vector":"1"}},{"base_weights":[6.751546E-3,-3.4701842E-1,2.8168985E-1,-9.356062E-2,-8.728892E0,2.9624813E0,1.2828234E-2],"categories":[],"categories_nodes":[],"categories_segments":[],"categories_sizes":[],"default_left":[0,0,0,0,0,0,0],"id":64,"left_children":[1,3,5,-1,-1,-1,-1],"loss_changes":[6.828046E1,6.5138983E2,2.8466293E2,0E0,0E0,0E0,0E0],"parents":[2147483647,0,0,1,1,2,2],"right_children":[2,4,6,-1,-1,-1,-1],"split_conditions":[4.2899403E1,4.1824303E1,4.926181E1,-9.356062E-2,-8.728892E0,2.9624813E0,1.2828234E-2],"split_indices":[0,0,0,0,0,0,0],"split_type":[0,0,0,0,0,0,0],"sum_hessian":[7E2,3.06E2,3.94E2,2.98E2,8E0,3.5E1,3.59E2],"tree_param":{"num_deleted":"0","num_feature":"2","num_nodes":"7","size_leaf_vector":"1"}},{"base_weights":[-8.333018E-3,-4.3541834E-2,3.0470734E0,-2.962665E-1,3.0334848E-1,4.314962E0,1.9052836E0],"categories":[],"categories_nodes":[],"categories_segments":[],"categories_sizes":[],"default_left":[0,0,0,0,0,0,0],"id":65,"left_children":[1,3,5,-1,-1,-1,-1],"loss_changes":[7.554433E1,6.0931282E1,3.3600693E0,0E0,0E0,0E0,0E0],"parents":[2147483647,0,0,1,1,2,2],"right_children":[2,4,6,-1,-1,-1,-1],"split_conditions":[9.924835E1,5.7651646E1,2.7074467E1,-2.962665E-1,3.0334848E-1,4.314962E0,1.9052836E0],"split_indices":[1,0,0,0,0,0,0],"split_type":[0,0,0,0,0,0,0],"sum_hessian":[7E2,6.93E2,7E0,4.01E2,2.92E2,2E0,5E0],"tree_param":{"num_deleted":"0","num_feature":"2","num_nodes":"7","size_leaf_vector":"1"}},{"base_weights":[8.884035E-3,4.418323E-1,-2.6010436E-1,1.9342013E-1,5.745875E0,-6.030131E0,-1.3730353E-1],"categories":[],"categories_nodes":[],"categories_segments":[],"categories_sizes":[],"default_left":[0,0,0,0,0,0,0],"id":66,"left_children":[1,3,5,-1,-1,-1,-1],"loss_changes":[8.1752014E1,3.5332E2,3.0598022E2,0E0,0E0,0E0,0E0],"parents":[2147483647,0,0,1,1,2,2],"right_children":[2,4,6,-1,-1,-1,-1],"split_conditions":[3.7330933E1,3.6019066E1,3.7728416E1,1.9342013E-1,5.745875E0,-6.030131E0,-1.3730353E-1],"split_indices":[0,0,0,0,0,0,0],"split_type":[0,0,0,0,0,0,0],"sum_hessian":[7E2,2.68E2,4.32E2,2.57E2,1.1E1,8E0,4.24E2],"tree_param":{"num_deleted":"0","num_feature":"2","num_nodes":"7","size_leaf_vector":"1"}},{"base_weights":[-3.109849E-4,-2.5097924E-1,3.2035005E-1,5.7156786E-2,-3.8609965E0,6.933263E-1,-1.3342178E0],"categories":[],"categories_nodes":[],"categories_segments":[],"categories_sizes":[],"default_left":[0,0,0,0,0,0,0],"id":67,"left_children":[1,3,5,-1,-1,-1,-1],"loss_changes":[5.6426456E1,4.3849692E2,1.9099632E2,0E0,0E0,0E0,0E0],"parents":[2147483647,0,0,1,1,2,2],"right_children":[2,4,6,-1,-1,-1,-1],"split_conditions":[5.982253E1,5.422372E1,8.698964E1,5.7156786E-2,-3.8609965E0,6.933263E-1,-1.3342178E0],"split_indices":[1,1,0,0,0,0,0],"split_type":[0,0,0,0,0,0,0],"sum_hessian":[7E2,3.93E2,3.07E2,3.63E2,3E1,2.51E2,5.6E1],"tree_param":{"num_deleted":"0","num_feature":"2","num_nodes":"7","size_leaf_vector":"1"}},{"base_weights":[-6.3270153E-3,-1.11968204E-1,1.6128327E0,-5.142709E-2,-4.0359435E0,5.180976E0,6.492292E-1],"categories":[],"categories_nodes":[],"categories_segments":[],"categories_sizes":[],"default_left":[0,0,0,0,0,0,0],"id":68,"left_children":[1,3,5,-1,-1,-1,-1],"loss_changes":[1.200866E2,1.5634567E2,1.444822E2,0E0,0E0,0E0,0E0],"parents":[2147483647,0,0,1,1,2,2],"right_children":[2,4,6,-1,-1,-1,-1],"split_conditions":[9.39499E1,9.29376E1,9.5041145E1,-5.142709E-2,-4.0359435E0,5.180976E0,6.492292E-1],"split_indices":[0,0,0,0,0,0,0],"split_type":[0,0,0,0,0,0,0],"sum_hessian":[7E2,6.58E2,4.2E1,6.49E2,9E0,8E0,3.4E1],"tree_param":{"num_deleted":"0","num_feature":"2","num_nodes":"7","size_leaf_vector":"1"}},{"base_weights":[2.4965887E-3,-1.0539023E-1,7.178059E-1,-5.8964428E-2,-4.0962176E0,3.24712E0,-6.2081456E-1],"categories":[],"categories_nodes":[],"categories_segments":[],"categories_sizes":[],"default_left":[0,0,0,0,0,0,0],"id":69,"left_children":[1,3,5,-1,-1,-1,-1],"loss_changes":[5.4173534E1,1.1277765E2,3.1350867E2,0E0,0E0,0E0,0E0],"parents":[2147483647,0,0,1,1,2,2],"right_children":[2,4,6,-1,-1,-1,-1],"split_conditions":[8.9026375E1,8.7357864E1,4.8296886E1,-5.8964428E-2,-4.0962176E0,3.24712E0,-6.2081456E-1],"split_indices":[0,0,1,0,0,0,0],"split_type":[0,0,0,0,0,0,0],"sum_hessian":[7E2,6.09E2,9.1E1,6.03E2,6E0,3.1E1,6E1],"tree_param":{"num_deleted":"0","num_feature":"2","num_nodes":"7","size_leaf_vector":"1"}},{"base_weights":[-2.1815088E-3,-3.9282045E-1,2.695726E-1,-1.2932952E-1,-4.1164904E0,-8.460099E-2,1.2865435E0],"categories":[],"categories_nodes":[],"categories_segments":[],"categories_sizes":[],"default_left":[0,0,0,0,0,0,0],"id":70,"left_children":[1,3,5,-1,-1,-1,-1],"loss_changes":[7.452247E1,2.8203976E2,1.492251E2,0E0,0E0,0E0,0E0],"parents":[2147483647,0,0,1,1,2,2],"right_children":[2,4,6,-1,-1,-1,-1],"split_conditions":[4.459027E1,9.265876E1,7.6949295E1,-1.2932952E-1,-4.1164904E0,-8.460099E-2,1.2865435E0],"split_indices":[1,0,0,0,0,0,0],"split_type":[0,0,0,0,0,0,0],"sum_hessian":[7E2,2.87E2,4.13E2,2.69E2,1.8E1,3.07E2,1.06E2],"tree_param":{"num_deleted":"0","num_feature":"2","num_nodes":"7","size_leaf_vector":"1"}},{"base_weights":[-4.340807E-3,2.3430684E-1,-4.1251287E-1,1.6911595E-1,4.9541907E0,-2.810684E-1,-4.5014496E0],"categories":[],"categories_nodes":[],"categories_segments":[],"categories_sizes":[],"default_left":[0,0,0,0,0,0,0],"id":71,"left_children":[1,3,5,-1,-1,-1,-1],"loss_changes":[6.838058E1,1.3547034E2,1.3793903E2,0E0,0E0,0E0,0E0],"parents":[2147483647,0,0,1,1,2,2],"right_children":[2,4,6,-1,-1,-1,-1],"split_conditions":[6.613706E1,6.567367E1,9.693025E1,1.6911595E-1,4.9541907E0,-2.810684E-1,-4.5014496E0],"split_indices":[1,1,0,0,0,0,0],"split_type":[0,0,0,0,0,0,0],"sum_hessian":[7E2,4.42E2,2.58E2,4.37E2,5E0,2.51E2,7E0],"tree_param":{"num_deleted":"0","num_feature":"2","num_nodes":"7","size_leaf_vector":"1"}},{"base_weights":[4.856474E-4,-5.4293197E-2,2.3490982E0,-2.0854287E-1,5.8862865E-1,6.3121033E0,9.4901216E-1],"categories":[],"categories_nodes":[],"categories_segments":[],"categories_sizes":[],"default_left":[0,0,0,0,0,0,0],"id":72,"left_children":[1,3,5,-1,-1,-1,-1],"loss_changes":[9.0314186E1,6.81537E1,8.278651E1,0E0,0E0,0E0,0E0],"parents":[2147483647,0,0,1,1,2,2],"right_children":[2,4,6,-1,-1,-1,-1],"split_conditions":[9.800326E1,8.2468094E1,9.856505E1,-2.0854287E-1,5.8862865E-1,6.3121033E0,9.4901216E-1],"split_indices":[0,1,0,0,0,0,0],"split_type":[0,0,0,0,0,0,0],"sum_hessian":[7E2,6.85E2,1.5E1,5.53E2,1.32E2,3E0,1.2E1],"tree_param":{"num_deleted":"0","num_feature":"2","num_nodes":"7","size_leaf_vector":"1"}},{"base_weights":[1.0907817E-2,2.1814288E-1,-2.3793837E-1,1.22149475E-1,6.22937E0,-8.20815E0,7.336188E-2],"categories":[],"categories_nodes":[],"categories_segments":[],"categories_sizes":[],"default_left":[0,0,0,0,0,0,0],"id":73,"left_children":[1,3,5,-1,-1,-1,-1],"loss_changes":[3.6202236E1,2.2024472E2,7.920824E2,0E0,0E0,0E0,0E0],"parents":[2147483647,0,0,1,1,2,2],"right_children":[2,4,6,-1,-1,-1,-1],"split_conditions":[5.4264465E1,5.357747E1,5.5680126E1,1.22149475E-1,6.22937E0,-8.20815E0,7.336188E-2],"split_indices":[0,0,0,0,0,0,0],"split_type":[0,0,0,0,0,0,0],"sum_hessian":[7E2,3.82E2,3.18E2,3.77E2,5E0,1.1E1,3.07E2],"tree_param":{"num_deleted":"0","num_feature":"2","num_nodes":"7","size_leaf_vector":"1"}},{"base_weights":[-2.5456736E-3,8.2825065E-2,-7.6122725E-1,-2.4398419E-3,5.9758487E0,-1.1606128E0,3.0561001E0],"categories":[],"categories_nodes":[],"categories_segments":[],"categories_sizes":[],"default_left":[0,0,0,0,0,0,0],"id":74,"left_children":[1,3,5,-1,-1,-1,-1],"loss_changes":[4.5466263E1,3.17072E2,1.1179251E2,0E0,0E0,0E0,0E0],"parents":[2147483647,0,0,1,1,2,2],"right_children":[2,4,6,-1,-1,-1,-1],"split_conditions":[9.090325E1,8.869249E1,9.208724E1,-2.4398419E-3,5.9758487E0,-1.1606128E0,3.0561001E0],"split_indices":[1,1,0,0,0,0,0],"split_type":[0,0,0,0,0,0,0],"sum_hessian":[7E2,6.3E2,7E1,6.22E2,8E0,6.4E1,6E0],"tree_param":{"num_deleted":"0","num_feature":"2","num_nodes":"7","size_leaf_vector":"1"}},{"base_weights":[1.1225283E-2,2.1442303E-1,-4.3107945E-1,1.0274851E-1,9.0381975E0,-7.27628E0,-2.0620742E-1],"categories":[],"categories_nodes":[],"categories_segments":[],"categories_sizes":[],"default_left":[0,0,0,0,0,0,0],"id":75,"left_children":[1,3,5,-1,-1,-1,-1],"loss_changes":[6.3095036E1,4.7304434E2,3.386836E2,0E0,0E0,0E0,0E0],"parents":[2147483647,0,0,1,1,2,2],"right_children":[2,4,6,-1,-1,-1,-1],"split_conditions":[6.791023E1,6.715732E1,6.909377E1,1.0274851E-1,9.0381975E0,-7.27628E0,-2.0620742E-1],"split_indices":[0,0,0,0,0,0,0],"split_type":[0,0,0,0,0,0,0],"sum_hessian":[7E2,4.8E2,2.2E2,4.75E2,5E0,6E0,2.14E2],"tree_param":{"num_deleted":"0","num_feature":"2","num_nodes":"7","size_leaf_vector":"1"}},{"base_weights":[2.3745485E-3,-1.0362215E0,5.035384E-2,4.2155793E-1,-7.1805625E0,3.9637432E0,-8.836867E-3],"categories":[],"categories_nodes":[],"categories_segments":[],"categories_sizes":[],"default_left":[0,0,0,0,0,0,0],"id":76,"left_children":[1,3,5,-1,-1,-1,-1],"loss_changes":[3.4983784E1,2.8069693E2,1.5546297E2,0E0,0E0,0E0,0E0],"parents":[2147483647,0,0,1,1,2,2],"right_children":[2,4,6,-1,-1,-1,-1],"split_conditions":[4.5304008E0,8.065611E1,5.808361E0,4.2155793E-1,-7.1805625E0,3.9637432E0,-8.836867E-3],"split_indices":[0,1,0,0,0,0,0],"split_type":[0,0,0,0,0,0,0],"sum_hessian":[7E2,3E1,6.7E2,2.5E1,5E0,9E0,6.61E2],"tree_param":{"num_deleted":"0","num_feature":"2","num_nodes":"7","size_leaf_vector":"1"}},{"base_weights":[-3.995441E-3,-8.02705E-1,7.201903E-2,-4.9302382E0,1.03286594E-1,1.1666591E0,-3.888282E-2],"categories":[],"categories_nodes":[],"categories_segments":[],"categories_sizes":[],"default_left":[0,0,0,0,0,0,0],"id":77,"left_children":[1,3,5,-1,-1,-1,-1],"loss_changes":[4.2617958E1,2.2861935E2,7.786124E1,0E0,0E0,0E0,0E0],"parents":[2147483647,0,0,1,1,2,2],"right_children":[2,4,6,-1,-1,-1,-1],"split_conditions":[8.534966E0,1.42249365E1,8.479201E0,-4.9302382E0,1.03286594E-1,1.1666591E0,-3.888282E-2],"split_indices":[0,1,1,0,0,0,0],"split_type":[0,0,0,0,0,0,0],"sum_hessian":[7E2,6E1,6.4E2,1E1,5E1,5.8E1,5.82E2],"tree_param":{"num_deleted":"0","num_feature":"2","num_nodes":"7","size_leaf_vector":"1"}},{"base_weights":[-5.2743903E-3,1.6925331E0,-4.9945828E-2,1.534663E-1,4.745089E0,-4.0983143E0,-2.609352E-2],"categories":[],"categories_nodes":[],"categories_segments":[],"categories_sizes":[],"default_left":[0,0,0,0,0,0,0],"id":78,"left_children":[1,3,5,-1,-1,-1,-1],"loss_changes":[5.3250828E1,8.3837364E1,6.59421E1,0E0,0E0,0E0,0E0],"parents":[2147483647,0,0,1,1,2,2],"right_children":[2,4,6,-1,-1,-1,-1],"split_conditions":[2.6511312E0,6.922765E1,3.438852E0,1.534663E-1,4.745089E0,-4.0983143E0,-2.609352E-2],"split_indices":[0,1,0,0,0,0,0],"split_type":[0,0,0,0,0,0,0],"sum_hessian":[7E2,1.7E1,6.83E2,1.2E1,5E0,3E0,6.8E2],"tree_param":{"num_deleted":"0","num_feature":"2","num_nodes":"7","size_leaf_vector":"1"}},{"base_weights":[1.1212652E-3,-1.8729532E-2,1.7230377E0,8.048617E-2,-3.8529885E-1,-7.70874E-2,2.8185303E0],"categories":[],"categories_nodes":[],"categories_segments":[],"categories_sizes":[],"default_left":[0,0,0,0,0,0,0],"id":79,"left_children":[1,3,5,-1,-1,-1,-1],"loss_changes":[2.3993443E1,2.5271399E1,1.59934635E1,0E0,0E0,0E0,0E0],"parents":[2147483647,0,0,1,1,2,2],"right_children":[2,4,6,-1,-1,-1,-1],"split_conditions":[9.8727615E1,7.9157906E1,2.3754332E1,8.048617E-2,-3.8529885E-1,-7.70874E-2,2.8185303E0],"split_indices":[0,0,1,0,0,0,0],"split_type":[0,0,0,0,0,0,0],"sum_hessian":[7E2,6.93E2,7E0,5.46E2,1.47E2,3E0,4E0],"tree_param":{"num_deleted":"0","num_feature":"2","num_nodes":"7","size_leaf_vector":"1"}},{"base_weights":[3.4693666E-3,-2.292839E-1,2.1470882E-1,-2.100925E-2,-4.9883466E0,7.166324E0,4.0322028E-2],"categories":[],"categories_nodes":[],"categories_segments":[],"categories_sizes":[],"default_left":[0,0,0,0,0,0,0],"id":80,"left_children":[1,3,5,-1,-1,-1,-1],"loss_changes":[3.4515068E1,3.3095337E2,4.458264E2,0E0,0E0,0E0,0E0],"parents":[2147483647,0,0,1,1,2,2],"right_children":[2,4,6,-1,-1,-1,-1],"split_conditions":[4.741738E1,4.524395E1,4.926181E1,-2.100925E-2,-4.9883466E0,7.166324E0,4.0322028E-2],"split_indices":[0,0,0,0,0,0,0],"split_type":[0,0,0,0,0,0,0],"sum_hessian":[7E2,3.33E2,3.67E2,3.2E2,1.3E1,8E0,3.59E2],"tree_param":{"num_deleted":"0","num_feature":"2","num_nodes":"7","size_leaf_vector":"1"}},{"base_weights":[3.1257416E-3,-1.1426876E0,8.7217346E-2,-6.6671216E-1,-6.2117386E0,1.7720647E0,4.218659E-2],"categories":[],"categories_nodes":[],"categories_segments":[],"categories_sizes":[],"default_left":[0,0,0,0,0,0,0],"id":81,"left_children":[1,3,5,-1,-1,-1,-1],"loss_changes":[6.76433E1,1.1167026E2,4.954419E1,0E0,0E0,0E0,0E0],"parents":[2147483647,0,0,1,1,2,2],"right_children":[2,4,6,-1,-1,-1,-1],"split_conditions":[6.535634E0,6.22918E0,8.479201E0,-6.6671216E-1,-6.2117386E0,1.7720647E0,4.218659E-2],"split_indices":[1,1,1,0,0,0,0],"split_type":[0,0,0,0,0,0,0],"sum_hessian":[7E2,4.7E1,6.53E2,4.4E1,3E0,1.6E1,6.37E2],"tree_param":{"num_deleted":"0","num_feature":"2","num_nodes":"7","size_leaf_vector":"1"}},{"base_weights":[-7.2228326E-3,-3.148857E0,1.079115E-2,-3.600815E-1,1.1820114E-1],"categories":[],"categories_nodes":[],"categories_segments":[],"categories_sizes":[],"default_left":[0,0,0,0,0],"id":82,"left_children":[1,-1,3,-1,-1],"loss_changes":[3.9705914E1,0E0,2.7847689E1,0E0,0E0],"parents":[2147483647,0,0,2,2],"right_children":[2,-1,4,-1,-1],"split_conditions":[7.562875E-1,-3.148857E0,2.0162731E1,-3.600815E-1,1.1820114E-1],"split_indices":[1,0,0,0,0],"split_type":[0,0,0,0,0],"sum_hessian":[7E2,3E0,6.97E2,1.56E2,5.41E2],"tree_param":{"num_deleted":"0","num_feature":"2","num_nodes":"5","size_leaf_vector":"1"}},{"base_weights":[-4.8442357E-3,5.8403426E-1,-1.1781269E-1,8.114374E-2,4.809934E0,-5.4376035E0,-3.5203524E-2],"categories":[],"categories_nodes":[],"categories_segments":[],"categories_sizes":[],"default_left":[0,0,0,0,0,0,0],"id":83,"left_children":[1,3,5,-1,-1,-1,-1],"loss_changes":[4.6702618E1,2.3975333E2,2.586526E2,0E0,0E0,0E0,0E0],"parents":[2147483647,0,0,1,1,2,2],"right_children":[2,4,6,-1,-1,-1,-1],"split_conditions":[1.4866273E1,1.3681863E1,1.561526E1,8.114374E-2,4.809934E0,-5.4376035E0,-3.5203524E-2],"split_indices":[0,0,0,0,0,0,0],"split_type":[0,0,0,0,0,0,0],"sum_hessian":[7E2,1.12E2,5.88E2,1.01E2,1.1E1,8E0,5.8E2],"tree_param":{"num_deleted":"0","num_feature":"2","num_nodes":"7","size_leaf_vector":"1"}},{"base_weights":[-8.2544115E-4,-1.0673914E-1,3.8894245E-1,-2.6457185E-2,-2.6317031E0,5.4392755E-1,-7.386637E0],"categories":[],"categories_nodes":[],"categories_segments":[],"categories_sizes":[],"default_left":[0,0,0,0,0,0,0],"id":84,"left_children":[1,3,5,-1,-1,-1,-1],"loss_changes":[2.8980028E1,1.1182576E2,1.8478267E2,0E0,0E0,0E0,0E0],"parents":[2147483647,0,0,1,1,2,2],"right_children":[2,4,6,-1,-1,-1,-1],"split_conditions":[8.056702E1,7.820281E1,9.693025E1,-2.6457185E-2,-2.6317031E0,5.4392755E-1,-7.386637E0],"split_indices":[1,1,0,0,0,0,0],"split_type":[0,0,0,0,0,0,0],"sum_hessian":[7E2,5.51E2,1.49E2,5.35E2,1.6E1,1.47E2,2E0],"tree_param":{"num_deleted":"0","num_feature":"2","num_nodes":"7","size_leaf_vector":"1"}},{"base_weights":[-1.3562832E-2,2.509031E-1,-1.5710025E-1,8.8745214E-2,3.4190998E0,-3.8432596E0,-3.136444E-2],"categories":[],"categories_nodes":[],"categories_segments":[],"categories_sizes":[],"default_left":[0,0,0,0,0,0,0],"id":85,"left_children":[1,3,5,-1,-1,-1,-1],"loss_changes":[2.6649908E1,1.26592354E2,2.1076385E2,0E0,0E0,0E0,0E0],"parents":[2147483647,0,0,1,1,2,2],"right_children":[2,4,6,-1,-1,-1,-1],"split_conditions":[3.801956E1,3.6223545E1,4.084532E1,8.8745214E-2,3.4190998E0,-3.8432596E0,-3.136444E-2],"split_indices":[1,1,1,0,0,0,0],"split_type":[0,0,0,0,0,0,0],"sum_hessian":[7E2,2.46E2,4.54E2,2.35E2,1.1E1,1.4E1,4.4E2],"tree_param":{"num_deleted":"0","num_feature":"2","num_nodes":"7","size_leaf_vector":"1"}},{"base_weights":[-5.18973E-4,-1.1148896E-1,5.117227E-1,-5.8084063E-2,-2.6211293E0,3.8142498E0,2.5330842E-1],"categories":[],"categories_nodes":[],"categories_segments":[],"categories_sizes":[],"default_left":[0,0,0,0,0,0,0],"id":86,"left_children":[1,3,5,-1,-1,-1,-1],"loss_changes":[3.9904312E1,7.718138E1,1.0571132E2,0E0,0E0,0E0,0E0],"parents":[2147483647,0,0,1,1,2,2],"right_children":[2,4,6,-1,-1,-1,-1],"split_conditions":[8.212573E1,8.101134E1,8.383287E1,-5.8084063E-2,-2.6211293E0,3.8142498E0,2.5330842E-1],"split_indices":[0,0,0,0,0,0,0],"split_type":[0,0,0,0,0,0,0],"sum_hessian":[7E2,5.76E2,1.24E2,5.65E2,1.1E1,8E0,1.16E2],"tree_param":{"num_deleted":"0","num_feature":"2","num_nodes":"7","size_leaf_vector":"1"}},{"base_weights":[1.9895006E-3,3.3346564E-2,-7.0047504E-1,-6.3889916E-3,4.4450583E0,-3.559991E0,5.011666E-1],"categories":[],"categories_nodes":[],"categories_segments":[],"categories_sizes":[],"default_left":[0,0,0,0,0,0,0],"id":87,"left_children":[1,3,5,-1,-1,-1,-1],"loss_changes":[1.5464444E1,1.17831215E2,1.0486754E2,0E0,0E0,0E0,0E0],"parents":[2147483647,0,0,1,1,2,2],"right_children":[2,4,6,-1,-1,-1,-1],"split_conditions":[9.6786E1,9.580735E1,9.758737E1,-6.3889916E-3,4.4450583E0,-3.559991E0,5.011666E-1],"split_indices":[1,1,1,0,0,0,0],"split_type":[0,0,0,0,0,0,0],"sum_hessian":[7E2,6.71E2,2.9E1,6.66E2,5E0,8E0,2.1E1],"tree_param":{"num_deleted":"0","num_feature":"2","num_nodes":"7","size_leaf_vector":"1"}},{"base_weights":[1.971162E-3,-4.659886E-2,5.515447E-1,1.8096393E-2,-1.3285661E0,7.663269E0,1.453654E-2],"categories":[],"categories_nodes":[],"categories_segments":[],"categories_sizes":[],"default_left":[0,0,0,0,0,0,0],"id":88,"left_children":[1,3,5,-1,-1,-1,-1],"loss_changes":[1.8737354E1,5.351853E1,2.1757469E2,0E0,0E0,0E0,0E0],"parents":[2147483647,0,0,1,1,2,2],"right_children":[2,4,6,-1,-1,-1,-1],"split_conditions":[9.208724E1,8.938926E1,9.265876E1,1.8096393E-2,-1.3285661E0,7.663269E0,1.453654E-2],"split_indices":[0,0,0,0,0,0,0],"split_type":[0,0,0,0,0,0,0],"sum_hessian":[7E2,6.44E2,5.6E1,6.14E2,3E1,3E0,5.3E1],"tree_param":{"num_deleted":"0","num_feature":"2","num_nodes":"7","size_leaf_vector":"1"}},{"base_weights":[9.099128E-3,-1.1423888E-1,2.5573626E-1,4.3989886E-3,-3.6973958E0,-1.3705877E0,5.016201E-1],"categories":[],"categories_nodes":[],"categories_segments":[],"categories_sizes":[],"default_left":[0,0,0,0,0,0,0],"id":89,"left_children":[1,3,5,-1,-1,-1,-1],"loss_changes":[2.1353449E1,1.9896217E2,9.426104E1,0E0,0E0,0E0,0E0],"parents":[2147483647,0,0,1,1,2,2],"right_children":[2,4,6,-1,-1,-1,-1],"split_conditions":[6.601974E1,6.375575E1,1.8513292E1,4.3989886E-3,-3.6973958E0,-1.3705877E0,5.016201E-1],"split_indices":[0,0,1,0,0,0,0],"split_type":[0,0,0,0,0,0,0],"sum_hessian":[7E2,4.67E2,2.33E2,4.53E2,1.4E1,3E1,2.03E2],"tree_param":{"num_deleted":"0","num_feature":"2","num_nodes":"7","size_leaf_vector":"1"}},{"base_weights":[-6.5063797E-3,2.2111352E-1,-2.166472E-1,4.4700913E-2,4.005124E0,2.9712828E-2,-1.3757734E0],"categories":[],"categories_nodes":[],"categories_segments":[],"categories_sizes":[],"default_left":[0,0,0,0,0,0,0],"id":90,"left_children":[1,3,5,-1,-1,-1,-1],"loss_changes":[3.3578297E1,2.2478435E2,1.0427115E2,0E0,0E0,0E0,0E0],"parents":[2147483647,0,0,1,1,2,2],"right_children":[2,4,6,-1,-1,-1,-1],"split_conditions":[5.1268852E1,4.9587574E1,8.7357864E1,4.4700913E-2,4.005124E0,2.9712828E-2,-1.3757734E0],"split_indices":[1,1,0,0,0,0,0],"split_type":[0,0,0,0,0,0,0],"sum_hessian":[7E2,3.36E2,3.64E2,3.22E2,1.4E1,3.01E2,6.3E1],"tree_param":{"num_deleted":"0","num_feature":"2","num_nodes":"7","size_leaf_vector":"1"}},{"base_weights":[3.853228E-3,-1.5418804E-1,8.3635765E-1,-1.2195481E-1,-3.27123E0,2.087486E-1,1.9608352E0],"categories":[],"categories_nodes":[],"categories_segments":[],"categories_sizes":[],"default_left":[0,0,0,0,0,0,0],"id":91,"left_children":[1,3,5,-1,-1,-1,-1],"loss_changes":[9.2359566E1,5.8879738E1,7.8632706E1,0E0,0E0,0E0,0E0],"parents":[2147483647,0,0,1,1,2,2],"right_children":[2,4,6,-1,-1,-1,-1],"split_conditions":[8.511367E1,8.383287E1,7.259799E1,-1.2195481E-1,-3.27123E0,2.087486E-1,1.9608352E0],"split_indices":[0,0,1,0,0,0,0],"split_type":[0,0,0,0,0,0,0],"sum_hessian":[7E2,5.89E2,1.11E2,5.84E2,5E0,7.2E1,3.9E1],"tree_param":{"num_deleted":"0","num_feature":"2","num_nodes":"7","size_leaf_vector":"1"}},{"base_weights":[-1.7487312E-3,3.4796315E-1,-1.6348682E-1,1.786878E-1,2.8501477E0,-5.500563E-1,4.4523247E-2],"categories":[],"categories_nodes":[],"categories_segments":[],"categories_sizes":[],"default_left":[0,0,0,0,0,0,0],"id":92,"left_children":[1,3,5,-1,-1,-1,-1],"loss_changes":[3.9706665E1,9.352063E1,3.8621452E1,0E0,0E0,0E0,0E0],"parents":[2147483647,0,0,1,1,2,2],"right_children":[2,4,6,-1,-1,-1,-1],"split_conditions":[3.394502E1,3.1910048E1,5.882023E1,1.786878E-1,2.8501477E0,-5.500563E-1,4.4523247E-2],"split_indices":[1,1,1,0,0,0,0],"split_type":[0,0,0,0,0,0,0],"sum_hessian":[7E2,2.21E2,4.79E2,2.08E2,1.3E1,1.67E2,3.12E2],"tree_param":{"num_deleted":"0","num_feature":"2","num_nodes":"7","size_leaf_vector":"1"}},{"base_weights":[3.598397E-3,1.4593096E0,-2.1723535E-2,-8.521042E-1,2.324459E0,-1.0657463E0,6.2320875E-3],"categories":[],"categories_nodes":[],"categories_segments":[],"categories_sizes":[],"default_left":[0,0,0,0,0,0,0],"id":93,"left_children":[1,3,5,-1,-1,-1,-1],"loss_changes":[2.5871555E1,2.5977304E1,2.0145193E1,0E0,0E0,0E0,0E0],"parents":[2147483647,0,0,1,1,2,2],"right_children":[2,4,6,-1,-1,-1,-1],"split_conditions":[2.094496E0,7.562875E-1,3.5311356E0,-8.521042E-1,2.324459E0,-1.0657463E0,6.2320875E-3],"split_indices":[1,1,1,0,0,0,0],"split_type":[0,0,0,0,0,0,0],"sum_hessian":[7E2,1.1E1,6.89E2,3E0,8E0,1.7E1,6.72E2],"tree_param":{"num_deleted":"0","num_feature":"2","num_nodes":"7","size_leaf_vector":"1"}},{"base_weights":[5.947472E-4,1.4511354E-1,-2.3485945E-1,5.9448136E-3,1.2938694E0,-1.3078221E0,4.967247E-2],"categories":[],"categories_nodes":[],"categories_segments":[],"categories_sizes":[],"default_left":[0,0,0,0,0,0,0],"id":94,"left_children":[1,3,5,-1,-1,-1,-1],"loss_changes":[2.3887398E1,6.953615E1,8.1577965E1,0E0,0E0,0E0,0E0],"parents":[2147483647,0,0,1,1,2,2],"right_children":[2,4,6,-1,-1,-1,-1],"split_conditions":[6.55242E1,5.882023E1,7.220709E1,5.9448136E-3,1.2938694E0,-1.3078221E0,4.967247E-2],"split_indices":[1,1,1,0,0,0,0],"split_type":[0,0,0,0,0,0,0],"sum_hessian":[7E2,4.34E2,2.66E2,3.88E2,4.6E1,5.5E1,2.11E2],"tree_param":{"num_deleted":"0","num_feature":"2","num_nodes":"7","size_leaf_vector":"1"}},{"base_weights":[6.0817485E-5,3.9299303E-1,-6.068867E-2,-8.020477E-2,2.1478353E0,-4.1405063E0,6.097412E-4],"categories":[],"categories_nodes":[],"categories_segments":[],"categories_sizes":[],"default_left":[0,0,0,0,0,0,0],"id":95,"left_children":[1,3,5,-1,-1,-1,-1],"loss_changes":[1.6757023E1,7.822868E1,1.5205502E2,0E0,0E0,0E0,0E0],"parents":[2147483647,0,0,1,1,2,2],"right_children":[2,4,6,-1,-1,-1,-1],"split_conditions":[1.2429723E1,1.03123865E1,1.3681863E1,-8.020477E-2,2.1478353E0,-4.1405063E0,6.097412E-4],"split_indices":[0,0,0,0,0,0,0],"split_type":[0,0,0,0,0,0,0],"sum_hessian":[7E2,9.3E1,6.07E2,7.4E1,1.9E1,8E0,5.99E2],"tree_param":{"num_deleted":"0","num_feature":"2","num_nodes":"7","size_leaf_vector":"1"}},{"base_weights":[-2.9570162E-3,4.9731478E-2,-4.7117507E-1,1.7902197E-2,2.2474992E0,-5.2039948E0,-1.8584487E-1],"categories":[],"categories_nodes":[],"categories_segments":[],"categories_sizes":[],"default_left":[0,0,0,0,0,0,0],"id":96,"left_children":[1,3,5,-1,-1,-1,-1],"loss_changes":[1.7316893E1,4.410034E1,9.491243E1,0E0,0E0,0E0,0E0],"parents":[2147483647,0,0,1,1,2,2],"right_children":[2,4,6,-1,-1,-1,-1],"split_conditions":[9.090325E1,8.869249E1,9.1892654E1,1.7902197E-2,2.2474992E0,-5.2039948E0,-1.8584487E-1],"split_indices":[1,1,1,0,0,0,0],"split_type":[0,0,0,0,0,0,0],"sum_hessian":[7E2,6.3E2,7E1,6.22E2,8E0,3E0,6.7E1],"tree_param":{"num_deleted":"0","num_feature":"2","num_nodes":"7","size_leaf_vector":"1"}},{"base_weights":[-4.455175E-3,7.7073164E-2,-2.4625134E-1,3.5560473E-3,2.2737284E0,-2.0351424E0,1.32673E-1],"categories":[],"categories_nodes":[],"categories_segments":[],"categories_sizes":[],"default_left":[0,0,0,0,0,0,0],"id":97,"left_children":[1,3,5,-1,-1,-1,-1],"loss_changes":[1.3837959E1,8.477508E1,1.2025023E2,0E0,0E0,0E0,0E0],"parents":[2147483647,0,0,1,1,2,2],"right_children":[2,4,6,-1,-1,-1,-1],"split_conditions":[7.499605E1,7.281888E1,7.994104E1,3.5560473E-3,2.2737284E0,-2.0351424E0,1.32673E-1],"split_indices":[0,0,0,0,0,0,0],"split_type":[0,0,0,0,0,0,0],"sum_hessian":[7E2,5.24E2,1.76E2,5.08E2,1.6E1,3E1,1.46E2],"tree_param":{"num_deleted":"0","num_feature":"2","num_nodes":"7","size_leaf_vector":"1"}},{"base_weights":[5.3272984E-4,4.6579772E-1,-3.591742E-2,6.241274E-2,5.189968E0,-3.6317291E0,-2.464188E-3],"categories":[],"categories_nodes":[],"categories_segments":[],"categories_sizes":[],"default_left":[0,0,0,0,0,0,0],"id":98,"left_children":[1,3,5,-1,-1,-1,-1],"loss_changes":[1.1904974E1,9.68647E1,7.8300835E1,0E0,0E0,0E0,0E0],"parents":[2147483647,0,0,1,1,2,2],"right_children":[2,4,6,-1,-1,-1,-1],"split_conditions":[7.4550643E0,7.0568748E0,8.023375E0,6.241274E-2,5.189968E0,-3.6317291E0,-2.464188E-3],"split_indices":[0,0,0,0,0,0,0],"split_type":[0,0,0,0,0,0,0],"sum_hessian":[7E2,5E1,6.5E2,4.7E1,3E0,5E0,6.45E2],"tree_param":{"num_deleted":"0","num_feature":"2","num_nodes":"7","size_leaf_vector":"1"}},{"base_weights":[2.2965565E-3,-1.6091046E-1,1.11872934E-1,-7.773699E-2,-2.6752014E0,3.1250036E-1,-9.498282E-1],"categories":[],"categories_nodes":[],"categories_segments":[],"categories_sizes":[],"default_left":[0,0,0,0,0,0,0],"id":99,"left_children":[1,3,5,-1,-1,-1,-1],"loss_changes":[1.2554427E1,5.8764523E1,8.975949E1,0E0,0E0,0E0,0E0],"parents":[2147483647,0,0,1,1,2,2],"right_children":[2,4,6,-1,-1,-1,-1],"split_conditions":[4.376031E1,4.281996E1,8.7357864E1,-7.773699E-2,-2.6752014E0,3.1250036E-1,-9.498282E-1],"split_indices":[1,1,0,0,0,0,0],"split_type":[0,0,0,0,0,0,0],"sum_hessian":[7E2,2.81E2,4.19E2,2.73E2,8E0,3.53E2,6.6E1],"tree_param":{"num_deleted":"0","num_feature":"2","num_nodes":"7","size_leaf_vector":"1"}},{"base_weights":[-4.83231E-3,-2.334462E-1,2.8260455E-1,-1.042779E-1,-2.395211E0,1.3570291E0,1.9611885E-1],"categories":[],"categories_nodes":[],"categories_segments":[],"categories_sizes":[],"default_left":[0,0,0,0,0,0,0],"id":100,"left_children":[1,3,5,-1,-1,-1,-1],"loss_changes":[4.6130123E1,1.0892973E2,2.8632719E1,0E0,0E0,0E0,0E0],"parents":[2147483647,0,0,1,1,2,2],"right_children":[2,4,6,-1,-1,-1,-1],"split_conditions":[5.552008E1,5.2475643E1,5.843143E1,-1.042779E-1,-2.395211E0,1.3570291E0,1.9611885E-1],"split_indices":[0,0,0,0,0,0,0],"split_type":[0,0,0,0,0,0,0],"sum_hessian":[7E2,3.9E2,3.1E2,3.69E2,2.1E1,2.2E1,2.88E2],"tree_param":{"num_deleted":"0","num_feature":"2","num_nodes":"7","size_leaf_vector":"1"}},{"base_weights":[-1.3553086E-3,-4.804827E-2,8.145784E-1,-6.366407E-4,-2.099349E0,3.4944022E0,2.0291138E-1],"categories":[],"categories_nodes":[],"categories_segments":[],"categories_sizes":[],"default_left":[0,0,0,0,0,0,0],"id":101,"left_children":[1,3,5,-1,-1,-1,-1],"loss_changes":[2.674609E1,6.4576324E1,6.157902E1,0E0,0E0,0E0,0E0],"parents":[2147483647,0,0,1,1,2,2],"right_children":[2,4,6,-1,-1,-1,-1],"split_conditions":[9.429097E1,9.29376E1,9.539286E1,-6.366407E-4,-2.099349E0,3.4944022E0,2.0291138E-1],"split_indices":[0,0,0,0,0,0,0],"split_type":[0,0,0,0,0,0,0],"sum_hessian":[7E2,6.63E2,3.7E1,6.49E2,1.4E1,6E0,3.1E1],"tree_param":{"num_deleted":"0","num_feature":"2","num_nodes":"7","size_leaf_vector":"1"}},{"base_weights":[2.2682184E-3,-4.628853E-2,4.5495516E-1,1.414834E-1,-2.666977E-1,-8.006345E-1,2.3912444E0],"categories":[],"categories_nodes":[],"categories_segments":[],"categories_sizes":[],"default_left":[0,0,0,0,0,0,0],"id":102,"left_children":[1,3,5,-1,-1,-1,-1],"loss_changes":[1.5429745E1,2.6276873E1,1.6723508E2,0E0,0E0,0E0,0E0],"parents":[2147483647,0,0,1,1,2,2],"right_children":[2,4,6,-1,-1,-1,-1],"split_conditions":[9.082659E1,5.4669743E1,7.15825E1,1.414834E-1,-2.666977E-1,-8.006345E-1,2.3912444E0],"split_indices":[0,1,1,0,0,0,0],"split_type":[0,0,0,0,0,0,0],"sum_hessian":[7E2,6.33E2,6.7E1,3.42E2,2.91E2,4.1E1,2.6E1],"tree_param":{"num_deleted":"0","num_feature":"2","num_nodes":"7","size_leaf_vector":"1"}},{"base_weights":[2.099599E-3,2.3550616E-1,-9.484365E-2,-1.5166995E-2,5.7241483E0,-4.336881E0,1.030953E-2],"categories":[],"categories_nodes":[],"categories_segments":[],"categories_sizes":[],"default_left":[0,0,0,0,0,0,0],"id":103,"left_children":[1,3,5,-1,-1,-1,-1],"loss_changes":[1.5883997E1,2.8351297E2,2.212923E2,0E0,0E0,0E0,0E0],"parents":[2147483647,0,0,1,1,2,2],"right_children":[2,4,6,-1,-1,-1,-1],"split_conditions":[2.7864647E1,2.6806364E1,2.8869373E1,-1.5166995E-2,5.7241483E0,-4.336881E0,1.030953E-2],"split_indices":[0,0,0,0,0,0,0],"split_type":[0,0,0,0,0,0,0],"sum_hessian":[7E2,2.05E2,4.95E2,1.97E2,8E0,1.1E1,4.84E2],"tree_param":{"num_deleted":"0","num_feature":"2","num_nodes":"7","size_leaf_vector":"1"}},{"base_weights":[1.9747426E-3,2.4970819E-1,-7.5967565E-2,-8.682062E-2,8.002274E0,-1.353745E0,2.776615E-3],"categories":[],"categories_nodes":[],"categories_segments":[],"categories_sizes":[],"default_left":[0,0,0,0,0,0,0],"id":104,"left_children":[1,3,5,-1,-1,-1,-1],"loss_changes":[1.3554521E1,4.390003E2,5.3733524E1,0E0,0E0,0E0,0E0],"parents":[2147483647,0,0,1,1,2,2],"right_children":[2,4,6,-1,-1,-1,-1],"split_conditions":[2.2460482E1,2.0990559E1,2.6806364E1,-8.682062E-2,8.002274E0,-1.353745E0,2.776615E-3],"split_indices":[0,0,0,0,0,0,0],"split_type":[0,0,0,0,0,0,0],"sum_hessian":[7E2,1.67E2,5.33E2,1.61E2,6E0,3E1,5.03E2],"tree_param":{"num_deleted":"0","num_feature":"2","num_nodes":"7","size_leaf_vector":"1"}},{"base_weights":[9.376754E-3,3.3621287E-1,-7.870274E-2,8.645417E-2,5.390396E0,-5.9686007E0,1.8706044E-2],"categories":[],"categories_nodes":[],"categories_segments":[],"categories_sizes":[],"default_left":[0,0,0,0,0,0,0],"id":105,"left_children":[1,3,5,-1,-1,-1,-1],"loss_changes":[2.020654E1,1.8762059E2,3.1738312E2,0E0,0E0,0E0,0E0],"parents":[2147483647,0,0,1,1,2,2],"right_children":[2,4,6,-1,-1,-1,-1],"split_conditions":[1.8657005E1,1.8159771E1,2.0162731E1,8.645417E-2,5.390396E0,-5.9686007E0,1.8706044E-2],"split_indices":[0,0,0,0,0,0,0],"split_type":[0,0,0,0,0,0,0],"sum_hessian":[7E2,1.48E2,5.52E2,1.42E2,6E0,8E0,5.44E2],"tree_param":{"num_deleted":"0","num_feature":"2","num_nodes":"7","size_leaf_vector":"1"}},{"base_weights":[-6.58253E-4,3.962194E-2,-5.0414807E-1,1.4235749E-2,2.7620342E0,5.4789634E0,-8.530518E-1],"categories":[],"categories_nodes":[],"categories_segments":[],"categories_sizes":[],"default_left":[0,0,0,0,0,0,0],"id":106,"left_children":[1,3,5,-1,-1,-1,-1],"loss_changes":[1.4236723E1,4.4883274E1,1.13225395E2,0E0,0E0,0E0,0E0],"parents":[2147483647,0,0,1,1,2,2],"right_children":[2,4,6,-1,-1,-1,-1],"split_conditions":[9.29376E1,9.208724E1,9.553532E0,1.4235749E-2,2.7620342E0,5.4789634E0,-8.530518E-1],"split_indices":[0,0,1,0,0,0,0],"split_type":[0,0,0,0,0,0,0],"sum_hessian":[7E2,6.49E2,5.1E1,6.44E2,5E0,2E0,4.9E1],"tree_param":{"num_deleted":"0","num_feature":"2","num_nodes":"7","size_leaf_vector":"1"}},{"base_weights":[1.0566165E-2,-4.601337E-1,7.8888714E-2,-7.2078544E-1,2.6961844E0,3.822131E0,4.181907E-2],"categories":[],"categories_nodes":[],"categories_segments":[],"categories_sizes":[],"default_left":[0,0,0,0,0,0,0],"id":107,"left_children":[1,3,5,-1,-1,-1,-1],"loss_changes":[2.2580048E1,7.516365E1,8.490044E1,0E0,0E0,0E0,0E0],"parents":[2147483647,0,0,1,1,2,2],"right_children":[2,4,6,-1,-1,-1,-1],"split_conditions":[1.2839429E1,8.9026375E1,1.3252467E1,-7.2078544E-1,2.6961844E0,3.822131E0,4.181907E-2],"split_indices":[1,0,1,0,0,0,0],"split_type":[0,0,0,0,0,0,0],"sum_hessian":[7E2,8.8E1,6.12E2,8.2E1,6E0,5E0,6.07E2],"tree_param":{"num_deleted":"0","num_feature":"2","num_nodes":"7","size_leaf_vector":"1"}},{"base_weights":[8.330107E-3,6.5444237E-1,-4.2299777E-2,-1.9495526E-1,1.1648645E0,-8.5337025E-1,2.8063495E-2],"categories":[],"categories_nodes":[],"categories_segments":[],"categories_sizes":[],"default_left":[0,0,0,0,0,0,0],"id":108,"left_children":[1,3,5,-1,-1,-1,-1],"loss_changes":[2.2959208E1,2.2338217E1,3.717624E1,0E0,0E0,0E0,0E0],"parents":[2147483647,0,0,1,1,2,2],"right_children":[2,4,6,-1,-1,-1,-1],"split_conditions":[6.761256E0,2.9712172E1,1.46374E1,-1.9495526E-1,1.1648645E0,-8.5337025E-1,2.8063495E-2],"split_indices":[1,0,1,0,0,0,0],"split_type":[0,0,0,0,0,0,0],"sum_hessian":[7E2,5E1,6.5E2,1.9E1,3.1E1,5.1E1,5.99E2],"tree_param":{"num_deleted":"0","num_feature":"2","num_nodes":"7","size_leaf_vector":"1"}},{"base_weights":[1.9803504E-4,1.7083687E-1,-1.619094E-1,8.32524E-2,5.0616913E0,-4.574951E0,-7.418849E-2],"categories":[],"categories_nodes":[],"categories_segments":[],"categories_sizes":[],"default_left":[0,0,0,0,0,0,0],"id":109,"left_children":[1,3,5,-1,-1,-1,-1],"loss_changes":[1.9418598E1,1.460787E2,1.3902237E2,0E0,0E0,0E0,0E0],"parents":[2147483647,0,0,1,1,2,2],"right_children":[2,4,6,-1,-1,-1,-1],"split_conditions":[4.926181E1,4.8452297E1,4.9836777E1,8.32524E-2,5.0616913E0,-4.574951E0,-7.418849E-2],"split_indices":[0,0,0,0,0,0,0],"split_type":[0,0,0,0,0,0,0],"sum_hessian":[7E2,3.41E2,3.59E2,3.36E2,5E0,6E0,3.53E2],"tree_param":{"num_deleted":"0","num_feature":"2","num_nodes":"7","size_leaf_vector":"1"}},{"base_weights":[7.225804E-4,-1.911644E0,1.1680665E-2,-2.8253174E-1,-2.3605042E0,3.5938862E-1,-6.928782E-2],"categories":[],"categories_nodes":[],"categories_segments":[],"categories_sizes":[],"default_left":[0,0,0,0,0,0,0],"id":110,"left_children":[1,3,5,-1,-1,-1,-1],"loss_changes":[1.4712399E1,2.2580585E0,1.9675966E1,0E0,0E0,0E0,0E0],"parents":[2147483647,0,0,1,1,2,2],"right_children":[2,4,6,-1,-1,-1,-1],"split_conditions":[7.562875E-1,4.484455E1,2.0185345E1,-2.8253174E-1,-2.3605042E0,3.5938862E-1,-6.928782E-2],"split_indices":[1,0,1,0,0,0,0],"split_type":[0,0,0,0,0,0,0],"sum_hessian":[7E2,3E0,6.97E2,1E0,2E0,1.31E2,5.66E2],"tree_param":{"num_deleted":"0","num_feature":"2","num_nodes":"7","size_leaf_vector":"1"}},{"base_weights":[-3.3571948E-3,-3.183246E-1,8.738269E-2,-1.6906286E-2,-2.0736787E0,2.1292377E0,9.579488E-3],"categories":[],"categories_nodes":[],"categories_segments":[],"categories_sizes":[],"default_left":[0,0,0,0,0,0,0],"id":111,"left_children":[1,3,5,-1,-1,-1,-1],"loss_changes":[2.006247E1,8.303299E1,8.655986E1,0E0,0E0,0E0,0E0],"parents":[2147483647,0,0,1,1,2,2],"right_children":[2,4,6,-1,-1,-1,-1],"split_conditions":[2.3295948E1,2.0185345E1,2.5929676E1,-1.6906286E-2,-2.0736787E0,2.1292377E0,9.579488E-3],"split_indices":[1,1,1,0,0,0,0],"split_type":[0,0,0,0,0,0,0],"sum_hessian":[7E2,1.56E2,5.44E2,1.34E2,2.2E1,1.9E1,5.25E2],"tree_param":{"num_deleted":"0","num_feature":"2","num_nodes":"7","size_leaf_vector":"1"}},{"base_weights":[7.2615294E-5,-6.8197477E-1,3.8021006E-2,-1.7112659E-1,-1.2729063E0,2.5681696E0,2.2675667E-2],"categories":[],"categories_nodes":[],"categories_segments":[],"categories_sizes":[],"default_left":[0,0,0,0,0,0,0],"id":112,"left_children":[1,3,5,-1,-1,-1,-1],"loss_changes":[1.8169634E1,1.0951595E1,2.576105E1,0E0,0E0,0E0,0E0],"parents":[2147483647,0,0,1,1,2,2],"right_children":[2,4,6,-1,-1,-1,-1],"split_conditions":[4.16729E0,2.9247284E0,5.7086854E0,-1.7112659E-1,-1.2729063E0,2.5681696E0,2.2675667E-2],"split_indices":[1,1,1,0,0,0,0],"split_type":[0,0,0,0,0,0,0],"sum_hessian":[7E2,3.6E1,6.64E2,2E1,1.6E1,3E0,6.61E2],"tree_param":{"num_deleted":"0","num_feature":"2","num_nodes":"7","size_leaf_vector":"1"}},{"base_weights":[1.6196682E-3,3.7918752E-1,-4.1533515E-2,4.8875324E-2,4.004476E0,-5.716839E0,-5.2611795E-3],"categories":[],"categories_nodes":[],"categories_segments":[],"categories_sizes":[],"default_left":[0,0,0,0,0,0,0],"id":113,"left_children":[1,3,5,-1,-1,-1,-1],"loss_changes":[1.1437322E1,8.602263E1,1.2965956E2,0E0,0E0,0E0,0E0],"parents":[2147483647,0,0,1,1,2,2],"right_children":[2,4,6,-1,-1,-1,-1],"split_conditions":[9.9441395E0,9.367476E0,1.03123865E1,4.8875324E-2,4.004476E0,-5.716839E0,-5.2611795E-3],"split_indices":[0,0,0,0,0,0,0],"split_type":[0,0,0,0,0,0,0],"sum_hessian":[7E2,7.1E1,6.29E2,6.6E1,5E0,3E0,6.26E2],"tree_param":{"num_deleted":"0","num_feature":"2","num_nodes":"7","size_leaf_vector":"1"}},{"base_weights":[-2.3904357E-3,-1.2809205E-1,1.8372747E-1,-9.137522E-2,-3.9146194E0,9.148537E-1,3.796097E-2],"categories":[],"categories_nodes":[],"categories_segments":[],"categories_sizes":[],"default_left":[0,0,0,0,0,0,0],"id":114,"left_children":[1,3,5,-1,-1,-1,-1],"loss_changes":[1.6423655E1,5.7895573E1,3.012563E1,0E0,0E0,0E0,0E0],"parents":[2147483647,0,0,1,1,2,2],"right_children":[2,4,6,-1,-1,-1,-1],"split_conditions":[6.3629135E1,6.3181355E1,6.8952675E1,-9.137522E-2,-3.9146194E0,9.148537E-1,3.796097E-2],"split_indices":[1,1,1,0,0,0,0],"split_type":[0,0,0,0,0,0,0],"sum_hessian":[7E2,4.18E2,2.82E2,4.15E2,3E0,4.6E1,2.36E2],"tree_param":{"num_deleted":"0","num_feature":"2","num_nodes":"7","size_leaf_vector":"1"}},{"base_weights":[-4.35713E-3,4.397397E-1,-3.1184193E-2,1.4526922E0,-3.210729E0,-1.7656877E0,-7.2671967E-3],"categories":[],"categories_nodes":[],"categories_segments":[],"categories_sizes":[],"default_left":[0,0,0,0,0,0,0],"id":115,"left_children":[1,3,5,-1,-1,-1,-1],"loss_changes":[8.365296E0,1.5257425E2,2.7449652E1,0E0,0E0,0E0,0E0],"parents":[2147483647,0,0,1,1,2,2],"right_children":[2,4,6,-1,-1,-1,-1],"split_conditions":[5.808361E0,8.065611E1,7.0568748E0,1.4526922E0,-3.210729E0,-1.7656877E0,-7.2671967E-3],"split_indices":[0,1,0,0,0,0,0],"split_type":[0,0,0,0,0,0,0],"sum_hessian":[7E2,3.9E1,6.61E2,3.1E1,8E0,8E0,6.53E2],"tree_param":{"num_deleted":"0","num_feature":"2","num_nodes":"7","size_leaf_vector":"1"}},{"base_weights":[-5.0345324E-3,-1.1927267E0,3.159773E-2,-2.1934698E0,7.076645E-1,1.2069627E0,-7.628978E-3],"categories":[],"categories_nodes":[],"categories_segments":[],"categories_sizes":[],"default_left":[0,0,0,0,0,0,0],"id":116,"left_children":[1,3,5,-1,-1,-1,-1],"loss_changes":[3.0536694E1,4.1490112E1,3.1407194E1,0E0,0E0,0E0,0E0],"parents":[2147483647,0,0,1,1,2,2],"right_children":[2,4,6,-1,-1,-1,-1],"split_conditions":[3.438852E0,6.3852596E1,6.337497E0,-2.1934698E0,7.076645E-1,1.2069627E0,-7.628978E-3],"split_indices":[0,1,0,0,0,0,0],"split_type":[0,0,0,0,0,0,0],"sum_hessian":[7E2,2E1,6.8E2,1.3E1,7E0,2.1E1,6.59E2],"tree_param":{"num_deleted":"0","num_feature":"2","num_nodes":"7","size_leaf_vector":"1"}},{"base_weights":[-4.1478168E-4,-2.9982453E-2,5.6307244E-1,-7.270579E-3,-2.1703491E0,-3.1907196E0,8.872634E-1],"categories":[],"categories_nodes":[],"categories_segments":[],"categories_sizes":[],"default_left":[0,0,0,0,0,0,0],"id":117,"left_children":[1,3,5,-1,-1,-1,-1],"loss_changes":[1.1696247E1,3.2408253E1,4.5424103E1,0E0,0E0,0E0,0E0],"parents":[2147483647,0,0,1,1,2,2],"right_children":[2,4,6,-1,-1,-1,-1],"split_conditions":[9.580735E1,9.5181175E1,5.1478753E0,-7.270579E-3,-2.1703491E0,-3.1907196E0,8.872634E-1],"split_indices":[1,1,0,0,0,0,0],"split_type":[0,0,0,0,0,0,0],"sum_hessian":[7E2,6.66E2,3.4E1,6.6E2,6E0,2E0,3.2E1],"tree_param":{"num_deleted":"0","num_feature":"2","num_nodes":"7","size_leaf_vector":"1"}},{"base_weights":[-6.3932557E-3,1.0699991E-2,-1.0795788E0,-5.3365532E-2,3.0698115E-1,-2.5407104E0,1.1819214E0],"categories":[],"categories_nodes":[],"categories_segments":[],"categories_sizes":[],"default_left":[0,0,0,0,0,0,0],"id":118,"left_children":[1,3,5,-1,-1,-1,-1],"loss_changes":[1.2870852E1,1.3132537E1,3.9350765E1,0E0,0E0,0E0,0E0],"parents":[2147483647,0,0,1,1,2,2],"right_children":[2,4,6,-1,-1,-1,-1],"split_conditions":[9.877224E1,8.2468094E1,6.420316E1,-5.3365532E-2,3.0698115E-1,-2.5407104E0,1.1819214E0],"split_indices":[1,1,0,0,0,0,0],"split_type":[0,0,0,0,0,0,0],"sum_hessian":[7E2,6.9E2,1E1,5.68E2,1.22E2,6E0,4E0],"tree_param":{"num_deleted":"0","num_feature":"2","num_nodes":"7","size_leaf_vector":"1"}},{"base_weights":[-1.587382E-3,1.497354E-1,-1.1516986E-1,5.5959545E-2,4.7510552E0,2.5222756E-2,-8.2815087E-1],"categories":[],"categories_nodes":[],"categories_segments":[],"categories_sizes":[],"default_left":[0,0,0,0,0,0,0],"id":119,"left_children":[1,3,5,-1,-1,-1,-1],"loss_changes":[1.2065765E1,1.2961345E2,4.0159897E1,0E0,0E0,0E0,0E0],"parents":[2147483647,0,0,1,1,2,2],"right_children":[2,4,6,-1,-1,-1,-1],"split_conditions":[4.6147747E1,4.5437733E1,8.7357864E1,5.5959545E-2,4.7510552E0,2.5222756E-2,-8.2815087E-1],"split_indices":[1,1,0,0,0,0,0],"split_type":[0,0,0,0,0,0,0],"sum_hessian":[7E2,3E2,4E2,2.95E2,5E0,3.35E2,6.5E1],"tree_param":{"num_deleted":"0","num_feature":"2","num_nodes":"7","size_leaf_vector":"1"}},{"base_weights":[5.7138423E-3,-1.14380136E-1,6.2509584E-1,-5.147032E-2,-9.309823E-1,-1.6680734E0,9.367718E-1],"categories":[],"categories_nodes":[],"categories_segments":[],"categories_sizes":[],"default_left":[0,0,0,0,0,0,0],"id":120,"left_children":[1,3,5,-1,-1,-1,-1],"loss_changes":[5.221472E1,3.0158993E1,8.3041336E1,0E0,0E0,0E0,0E0],"parents":[2147483647,0,0,1,1,2,2],"right_children":[2,4,6,-1,-1,-1,-1],"split_conditions":[8.4645226E1,7.9157906E1,1.7389524E1,-5.147032E-2,-9.309823E-1,-1.6680734E0,9.367718E-1],"split_indices":[0,0,1,0,0,0,0],"split_type":[0,0,0,0,0,0,0],"sum_hessian":[7E2,5.87E2,1.13E2,5.46E2,4.1E1,1.3E1,1E2],"tree_param":{"num_deleted":"0","num_feature":"2","num_nodes":"7","size_leaf_vector":"1"}},{"base_weights":[-2.4481704E-3,2.8766033E-1,-9.586833E-2,1.5602267E-1,3.3494534E0,-3.0454614E0,-3.340884E-2],"categories":[],"categories_nodes":[],"categories_segments":[],"categories_sizes":[],"default_left":[0,0,0,0,0,0,0],"id":121,"left_children":[1,3,5,-1,-1,-1,-1],"loss_changes":[1.9026066E1,6.839849E1,9.772443E1,0E0,0E0,0E0,0E0],"parents":[2147483647,0,0,1,1,2,2],"right_children":[2,4,6,-1,-1,-1,-1],"split_conditions":[2.5224102E1,2.434823E1,2.6702827E1,1.5602267E-1,3.3494534E0,-3.0454614E0,-3.340884E-2],"split_indices":[1,1,1,0,0,0,0],"split_type":[0,0,0,0,0,0,0],"sum_hessian":[7E2,1.7E2,5.3E2,1.64E2,6E0,1E1,5.2E2],"tree_param":{"num_deleted":"0","num_feature":"2","num_nodes":"7","size_leaf_vector":"1"}},{"base_weights":[6.0612056E-4,1.981544E-2,-1.2061435E0,-4.1433256E-3,2.7557983E0,1.045044E0,-2.1809692E0],"categories":[],"categories_nodes":[],"categories_segments":[],"categories_sizes":[],"default_left":[0,0,0,0,0,0,0],"id":122,"left_children":[1,3,5,-1,-1,-1,-1],"loss_changes":[1.6273666E1,4.5307E1,2.6418877E1,0E0,0E0,0E0,0E0],"parents":[2147483647,0,0,1,1,2,2],"right_children":[2,4,6,-1,-1,-1,-1],"split_conditions":[9.865153E1,9.800326E1,2.0185345E1,-4.1433256E-3,2.7557983E0,1.045044E0,-2.1809692E0],"split_indices":[0,0,1,0,0,0,0],"split_type":[0,0,0,0,0,0,0],"sum_hessian":[7E2,6.9E2,1E1,6.85E2,5E0,3E0,7E0],"tree_param":{"num_deleted":"0","num_feature":"2","num_nodes":"7","size_leaf_vector":"1"}},{"base_weights":[2.3109582E-3,3.4640074E-2,-6.746521E-1,8.8354055E-4,1.2573276E0,-4.6424155E0,-2.5538737E-1],"categories":[],"categories_nodes":[],"categories_segments":[],"categories_sizes":[],"default_left":[0,0,0,0,0,0,0],"id":123,"left_children":[1,3,5,-1,-1,-1,-1],"loss_changes":[1.5365187E1,2.7652262E1,5.2047764E1,0E0,0E0,0E0,0E0],"parents":[2147483647,0,0,1,1,2,2],"right_children":[2,4,6,-1,-1,-1,-1],"split_conditions":[9.539286E1,9.307573E1,9.548653E1,8.8354055E-4,1.2573276E0,-4.6424155E0,-2.5538737E-1],"split_indices":[0,0,0,0,0,0,0],"split_type":[0,0,0,0,0,0,0],"sum_hessian":[7E2,6.69E2,3.1E1,6.52E2,1.7E1,2E0,2.9E1],"tree_param":{"num_deleted":"0","num_feature":"2","num_nodes":"7","size_leaf_vector":"1"}},{"base_weights":[-5.177992E-3,-1.6714016E-2,1.6039795E0,2.6067274E-2,-7.3917955E-1,-2.8259277E-1,2.1462708E0],"categories":[],"categories_nodes":[],"categories_segments":[],"categories_sizes":[],"default_left":[0,0,0,0,0,0,0],"id":124,"left_children":[1,3,5,-1,-1,-1,-1],"loss_changes":[1.3039669E1,2.156215E1,5.721879E0,0E0,0E0,0E0,0E0],"parents":[2147483647,0,0,1,1,2,2],"right_children":[2,4,6,-1,-1,-1,-1],"split_conditions":[9.929648E1,9.39499E1,2.0185345E1,2.6067274E-2,-7.3917955E-1,-2.8259277E-1,2.1462708E0],"split_indices":[0,0,1,0,0,0,0],"split_type":[0,0,0,0,0,0,0],"sum_hessian":[7E2,6.96E2,4E0,6.58E2,3.8E1,1E0,3E0],"tree_param":{"num_deleted":"0","num_feature":"2","num_nodes":"7","size_leaf_vector":"1"}},{"base_weights":[1.6410245E-3,-9.6324936E-2,3.0350333E-1,-3.6597528E-2,-1.8965347E0,2.2904325E0,7.080511E-2],"categories":[],"categories_nodes":[],"categories_segments":[],"categories_sizes":[],"default_left":[0,0,0,0,0,0,0],"id":125,"left_children":[1,3,5,-1,-1,-1,-1],"loss_changes":[2.0759369E1,5.691718E1,7.936286E1,0E0,0E0,0E0,0E0],"parents":[2147483647,0,0,1,1,2,2],"right_children":[2,4,6,-1,-1,-1,-1],"split_conditions":[7.5513725E1,7.35071E1,7.9157906E1,-3.6597528E-2,-1.8965347E0,2.2904325E0,7.080511E-2],"split_indices":[0,0,0,0,0,0,0],"split_type":[0,0,0,0,0,0,0],"sum_hessian":[7E2,5.29E2,1.71E2,5.13E2,1.6E1,1.7E1,1.54E2],"tree_param":{"num_deleted":"0","num_feature":"2","num_nodes":"7","size_leaf_vector":"1"}},{"base_weights":[6.175864E-4,-6.1364494E-2,2.4079387E-1,6.6079694E-4,-2.8835704E0,4.0163913E0,-1.0832394E-2],"categories":[],"categories_nodes":[],"categories_segments":[],"categories_sizes":[],"default_left":[0,0,0,0,0,0,0],"id":126,"left_children":[1,3,5,-1,-1,-1,-1],"loss_changes":[1.0450301E1,9.7678764E1,1.3684918E2,0E0,0E0,0E0,0E0],"parents":[2147483647,0,0,1,1,2,2],"right_children":[2,4,6,-1,-1,-1,-1],"split_conditions":[8.034809E1,7.9157906E1,8.101134E1,6.6079694E-4,-2.8835704E0,4.0163913E0,-1.0832394E-2],"split_indices":[0,0,0,0,0,0,0],"split_type":[0,0,0,0,0,0,0],"sum_hessian":[7E2,5.57E2,1.43E2,5.46E2,1.1E1,8E0,1.35E2],"tree_param":{"num_deleted":"0","num_feature":"2","num_nodes":"7","size_leaf_vector":"1"}},{"base_weights":[1.595406E-3,-9.427123E-2,1.7384344E-1,-1.3962158E-2,-9.190979E-1,2.0583408E0,7.8894235E-2],"categories":[],"categories_nodes":[],"categories_segments":[],"categories_sizes":[],"default_left":[0,0,0,0,0,0,0],"id":127,"left_children":[1,3,5,-1,-1,-1,-1],"loss_changes":[1.1591889E1,2.9861887E1,4.4749424E1,0E0,0E0,0E0,0E0],"parents":[2147483647,0,0,1,1,2,2],"right_children":[2,4,6,-1,-1,-1,-1],"split_conditions":[6.76468E1,9.041587E1,6.881347E1,-1.3962158E-2,-9.190979E-1,2.0583408E0,7.8894235E-2],"split_indices":[1,0,1,0,0,0,0],"split_type":[0,0,0,0,0,0,0],"sum_hessian":[7E2,4.5E2,2.5E2,4.11E2,3.9E1,1.1E1,2.39E2],"tree_param":{"num_deleted":"0","num_feature":"2","num_nodes":"7","size_leaf_vector":"1"}},{"base_weights":[1.7220257E-3,-3.79367E-2,1.1220093E0,-8.647043E-2,2.2477809E-1,1.8753953E0,-3.1137695E0],"categories":[],"categories_nodes":[],"categories_segments":[],"categories_sizes":[],"default_left":[0,0,0,0,0,0,0],"id":128,"left_children":[1,3,5,-1,-1,-1,-1],"loss_changes":[3.1187408E1,8.664295E0,8.242779E1,0E0,0E0,0E0,0E0],"parents":[2147483647,0,0,1,1,2,2],"right_children":[2,4,6,-1,-1,-1,-1],"split_conditions":[9.6362E1,8.6137E1,7.987142E1,-8.647043E-2,2.2477809E-1,1.8753953E0,-3.1137695E0],"split_indices":[0,1,1,0,0,0,0],"split_type":[0,0,0,0,0,0,0],"sum_hessian":[7E2,6.77E2,2.3E1,5.72E2,1.05E2,2E1,3E0],"tree_param":{"num_deleted":"0","num_feature":"2","num_nodes":"7","size_leaf_vector":"1"}},{"base_weights":[-1.5674107E-3,2.0432249E-2,-1.1674289E0,2.0507093E-4,1.1615652E0,6.0740155E-1,-1.5453435E0],"categories":[],"categories_nodes":[],"categories_segments":[],"categories_sizes":[],"default_left":[0,0,0,0,0,0,0],"id":129,"left_children":[1,3,5,-1,-1,-1,-1],"loss_changes":[1.800349E1,1.5903191E1,9.658192E0,0E0,0E0,0E0,0E0],"parents":[2147483647,0,0,1,1,2,2],"right_children":[2,4,6,-1,-1,-1,-1],"split_conditions":[9.856505E1,9.6362E1,1.0973619E1,2.0507093E-4,1.1615652E0,6.0740155E-1,-1.5453435E0],"split_indices":[0,0,1,0,0,0,0],"split_type":[0,0,0,0,0,0,0],"sum_hessian":[7E2,6.88E2,1.2E1,6.77E2,1.1E1,2E0,1E1],"tree_param":{"num_deleted":"0","num_feature":"2","num_nodes":"7","size_leaf_vector":"1"}},{"base_weights":[3.2381937E-4,2.1137041E-1,-1.100071E-1,1.03569195E-1,2.4559805E0,-1.8152535E0,-7.2037034E-2],"categories":[],"categories_nodes":[],