{"learner": {"attributes": {}, "feature_names": ["x1", "x2"], "feature_types": ["float", "float"], "gradient_booster": {"model": {"gbtree_model_param": {"num_parallel_tree": "1", "num_trees": "759"}, "iteration_indptr": [0, 1, 2, 3, 4, 5, 6, 7, 8, 9, 10, 11, 12, 13, 14, 15, 16, 17, 18, 19, 20, 21, 22, 23, 24, 25, 26, 27, 28, 29, 30, 31, 32, 33, 34, 35, 36, 37, 38, 39, 40, 41, 42, 43, 44, 45, 46, 47, 48, 49, 50, 51, 52, 53, 54, 55, 56, 57, 58, 59, 60, 61, 62, 63, 64, 65, 66, 67, 68, 69, 70, 71, 72, 73, 74, 75, 76, 77, 78, 79, 80, 81, 82, 83, 84, 85, 86, 87, 88, 89, 90, 91, 92, 93, 94, 95, 96, 97, 98, 99, 100, 101, 102, 103, 104, 105, 106, 107, 108, 109, 110, 111, 112, 113, 114, 115, 116, 117, 118, 119, 120, 121, 122, 123, 124, 125, 126, 127, 128, 129, 130, 131, 132, 133, 134, 135, 136, 137, 138, 139, 140, 141, 142, 143, 144, 145, 146, 147, 148, 149, 150, 151, 152, 153, 154, 155, 156, 157, 158, 159, 160, 161, 162, 163, 164, 165, 166, 167, 168, 169, 170, 171, 172, 173, 174, 175, 176, 177, 178, 179, 180, 181, 182, 183, 184, 185, 186, 187, 188, 189, 190, 191, 192, 193, 194, 195, 196, 197, 198, 199, 200, 201, 202, 203, 204, 205, 206, 207, 208, 209, 210, 211, 212, 213, 214, 215, 216, 217, 218, 219, 220, 221, 222, 223, 224, 225, 226, 227, 228, 229, 230, 231, 232, 233, 234, 235, 236, 237, 238, 239, 240, 241, 242, 243, 244, 245, 246, 247, 248, 249, 250, 251, 252, 253, 254, 255, 256, 257, 258, 259, 260, 261, 262, 263, 264, 265, 266, 267, 268, 269, 270, 271, 272, 273, 274, 275, 276, 277, 278, 279, 280, 281, 282, 283, 284, 285, 286, 287, 288, 289, 290, 291, 292, 293, 294, 295, 296, 297, 298, 299, 300, 301, 302, 303, 304, 305, 306, 307, 308, 309, 310, 311, 312, 313, 314, 315, 316, 317, 318, 319, 320, 321, 322, 323, 324, 325, 326, 327, 328, 329, 330, 331, 332, 333, 334, 335, 336, 337, 338, 339, 340, 341, 342, 343, 344, 345, 346, 347, 348, 349, 350, 351, 352, 353, 354, 355, 356, 357, 358, 359, 360, 361, 362, 363, 364, 365, 366, 367, 368, 369, 370, 371, 372, 373, 374, 375, 376, 377, 378, 379, 380, 381, 382, 383, 384, 385, 386, 387, 388, 389, 390, 391, 392, 393, 394, 395, 396, 397, 398, 399, 400, 401, 402, 403, 404, 405, 406, 407, 408, 409, 410, 411, 412, 413, 414, 415, 416, 417, 418, 419, 420, 421, 422, 423, 424, 425, 426, 427, 428, 429, 430, 431, 432, 433, 434, 435, 436, 437, 438, 439, 440, 441, 442, 443, 444, 445, 446, 447, 448, 449, 450, 451, 452, 453, 454, 455, 456, 457, 458, 459, 460, 461, 462, 463, 464, 465, 466, 467, 468, 469, 470, 471, 472, 473, 474, 475, 476, 477, 478, 479, 480, 481, 482, 483, 484, 485, 486, 487, 488, 489, 490, 491, 492, 493, 494, 495, 496, 497, 498, 499, 500, 501, 502, 503, 504, 505, 506, 507, 508, 509, 510, 511, 512, 513, 514, 515, 516, 517, 518, 519, 520, 521, 522, 523, 524, 525, 526, 527, 528, 529, 530, 531, 532, 533, 534, 535, 536, 537, 538, 539, 540, 541, 542, 543, 544, 545, 546, 547, 548, 549, 550, 551, 552, 553, 554, 555, 556, 557, 558, 559, 560, 561, 562, 563, 564, 565, 566, 567, 568, 569, 570, 571, 572, 573, 574, 575, 576, 577, 578, 579, 580, 581, 582, 583, 584, 585, 586, 587, 588, 589, 590, 591, 592, 593, 594, 595, 596, 597, 598, 599, 600, 601, 602, 603, 604, 605, 606, 607, 608, 609, 610, 611, 612, 613, 614, 615, 616, 617, 618, 619, 620, 621, 622, 623, 624, 625, 626, 627, 628, 629, 630, 631, 632, 633, 634, 635, 636, 637, 638, 639, 640, 641, 642, 643, 644, 645, 646, 647, 648, 649, 650, 651, 652, 653, 654, 655, 656, 657, 658, 659, 660, 661, 662, 663, 664, 665, 666, 667, 668, 669, 670, 671, 672, 673, 674, 675, 676, 677, 678, 679, 680, 681, 682, 683, 684, 685, 686, 687, 688, 689, 690, 691, 692, 693, 694, 695, 696, 697, 698, 699, 700, 701, 702, 703, 704, 705, 706, 707, 708, 709, 710, 711, 712, 713, 714, 715, 716, 717, 718, 719, 720, 721, 722, 723, 724, 725, 726, 727, 728, 729, 730, 731, 732, 733, 734, 735, 736, 737, 738, 739, 740, 741, 742, 743, 744, 745, 746, 747, 748, 749, 750, 751, 752, 753, 754, 755, 756, 757, 758, 759], "tree_info": [0, 0, 0, 0, 0, 0, 0, 0, 0, 0, 0, 0, 0, 0, 0, 0, 0, 0, 0, 0, 0, 0, 0, 0, 0, 0, 0, 0, 0, 0, 0, 0, 0, 0, 0, 0, 0, 0, 0, 0, 0, 0, 0, 0, 0, 0, 0, 0, 0, 0, 0, 0, 0, 0, 0, 0, 0, 0, 0, 0, 0, 0, 0, 0, 0, 0, 0, 0, 0, 0, 0, 0, 0, 0, 0, 0, 0, 0, 0, 0, 0, 0, 0, 0, 0, 0, 0, 0, 0, 0, 0, 0, 0, 0, 0, 0, 0, 0, 0, 0, 0, 0, 0, 0, 0, 0, 0, 0, 0, 0, 0, 0, 0, 0, 0, 0, 0, 0, 0, 0, 0, 0, 0, 0, 0, 0, 0, 0, 0, 0, 0, 0, 0, 0, 0, 0, 0, 0, 0, 0, 0, 0, 0, 0, 0, 0, 0, 0, 0, 0, 0, 0, 0, 0, 0, 0, 0, 0, 0, 0, 0, 0, 0, 0, 0, 0, 0, 0, 0, 0, 0, 0, 0, 0, 0, 0, 0, 0, 0, 0, 0, 0, 0, 0, 0, 0, 0, 0, 0, 0, 0, 0, 0, 0, 0, 0, 0, 0, 0, 0, 0, 0, 0, 0, 0, 0, 0, 0, 0, 0, 0, 0, 0, 0, 0, 0, 0, 0, 0, 0, 0, 0, 0, 0, 0, 0, 0, 0, 0, 0, 0, 0, 0, 0, 0, 0, 0, 0, 0, 0, 0, 0, 0, 0, 0, 0, 0, 0, 0, 0, 0, 0, 0, 0, 0, 0, 0, 0, 0, 0, 0, 0, 0, 0, 0, 0, 0, 0, 0, 0, 0, 0, 0, 0, 0, 0, 0, 0, 0, 0, 0, 0, 0, 0, 0, 0, 0, 0, 0, 0, 0, 0, 0, 0, 0, 0, 0, 0, 0, 0, 0, 0, 0, 0, 0, 0, 0, 0, 0, 0, 0, 0, 0, 0, 0, 0, 0, 0, 0, 0, 0, 0, 0, 0, 0, 0, 0, 0, 0, 0, 0, 0, 0, 0, 0, 0, 0, 0, 0, 0, 0, 0, 0, 0, 0, 0, 0, 0, 0, 0, 0, 0, 0, 0, 0, 0, 0, 0, 0, 0, 0, 0, 0, 0, 0, 0, 0, 0, 0, 0, 0, 0, 0, 0, 0, 0, 0, 0, 0, 0, 0, 0, 0, 0, 0, 0, 0, 0, 0, 0, 0, 0, 0, 0, 0, 0, 0, 0, 0, 0, 0, 0, 0, 0, 0, 0, 0, 0, 0, 0, 0, 0, 0, 0, 0, 0, 0, 0, 0, 0, 0, 0, 0, 0, 0, 0, 0, 0, 0, 0, 0, 0, 0, 0, 0, 0, 0, 0, 0, 0, 0, 0, 0, 0, 0, 0, 0, 0, 0, 0, 0, 0, 0, 0, 0, 0, 0, 0, 0, 0, 0, 0, 0, 0, 0, 0, 0, 0, 0, 0, 0, 0, 0, 0, 0, 0, 0, 0, 0, 0, 0, 0, 0, 0, 0, 0, 0, 0, 0, 0, 0, 0, 0, 0, 0, 0, 0, 0, 0, 0, 0, 0, 0, 0, 0, 0, 0, 0, 0, 0, 0, 0, 0, 0, 0, 0, 0, 0, 0, 0, 0, 0, 0, 0, 0, 0, 0, 0, 0, 0, 0, 0, 0, 0, 0, 0, 0, 0, 0, 0, 0, 0, 0, 0, 0, 0, 0, 0, 0, 0, 0, 0, 0, 0, 0, 0, 0, 0, 0, 0, 0, 0, 0, 0, 0, 0, 0, 0, 0, 0, 0, 0, 0, 0, 0, 0, 0, 0, 0, 0, 0, 0, 0, 0, 0, 0, 0, 0, 0, 0, 0, 0, 0, 0, 0, 0, 0, 0, 0, 0, 0, 0, 0, 0, 0, 0, 0, 0, 0, 0, 0, 0, 0, 0, 0, 0, 0, 0, 0, 0, 0, 0, 0, 0, 0, 0, 0, 0, 0, 0, 0, 0, 0, 0, 0, 0, 0, 0, 0, 0, 0, 0, 0, 0, 0, 0, 0, 0, 0, 0, 0, 0, 0, 0, 0, 0, 0, 0, 0, 0, 0, 0, 0, 0, 0, 0, 0, 0, 0, 0, 0, 0, 0, 0, 0, 0, 0, 0, 0, 0, 0, 0, 0, 0, 0, 0, 0, 0, 0, 0, 0, 0, 0, 0, 0, 0, 0, 0, 0, 0, 0, 0, 0, 0, 0, 0, 0, 0, 0, 0, 0, 0, 0, 0, 0, 0, 0, 0, 0, 0, 0, 0, 0, 0, 0, 0, 0, 0, 0, 0, 0, 0, 0, 0, 0, 0, 0, 0, 0, 0, 0, 0, 0, 0, 0, 0, 0, 0, 0, 0, 0, 0, 0, 0, 0, 0, 0, 0, 0], "trees": [{"base_weights": [3.3626676, -47.82657, 51.9831, -63.782265, -8.01833, 40.177357, 107.001015], "categories": [], "categories_nodes": [], "categories_segments": [], "categories_sizes": [], "default_left": [0, 0, 0, 0, 0, 0, 0], "id": 0, "left_children": [1, 3, 5, -1, -1, -1, -1], "loss_changes": [1747165.0, 216716.06, 229530.81, 0.0, 0.0, 0.0, 0.0], "parents": [2147483647, 0, 0, 1, 1, 2, 2], "right_children": [2, 4, 6, -1, -1, -1, -1], "split_conditions": [51.90598, 37.32518, 87.357864, -63.782265, -8.01833, 40.177357, 107.001015], "split_indices": [1, 1, 0, 0, 0, 0, 0], "split_type": [0, 0, 0, 0, 0, 0, 0], "sum_hessian": [700.0, 341.0, 359.0, 243.0, 98.0, 297.0, 62.0], "tree_param": {"num_deleted": "0", "num_feature": "2", "num_nodes": "7", "size_leaf_vector": "1"}}, {"base_weights": [0.10753022, -69.34457, 4.3038692, -79.41293, -25.840994, 14.85562, -22.379034], "categories": [], "categories_nodes": [], "categories_segments": [], "categories_sizes": [], "default_left": [0, 0, 0, 0, 0, 0, 0], "id": 1, "left_children": [1, 3, 5, -1, -1, -1, -1], "loss_changes": [204601.1, 15468.266, 186719.45, 0.0, 0.0, 0.0, 0.0], "parents": [2147483647, 0, 0, 1, 1, 2, 2], "right_children": [2, 4, 6, -1, -1, -1, -1], "split_conditions": [5.808361, 80.65611, 73.5071, -79.41293, -25.840994, 14.85562, -22.379034], "split_indices": [0, 1, 0, 0, 0, 0, 0], "split_type": [0, 0, 0, 0, 0, 0, 0], "sum_hessian": [700.0, 39.0, 661.0, 31.0, 8.0, 474.0, 187.0], "tree_param": {"num_deleted": "0", "num_feature": "2", "num_nodes": "7", "size_leaf_vector": "1"}}, {"base_weights": [-0.16087508, -5.854484, 71.01233, -10.126333, 32.747948, 106.271805, 47.491062], "categories": [], "categories_nodes": [], "categories_segments": [], "categories_sizes": [], "default_left": [0, 0, 0, 0, 0, 0, 0], "id": 2, "left_children": [1, 3, 5, -1, -1, -1, -1], "loss_changes": [284483.62, 107519.08, 38079.125, 0.0, 0.0, 0.0, 0.0], "parents": [2147483647, 0, 0, 1, 1, 2, 2], "right_children": [2, 4, 6, -1, -1, -1, -1], "split_conditions": [92.9376, 90.90325, 51.726906, -10.126333, 32.747948, 106.271805, 47.491062], "split_indices": [0, 1, 1, 0, 0, 0, 0], "split_type": [0, 0, 0, 0, 0, 0, 0], "sum_hessian": [700.0, 649.0, 51.0, 585.0, 64.0, 19.0, 32.0], "tree_param": {"num_deleted": "0", "num_feature": "2", "num_nodes": "7", "size_leaf_vector": "1"}}, {"base_weights": [-0.013476852, -18.24308, 3.4839063, -21.832964, -4.020887, 18.177225, -0.7584563], "categories": [], "categories_nodes": [], "categories_segments": [], "categories_sizes": [], "default_left": [0, 0, 0, 0, 0, 0, 0], "id": 3, "left_children": [1, 3, 5, -1, -1, -1, -1], "loss_changes": [44756.445, 5681.539, 36728.742, 0.0, 0.0, 0.0, 0.0], "parents": [2147483647, 0, 0, 1, 1, 2, 2], "right_children": [2, 4, 6, -1, -1, -1, -1], "split_conditions": [16.76192, 69.60298, 37.32518, -21.832964, -4.020887, 18.177225, -0.7584563], "split_indices": [1, 0, 1, 0, 0, 0, 0], "split_type": [0, 0, 0, 0, 0, 0, 0], "sum_hessian": [700.0, 112.0, 588.0, 89.0, 23.0, 131.0, 457.0], "tree_param": {"num_deleted": "0", "num_feature": "2", "num_nodes": "7", "size_leaf_vector": "1"}}, {"base_weights": [0.008704339, -0.48050746, 17.594122, 9.819532, -1.1195154, 12.558716, 29.181519], "categories": [], "categories_nodes": [], "categories_segments": [], "categories_sizes": [], "default_left": [0, 0, 0, 0, 0, 0, 0], "id": 4, "left_children": [1, 3, 5, -1, -1, -1, -1], "loss_changes": [6039.153, 4506.367, 742.11523, 0.0, 0.0, 0.0, 0.0], "parents": [2147483647, 0, 0, 1, 1, 2, 2], "right_children": [2, 4, 6, -1, -1, -1, -1], "split_conditions": [96.99098, 5.808361, 61.949036, 9.819532, -1.1195154, 12.558716, 29.181519], "split_indices": [0, 0, 1, 0, 0, 0, 0], "split_type": [0, 0, 0, 0, 0, 0, 0], "sum_hessian": [700.0, 682.0, 18.0, 39.0, 643.0, 14.0, 4.0], "tree_param": {"num_deleted": "0", "num_feature": "2", "num_nodes": "7", "size_leaf_vector": "1"}}, {"base_weights": [-0.0044689695, -1.710856, 2.9683945, -3.0521648, 6.9691, -12.760595, 4.0701632], "categories": [], "categories_nodes": [], "categories_segments": [], "categories_sizes": [], "default_left": [0, 0, 0, 0, 0, 0, 0], "id": 5, "left_children": [1, 3, 5, -1, -1, -1, -1], "loss_changes": [3561.1504, 5213.8267, 4488.342, 0.0, 0.0, 0.0, 0.0], "parents": [2147483647, 0, 0, 1, 1, 2, 2], "right_children": [2, 4, 6, -1, -1, -1, -1], "split_conditions": [66.686424, 85.56965, 6.337497, -3.0521648, 6.9691, -12.760595, 4.0701632], "split_indices": [1, 0, 0, 0, 0, 0, 0], "split_type": [0, 0, 0, 0, 0, 0, 0], "sum_hessian": [700.0, 445.0, 255.0, 386.0, 59.0, 16.0, 239.0], "tree_param": {"num_deleted": "0", "num_feature": "2", "num_nodes": "7", "size_leaf_vector": "1"}}, {"base_weights": [-0.0068135066, 0.8373345, -10.558533, 0.28471193, 9.487788, -15.010851, 15.8055725], "categories": [], "categories_nodes": [], "categories_segments": [], "categories_sizes": [], "default_left": [0, 0, 0, 0, 0, 0, 0], "id": 6, "left_children": [1, 3, 5, -1, -1, -1, -1], "loss_changes": [6252.7974, 3104.582, 6341.0864, 0.0, 0.0, 0.0, 0.0], "parents": [2147483647, 0, 0, 1, 1, 2, 2], "right_children": [2, 4, 6, -1, -1, -1, -1], "split_conditions": [92.9376, 89.11431, 87.07499, 0.28471193, 9.487788, -15.010851, 15.8055725], "split_indices": [0, 0, 1, 0, 0, 0, 0], "split_type": [0, 0, 0, 0, 0, 0, 0], "sum_hessian": [700.0, 649.0, 51.0, 611.0, 38.0, 44.0, 7.0], "tree_param": {"num_deleted": "0", "num_feature": "2", "num_nodes": "7", "size_leaf_vector": "1"}}, {"base_weights": [0.01507121, 2.1333578, -1.997343, 0.96064305, 12.074749, -16.73607, -0.8474796], "categories": [], "categories_nodes": [], "categories_segments": [], "categories_sizes": [], "default_left": [0, 0, 0, 0, 0, 0, 0], "id": 7, "left_children": [1, 3, 5, -1, -1, -1, -1], "loss_changes": [2992.533, 3975.5796, 6086.9253, 0.0, 0.0, 0.0, 0.0], "parents": [2147483647, 0, 0, 1, 1, 2, 2], "right_children": [2, 4, 6, -1, -1, -1, -1], "split_conditions": [51.90598, 87.357864, 54.669743, 0.96064305, 12.074749, -16.73607, -0.8474796], "split_indices": [1, 0, 1, 0, 0, 0, 0], "split_type": [0, 0, 0, 0, 0, 0, 0], "sum_hessian": [700.0, 341.0, 359.0, 306.0, 35.0, 25.0, 334.0], "tree_param": {"num_deleted": "0", "num_feature": "2", "num_nodes": "7", "size_leaf_vector": "1"}}, {"base_weights": [-0.0035666167, -0.3736978, 7.746166, 0.0512619, -13.509417, -0.6854146, 12.195348], "categories": [], "categories_nodes": [], "categories_segments": [], "categories_sizes": [], "default_left": [0, 0, 0, 0, 0, 0, 0], "id": 8, "left_children": [1, 3, 5, -1, -1, -1, -1], "loss_changes": [2013.6555, 3740.7336, 1208.7949, 0.0, 0.0, 0.0, 0.0], "parents": [2147483647, 0, 0, 1, 1, 2, 2], "right_children": [2, 4, 6, -1, -1, -1, -1], "split_conditions": [95.39286, 92.9376, 40.193092, 0.0512619, -13.509417, -0.6854146, 12.195348], "split_indices": [0, 0, 1, 0, 0, 0, 0], "split_type": [0, 0, 0, 0, 0, 0, 0], "sum_hessian": [700.0, 669.0, 31.0, 649.0, 20.0, 11.0, 20.0], "tree_param": {"num_deleted": "0", "num_feature": "2", "num_nodes": "7", "size_leaf_vector": "1"}}, {"base_weights": [0.0043715453, -3.540703, 0.39701527, -1.6617736, -8.8764, 5.221323, 0.05349933], "categories": [], "categories_nodes": [], "categories_segments": [], "categories_sizes": [], "default_left": [0, 0, 0, 0, 0, 0, 0], "id": 9, "left_children": [1, 3, 5, -1, -1, -1, -1], "loss_changes": [977.16364, 687.02734, 1047.0879, 0.0, 0.0, 0.0, 0.0], "parents": [2147483647, 0, 0, 1, 1, 2, 2], "right_children": [2, 4, 6, -1, -1, -1, -1], "split_conditions": [9.553532, 62.79004, 16.703394, -1.6617736, -8.8764, 5.221323, 0.05349933], "split_indices": [1, 0, 1, 0, 0, 0, 0], "split_type": [0, 0, 0, 0, 0, 0, 0], "sum_hessian": [700.0, 69.0, 631.0, 52.0, 17.0, 41.0, 590.0], "tree_param": {"num_deleted": "0", "num_feature": "2", "num_nodes": "7", "size_leaf_vector": "1"}}, {"base_weights": [-0.007516303, -0.1498158, 8.932162, -7.2489314, 0.00769758, 1.2485758, 10.5008955], "categories": [], "categories_nodes": [], "categories_segments": [], "categories_sizes": [], "default_left": [0, 0, 0, 0, 0, 0, 0], "id": 10, "left_children": [1, 3, 5, -1, -1, -1, -1], "loss_changes": [893.08844, 772.7359, 119.477295, 0.0, 0.0, 0.0, 0.0], "parents": [2147483647, 0, 0, 1, 1, 2, 2], "right_children": [2, 4, 6, -1, -1, -1, -1], "split_conditions": [98.65153, 2.5386355, 10.973619, -7.2489314, 0.00769758, 1.2485758, 10.5008955], "split_indices": [0, 0, 1, 0, 0, 0, 0], "split_type": [0, 0, 0, 0, 0, 0, 0], "sum_hessian": [700.0, 690.0, 10.0, 14.0, 676.0, 2.0, 8.0], "tree_param": {"num_deleted": "0", "num_feature": "2", "num_nodes": "7", "size_leaf_vector": "1"}}, {"base_weights": [0.0064382185, 6.4554367, -0.3832391, 10.713118, -9.400255, -12.085951, -0.16693223], "categories": [], "categories_nodes": [], "categories_segments": [], "categories_sizes": [], "default_left": [0, 0, 0, 0, 0, 0, 0], "id": 11, "left_children": [1, 3, 5, -1, -1, -1, -1], "loss_changes": [1764.1069, 2801.045, 1673.754, 0.0, 0.0, 0.0, 0.0], "parents": [2147483647, 0, 0, 1, 1, 2, 2], "right_children": [2, 4, 6, -1, -1, -1, -1], "split_conditions": [5.808361, 80.65611, 7.4550643, 10.713118, -9.400255, -12.085951, -0.16693223], "split_indices": [0, 1, 0, 0, 0, 0, 0], "split_type": [0, 0, 0, 0, 0, 0, 0], "sum_hessian": [700.0, 39.0, 661.0, 31.0, 8.0, 11.0, 650.0], "tree_param": {"num_deleted": "0", "num_feature": "2", "num_nodes": "7", "size_leaf_vector": "1"}}, {"base_weights": [-0.015601089, -9.141282, 0.1836723, -11.200867, -4.1850944, 5.5648065, -0.044896536], "categories": [], "categories_nodes": [], "categories_segments": [], "categories_sizes": [], "default_left": [0, 0, 0, 0, 0, 0, 0], "id": 12, "left_children": [1, 3, 5, -1, -1, -1, -1], "loss_changes": [1276.4512, 106.238525, 845.2321, 0.0, 0.0, 0.0, 0.0], "parents": [2147483647, 0, 0, 1, 1, 2, 2], "right_children": [2, 4, 6, -1, -1, -1, -1], "split_conditions": [2.5386355, 56.79452, 6.337497, -11.200867, -4.1850944, 5.5648065, -0.044896536], "split_indices": [0, 1, 0, 0, 0, 0, 0], "split_type": [0, 0, 0, 0, 0, 0, 0], "sum_hessian": [700.0, 14.0, 686.0, 9.0, 5.0, 27.0, 659.0], "tree_param": {"num_deleted": "0", "num_feature": "2", "num_nodes": "7", "size_leaf_vector": "1"}}, {"base_weights": [-0.014061056, -6.5647264, 0.09988394, 1.3896408, -9.370586, 0.59174454, -1.236081], "categories": [], "categories_nodes": [], "categories_segments": [], "categories_sizes": [], "default_left": [0, 0, 0, 0, 0, 0, 0], "id": 13, "left_children": [1, 3, 5, -1, -1, -1, -1], "loss_changes": [523.893, 280.84784, 454.13632, 0.0, 0.0, 0.0, 0.0], "parents": [2147483647, 0, 0, 1, 1, 2, 2], "right_children": [2, 4, 6, -1, -1, -1, -1], "split_conditions": [2.094496, 0.7562875, 73.5071, 1.3896408, -9.370586, 0.59174454, -1.236081], "split_indices": [1, 1, 0, 0, 0, 0, 0], "split_type": [0, 0, 0, 0, 0, 0, 0], "sum_hessian": [700.0, 11.0, 689.0, 3.0, 8.0, 504.0, 185.0], "tree_param": {"num_deleted": "0", "num_feature": "2", "num_nodes": "7", "size_leaf_vector": "1"}}, {"base_weights": [-0.012299226, -0.7996796, 2.698759, 0.013594231, -14.258488, 5.3881187, 0.81038517], "categories": [], "categories_nodes": [], "categories_segments": [], "categories_sizes": [], "default_left": [0, 0, 0, 0, 0, 0, 0], "id": 14, "left_children": [1, 3, 5, -1, -1, -1, -1], "loss_changes": [1498.5365, 5954.6523, 798.0392, 0.0, 0.0, 0.0, 0.0], "parents": [2147483647, 0, 0, 1, 1, 2, 2], "right_children": [2, 4, 6, -1, -1, -1, -1], "split_conditions": [78.85972, 73.5071, 50.836056, 0.013594231, -14.258488, 5.3881187, 0.81038517], "split_indices": [0, 0, 1, 0, 0, 0, 0], "split_type": [0, 0, 0, 0, 0, 0, 0], "sum_hessian": [700.0, 543.0, 157.0, 513.0, 30.0, 64.0, 93.0], "tree_param": {"num_deleted": "0", "num_feature": "2", "num_nodes": "7", "size_leaf_vector": "1"}}, {"base_weights": [0.0054818452, -2.023758, 0.47540146, 0.00489186, -13.384442, -0.37713757, 1.8639886], "categories": [], "categories_nodes": [], "categories_segments": [], "categories_sizes": [], "default_left": [0, 0, 0, 0, 0, 0, 0], "id": 15, "left_children": [1, 3, 5, -1, -1, -1, -1], "loss_changes": [669.42145, 3042.25, 675.4831, 0.0, 0.0, 0.0, 0.0], "parents": [2147483647, 0, 0, 1, 1, 2, 2], "right_children": [2, 4, 6, -1, -1, -1, -1], "split_conditions": [17.167929, 14.866273, 65.67367, 0.00489186, -13.384442, -0.37713757, 1.8639886], "split_indices": [0, 0, 1, 0, 0, 0, 0], "split_type": [0, 0, 0, 0, 0, 0, 0], "sum_hessian": [700.0, 131.0, 569.0, 112.0, 19.0, 353.0, 216.0], "tree_param": {"num_deleted": "0", "num_feature": "2", "num_nodes": "7", "size_leaf_vector": "1"}}, {"base_weights": [0.0027922497, 0.34648824, -2.115526, 0.1580722, 12.785319, 3.585273, -5.200095], "categories": [], "categories_nodes": [], "categories_segments": [], "categories_sizes": [], "default_left": [0, 0, 0, 0, 0, 0, 0], "id": 16, "left_children": [1, 3, 5, -1, -1, -1, -1], "loss_changes": [511.10126, 1413.5588, 1741.9258, 0.0, 0.0, 0.0, 0.0], "parents": [2147483647, 0, 0, 1, 1, 2, 2], "right_children": [2, 4, 6, -1, -1, -1, -1], "split_conditions": [87.357864, 86.236374, 48.296886, 0.1580722, 12.785319, 3.585273, -5.200095], "split_indices": [0, 0, 1, 0, 0, 0, 0], "split_type": [0, 0, 0, 0, 0, 0, 0], "sum_hessian": [700.0, 603.0, 97.0, 595.0, 8.0, 34.0, 63.0], "tree_param": {"num_deleted": "0", "num_feature": "2", "num_nodes": "7", "size_leaf_vector": "1"}}, {"base_weights": [0.01615242, 0.13951693, -4.4193277, -0.10622968, 3.4671996, -6.170762, -0.53533065], "categories": [], "categories_nodes": [], "categories_segments": [], "categories_sizes": [], "default_left": [0, 0, 0, 0, 0, 0, 0], "id": 17, "left_children": [1, 3, 5, -1, -1, -1, -1], "loss_changes": [384.19037, 558.90295, 125.94537, 0.0, 0.0, 0.0, 0.0], "parents": [2147483647, 0, 0, 1, 1, 2, 2], "right_children": [2, 4, 6, -1, -1, -1, -1], "split_conditions": [96.99098, 91.09272, 56.573196, -0.10622968, 3.4671996, -6.170762, -0.53533065], "split_indices": [0, 0, 1, 0, 0, 0, 0], "split_type": [0, 0, 0, 0, 0, 0, 0], "sum_hessian": [700.0, 682.0, 18.0, 636.0, 46.0, 12.0, 6.0], "tree_param": {"num_deleted": "0", "num_feature": "2", "num_nodes": "7", "size_leaf_vector": "1"}}, {"base_weights": [0.002438854, -1.1329728, 0.5003398, -0.40695658, -10.7376585, 8.447765, -0.0386788], "categories": [], "categories_nodes": [], "categories_segments": [], "categories_sizes": [], "default_left": [0, 0, 0, 0, 0, 0, 0], "id": 18, "left_children": [1, 3, 5, -1, -1, -1, -1], "loss_changes": [396.858, 1487.8861, 2090.8264, 0.0, 0.0, 0.0, 0.0], "parents": [2147483647, 0, 0, 1, 1, 2, 2], "right_children": [2, 4, 6, -1, -1, -1, -1], "split_conditions": [32.64613, 92.65876, 37.32518, -0.40695658, -10.7376585, 8.447765, -0.0386788], "split_indices": [1, 0, 1, 0, 0, 0, 0], "split_type": [0, 0, 0, 0, 0, 0, 0], "sum_hessian": [700.0, 213.0, 487.0, 199.0, 14.0, 30.0, 457.0], "tree_param": {"num_deleted": "0", "num_feature": "2", "num_nodes": "7", "size_leaf_vector": "1"}}, {"base_weights": [-0.003893636, -0.12351344, 7.510759, -4.370582, 0.022684002, 9.639439, -1.3788656], "categories": [], "categories_nodes": [], "categories_segments": [], "categories_sizes": [], "default_left": [0, 0, 0, 0, 0, 0, 0], "id": 19, "left_children": [1, 3, 5, -1, -1, -1, -1], "loss_changes": [631.0575, 429.14835, 221.44623, 0.0, 0.0, 0.0, 0.0], "parents": [2147483647, 0, 0, 1, 1, 2, 2], "right_children": [2, 4, 6, -1, -1, -1, -1], "split_conditions": [98.65153, 3.6549668, 61.293957, -4.370582, 0.022684002, 9.639439, -1.3788656], "split_indices": [0, 0, 1, 0, 0, 0, 0], "split_type": [0, 0, 0, 0, 0, 0, 0], "sum_hessian": [700.0, 690.0, 10.0, 22.0, 668.0, 8.0, 2.0], "tree_param": {"num_deleted": "0", "num_feature": "2", "num_nodes": "7", "size_leaf_vector": "1"}}, {"base_weights": [0.0029070415, -0.66462404, 0.9292668, 0.057179324, -6.955986, 0.39513016, 4.74627], "categories": [], "categories_nodes": [], "categories_segments": [], "categories_sizes": [], "default_left": [0, 0, 0, 0, 0, 0, 0], "id": 20, "left_children": [1, 3, 5, -1, -1, -1, -1], "loss_changes": [434.09772, 1853.1771, 597.53217, 0.0, 0.0, 0.0, 0.0], "parents": [2147483647, 0, 0, 1, 1, 2, 2], "right_children": [2, 4, 6, -1, -1, -1, -1], "split_conditions": [61.69269, 54.669743, 91.09272, 0.057179324, -6.955986, 0.39513016, 4.74627], "split_indices": [1, 1, 0, 0, 0, 0, 0], "split_type": [0, 0, 0, 0, 0, 0, 0], "sum_hessian": [700.0, 407.0, 293.0, 366.0, 41.0, 258.0, 35.0], "tree_param": {"num_deleted": "0", "num_feature": "2", "num_nodes": "7", "size_leaf_vector": "1"}}, {"base_weights": [-0.0006711038, -2.7976992, 0.09407458, -3.8870726, 10.584259, 1.0620604, -0.17772196], "categories": [], "categories_nodes": [], "categories_segments": [], "categories_sizes": [], "default_left": [0, 0, 0, 0, 0, 0, 0], "id": 21, "left_children": [1, 3, 5, -1, -1, -1, -1], "loss_changes": [186.03262, 376.43466, 178.83038, 0.0, 0.0, 0.0, 0.0], "parents": [2147483647, 0, 0, 1, 1, 2, 2], "right_children": [2, 4, 6, -1, -1, -1, -1], "split_conditions": [3.038706, 89.026375, 25.224102, -3.8870726, 10.584259, 1.0620604, -0.17772196], "split_indices": [1, 0, 1, 0, 0, 0, 0], "split_type": [0, 0, 0, 0, 0, 0, 0], "sum_hessian": [700.0, 22.0, 678.0, 21.0, 1.0, 148.0, 530.0], "tree_param": {"num_deleted": "0", "num_feature": "2", "num_nodes": "7", "size_leaf_vector": "1"}}, {"base_weights": [0.010821883, -0.67752546, 0.44360912, -0.29402837, -5.748432, 4.604893, 0.17603034], "categories": [], "categories_nodes": [], "categories_segments": [], "categories_sizes": [], "default_left": [0, 0, 0, 0, 0, 0, 0], "id": 22, "left_children": [1, 3, 5, -1, -1, -1, -1], "loss_changes": [209.13403, 525.31757, 479.0955, 0.0, 0.0, 0.0, 0.0], "parents": [2147483647, 0, 0, 1, 1, 2, 2], "right_children": [2, 4, 6, -1, -1, -1, -1], "split_conditions": [42.54933, 92.65876, 45.437733, -0.29402837, -5.748432, 4.604893, 0.17603034], "split_indices": [1, 0, 1, 0, 0, 0, 0], "split_type": [0, 0, 0, 0, 0, 0, 0], "sum_hessian": [700.0, 270.0, 430.0, 252.0, 18.0, 25.0, 405.0], "tree_param": {"num_deleted": "0", "num_feature": "2", "num_nodes": "7", "size_leaf_vector": "1"}}, {"base_weights": [-0.001800967, -0.093972385, 3.950161, -0.22737594, 1.4715539, 9.161598, -1.1211344], "categories": [], "categories_nodes": [], "categories_segments": [], "categories_sizes": [], "default_left": [0, 0, 0, 0, 0, 0, 0], "id": 23, "left_children": [1, 3, 5, -1, -1, -1, -1], "loss_changes": [255.71602, 143.60349, 433.13123, 0.0, 0.0, 0.0, 0.0], "parents": [2147483647, 0, 0, 1, 1, 2, 2], "right_children": [2, 4, 6, -1, -1, -1, -1], "split_conditions": [98.00326, 93.62122, 30.560421, -0.22737594, 1.4715539, 9.161598, -1.1211344], "split_indices": [0, 1, 1, 0, 0, 0, 0], "split_type": [0, 0, 0, 0, 0, 0, 0], "sum_hessian": [700.0, 685.0, 15.0, 632.0, 53.0, 7.0, 8.0], "tree_param": {"num_deleted": "0", "num_feature": "2", "num_nodes": "7", "size_leaf_vector": "1"}}, {"base_weights": [-0.016154421, -0.34559998, 0.7717282, -0.076392606, -8.955143, -4.756531, 1.4214592], "categories": [], "categories_nodes": [], "categories_segments": [], "categories_sizes": [], "default_left": [0, 0, 0, 0, 0, 0, 0], "id": 24, "left_children": [1, 3, 5, -1, -1, -1, -1], "loss_changes": [182.22139, 1146.6034, 750.28064, 0.0, 0.0, 0.0, 0.0], "parents": [2147483647, 0, 0, 1, 1, 2, 2], "right_children": [2, 4, 6, -1, -1, -1, -1], "split_conditions": [70.36578, 67.91023, 15.860511, -0.076392606, -8.955143, -4.756531, 1.4214592], "split_indices": [0, 0, 1, 0, 0, 0, 0], "split_type": [0, 0, 0, 0, 0, 0, 0], "sum_hessian": [700.0, 494.0, 206.0, 480.0, 14.0, 21.0, 185.0], "tree_param": {"num_deleted": "0", "num_feature": "2", "num_nodes": "7", "size_leaf_vector": "1"}}, {"base_weights": [-0.00065427774, 0.28252587, -1.000002, 0.003602849, 10.174756, 1.1278106, -2.3928144], "categories": [], "categories_nodes": [], "categories_segments": [], "categories_sizes": [], "default_left": [0, 0, 0, 0, 0, 0, 0], "id": 25, "left_children": [1, 3, 5, -1, -1, -1, -1], "loss_changes": [198.66232, 1509.2299, 462.06348, 0.0, 0.0, 0.0, 0.0], "parents": [2147483647, 0, 0, 1, 1, 2, 2], "right_children": [2, 4, 6, -1, -1, -1, -1], "split_conditions": [79.157906, 76.15106, 48.296886, 0.003602849, 10.174756, 1.1278106, -2.3928144], "split_indices": [0, 0, 1, 0, 0, 0, 0], "split_type": [0, 0, 0, 0, 0, 0, 0], "sum_hessian": [700.0, 546.0, 154.0, 532.0, 14.0, 61.0, 93.0], "tree_param": {"num_deleted": "0", "num_feature": "2", "num_nodes": "7", "size_leaf_vector": "1"}}, {"base_weights": [0.012718081, -0.18430834, 0.9492968, -0.028101327, -7.575765, 9.759155, 0.6451898], "categories": [], "categories_nodes": [], "categories_segments": [], "categories_sizes": [], "default_left": [0, 0, 0, 0, 0, 0, 0], "id": 26, "left_children": [1, 3, 5, -1, -1, -1, -1], "loss_changes": [129.531, 669.45355, 320.5585, 0.0, 0.0, 0.0, 0.0], "parents": [2147483647, 0, 0, 1, 1, 2, 2], "right_children": [2, 4, 6, -1, -1, -1, -1], "split_conditions": [82.645744, 81.2901, 4.16729, -0.028101327, -7.575765, 9.759155, 0.6451898], "split_indices": [0, 0, 1, 0, 0, 0, 0], "split_type": [0, 0, 0, 0, 0, 0, 0], "sum_hessian": [700.0, 579.0, 121.0, 568.0, 11.0, 3.0, 118.0], "tree_param": {"num_deleted": "0", "num_feature": "2", "num_nodes": "7", "size_leaf_vector": "1"}}, {"base_weights": [-0.0032964589, 0.15705734, -0.8303556, -0.20415272, 0.88608146, -1.3615102, 4.266957], "categories": [], "categories_nodes": [], "categories_segments": [], "categories_sizes": [], "default_left": [0, 0, 0, 0, 0, 0, 0], "id": 27, "left_children": [1, 3, 5, -1, -1, -1, -1], "loss_changes": [93.098495, 155.01944, 314.46008, 0.0, 0.0, 0.0, 0.0], "parents": [2147483647, 0, 0, 1, 1, 2, 2], "right_children": [2, 4, 6, -1, -1, -1, -1], "split_conditions": [84.651436, 59.82253, 90.82659, -0.20415272, 0.88608146, -1.3615102, 4.266957], "split_indices": [1, 1, 0, 0, 0, 0, 0], "split_type": [0, 0, 0, 0, 0, 0, 0], "sum_hessian": [700.0, 587.0, 113.0, 393.0, 194.0, 103.0, 10.0], "tree_param": {"num_deleted": "0", "num_feature": "2", "num_nodes": "7", "size_leaf_vector": "1"}}, {"base_weights": [0.005114415, 0.18697695, -1.1158049, 0.057557747, 2.5772882, 2.707975, -3.582665], "categories": [], "categories_nodes": [], "categories_segments": [], "categories_sizes": [], "default_left": [0, 0, 0, 0, 0, 0, 0], "id": 28, "left_children": [1, 3, 5, -1, -1, -1, -1], "loss_changes": [143.10974, 186.70038, 934.1093, 0.0, 0.0, 0.0, 0.0], "parents": [2147483647, 0, 0, 1, 1, 2, 2], "right_children": [2, 4, 6, -1, -1, -1, -1], "split_conditions": [87.357864, 81.72222, 56.573196, 0.057557747, 2.5772882, 2.707975, -3.582665], "split_indices": [0, 0, 1, 0, 0, 0, 0], "split_type": [0, 0, 0, 0, 0, 0, 0], "sum_hessian": [700.0, 603.0, 97.0, 573.0, 30.0, 38.0, 59.0], "tree_param": {"num_deleted": "0", "num_feature": "2", "num_nodes": "7", "size_leaf_vector": "1"}}, {"base_weights": [0.0025114096, -0.5699848, 0.38689575, -0.12472719, -6.726723, 0.08405641, 3.429016], "categories": [], "categories_nodes": [], "categories_segments": [], "categories_sizes": [], "default_left": [0, 0, 0, 0, 0, 0, 0], "id": 29, "left_children": [1, 3, 5, -1, -1, -1, -1], "loss_changes": [154.4816, 772.21735, 386.6468, 0.0, 0.0, 0.0, 0.0], "parents": [2147483647, 0, 0, 1, 1, 2, 2], "right_children": [2, 4, 6, -1, -1, -1, -1], "split_conditions": [43.76031, 92.65876, 92.08724, -0.12472719, -6.726723, 0.08405641, 3.429016], "split_indices": [1, 0, 0, 0, 0, 0, 0], "split_type": [0, 0, 0, 0, 0, 0, 0], "sum_hessian": [700.0, 281.0, 419.0, 263.0, 18.0, 382.0, 37.0], "tree_param": {"num_deleted": "0", "num_feature": "2", "num_nodes": "7", "size_leaf_vector": "1"}}, {"base_weights": [-0.006880283, -0.1340348, 1.0405619, -0.111891285, -3.5493774, 11.085266, 0.47591284], "categories": [], "categories_nodes": [], "categories_segments": [], "categories_sizes": [], "default_left": [0, 0, 0, 0, 0, 0, 0], "id": 30, "left_children": [1, 3, 5, -1, -1, -1, -1], "loss_changes": [93.50355, 46.945778, 425.77606, 0.0, 0.0, 0.0, 0.0], "parents": [2147483647, 0, 0, 1, 1, 2, 2], "right_children": [2, 4, 6, -1, -1, -1, -1], "split_conditions": [89.95746, 99.49078, 90.41587, -0.111891285, -3.5493774, 11.085266, 0.47591284], "split_indices": [0, 1, 0, 0, 0, 0, 0], "split_type": [0, 0, 0, 0, 0, 0, 0], "sum_hessian": [700.0, 625.0, 75.0, 622.0, 3.0, 3.0, 72.0], "tree_param": {"num_deleted": "0", "num_feature": "2", "num_nodes": "7", "size_leaf_vector": "1"}}, {"base_weights": [-0.008334379, -0.043543912, 3.0471344, -0.29627192, 0.30335099, 4.315084, 1.905304], "categories": [], "categories_nodes": [], "categories_segments": [], "categories_sizes": [], "default_left": [0, 0, 0, 0, 0, 0, 0], "id": 31, "left_children": [1, 3, 5, -1, -1, -1, -1], "loss_changes": [75.54741, 60.932888, 3.3607178, 0.0, 0.0, 0.0, 0.0], "parents": [2147483647, 0, 0, 1, 1, 2, 2], "right_children": [2, 4, 6, -1, -1, -1, -1], "split_conditions": [99.24835, 57.651646, 27.074467, -0.29627192, 0.30335099, 4.315084, 1.905304], "split_indices": [1, 0, 0, 0, 0, 0, 0], "split_type": [0, 0, 0, 0, 0, 0, 0], "sum_hessian": [700.0, 693.0, 7.0, 401.0, 292.0, 2.0, 5.0], "tree_param": {"num_deleted": "0", "num_feature": "2", "num_nodes": "7", "size_leaf_vector": "1"}}, {"base_weights": [-0.0003119372, -0.25097856, 0.32034704, 0.057156507, -3.8609846, 0.6933255, -1.3342307], "categories": [], "categories_nodes": [], "categories_segments": [], "categories_sizes": [], "default_left": [0, 0, 0, 0, 0, 0, 0], "id": 32, "left_children": [1, 3, 5, -1, -1, -1, -1], "loss_changes": [56.425728, 438.49426, 190.9986, 0.0, 0.0, 0.0, 0.0], "parents": [2147483647, 0, 0, 1, 1, 2, 2], "right_children": [2, 4, 6, -1, -1, -1, -1], "split_conditions": [59.82253, 54.22372, 86.98964, 0.057156507, -3.8609846, 0.6933255, -1.3342307], "split_indices": [1, 1, 0, 0, 0, 0, 0], "split_type": [0, 0, 0, 0, 0, 0, 0], "sum_hessian": [700.0, 393.0, 307.0, 363.0, 30.0, 251.0, 56.0], "tree_param": {"num_deleted": "0", "num_feature": "2", "num_nodes": "7", "size_leaf_vector": "1"}}, {"base_weights": [0.0024947876, -0.105393596, 0.71781456, -0.058967832, -4.0962176, 3.2471447, -0.62081456], "categories": [], "categories_nodes": [], "categories_segments": [], "categories_sizes": [], "default_left": [0, 0, 0, 0, 0, 0, 0], "id": 33, "left_children": [1, 3, 5, -1, -1, -1, -1], "loss_changes": [54.175114, 112.77746, 313.51273, 0.0, 0.0, 0.0, 0.0], "parents": [2147483647, 0, 0, 1, 1, 2, 2], "right_children": [2, 4, 6, -1, -1, -1, -1], "split_conditions": [89.026375, 87.357864, 48.296886, -0.058967832, -4.0962176, 3.2471447, -0.62081456], "split_indices": [0, 0, 1, 0, 0, 0, 0], "split_type": [0, 0, 0, 0, 0, 0, 0], "sum_hessian": [700.0, 609.0, 91.0, 603.0, 6.0, 31.0, 60.0], "tree_param": {"num_deleted": "0", "num_feature": "2", "num_nodes": "7", "size_leaf_vector": "1"}}, {"base_weights": [-0.0021830217, -0.3928176, 0.26956803, -0.1293233, -4.116535, -0.084604934, 1.2865373], "categories": [], "categories_nodes": [], "categories_segments": [], "categories_sizes": [], "default_left": [0, 0, 0, 0, 0, 0, 0], "id": 34, "left_children": [1, 3, 5, -1, -1, -1, -1], "loss_changes": [74.5208, 282.047, 149.22461, 0.0, 0.0, 0.0, 0.0], "parents": [2147483647, 0, 0, 1, 1, 2, 2], "right_children": [2, 4, 6, -1, -1, -1, -1], "split_conditions": [44.59027, 92.65876, 76.949295, -0.1293233, -4.116535, -0.084604934, 1.2865373], "split_indices": [1, 0, 0, 0, 0, 0, 0], "split_type": [0, 0, 0, 0, 0, 0, 0], "sum_hessian": [700.0, 287.0, 413.0, 269.0, 18.0, 307.0, 106.0], "tree_param": {"num_deleted": "0", "num_feature": "2", "num_nodes": "7", "size_leaf_vector": "1"}}, {"base_weights": [-0.004340674, 0.23430781, -0.41251418, 0.16911669, 4.9542084, -0.2810678, -4.5015106], "categories": [], "categories_nodes": [], "categories_segments": [], "categories_sizes": [], "default_left": [0, 0, 0, 0, 0, 0, 0], "id": 35, "left_children": [1, 3, 5, -1, -1, -1, -1], "loss_changes": [68.38106, 135.47131, 137.94305, 0.0, 0.0, 0.0, 0.0], "parents": [2147483647, 0, 0, 1, 1, 2, 2], "right_children": [2, 4, 6, -1, -1, -1, -1], "split_conditions": [66.13706, 65.67367, 96.93025, 0.16911669, 4.9542084, -0.2810678, -4.5015106], "split_indices": [1, 1, 0, 0, 0, 0, 0], "split_type": [0, 0, 0, 0, 0, 0, 0], "sum_hessian": [700.0, 442.0, 258.0, 437.0, 5.0, 251.0, 7.0], "tree_param": {"num_deleted": "0", "num_feature": "2", "num_nodes": "7", "size_leaf_vector": "1"}}, {"base_weights": [0.0004854515, -0.054292418, 2.3490562, -0.2085407, 0.58862364, 6.3120117, 0.9489887], "categories": [], "categories_nodes": [], "categories_segments": [], "categories_sizes": [], "default_left": [0, 0, 0, 0, 0, 0, 0], "id": 36, "left_children": [1, 3, 5, -1, -1, -1, -1], "loss_changes": [90.31098, 68.152466, 82.784454, 0.0, 0.0, 0.0, 0.0], "parents": [2147483647, 0, 0, 1, 1, 2, 2], "right_children": [2, 4, 6, -1, -1, -1, -1], "split_conditions": [98.00326, 82.468094, 98.56505, -0.2085407, 0.58862364, 6.3120117, 0.9489887], "split_indices": [0, 1, 0, 0, 0, 0, 0], "split_type": [0, 0, 0, 0, 0, 0, 0], "sum_hessian": [700.0, 685.0, 15.0, 553.0, 132.0, 3.0, 12.0], "tree_param": {"num_deleted": "0", "num_feature": "2", "num_nodes": "7", "size_leaf_vector": "1"}}, {"base_weights": [-0.002540406, 0.082830146, -0.7612204, -0.002434576, 5.97584, -1.1605959, 3.0560129], "categories": [], "categories_nodes": [], "categories_segments": [], "categories_sizes": [], "default_left": [0, 0, 0, 0, 0, 0, 0], "id": 37, "left_children": [1, 3, 5, -1, -1, -1, -1], "loss_changes": [45.466072, 317.0705, 111.786995, 0.0, 0.0, 0.0, 0.0], "parents": [2147483647, 0, 0, 1, 1, 2, 2], "right_children": [2, 4, 6, -1, -1, -1, -1], "split_conditions": [90.90325, 88.69249, 92.08724, -0.002434576, 5.97584, -1.1605959, 3.0560129], "split_indices": [1, 1, 0, 0, 0, 0, 0], "split_type": [0, 0, 0, 0, 0, 0, 0], "sum_hessian": [700.0, 630.0, 70.0, 622.0, 8.0, 64.0, 6.0], "tree_param": {"num_deleted": "0", "num_feature": "2", "num_nodes": "7", "size_leaf_vector": "1"}}, {"base_weights": [0.0023683312, -1.0361935, 0.05034605, 0.4215655, -7.1804504, 3.9637952, -0.008845545], "categories": [], "categories_nodes": [], "categories_segments": [], "categories_sizes": [], "default_left": [0, 0, 0, 0, 0, 0, 0], "id": 38, "left_children": [1, 3, 5, -1, -1, -1, -1], "loss_changes": [34.98148, 280.68927, 155.46771, 0.0, 0.0, 0.0, 0.0], "parents": [2147483647, 0, 0, 1, 1, 2, 2], "right_children": [2, 4, 6, -1, -1, -1, -1], "split_conditions": [4.5304008, 80.65611, 5.808361, 0.4215655, -7.1804504, 3.9637952, -0.008845545], "split_indices": [0, 1, 0, 0, 0, 0, 0], "split_type": [0, 0, 0, 0, 0, 0, 0], "sum_hessian": [700.0, 30.0, 670.0, 25.0, 5.0, 9.0, 661.0], "tree_param": {"num_deleted": "0", "num_feature": "2", "num_nodes": "7", "size_leaf_vector": "1"}}, {"base_weights": [-0.0040020472, -0.80269295, 0.072010666, -4.930298, 0.10331382, 1.1666642, -0.038892545], "categories": [], "categories_nodes": [], "categories_segments": [], "categories_sizes": [], "default_left": [0, 0, 0, 0, 0, 0, 0], "id": 39, "left_children": [1, 3, 5, -1, -1, -1, -1], "loss_changes": [42.615982, 228.62729, 77.86317, 0.0, 0.0, 0.0, 0.0], "parents": [2147483647, 0, 0, 1, 1, 2, 2], "right_children": [2, 4, 6, -1, -1, -1, -1], "split_conditions": [8.534966, 14.2249365, 8.479201, -4.930298, 0.10331382, 1.1666642, -0.038892545], "split_indices": [0, 1, 1, 0, 0, 0, 0], "split_type": [0, 0, 0, 0, 0, 0, 0], "sum_hessian": [700.0, 60.0, 640.0, 10.0, 50.0, 58.0, 582.0], "tree_param": {"num_deleted": "0", "num_feature": "2", "num_nodes": "7", "size_leaf_vector": "1"}}, {"base_weights": [-0.0052816304, 1.6925169, -0.04995282, 0.15342624, 4.745127, -4.09836, -0.026100276], "categories": [], "categories_nodes": [], "categories_segments": [], "categories_sizes": [], "default_left": [0, 0, 0, 0, 0, 0, 0], "id": 40, "left_children": [1, 3, 5, -1, -1, -1, -1], "loss_changes": [53.250267, 83.84036, 65.94336, 0.0, 0.0, 0.0, 0.0], "parents": [2147483647, 0, 0, 1, 1, 2, 2], "right_children": [2, 4, 6, -1, -1, -1, -1], "split_conditions": [2.6511312, 69.22765, 3.438852, 0.15342624, 4.745127, -4.09836, -0.026100276], "split_indices": [0, 1, 0, 0, 0, 0, 0], "split_type": [0, 0, 0, 0, 0, 0, 0], "sum_hessian": [700.0, 17.0, 683.0, 12.0, 5.0, 3.0, 680.0], "tree_param": {"num_deleted": "0", "num_feature": "2", "num_nodes": "7", "size_leaf_vector": "1"}}, {"base_weights": [0.0011163349, -0.018734071, 1.7229996, 0.08048086, -0.38530052, -0.07713318, 2.8185058], "categories": [], "categories_nodes": [], "categories_segments": [], "categories_sizes": [], "default_left": [0, 0, 0, 0, 0, 0, 0], "id": 41, "left_children": [1, 3, 5, -1, -1, -1, -1], "loss_changes": [23.992517, 25.271, 15.9938545, 0.0, 0.0, 0.0, 0.0], "parents": [2147483647, 0, 0, 1, 1, 2, 2], "right_children": [2, 4, 6, -1, -1, -1, -1], "split_conditions": [98.727615, 79.157906, 23.754332, 0.08048086, -0.38530052, -0.07713318, 2.8185058], "split_indices": [0, 0, 1, 0, 0, 0, 0], "split_type": [0, 0, 0, 0, 0, 0, 0], "sum_hessian": [700.0, 693.0, 7.0, 546.0, 147.0, 3.0, 4.0], "tree_param": {"num_deleted": "0", "num_feature": "2", "num_nodes": "7", "size_leaf_vector": "1"}}, {"base_weights": [-0.0072137313, -3.1488266, 0.010800116, -0.36008945, 0.11821499], "categories": [], "categories_nodes": [], "categories_segments": [], "categories_sizes": [], "default_left": [0, 0, 0, 0, 0], "id": 42, "left_children": [1, -1, 3, -1, -1], "loss_changes": [39.70537, 0.0, 27.85023, 0.0, 0.0], "parents": [2147483647, 0, 0, 2, 2], "right_children": [2, -1, 4, -1, -1], "split_conditions": [0.7562875, -3.1488266, 20.162731, -0.36008945, 0.11821499], "split_indices": [1, 0, 0, 0, 0], "split_type": [0, 0, 0, 0, 0], "sum_hessian": [700.0, 3.0, 697.0, 156.0, 541.0], "tree_param": {"num_deleted": "0", "num_feature": "2", "num_nodes": "5", "size_leaf_vector": "1"}}, {"base_weights": [-0.0008275907, -0.10674001, 0.38893566, -0.02645661, -2.6317499, 0.5439207, -7.386637], "categories": [], "categories_nodes": [], "categories_segments": [], "categories_sizes": [], "default_left": [0, 0, 0, 0, 0, 0, 0], "id": 43, "left_children": [1, 3, 5, -1, -1, -1, -1], "loss_changes": [28.979336, 111.82982, 184.78235, 0.0, 0.0, 0.0, 0.0], "parents": [2147483647, 0, 0, 1, 1, 2, 2], "right_children": [2, 4, 6, -1, -1, -1, -1], "split_conditions": [80.56702, 78.20281, 96.93025, -0.02645661, -2.6317499, 0.5439207, -7.386637], "split_indices": [1, 1, 0, 0, 0, 0, 0], "split_type": [0, 0, 0, 0, 0, 0, 0], "sum_hessian": [700.0, 551.0, 149.0, 535.0, 16.0, 147.0, 2.0], "tree_param": {"num_deleted": "0", "num_feature": "2", "num_nodes": "7", "size_leaf_vector": "1"}}, {"base_weights": [0.009068621, -0.11426684, 0.2557008, 0.004371782, -3.6974447, -1.3705543, 0.50157434], "categories": [], "categories_nodes": [], "categories_segments": [], "categories_sizes": [], "default_left": [0, 0, 0, 0, 0, 0, 0], "id": 44, "left_children": [1, 3, 5, -1, -1, -1, -1], "loss_changes": [21.352581, 198.9645, 94.25306, 0.0, 0.0, 0.0, 0.0], "parents": [2147483647, 0, 0, 1, 1, 2, 2], "right_children": [2, 4, 6, -1, -1, -1, -1], "split_conditions": [66.01974, 63.75575, 18.513292, 0.004371782, -3.6974447, -1.3705543, 0.50157434], "split_indices": [0, 0, 1, 0, 0, 0, 0], "split_type": [0, 0, 0, 0, 0, 0, 0], "sum_hessian": [700.0, 467.0, 233.0, 453.0, 14.0, 30.0, 203.0], "tree_param": {"num_deleted": "0", "num_feature": "2", "num_nodes": "7", "size_leaf_vector": "1"}}, {"base_weights": [-0.0065161097, 0.22110704, -0.2166599, 0.044694535, 4.005116, 0.029705148, -1.3758097], "categories": [], "categories_nodes": [], "categories_segments": [], "categories_sizes": [], "default_left": [0, 0, 0, 0, 0, 0, 0], "id": 45, "left_children": [1, 3, 5, -1, -1, -1, -1], "loss_changes": [33.57925, 224.78415, 104.275375, 0.0, 0.0, 0.0, 0.0], "parents": [2147483647, 0, 0, 1, 1, 2, 2], "right_children": [2, 4, 6, -1, -1, -1, -1], "split_conditions": [51.268852, 49.587574, 87.357864, 0.044694535, 4.005116, 0.029705148, -1.3758097], "split_indices": [1, 1, 0, 0, 0, 0, 0], "split_type": [0, 0, 0, 0, 0, 0, 0], "sum_hessian": [700.0, 336.0, 364.0, 322.0, 14.0, 301.0, 63.0], "tree_param": {"num_deleted": "0", "num_feature": "2", "num_nodes": "7", "size_leaf_vector": "1"}}, {"base_weights": [0.0038598205, -0.15418807, 0.8363991, -0.12195422, -3.271291, 0.20877953, 1.9608948], "categories": [], "categories_nodes": [], "categories_segments": [], "categories_sizes": [], "default_left": [0, 0, 0, 0, 0, 0, 0], "id": 46, "left_children": [1, 3, 5, -1, -1, -1, -1], "loss_changes": [92.36729, 58.882046, 78.63523, 0.0, 0.0, 0.0, 0.0], "parents": [2147483647, 0, 0, 1, 1, 2, 2], "right_children": [2, 4, 6, -1, -1, -1, -1], "split_conditions": [85.11367, 83.83287, 72.59799, -0.12195422, -3.271291, 0.20877953, 1.9608948], "split_indices": [0, 0, 1, 0, 0, 0, 0], "split_type": [0, 0, 0, 0, 0, 0, 0], "sum_hessian": [700.0, 589.0, 111.0, 584.0, 5.0, 72.0, 39.0], "tree_param": {"num_deleted": "0", "num_feature": "2", "num_nodes": "7", "size_leaf_vector": "1"}}, {"base_weights": [0.0022984177, -0.16091561, 0.11187951, -0.07774041, -2.675259, 0.31250557, -0.9498145], "categories": [], "categories_nodes": [], "categories_segments": [], "categories_sizes": [], "default_left": [0, 0, 0, 0, 0, 0, 0], "id": 47, "left_children": [1, 3, 5, -1, -1, -1, -1], "loss_changes": [12.555509, 58.766975, 89.758286, 0.0, 0.0, 0.0, 0.0], "parents": [2147483647, 0, 0, 1, 1, 2, 2], "right_children": [2, 4, 6, -1, -1, -1, -1], "split_conditions": [43.76031, 42.81996, 87.357864, -0.07774041, -2.675259, 0.31250557, -0.9498145], "split_indices": [1, 1, 0, 0, 0, 0, 0], "split_type": [0, 0, 0, 0, 0, 0, 0], "sum_hessian": [700.0, 281.0, 419.0, 273.0, 8.0, 353.0, 66.0], "tree_param": {"num_deleted": "0", "num_feature": "2", "num_nodes": "7", "size_leaf_vector": "1"}}, {"base_weights": [0.0022921052, -0.046264626, 0.4549785, 0.1414935, -0.26665768, -0.80057925, 2.3912172], "categories": [], "categories_nodes": [], "categories_segments": [], "categories_sizes": [], "default_left": [0, 0, 0, 0, 0, 0, 0], "id": 48, "left_children": [1, 3, 5, -1, -1, -1, -1], "loss_changes": [15.429709, 26.273024, 167.22643, 0.0, 0.0, 0.0, 0.0], "parents": [2147483647, 0, 0, 1, 1, 2, 2], "right_children": [2, 4, 6, -1, -1, -1, -1], "split_conditions": [90.82659, 54.669743, 71.5825, 0.1414935, -0.26665768, -0.80057925, 2.3912172], "split_indices": [0, 1, 1, 0, 0, 0, 0], "split_type": [0, 0, 0, 0, 0, 0, 0], "sum_hessian": [700.0, 633.0, 67.0, 342.0, 291.0, 41.0, 26.0], "tree_param": {"num_deleted": "0", "num_feature": "2", "num_nodes": "7", "size_leaf_vector": "1"}}, {"base_weights": [-0.00066379, 0.03962076, -0.5042079, 0.014233706, 2.7621257, 5.479004, -0.85311645], "categories": [], "categories_nodes": [], "categories_segments": [], "categories_sizes": [], "default_left": [0, 0, 0, 0, 0, 0, 0], "id": 49, "left_children": [1, 3, 5, -1, -1, -1, -1], "loss_changes": [14.239796, 44.88633, 113.2291, 0.0, 0.0, 0.0, 0.0], "parents": [2147483647, 0, 0, 1, 1, 2, 2], "right_children": [2, 4, 6, -1, -1, -1, -1], "split_conditions": [92.9376, 92.08724, 9.553532, 0.014233706, 2.7621257, 5.479004, -0.85311645], "split_indices": [0, 0, 1, 0, 0, 0, 0], "split_type": [0, 0, 0, 0, 0, 0, 0], "sum_hessian": [700.0, 649.0, 51.0, 644.0, 5.0, 2.0, 49.0], "tree_param": {"num_deleted": "0", "num_feature": "2", "num_nodes": "7", "size_leaf_vector": "1"}}, {"base_weights": [0.010568232, -0.4601246, 0.07888976, -0.72077566, 2.6961844, 3.8221638, 0.0418198], "categories": [], "categories_nodes": [], "categories_segments": [], "categories_sizes": [], "default_left": [0, 0, 0, 0, 0, 0, 0], "id": 50, "left_children": [1, 3, 5, -1, -1, -1, -1], "loss_changes": [22.579376, 75.16322, 84.90189, 0.0, 0.0, 0.0, 0.0], "parents": [2147483647, 0, 0, 1, 1, 2, 2], "right_children": [2, 4, 6, -1, -1, -1, -1], "split_conditions": [12.839429, 89.026375, 13.252467, -0.72077566, 2.6961844, 3.8221638, 0.0418198], "split_indices": [1, 0, 1, 0, 0, 0, 0], "split_type": [0, 0, 0, 0, 0, 0, 0], "sum_hessian": [700.0, 88.0, 612.0, 82.0, 6.0, 5.0, 607.0], "tree_param": {"num_deleted": "0", "num_feature": "2", "num_nodes": "7", "size_leaf_vector": "1"}}, {"base_weights": [0.008330741, 0.65444756, -0.0422995, -0.1950427, 1.1649275, -0.85337883, 0.028064538], "categories": [], "categories_nodes": [], "categories_segments": [], "categories_sizes": [], "default_left": [0, 0, 0, 0, 0, 0, 0], "id": 51, "left_children": [1, 3, 5, -1, -1, -1, -1], "loss_changes": [22.959532, 22.343245, 37.177055, 0.0, 0.0, 0.0, 0.0], "parents": [2147483647, 0, 0, 1, 1, 2, 2], "right_children": [2, 4, 6, -1, -1, -1, -1], "split_conditions": [6.761256, 29.712172, 14.6374, -0.1950427, 1.1649275, -0.85337883, 0.028064538], "split_indices": [1, 0, 1, 0, 0, 0, 0], "split_type": [0, 0, 0, 0, 0, 0, 0], "sum_hessian": [700.0, 50.0, 650.0, 19.0, 31.0, 51.0, 599.0], "tree_param": {"num_deleted": "0", "num_feature": "2", "num_nodes": "7", "size_leaf_vector": "1"}}, {"base_weights": [0.00070153695, -1.9116974, 0.011659838, -0.2825775, -2.360545, 0.359374, -0.06931005], "categories": [], "categories_nodes": [], "categories_segments": [], "categories_sizes": [], "default_left": [0, 0, 0, 0, 0, 0, 0], "id": 52, "left_children": [1, 3, 5, -1, -1, -1, -1], "loss_changes": [14.712896, 2.2578697, 19.676662, 0.0, 0.0, 0.0, 0.0], "parents": [2147483647, 0, 0, 1, 1, 2, 2], "right_children": [2, 4, 6, -1, -1, -1, -1], "split_conditions": [0.7562875, 44.84455, 20.185345, -0.2825775, -2.360545, 0.359374, -0.06931005], "split_indices": [1, 0, 1, 0, 0, 0, 0], "split_type": [0, 0, 0, 0, 0, 0, 0], "sum_hessian": [700.0, 3.0, 697.0, 1.0, 2.0, 131.0, 566.0], "tree_param": {"num_deleted": "0", "num_feature": "2", "num_nodes": "7", "size_leaf_vector": "1"}}, {"base_weights": [-0.0043463525, 0.43971, -0.031170987, 1.4526589, -3.2107425, -1.765742, -0.007253081], "categories": [], "categories_nodes": [], "categories_segments": [], "categories_sizes": [], "default_left": [0, 0, 0, 0, 0, 0, 0], "id": 53, "left_children": [1, 3, 5, -1, -1, -1, -1], "loss_changes": [8.363771, 152.57297, 27.451788, 0.0, 0.0, 0.0, 0.0], "parents": [2147483647, 0, 0, 1, 1, 2, 2], "right_children": [2, 4, 6, -1, -1, -1, -1], "split_conditions": [5.808361, 80.65611, 7.0568748, 1.4526589, -3.2107425, -1.765742, -0.007253081], "split_indices": [0, 1, 0, 0, 0, 0, 0], "split_type": [0, 0, 0, 0, 0, 0, 0], "sum_hessian": [700.0, 39.0, 661.0, 31.0, 8.0, 8.0, 653.0], "tree_param": {"num_deleted": "0", "num_feature": "2", "num_nodes": "7", "size_leaf_vector": "1"}}, {"base_weights": [-0.005035305, -1.1927291, 0.031597007, -2.193467, 0.70765305, 1.2069764, -0.0076301806], "categories": [], "categories_nodes": [], "categories_segments": [], "categories_sizes": [], "default_left": [0, 0, 0, 0, 0, 0, 0], "id": 54, "left_children": [1, 3, 5, -1, -1, -1, -1], "loss_changes": [30.536774, 41.489685, 31.407963, 0.0, 0.0, 0.0, 0.0], "parents": [2147483647, 0, 0, 1, 1, 2, 2], "right_children": [2, 4, 6, -1, -1, -1, -1], "split_conditions": [3.438852, 63.852596, 6.337497, -2.193467, 0.70765305, 1.2069764, -0.0076301806], "split_indices": [0, 1, 0, 0, 0, 0, 0], "split_type": [0, 0, 0, 0, 0, 0, 0], "sum_hessian": [700.0, 20.0, 680.0, 13.0, 7.0, 21.0, 659.0], "tree_param": {"num_deleted": "0", "num_feature": "2", "num_nodes": "7", "size_leaf_vector": "1"}}, {"base_weights": [-0.0004029621, -0.02997033, 0.5630781, -0.0072572366, -2.1704538, -3.1907551, 0.8872727], "categories": [], "categories_nodes": [], "categories_segments": [], "categories_sizes": [], "default_left": [0, 0, 0, 0, 0, 0, 0], "id": 55, "left_children": [1, 3, 5, -1, -1, -1, -1], "loss_changes": [11.695992, 32.411785, 45.425102, 0.0, 0.0, 0.0, 0.0], "parents": [2147483647, 0, 0, 1, 1, 2, 2], "right_children": [2, 4, 6, -1, -1, -1, -1], "split_conditions": [95.80735, 95.181175, 5.1478753, -0.0072572366, -2.1704538, -3.1907551, 0.8872727], "split_indices": [1, 1, 0, 0, 0, 0, 0], "split_type": [0, 0, 0, 0, 0, 0, 0], "sum_hessian": [700.0, 666.0, 34.0, 660.0, 6.0, 2.0, 32.0], "tree_param": {"num_deleted": "0", "num_feature": "2", "num_nodes": "7", "size_leaf_vector": "1"}}, {"base_weights": [-0.0063932966, 0.010700347, -1.0796037, -0.05336561, 0.3069835, -2.5406888, 1.1818359], "categories": [], "categories_nodes": [], "categories_segments": [], "categories_sizes": [], "default_left": [0, 0, 0, 0, 0, 0, 0], "id": 56, "left_children": [1, 3, 5, -1, -1, -1, -1], "loss_changes": [12.871451, 13.132712, 39.348385, 0.0, 0.0, 0.0, 0.0], "parents": [2147483647, 0, 0, 1, 1, 2, 2], "right_children": [2, 4, 6, -1, -1, -1, -1], "split_conditions": [98.77224, 82.468094, 64.20316, -0.05336561, 0.3069835, -2.5406888, 1.1818359], "split_indices": [1, 1, 0, 0, 0, 0, 0], "split_type": [0, 0, 0, 0, 0, 0, 0], "sum_hessian": [700.0, 690.0, 10.0, 568.0, 122.0, 6.0, 4.0], "tree_param": {"num_deleted": "0", "num_feature": "2", "num_nodes": "7", "size_leaf_vector": "1"}}, {"base_weights": [-0.0015872052, 0.14974791, -0.115178935, 0.05597257, 4.75104, 0.025261696, -0.8284043], "categories": [], "categories_nodes": [], "categories_segments": [], "categories_sizes": [], "default_left": [0, 0, 0, 0, 0, 0, 0], "id": 57, "left_children": [1, 3, 5, -1, -1, -1, -1], "loss_changes": [12.06773, 129.6119, 40.18742, 0.0, 0.0, 0.0, 0.0], "parents": [2147483647, 0, 0, 1, 1, 2, 2], "right_children": [2, 4, 6, -1, -1, -1, -1], "split_conditions": [46.147747, 45.437733, 87.357864, 0.05597257, 4.75104, 0.025261696, -0.8284043], "split_indices": [1, 1, 0, 0, 0, 0, 0], "split_type": [0, 0, 0, 0, 0, 0, 0], "sum_hessian": [700.0, 300.0, 400.0, 295.0, 5.0, 335.0, 65.0], "tree_param": {"num_deleted": "0", "num_feature": "2", "num_nodes": "7", "size_leaf_vector": "1"}}, {"base_weights": [0.0057059247, -0.114380546, 0.62504923, -0.051477008, -0.93090093, -1.6681169, 0.93672526], "categories": [], "categories_nodes": [], "categories_segments": [], "categories_sizes": [], "default_left": [0, 0, 0, 0, 0, 0, 0], "id": 58, "left_children": [1, 3, 5, -1, -1, -1, -1], "loss_changes": [52.208195, 30.152948, 83.041214, 0.0, 0.0, 0.0, 0.0], "parents": [2147483647, 0, 0, 1, 1, 2, 2], "right_children": [2, 4, 6, -1, -1, -1, -1], "split_conditions": [84.645226, 79.157906, 17.389524, -0.051477008, -0.93090093, -1.6681169, 0.93672526], "split_indices": [0, 0, 1, 0, 0, 0, 0], "split_type": [0, 0, 0, 0, 0, 0, 0], "sum_hessian": [700.0, 587.0, 113.0, 546.0, 41.0, 13.0, 100.0], "tree_param": {"num_deleted": "0", "num_feature": "2", "num_nodes": "7", "size_leaf_vector": "1"}}, {"base_weights": [0.00062247046, 0.019833704, -1.2062489, -0.0041233264, 2.7556152, 1.0449982, -2.1810913], "categories": [], "categories_nodes": [], "categories_segments": [], "categories_sizes": [], "default_left": [0, 0, 0, 0, 0, 0, 0], "id": 59, "left_children": [1, 3, 5, -1, -1, -1, -1], "loss_changes": [16.27695, 45.300327, 26.419958, 0.0, 0.0, 0.0, 0.0], "parents": [2147483647, 0, 0, 1, 1, 2, 2], "right_children": [2, 4, 6, -1, -1, -1, -1], "split_conditions": [98.65153, 98.00326, 20.185345, -0.0041233264, 2.7556152, 1.0449982, -2.1810913], "split_indices": [0, 0, 1, 0, 0, 0, 0], "split_type": [0, 0, 0, 0, 0, 0, 0], "sum_hessian": [700.0, 690.0, 10.0, 685.0, 5.0, 3.0, 7.0], "tree_param": {"num_deleted": "0", "num_feature": "2", "num_nodes": "7", "size_leaf_vector": "1"}}, {"base_weights": [-0.005199838, -0.016736688, 1.6040771, 0.026044868, -0.7392062, -0.28271484, 2.1464539], "categories": [], "categories_nodes": [], "categories_segments": [], "categories_sizes": [], "default_left": [0, 0, 0, 0, 0, 0, 0], "id": 60, "left_children": [1, 3, 5, -1, -1, -1, -1], "loss_changes": [13.041603, 21.562386, 5.7235947, 0.0, 0.0, 0.0, 0.0], "parents": [2147483647, 0, 0, 1, 1, 2, 2], "right_children": [2, 4, 6, -1, -1, -1, -1], "split_conditions": [99.29648, 93.9499, 20.185345, 0.026044868, -0.7392062, -0.28271484, 2.1464539], "split_indices": [0, 0, 1, 0, 0, 0, 0], "split_type": [0, 0, 0, 0, 0, 0, 0], "sum_hessian": [700.0, 696.0, 4.0, 658.0, 38.0, 1.0, 3.0], "tree_param": {"num_deleted": "0", "num_feature": "2", "num_nodes": "7", "size_leaf_vector": "1"}}, {"base_weights": [0.0015990955, -0.09427703, 0.17386417, -0.013964658, -0.9191376, 2.0583, 0.07891795], "categories": [], "categories_nodes": [], "categories_segments": [], "categories_sizes": [], "default_left": [0, 0, 0, 0, 0, 0, 0], "id": 61, "left_children": [1, 3, 5, -1, -1, -1, -1], "loss_changes": [11.594183, 29.864338, 44.746502, 0.0, 0.0, 0.0, 0.0], "parents": [2147483647, 0, 0, 1, 1, 2, 2], "right_children": [2, 4, 6, -1, -1, -1, -1], "split_conditions": [67.6468, 90.41587, 68.81347, -0.013964658, -0.9191376, 2.0583, 0.07891795], "split_indices": [1, 0, 1, 0, 0, 0, 0], "split_type": [0, 0, 0, 0, 0, 0, 0], "sum_hessian": [700.0, 450.0, 250.0, 411.0, 39.0, 11.0, 239.0], "tree_param": {"num_deleted": "0", "num_feature": "2", "num_nodes": "7", "size_leaf_vector": "1"}}, {"base_weights": [0.0017285285, -0.03793322, 1.1221008, -0.08646797, 0.22478701, 1.875465, -3.1135864], "categories": [], "categories_nodes": [], "categories_segments": [], "categories_sizes": [], "default_left": [0, 0, 0, 0, 0, 0, 0], "id": 62, "left_children": [1, 3, 5, -1, -1, -1, -1], "loss_changes": [31.192144, 8.664656, 82.4238, 0.0, 0.0, 0.0, 0.0], "parents": [2147483647, 0, 0, 1, 1, 2, 2], "right_children": [2, 4, 6, -1, -1, -1, -1], "split_conditions": [96.362, 86.137, 79.87142, -0.08646797, 0.22478701, 1.875465, -3.1135864], "split_indices": [0, 1, 1, 0, 0, 0, 0], "split_type": [0, 0, 0, 0, 0, 0, 0], "sum_hessian": [700.0, 677.0, 23.0, 572.0, 105.0, 20.0, 3.0], "tree_param": {"num_deleted": "0", "num_feature": "2", "num_nodes": "7", "size_leaf_vector": "1"}}, {"base_weights": [-0.0015650898, 0.02043461, -1.1674289, 0.00020837081, 1.1615143, 0.60740155, -1.5453435], "categories": [], "categories_nodes": [], "categories_segments": [], "categories_sizes": [], "default_left": [0, 0, 0, 0, 0, 0, 0], "id": 63, "left_children": [1, 3, 5, -1, -1, -1, -1], "loss_changes": [18.003563, 15.901707, 9.658192, 0.0, 0.0, 0.0, 0.0], "parents": [2147483647, 0, 0, 1, 1, 2, 2], "right_children": [2, 4, 6, -1, -1, -1, -1], "split_conditions": [98.56505, 96.362, 10.973619, 0.00020837081, 1.1615143, 0.60740155, -1.5453435], "split_indices": [0, 0, 1, 0, 0, 0, 0], "split_type": [0, 0, 0, 0, 0, 0, 0], "sum_hessian": [700.0, 688.0, 12.0, 677.0, 11.0, 2.0, 10.0], "tree_param": {"num_deleted": "0", "num_feature": "2", "num_nodes": "7", "size_leaf_vector": "1"}}, {"base_weights": [0.00030703415, 0.03429843, -0.38433784, 0.0064237444, 3.0018818, 0.9089966, -0.6457755], "categories": [], "categories_nodes": [], "categories_segments": [], "categories_sizes": [], "default_left": [0, 0, 0, 0, 0, 0, 0], "id": 64, "left_children": [1, 3, 5, -1, -1, -1, -1], "loss_changes": [9.178489, 53.33541, 19.860207, 0.0, 0.0, 0.0, 0.0], "parents": [2147483647, 0, 0, 1, 1, 2, 2], "right_children": [2, 4, 6, -1, -1, -1, -1], "split_conditions": [93.20281, 92.71778, 13.935607, 0.0064237444, 3.0018818, 0.9089966, -0.6457755], "split_indices": [1, 1, 0, 0, 0, 0, 0], "split_type": [0, 0, 0, 0, 0, 0, 0], "sum_hessian": [700.0, 644.0, 56.0, 639.0, 5.0, 9.0, 47.0], "tree_param": {"num_deleted": "0", "num_feature": "2", "num_nodes": "7", "size_leaf_vector": "1"}}, {"base_weights": [0.004671679, -0.260506, 0.061552927, 0.53877395, -0.47805756, 2.4254506, 0.024120238], "categories": [], "categories_nodes": [], "categories_segments": [], "categories_sizes": [], "default_left": [0, 0, 0, 0, 0, 0, 0], "id": 65, "left_children": [1, 3, 5, -1, -1, -1, -1], "loss_changes": [10.589665, 21.819252, 51.087013, 0.0, 0.0, 0.0, 0.0], "parents": [2147483647, 0, 0, 1, 1, 2, 2], "right_children": [2, 4, 6, -1, -1, -1, -1], "split_conditions": [16.162872, 22.66564, 17.167929, 0.53877395, -0.47805756, 2.4254506, 0.024120238], "split_indices": [0, 1, 0, 0, 0, 0, 0], "split_type": [0, 0, 0, 0, 0, 0, 0], "sum_hessian": [700.0, 123.0, 577.0, 26.0, 97.0, 8.0, 569.0], "tree_param": {"num_deleted": "0", "num_feature": "2", "num_nodes": "7", "size_leaf_vector": "1"}}, {"base_weights": [-3.8944196e-05, 0.9282948, -0.013454115, 1.41078, 0.16365357, -1.022019, -0.0031430242], "categories": [], "categories_nodes": [], "categories_segments": [], "categories_sizes": [], "default_left": [0, 0, 0, 0, 0, 0, 0], "id": 66, "left_children": [1, 3, 5, -1, -1, -1, -1], "loss_changes": [8.742572, 3.4584007, 7.1931753, 0.0, 0.0, 0.0, 0.0], "parents": [2147483647, 0, 0, 1, 1, 2, 2], "right_children": [2, 4, 6, -1, -1, -1, -1], "split_conditions": [1.4544666, 51.90598, 1.1031264, 1.41078, 0.16365357, -1.022019, -0.0031430242], "split_indices": [0, 1, 1, 0, 0, 0, 0], "split_type": [0, 0, 0, 0, 0, 0, 0], "sum_hessian": [700.0, 9.0, 691.0, 5.0, 4.0, 6.0, 685.0], "tree_param": {"num_deleted": "0", "num_feature": "2", "num_nodes": "7", "size_leaf_vector": "1"}}, {"base_weights": [0.0007724708, -0.0066946927, 1.0415405, 0.02825642, -0.33576122, -0.9102478, 1.7570496], "categories": [], "categories_nodes": [], "categories_segments": [], "categories_sizes": [], "default_left": [0, 0, 0, 0, 0, 0, 0], "id": 67, "left_children": [1, 3, 5, -1, -1, -1, -1], "loss_changes": [5.4548535, 8.025853, 8.581962, 0.0, 0.0, 0.0, 0.0], "parents": [2147483647, 0, 0, 1, 1, 2, 2], "right_children": [2, 4, 6, -1, -1, -1, -1], "split_conditions": [99.49078, 90.90325, 41.892544, 0.02825642, -0.33576122, -0.9102478, 1.7570496], "split_indices": [1, 1, 0, 0, 0, 0, 0], "split_type": [0, 0, 0, 0, 0, 0, 0], "sum_hessian": [700.0, 696.0, 4.0, 630.0, 66.0, 1.0, 3.0], "tree_param": {"num_deleted": "0", "num_feature": "2", "num_nodes": "7", "size_leaf_vector": "1"}}, {"base_weights": [-0.0037225406, -0.020478573, 0.37173665, 0.050869368, -0.13162753, -1.5396957, 0.6411438], "categories": [], "categories_nodes": [], "categories_segments": [], "categories_sizes": [], "default_left": [0, 0, 0, 0, 0, 0, 0], "id": 68, "left_children": [1, 3, 5, -1, -1, -1, -1], "loss_changes": [4.417748, 5.3358235, 16.435772, 0.0, 0.0, 0.0, 0.0], "parents": [2147483647, 0, 0, 1, 1, 2, 2], "right_children": [2, 4, 6, -1, -1, -1, -1], "split_conditions": [96.786, 61.949036, 5.808361, 0.050869368, -0.13162753, -1.5396957, 0.6411438], "split_indices": [1, 1, 0, 0, 0, 0, 0], "split_type": [0, 0, 0, 0, 0, 0, 0], "sum_hessian": [700.0, 671.0, 29.0, 409.0, 262.0, 3.0, 26.0], "tree_param": {"num_deleted": "0", "num_feature": "2", "num_nodes": "7", "size_leaf_vector": "1"}}, {"base_weights": [-0.0013894858, -0.18608043, 0.055361714, -0.080480866, -1.8148254, 1.6076584, 0.019842852], "categories": [], "categories_nodes": [], "categories_segments": [], "categories_sizes": [], "default_left": [0, 0, 0, 0, 0, 0, 0], "id": 69, "left_children": [1, 3, 5, -1, -1, -1, -1], "loss_changes": [7.3577857, 28.233072, 29.57603, 0.0, 0.0, 0.0, 0.0], "parents": [2147483647, 0, 0, 1, 1, 2, 2], "right_children": [2, 4, 6, -1, -1, -1, -1], "split_conditions": [24.34823, 92.65876, 25.929676, -0.080480866, -1.8148254, 1.6076584, 0.019842852], "split_indices": [1, 0, 1, 0, 0, 0, 0], "split_type": [0, 0, 0, 0, 0, 0, 0], "sum_hessian": [700.0, 164.0, 536.0, 155.0, 9.0, 11.0, 525.0], "tree_param": {"num_deleted": "0", "num_feature": "2", "num_nodes": "7", "size_leaf_vector": "1"}}, {"base_weights": [-0.0003817663, -0.035820156, 0.31457606, -0.010382263, -1.1561629, 2.8973022, -0.10706649], "categories": [], "categories_nodes": [], "categories_segments": [], "categories_sizes": [], "default_left": [0, 0, 0, 0, 0, 0, 0], "id": 70, "left_children": [1, 3, 5, -1, -1, -1, -1], "loss_changes": [7.8355484, 17.970963, 77.6283, 0.0, 0.0, 0.0, 0.0], "parents": [2147483647, 0, 0, 1, 1, 2, 2], "right_children": [2, 4, 6, -1, -1, -1, -1], "split_conditions": [90.63544, 89.60913, 20.185345, -0.010382263, -1.1561629, 2.8973022, -0.10706649], "split_indices": [0, 0, 1, 0, 0, 0, 0], "split_type": [0, 0, 0, 0, 0, 0, 0], "sum_hessian": [700.0, 630.0, 70.0, 617.0, 13.0, 9.0, 61.0], "tree_param": {"num_deleted": "0", "num_feature": "2", "num_nodes": "7", "size_leaf_vector": "1"}}, {"base_weights": [0.0023101012, -0.15733398, 0.095071055, -0.011088986, -0.84931386, -0.02702204, 0.34445986], "categories": [], "categories_nodes": [], "categories_segments": [], "categories_sizes": [], "default_left": [0, 0, 0, 0, 0, 0, 0], "id": 71, "left_children": [1, 3, 5, -1, -1, -1, -1], "loss_changes": [10.395883, 26.099815, 13.528507, 0.0, 0.0, 0.0, 0.0], "parents": [2147483647, 0, 0, 1, 1, 2, 2], "right_children": [2, 4, 6, -1, -1, -1, -1], "split_conditions": [40.193092, 32.64613, 68.4233, -0.011088986, -0.84931386, -0.02702204, 0.34445986], "split_indices": [1, 1, 0, 0, 0, 0, 0], "split_type": [0, 0, 0, 0, 0, 0, 0], "sum_hessian": [700.0, 257.0, 443.0, 213.0, 44.0, 298.0, 145.0], "tree_param": {"num_deleted": "0", "num_feature": "2", "num_nodes": "7", "size_leaf_vector": "1"}}, {"base_weights": [-0.0009394794, 0.01211971, -0.8212086, 0.06417316, -0.1306004, 0.9073079, -1.3061354], "categories": [], "categories_nodes": [], "categories_segments": [], "categories_sizes": [], "default_left": [0, 0, 0, 0, 0, 0, 0], "id": 72, "left_children": [1, 3, 5, -1, -1, -1, -1], "loss_changes": [7.519099, 5.141871, 10.405312, 0.0, 0.0, 0.0, 0.0], "parents": [2147483647, 0, 0, 1, 1, 2, 2], "right_children": [2, 4, 6, -1, -1, -1, -1], "split_conditions": [98.77224, 73.5071, 24.53491, 0.06417316, -0.1306004, 0.9073079, -1.3061354], "split_indices": [1, 0, 0, 0, 0, 0, 0], "split_type": [0, 0, 0, 0, 0, 0, 0], "sum_hessian": [700.0, 690.0, 10.0, 506.0, 184.0, 2.0, 8.0], "tree_param": {"num_deleted": "0", "num_feature": "2", "num_nodes": "7", "size_leaf_vector": "1"}}, {"base_weights": [-0.00065369, -0.051836047, 0.2288723, -0.026078053, -1.6659682, 0.9031235, -0.18696746], "categories": [], "categories_nodes": [], "categories_segments": [], "categories_sizes": [], "default_left": [0, 0, 0, 0, 0, 0, 0], "id": 73, "left_children": [1, 3, 5, -1, -1, -1, -1], "loss_changes": [8.246988, 23.821642, 36.057556, 0.0, 0.0, 0.0, 0.0], "parents": [2147483647, 0, 0, 1, 1, 2, 2], "right_children": [2, 4, 6, -1, -1, -1, -1], "split_conditions": [81.72222, 81.01134, 48.296886, -0.026078053, -1.6659682, 0.9031235, -0.18696746], "split_indices": [0, 0, 1, 0, 0, 0, 0], "split_type": [0, 0, 0, 0, 0, 0, 0], "sum_hessian": [700.0, 573.0, 127.0, 565.0, 8.0, 48.0, 79.0], "tree_param": {"num_deleted": "0", "num_feature": "2", "num_nodes": "7", "size_leaf_vector": "1"}}, {"base_weights": [-0.0025843051, -0.044885535, 0.22027561, -0.020149918, -2.4491272, 0.3016399, -2.836507], "categories": [], "categories_nodes": [], "categories_segments": [], "categories_sizes": [], "default_left": [0, 0, 0, 0, 0, 0, 0], "id": 74, "left_children": [1, 3, 5, -1, -1, -1, -1], "loss_changes": [6.6183887, 35.03819, 28.71146, 0.0, 0.0, 0.0, 0.0], "parents": [2147483647, 0, 0, 1, 1, 2, 2], "right_children": [2, 4, 6, -1, -1, -1, -1], "split_conditions": [85.142494, 84.417046, 96.93025, -0.020149918, -2.4491272, 0.3016399, -2.836507], "split_indices": [1, 1, 0, 0, 0, 0, 0], "split_type": [0, 0, 0, 0, 0, 0, 0], "sum_hessian": [700.0, 589.0, 111.0, 584.0, 5.0, 109.0, 2.0], "tree_param": {"num_deleted": "0", "num_feature": "2", "num_nodes": "7", "size_leaf_vector": "1"}}, {"base_weights": [-0.007142841, 0.028817967, -0.3266376, -0.021754524, 0.5288144, -0.62052846, 1.5281494], "categories": [], "categories_nodes": [], "categories_segments": [], "categories_sizes": [], "default_left": [0, 0, 0, 0, 0, 0, 0], "id": 75, "left_children": [1, 3, 5, -1, -1, -1, -1], "loss_changes": [8.063406, 15.96701, 39.650703, 0.0, 0.0, 0.0, 0.0], "parents": [2147483647, 0, 0, 1, 1, 2, 2], "right_children": [2, 4, 6, -1, -1, -1, -1], "split_conditions": [90.90325, 83.1697, 89.72157, -0.021754524, 0.5288144, -0.62052846, 1.5281494], "split_indices": [1, 1, 0, 0, 0, 0, 0], "split_type": [0, 0, 0, 0, 0, 0, 0], "sum_hessian": [700.0, 630.0, 70.0, 573.0, 57.0, 61.0, 9.0], "tree_param": {"num_deleted": "0", "num_feature": "2", "num_nodes": "7", "size_leaf_vector": "1"}}, {"base_weights": [0.0020069524, 0.2360184, -0.042891692, 0.6518057, -1.333018, -2.7553635, -0.024303332], "categories": [], "categories_nodes": [], "categories_segments": [], "categories_sizes": [], "default_left": [0, 0, 0, 0, 0, 0, 0], "id": 76, "left_children": [1, 3, 5, -1, -1, -1, -1], "loss_changes": [7.3753877, 74.58841, 29.630651, 0.0, 0.0, 0.0, 0.0], "parents": [2147483647, 0, 0, 1, 1, 2, 2], "right_children": [2, 4, 6, -1, -1, -1, -1], "split_conditions": [16.76192, 69.60298, 17.389524, 0.6518057, -1.333018, -2.7553635, -0.024303332], "split_indices": [1, 0, 1, 0, 0, 0, 0], "split_type": [0, 0, 0, 0, 0, 0, 0], "sum_hessian": [700.0, 112.0, 588.0, 89.0, 23.0, 3.0, 585.0], "tree_param": {"num_deleted": "0", "num_feature": "2", "num_nodes": "7", "size_leaf_vector": "1"}}, {"base_weights": [-0.0006753756, -1.0744373, 0.010140465, -1.7341089, -0.14615631, 0.033317927, -0.34206942], "categories": [], "categories_nodes": [], "categories_segments": [], "categories_sizes": [], "default_left": [0, 0, 0, 0, 0, 0, 0], "id": 77, "left_children": [1, 3, 5, -1, -1, -1, -1], "loss_changes": [8.152055, 4.0330734, 5.6849127, 0.0, 0.0, 0.0, 0.0], "parents": [2147483647, 0, 0, 1, 1, 2, 2], "right_children": [2, 4, 6, -1, -1, -1, -1], "split_conditions": [1.1031264, 44.84455, 93.9499, -1.7341089, -0.14615631, 0.033317927, -0.34206942], "split_indices": [1, 0, 0, 0, 0, 0, 0], "split_type": [0, 0, 0, 0, 0, 0, 0], "sum_hessian": [700.0, 6.0, 694.0, 3.0, 3.0, 652.0, 42.0], "tree_param": {"num_deleted": "0", "num_feature": "2", "num_nodes": "7", "size_leaf_vector": "1"}}, {"base_weights": [-0.0031308217, -0.057260003, 0.20125575, -0.019849896, -1.7484131, 0.48203915, -1.124007], "categories": [], "categories_nodes": [], "categories_segments": [], "categories_sizes": [], "default_left": [0, 0, 0, 0, 0, 0, 0], "id": 78, "left_children": [1, 3, 5, -1, -1, -1, -1], "loss_changes": [7.766881, 35.078045, 55.242245, 0.0, 0.0, 0.0, 0.0], "parents": [2147483647, 0, 0, 1, 1, 2, 2], "right_children": [2, 4, 6, -1, -1, -1, -1], "split_conditions": [79.94104, 78.85972, 83.81153, -0.019849896, -1.7484131, 0.48203915, -1.124007], "split_indices": [0, 0, 1, 0, 0, 0, 0], "split_type": [0, 0, 0, 0, 0, 0, 0], "sum_hessian": [700.0, 554.0, 146.0, 543.0, 11.0, 121.0, 25.0], "tree_param": {"num_deleted": "0", "num_feature": "2", "num_nodes": "7", "size_leaf_vector": "1"}}, {"base_weights": [-0.00344856, -0.04658222, 0.57144386, -0.037324563, -1.0386454, -0.51290995, 1.0198399], "categories": [], "categories_nodes": [], "categories_segments": [], "categories_sizes": [], "default_left": [0, 0, 0, 0, 0, 0, 0], "id": 79, "left_children": [1, 3, 5, -1, -1, -1, -1], "loss_changes": [17.409464, 5.958503, 24.347862, 0.0, 0.0, 0.0, 0.0], "parents": [2147483647, 0, 0, 1, 1, 2, 2], "right_children": [2, 4, 6, -1, -1, -1, -1], "split_conditions": [94.30759, 93.62122, 27.074467, -0.037324563, -1.0386454, -0.51290995, 1.0198399], "split_indices": [1, 1, 0, 0, 0, 0, 0], "split_type": [0, 0, 0, 0, 0, 0, 0], "sum_hessian": [700.0, 652.0, 48.0, 647.0, 5.0, 14.0, 34.0], "tree_param": {"num_deleted": "0", "num_feature": "2", "num_nodes": "7", "size_leaf_vector": "1"}}, {"base_weights": [0.0040060496, -0.3170045, 0.03182739, -0.7626518, 1.3805898, 1.40691, 0.0057914555], "categories": [], "categories_nodes": [], "categories_segments": [], "categories_sizes": [], "default_left": [0, 0, 0, 0, 0, 0, 0], "id": 80, "left_children": [1, 3, 5, -1, -1, -1, -1], "loss_changes": [6.2706814, 43.41849, 23.11966, 0.0, 0.0, 0.0, 0.0], "parents": [2147483647, 0, 0, 1, 1, 2, 2], "right_children": [2, 4, 6, -1, -1, -1, -1], "split_conditions": [7.6130857, 62.79004, 8.764275, -0.7626518, 1.3805898, 1.40691, 0.0057914555], "split_indices": [1, 0, 1, 0, 0, 0, 0], "split_type": [0, 0, 0, 0, 0, 0, 0], "sum_hessian": [700.0, 55.0, 645.0, 44.0, 11.0, 11.0, 634.0], "tree_param": {"num_deleted": "0", "num_feature": "2", "num_nodes": "7", "size_leaf_vector": "1"}}, {"base_weights": [0.0020818643, -0.16955444, 0.050311625, -0.7259179, 0.35415572, 0.27103522, -0.14130345], "categories": [], "categories_nodes": [], "categories_segments": [], "categories_sizes": [], "default_left": [0, 0, 0, 0, 0, 0, 0], "id": 81, "left_children": [1, 3, 5, -1, -1, -1, -1], "loss_changes": [5.811393, 45.128563, 23.215393, 0.0, 0.0, 0.0, 0.0], "parents": [2147483647, 0, 0, 1, 1, 2, 2], "right_children": [2, 4, 6, -1, -1, -1, -1], "split_conditions": [19.598286, 49.159454, 50.256607, -0.7259179, 0.35415572, 0.27103522, -0.14130345], "split_indices": [0, 1, 1, 0, 0, 0, 0], "split_type": [0, 0, 0, 0, 0, 0, 0], "sum_hessian": [700.0, 153.0, 547.0, 74.0, 79.0, 254.0, 293.0], "tree_param": {"num_deleted": "0", "num_feature": "2", "num_nodes": "7", "size_leaf_vector": "1"}}, {"base_weights": [0.00087182975, -0.08959816, 0.1094898, -0.00806387, -1.4271351, 1.3074328, 0.016351154], "categories": [], "categories_nodes": [], "categories_segments": [], "categories_sizes": [], "default_left": [0, 0, 0, 0, 0, 0, 0], "id": 82, "left_children": [1, 3, 5, -1, -1, -1, -1], "loss_changes": [6.898303, 41.756607, 35.570976, 0.0, 0.0, 0.0, 0.0], "parents": [2147483647, 0, 0, 1, 1, 2, 2], "right_children": [2, 4, 6, -1, -1, -1, -1], "split_conditions": [57.99838, 92.65876, 61.293957, -0.00806387, -1.4271351, 1.3074328, 0.016351154], "split_indices": [1, 0, 1, 0, 0, 0, 0], "split_type": [0, 0, 0, 0, 0, 0, 0], "sum_hessian": [700.0, 382.0, 318.0, 361.0, 21.0, 22.0, 296.0], "tree_param": {"num_deleted": "0", "num_feature": "2", "num_nodes": "7", "size_leaf_vector": "1"}}, {"base_weights": [-0.00039735704, 0.12455352, -0.11576187, -0.03835206, 1.6784458, -2.0871034, -0.019404938], "categories": [], "categories_nodes": [], "categories_segments": [], "categories_sizes": [], "default_left": [0, 0, 0, 0, 0, 0, 0], "id": 83, "left_children": [1, 3, 5, -1, -1, -1, -1], "loss_changes": [10.119261, 85.37179, 69.29214, 0.0, 0.0, 0.0, 0.0], "parents": [2147483647, 0, 0, 1, 1, 2, 2], "right_children": [2, 4, 6, -1, -1, -1, -1], "split_conditions": [51.268852, 89.026375, 53.360256, -0.03835206, 1.6784458, -2.0871034, -0.019404938], "split_indices": [1, 0, 1, 0, 0, 0, 0], "split_type": [0, 0, 0, 0, 0, 0, 0], "sum_hessian": [700.0, 336.0, 364.0, 305.0, 31.0, 16.0, 348.0], "tree_param": {"num_deleted": "0", "num_feature": "2", "num_nodes": "7", "size_leaf_vector": "1"}}, {"base_weights": [-0.0006679339, 0.088028826, -0.5473228, 0.06643159, 2.229482, -2.3254282, -0.31884003], "categories": [], "categories_nodes": [], "categories_segments": [], "categories_sizes": [], "default_left": [0, 0, 0, 0, 0, 0, 0], "id": 84, "left_children": [1, 3, 5, -1, -1, -1, -1], "loss_changes": [34.03723, 27.786577, 39.072678, 0.0, 0.0, 0.0, 0.0], "parents": [2147483647, 0, 0, 1, 1, 2, 2], "right_children": [2, 4, 6, -1, -1, -1, -1], "split_conditions": [87.357864, 86.846794, 17.389524, 0.06643159, 2.229482, -2.3254282, -0.31884003], "split_indices": [0, 0, 1, 0, 0, 0, 0], "split_type": [0, 0, 0, 0, 0, 0, 0], "sum_hessian": [700.0, 603.0, 97.0, 598.0, 5.0, 10.0, 87.0], "tree_param": {"num_deleted": "0", "num_feature": "2", "num_nodes": "7", "size_leaf_vector": "1"}}, {"base_weights": [-0.0004866052, -0.044166114, 0.19539249, 0.059449073, -0.2267748, -1.6165752, 0.3135772], "categories": [], "categories_nodes": [], "categories_segments": [], "categories_sizes": [], "default_left": [0, 0, 0, 0, 0, 0, 0], "id": 85, "left_children": [1, 3, 5, -1, -1, -1, -1], "loss_changes": [6.006317, 10.874154, 27.917723, 0.0, 0.0, 0.0, 0.0], "parents": [2147483647, 0, 0, 1, 1, 2, 2], "right_children": [2, 4, 6, -1, -1, -1, -1], "split_conditions": [83.1697, 54.669743, 5.476164, 0.059449073, -0.2267748, -1.6165752, 0.3135772], "split_indices": [1, 1, 0, 0, 0, 0, 0], "split_type": [0, 0, 0, 0, 0, 0, 0], "sum_hessian": [700.0, 573.0, 127.0, 366.0, 207.0, 7.0, 120.0], "tree_param": {"num_deleted": "0", "num_feature": "2", "num_nodes": "7", "size_leaf_vector": "1"}}, {"base_weights": [-0.0021010982, 0.31111506, -0.037893895, 0.083108015, 1.3395233, -1.3852488, -0.01171271], "categories": [], "categories_nodes": [], "categories_segments": [], "categories_sizes": [], "default_left": [0, 0, 0, 0, 0, 0, 0], "id": 86, "left_children": [1, 3, 5, -1, -1, -1, -1], "loss_changes": [7.8706174, 16.771547, 22.207245, 0.0, 0.0, 0.0, 0.0], "parents": [2147483647, 0, 0, 1, 1, 2, 2], "right_children": [2, 4, 6, -1, -1, -1, -1], "split_conditions": [9.9441395, 86.814224, 11.323805, 0.083108015, 1.3395233, -1.3852488, -0.01171271], "split_indices": [0, 1, 0, 0, 0, 0, 0], "split_type": [0, 0, 0, 0, 0, 0, 0], "sum_hessian": [700.0, 71.0, 629.0, 59.0, 12.0, 11.0, 618.0], "tree_param": {"num_deleted": "0", "num_feature": "2", "num_nodes": "7", "size_leaf_vector": "1"}}, {"base_weights": [-0.00015330076, -0.136484, 0.09924089, -0.2560595, 0.82425576, 2.0267918, 0.070152245], "categories": [], "categories_nodes": [], "categories_segments": [], "categories_sizes": [], "default_left": [0, 0, 0, 0, 0, 0, 0], "id": 87, "left_children": [1, 3, 5, -1, -1, -1, -1], "loss_changes": [9.512431, 34.21581, 22.622175, 0.0, 0.0, 0.0, 0.0], "parents": [2147483647, 0, 0, 1, 1, 2, 2], "right_children": [2, 4, 6, -1, -1, -1, -1], "split_conditions": [45.437733, 87.357864, 46.147747, -0.2560595, 0.82425576, 2.0267918, 0.070152245], "split_indices": [1, 0, 1, 0, 0, 0, 0], "split_type": [0, 0, 0, 0, 0, 0, 0], "sum_hessian": [700.0, 295.0, 405.0, 263.0, 32.0, 5.0, 400.0], "tree_param": {"num_deleted": "0", "num_feature": "2", "num_nodes": "7", "size_leaf_vector": "1"}}, {"base_weights": [0.0038020043, 0.0669507, -0.33978495, 0.0508106, 2.4308777, -0.71156067, 0.14750417], "categories": [], "categories_nodes": [], "categories_segments": [], "categories_sizes": [], "default_left": [0, 0, 0, 0, 0, 0, 0], "id": 88, "left_children": [1, 3, 5, -1, -1, -1, -1], "loss_changes": [15.232394, 22.501818, 19.851643, 0.0, 0.0, 0.0, 0.0], "parents": [2147483647, 0, 0, 1, 1, 2, 2], "right_children": [2, 4, 6, -1, -1, -1, -1], "split_conditions": [85.56965, 85.11367, 67.6468, 0.0508106, 2.4308777, -0.71156067, 0.14750417], "split_indices": [0, 0, 1, 0, 0, 0, 0], "split_type": [0, 0, 0, 0, 0, 0, 0], "sum_hessian": [700.0, 592.0, 108.0, 589.0, 3.0, 61.0, 47.0], "tree_param": {"num_deleted": "0", "num_feature": "2", "num_nodes": "7", "size_leaf_vector": "1"}}, {"base_weights": [0.0027491723, 0.0848406, -0.15832789, 0.017529946, 0.49149853, -0.27616987, 0.5533806], "categories": [], "categories_nodes": [], "categories_segments": [], "categories_sizes": [], "default_left": [0, 0, 0, 0, 0, 0, 0], "id": 89, "left_children": [1, 3, 5, -1, -1, -1, -1], "loss_changes": [9.282789, 12.719557, 20.029812, 0.0, 0.0, 0.0, 0.0], "parents": [2147483647, 0, 0, 1, 1, 2, 2], "right_children": [2, 4, 6, -1, -1, -1, -1], "split_conditions": [68.952675, 60.773678, 89.72157, 0.017529946, 0.49149853, -0.27616987, 0.5533806], "split_indices": [1, 1, 0, 0, 0, 0, 0], "split_type": [0, 0, 0, 0, 0, 0, 0], "sum_hessian": [700.0, 464.0, 236.0, 399.0, 65.0, 203.0, 33.0], "tree_param": {"num_deleted": "0", "num_feature": "2", "num_nodes": "7", "size_leaf_vector": "1"}}, {"base_weights": [0.0011304809, 0.052446753, -0.21244408, 0.004571837, 0.97216576, -0.04161435, -0.76634026], "categories": [], "categories_nodes": [], "categories_segments": [], "categories_sizes": [], "default_left": [0, 0, 0, 0, 0, 0, 0], "id": 90, "left_children": [1, 3, 5, -1, -1, -1, -1], "loss_changes": [7.6939974, 24.91737, 12.836692, 0.0, 0.0, 0.0, 0.0], "parents": [2147483647, 0, 0, 1, 1, 2, 2], "right_children": [2, 4, 6, -1, -1, -1, -1], "split_conditions": [81.01134, 77.51328, 79.87142, 0.004571837, 0.97216576, -0.04161435, -0.76634026], "split_indices": [0, 0, 1, 0, 0, 0, 0], "split_type": [0, 0, 0, 0, 0, 0, 0], "sum_hessian": [700.0, 565.0, 135.0, 538.0, 27.0, 104.0, 31.0], "tree_param": {"num_deleted": "0", "num_feature": "2", "num_nodes": "7", "size_leaf_vector": "1"}}, {"base_weights": [0.0002390471, -0.061499532, 0.19495161, 0.22790594, -0.13903236, -0.91856384, 0.27076116], "categories": [], "categories_nodes": [], "categories_segments": [], "categories_sizes": [], "default_left": [0, 0, 0, 0, 0, 0, 0], "id": 91, "left_children": [1, 3, 5, -1, -1, -1, -1], "loss_changes": [8.438905, 11.991366, 14.514864, 0.0, 0.0, 0.0, 0.0], "parents": [2147483647, 0, 0, 1, 1, 2, 2], "right_children": [2, 4, 6, -1, -1, -1, -1], "split_conditions": [77.9851, 16.76192, 6.337497, 0.22790594, -0.13903236, -0.91856384, 0.27076116], "split_indices": [1, 1, 0, 0, 0, 0, 0], "split_type": [0, 0, 0, 0, 0, 0, 0], "sum_hessian": [700.0, 532.0, 168.0, 112.0, 420.0, 10.0, 158.0], "tree_param": {"num_deleted": "0", "num_feature": "2", "num_nodes": "7", "size_leaf_vector": "1"}}, {"base_weights": [-0.00079185714, 0.2577473, -0.04224228, 0.89478964, 0.05895101, -0.4450568, 0.00046845595], "categories": [], "categories_nodes": [], "categories_segments": [], "categories_sizes": [], "default_left": [0, 0, 0, 0, 0, 0, 0], "id": 92, "left_children": [1, 3, 5, -1, -1, -1, -1], "loss_changes": [7.5231943, 12.23149, 10.408934, 0.0, 0.0, 0.0, 0.0], "parents": [2147483647, 0, 0, 1, 1, 2, 2], "right_children": [2, 4, 6, -1, -1, -1, -1], "split_conditions": [12.804584, 22.01832, 19.598286, 0.89478964, 0.05895101, -0.4450568, 0.00046845595], "split_indices": [0, 1, 0, 0, 0, 0, 0], "split_type": [0, 0, 0, 0, 0, 0, 0], "sum_hessian": [700.0, 96.0, 604.0, 22.0, 74.0, 57.0, 547.0], "tree_param": {"num_deleted": "0", "num_feature": "2", "num_nodes": "7", "size_leaf_vector": "1"}}, {"base_weights": [0.00071732904, -0.3524186, 0.034321968, 1.1375675, -0.47693634, 0.11132606, -0.098296605], "categories": [], "categories_nodes": [], "categories_segments": [], "categories_sizes": [], "default_left": [0, 0, 0, 0, 0, 0, 0], "id": 93, "left_children": [1, 3, 5, -1, -1, -1, -1], "loss_changes": [8.330866, 11.859861, 6.5569453, 0.0, 0.0, 0.0, 0.0], "parents": [2147483647, 0, 0, 1, 1, 2, 2], "right_children": [2, 4, 6, -1, -1, -1, -1], "split_conditions": [8.104622, 5.476164, 63.75575, 1.1375675, -0.47693634, 0.11132606, -0.098296605], "split_indices": [1, 0, 0, 0, 0, 0, 0], "split_type": [0, 0, 0, 0, 0, 0, 0], "sum_hessian": [700.0, 60.0, 640.0, 4.0, 56.0, 405.0, 235.0], "tree_param": {"num_deleted": "0", "num_feature": "2", "num_nodes": "7", "size_leaf_vector": "1"}}, {"base_weights": [-0.0005575335, -0.47798315, 0.02001587, -1.6880479, 0.24773769, 0.898554, 0.005409632], "categories": [], "categories_nodes": [], "categories_segments": [], "categories_sizes": [], "default_left": [0, 0, 0, 0, 0, 0, 0], "id": 94, "left_children": [1, 3, 5, -1, -1, -1, -1], "loss_changes": [6.8949785, 25.885098, 8.631167, 0.0, 0.0, 0.0, 0.0], "parents": [2147483647, 0, 0, 1, 1, 2, 2], "right_children": [2, 4, 6, -1, -1, -1, -1], "split_conditions": [4.3159914, 35.5493, 2.094496, -1.6880479, 0.24773769, 0.898554, 0.005409632], "split_indices": [0, 1, 1, 0, 0, 0, 0], "split_type": [0, 0, 0, 0, 0, 0, 0], "sum_hessian": [700.0, 28.0, 672.0, 10.0, 18.0, 10.0, 662.0], "tree_param": {"num_deleted": "0", "num_feature": "2", "num_nodes": "7", "size_leaf_vector": "1"}}, {"base_weights": [-0.0007705498, 0.06974383, -0.07801832, -0.02839659, 0.9201805, -2.732127, -0.029525386], "categories": [], "categories_nodes": [], "categories_segments": [], "categories_sizes": [], "default_left": [0, 0, 0, 0, 0, 0, 0], "id": 95, "left_children": [1, 3, 5, -1, -1, -1, -1], "loss_changes": [3.8238432, 30.65676, 43.035686, 0.0, 0.0, 0.0, 0.0], "parents": [2147483647, 0, 0, 1, 1, 2, 2], "right_children": [2, 4, 6, -1, -1, -1, -1], "split_conditions": [54.669743, 87.357864, 55.536354, -0.02839659, 0.9201805, -2.732127, -0.029525386], "split_indices": [1, 0, 1, 0, 0, 0, 0], "split_type": [0, 0, 0, 0, 0, 0, 0], "sum_hessian": [700.0, 366.0, 334.0, 329.0, 37.0, 5.0, 329.0], "tree_param": {"num_deleted": "0", "num_feature": "2", "num_nodes": "7", "size_leaf_vector": "1"}}, {"base_weights": [-0.002669148, 0.030284457, -0.41453788, 0.066814445, -0.29951337, -1.9663798, 0.3953962], "categories": [], "categories_nodes": [], "categories_segments": [], "categories_sizes": [], "default_left": [0, 0, 0, 0, 0, 0, 0], "id": 96, "left_children": [1, 3, 5, -1, -1, -1, -1], "loss_changes": [9.526918, 7.850894, 66.13576, 0.0, 0.0, 0.0, 0.0], "parents": [2147483647, 0, 0, 1, 1, 2, 2], "right_children": [2, 4, 6, -1, -1, -1, -1], "split_conditions": [92.9376, 90.90325, 39.447628, 0.066814445, -0.29951337, -1.9663798, 0.3953962], "split_indices": [0, 1, 1, 0, 0, 0, 0], "split_type": [0, 0, 0, 0, 0, 0, 0], "sum_hessian": [700.0, 649.0, 51.0, 585.0, 64.0, 17.0, 34.0], "tree_param": {"num_deleted": "0", "num_feature": "2", "num_nodes": "7", "size_leaf_vector": "1"}}, {"base_weights": [-0.002577149, -0.020653471, 0.50818634, 0.0001043946, -1.5636665, 1.3101468, 0.02532196], "categories": [], "categories_nodes": [], "categories_segments": [], "categories_sizes": [], "default_left": [0, 0, 0, 0, 0, 0, 0], "id": 97, "left_children": [1, 3, 5, -1, -1, -1, -1], "loss_changes": [6.4826365, 21.71627, 9.26054, 0.0, 0.0, 0.0, 0.0], "parents": [2147483647, 0, 0, 1, 1, 2, 2], "right_children": [2, 4, 6, -1, -1, -1, -1], "split_conditions": [96.362, 95.39286, 30.560421, 0.0001043946, -1.5636665, 1.3101468, 0.02532196], "split_indices": [0, 0, 1, 0, 0, 0, 0], "split_type": [0, 0, 0, 0, 0, 0, 0], "sum_hessian": [700.0, 677.0, 23.0, 669.0, 8.0, 8.0, 15.0], "tree_param": {"num_deleted": "0", "num_feature": "2", "num_nodes": "7", "size_leaf_vector": "1"}}, {"base_weights": [0.00094055687, -0.07490012, 0.061610688, -0.1762678, 0.84963495, 0.15274955, -0.39643368], "categories": [], "categories_nodes": [], "categories_segments": [], "categories_sizes": [], "default_left": [0, 0, 0, 0, 0, 0, 0], "id": 98, "left_children": [1, 3, 5, -1, -1, -1, -1], "loss_changes": [3.2301004, 29.389774, 16.341356, 0.0, 0.0, 0.0, 0.0], "parents": [2147483647, 0, 0, 1, 1, 2, 2], "right_children": [2, 4, 6, -1, -1, -1, -1], "split_conditions": [48.09729, 89.026375, 87.357864, -0.1762678, 0.84963495, 0.15274955, -0.39643368], "split_indices": [1, 0, 0, 0, 0, 0, 0], "split_type": [0, 0, 0, 0, 0, 0, 0], "sum_hessian": [700.0, 311.0, 389.0, 281.0, 30.0, 325.0, 64.0], "tree_param": {"num_deleted": "0", "num_feature": "2", "num_nodes": "7", "size_leaf_vector": "1"}}, {"base_weights": [0.0006145363, 0.06400849, -0.07334697, 0.23581147, -0.66942936, -0.29691082, 0.5488054], "categories": [], "categories_nodes": [], "categories_segments": [], "categories_sizes": [], "default_left": [0, 0, 0, 0, 0, 0, 0], "id": 99, "left_children": [1, 3, 5, -1, -1, -1, -1], "loss_changes": [3.2914824, 47.788433, 45.228355, 0.0, 0.0, 0.0, 0.0], "parents": [2147483647, 0, 0, 1, 1, 2, 2], "right_children": [2, 4, 6, -1, -1, -1, -1], "split_conditions": [56.573196, 79.157906, 77.51328, 0.23581147, -0.66942936, -0.29691082, 0.5488054], "split_indices": [1, 0, 0, 0, 0, 0, 0], "split_type": [0, 0, 0, 0, 0, 0, 0], "sum_hessian": [700.0, 377.0, 323.0, 306.0, 71.0, 238.0, 85.0], "tree_param": {"num_deleted": "0", "num_feature": "2", "num_nodes": "7", "size_leaf_vector": "1"}}, {"base_weights": [-0.0002625366, -0.038015552, 0.15685856, -0.12650046, 0.07760099, 0.5095608, -0.11194004], "categories": [], "categories_nodes": [], "categories_segments": [], "categories_sizes": [], "default_left": [0, 0, 0, 0, 0, 0, 0], "id": 100, "left_children": [1, 3, 5, -1, -1, -1, -1], "loss_changes": [4.164151, 5.8001766, 12.950639, 0.0, 0.0, 0.0, 0.0], "parents": [2147483647, 0, 0, 1, 1, 2, 2], "right_children": [2, 4, 6, -1, -1, -1, -1], "split_conditions": [81.918884, 57.651646, 38.389122, -0.12650046, 0.07760099, 0.5095608, -0.11194004], "split_indices": [1, 0, 0, 0, 0, 0, 0], "split_type": [0, 0, 0, 0, 0, 0, 0], "sum_hessian": [700.0, 565.0, 135.0, 320.0, 245.0, 58.0, 77.0], "tree_param": {"num_deleted": "0", "num_feature": "2", "num_nodes": "7", "size_leaf_vector": "1"}}, {"base_weights": [-0.0017802609, 0.07213708, -0.054111563, 0.31502858, -0.16794051, -1.7730544, -0.015588992], "categories": [], "categories_nodes": [], "categories_segments": [], "categories_sizes": [], "default_left": [0, 0, 0, 0, 0, 0, 0], "id": 101, "left_children": [1, 3, 5, -1, -1, -1, -1], "loss_changes": [2.7155054, 17.021935, 27.187998, 0.0, 0.0, 0.0, 0.0], "parents": [2147483647, 0, 0, 1, 1, 2, 2], "right_children": [2, 4, 6, -1, -1, -1, -1], "split_conditions": [44.978466, 49.26181, 45.944675, 0.31502858, -0.16794051, -1.7730544, -0.015588992], "split_indices": [1, 0, 1, 0, 0, 0, 0], "split_type": [0, 0, 0, 0, 0, 0, 0], "sum_hessian": [700.0, 290.0, 410.0, 144.0, 146.0, 8.0, 402.0], "tree_param": {"num_deleted": "0", "num_feature": "2", "num_nodes": "7", "size_leaf_vector": "1"}}, {"base_weights": [-0.0006455192, 0.052988205, -0.1391048, 0.025170486, 1.5863478, -0.2781651, 0.7051915], "categories": [], "categories_nodes": [], "categories_segments": [], "categories_sizes": [], "default_left": [0, 0, 0, 0, 0, 0, 0], "id": 102, "left_children": [1, 3, 5, -1, -1, -1, -1], "loss_changes": [5.213058, 21.543282, 23.208145, 0.0, 0.0, 0.0, 0.0], "parents": [2147483647, 0, 0, 1, 1, 2, 2], "right_children": [2, 4, 6, -1, -1, -1, -1], "split_conditions": [73.73571, 73.06505, 89.676544, 0.025170486, 1.5863478, -0.2781651, 0.7051915], "split_indices": [1, 1, 0, 0, 0, 0, 0], "split_type": [0, 0, 0, 0, 0, 0, 0], "sum_hessian": [700.0, 505.0, 195.0, 497.0, 8.0, 168.0, 27.0], "tree_param": {"num_deleted": "0", "num_feature": "2", "num_nodes": "7", "size_leaf_vector": "1"}}, {"base_weights": [0.0029122792, 0.052983575, -0.30572012, -0.0812868, 0.20355739, 0.6346545, -0.9118683], "categories": [], "categories_nodes": [], "categories_segments": [], "categories_sizes": [], "default_left": [0, 0, 0, 0, 0, 0, 0], "id": 103, "left_children": [1, 3, 5, -1, -1, -1, -1], "loss_changes": [10.849188, 12.227979, 56.439342, 0.0, 0.0, 0.0, 0.0], "parents": [2147483647, 0, 0, 1, 1, 2, 2], "right_children": [2, 4, 6, -1, -1, -1, -1], "split_conditions": [87.357864, 53.69744, 56.573196, -0.0812868, 0.20355739, 0.6346545, -0.9118683], "split_indices": [0, 1, 1, 0, 0, 0, 0], "split_type": [0, 0, 0, 0, 0, 0, 0], "sum_hessian": [700.0, 603.0, 97.0, 319.0, 284.0, 38.0, 59.0], "tree_param": {"num_deleted": "0", "num_feature": "2", "num_nodes": "7", "size_leaf_vector": "1"}}, {"base_weights": [-0.00047510938, -0.028195802, 0.16448143, 0.041982815, -0.17790954, -0.13817985, 0.488493], "categories": [], "categories_nodes": [], "categories_segments": [], "categories_sizes": [], "default_left": [0, 0, 0, 0, 0, 0, 0], "id": 104, "left_children": [1, 3, 5, -1, -1, -1, -1], "loss_changes": [3.210107, 6.321997, 9.972142, 0.0, 0.0, 0.0, 0.0], "parents": [2147483647, 0, 0, 1, 1, 2, 2], "right_children": [2, 4, 6, -1, -1, -1, -1], "split_conditions": [86.814224, 61.949036, 49.44203, 0.041982815, -0.17790954, -0.13817985, 0.488493], "split_indices": [1, 1, 0, 0, 0, 0, 0], "split_type": [0, 0, 0, 0, 0, 0, 0], "sum_hessian": [700.0, 600.0, 100.0, 409.0, 191.0, 52.0, 48.0], "tree_param": {"num_deleted": "0", "num_feature": "2", "num_nodes": "7", "size_leaf_vector": "1"}}, {"base_weights": [-0.0007673065, -0.8219223, 0.003939552, -1.2975006, -0.230896, 0.0700092, -0.04236701], "categories": [], "categories_nodes": [], "categories_segments": [], "categories_sizes": [], "default_left": [0, 0, 0, 0, 0, 0, 0], "id": 105, "left_children": [1, 3, 5, -1, -1, -1, -1], "loss_changes": [2.7126453, 0.82472944, 2.138468, 0.0, 0.0, 0.0, 0.0], "parents": [2147483647, 0, 0, 1, 1, 2, 2], "right_children": [2, 4, 6, -1, -1, -1, -1], "split_conditions": [0.7562875, 44.84455, 39.72873, -1.2975006, -0.230896, 0.0700092, -0.04236701], "split_indices": [1, 0, 0, 0, 0, 0, 0], "split_type": [0, 0, 0, 0, 0, 0, 0], "sum_hessian": [700.0, 3.0, 697.0, 1.0, 2.0, 287.0, 410.0], "tree_param": {"num_deleted": "0", "num_feature": "2", "num_nodes": "7", "size_leaf_vector": "1"}}, {"base_weights": [-0.0021973555, -0.15494652, 0.050873272, 1.3505061, -0.23236921, 1.8312836, 0.03702672], "categories": [], "categories_nodes": [], "categories_segments": [], "categories_sizes": [], "default_left": [0, 0, 0, 0, 0, 0, 0], "id": 106, "left_children": [1, 3, 5, -1, -1, -1, -1], "loss_changes": [5.690535, 21.410488, 12.776171, 0.0, 0.0, 0.0, 0.0], "parents": [2147483647, 0, 0, 1, 1, 2, 2], "right_children": [2, 4, 6, -1, -1, -1, -1], "split_conditions": [26.702827, 5.808361, 27.307081, 1.3505061, -0.23236921, 1.8312836, 0.03702672], "split_indices": [1, 0, 1, 0, 0, 0, 0], "split_type": [0, 0, 0, 0, 0, 0, 0], "sum_hessian": [700.0, 180.0, 520.0, 8.0, 172.0, 3.0, 517.0], "tree_param": {"num_deleted": "0", "num_feature": "2", "num_nodes": "7", "size_leaf_vector": "1"}}, {"base_weights": [0.0042563123, -0.37942302, 0.04076206, -0.16027515, -1.3609792, 0.32378826, 0.008261204], "categories": [], "categories_nodes": [], "categories_segments": [], "categories_sizes": [], "default_left": [0, 0, 0, 0, 0, 0, 0], "id": 107, "left_children": [1, 3, 5, -1, -1, -1, -1], "loss_changes": [9.8340225, 12.903334, 5.893624, 0.0, 0.0, 0.0, 0.0], "parents": [2147483647, 0, 0, 1, 1, 2, 2], "right_children": [2, 4, 6, -1, -1, -1, -1], "split_conditions": [8.534966, 7.4550643, 9.808258, -0.16027515, -1.3609792, 0.32378826, 0.008261204], "split_indices": [0, 0, 1, 0, 0, 0, 0], "split_type": [0, 0, 0, 0, 0, 0, 0], "sum_hessian": [700.0, 60.0, 640.0, 50.0, 10.0, 65.0, 575.0], "tree_param": {"num_deleted": "0", "num_feature": "2", "num_nodes": "7", "size_leaf_vector": "1"}}, {"base_weights": [-0.0016929011, -0.34977373, 0.019341731, -1.1001772, -0.12779236, 1.3368212, 0.0011817046], "categories": [], "categories_nodes": [], "categories_segments": [], "categories_sizes": [], "default_left": [0, 0, 0, 0, 0, 0, 0], "id": 108, "left_children": [1, 3, 5, -1, -1, -1, -1], "loss_changes": [5.1393137, 6.522429, 15.837078, 0.0, 0.0, 0.0, 0.0], "parents": [2147483647, 0, 0, 1, 1, 2, 2], "right_children": [2, 4, 6, -1, -1, -1, -1], "split_conditions": [5.7086854, 11.323805, 6.535634, -1.1001772, -0.12779236, 1.3368212, 0.0011817046], "split_indices": [1, 0, 1, 0, 0, 0, 0], "split_type": [0, 0, 0, 0, 0, 0, 0], "sum_hessian": [700.0, 39.0, 661.0, 8.0, 31.0, 8.0, 653.0], "tree_param": {"num_deleted": "0", "num_feature": "2", "num_nodes": "7", "size_leaf_vector": "1"}}, {"base_weights": [0.00016210286, -0.08196688, 0.050267946, 0.00933408, -1.2693707, -0.0098251, 0.7182414], "categories": [], "categories_nodes": [], "categories_segments": [], "categories_sizes": [], "default_left": [0, 0, 0, 0, 0, 0, 0], "id": 109, "left_children": [1, 3, 5, -1, -1, -1, -1], "loss_changes": [2.8888347, 28.8492, 17.508339, 0.0, 0.0, 0.0, 0.0], "parents": [2147483647, 0, 0, 1, 1, 2, 2], "right_children": [2, 4, 6, -1, -1, -1, -1], "split_conditions": [41.6154, 92.65876, 92.65876, 0.00933408, -1.2693707, -0.0098251, 0.7182414], "split_indices": [1, 0, 0, 0, 0, 0, 0], "split_type": [0, 0, 0, 0, 0, 0, 0], "sum_hessian": [700.0, 265.0, 435.0, 247.0, 18.0, 400.0, 35.0], "tree_param": {"num_deleted": "0", "num_feature": "2", "num_nodes": "7", "size_leaf_vector": "1"}}, {"base_weights": [-0.00079066266, 0.009209911, -0.42951584, -0.0007782792, 1.7123909, 0.22371128, -0.84382325], "categories": [], "categories_nodes": [], "categories_segments": [], "categories_sizes": [], "default_left": [0, 0, 0, 0, 0, 0, 0], "id": 110, "left_children": [1, 3, 5, -1, -1, -1, -1], "loss_changes": [3.0094917, 11.671356, 4.518962, 0.0, 0.0, 0.0, 0.0], "parents": [2147483647, 0, 0, 1, 1, 2, 2], "right_children": [2, 4, 6, -1, -1, -1, -1], "split_conditions": [98.40835, 98.118614, 37.625957, -0.0007782792, 1.7123909, 0.22371128, -0.84382325], "split_indices": [1, 1, 0, 0, 0, 0, 0], "split_type": [0, 0, 0, 0, 0, 0, 0], "sum_hessian": [700.0, 685.0, 15.0, 682.0, 3.0, 6.0, 9.0], "tree_param": {"num_deleted": "0", "num_feature": "2", "num_nodes": "7", "size_leaf_vector": "1"}}, {"base_weights": [0.0015633483, -0.0046040523, 0.86098635, 0.019687936, -0.28301212, 0.96643066, 0.21960449], "categories": [], "categories_nodes": [], "categories_segments": [], "categories_sizes": [], "default_left": [0, 0, 0, 0, 0, 0, 0], "id": 111, "left_children": [1, 3, 5, -1, -1, -1, -1], "loss_changes": [3.7195485, 4.719443, 0.12591791, 0.0, 0.0, 0.0, 0.0], "parents": [2147483647, 0, 0, 1, 1, 2, 2], "right_children": [2, 4, 6, -1, -1, -1, -1], "split_conditions": [99.49078, 92.808365, 79.57927, 0.019687936, -0.28301212, 0.96643066, 0.21960449], "split_indices": [1, 1, 0, 0, 0, 0, 0], "split_type": [0, 0, 0, 0, 0, 0, 0], "sum_hessian": [700.0, 696.0, 4.0, 641.0, 55.0, 3.0, 1.0], "tree_param": {"num_deleted": "0", "num_feature": "2", "num_nodes": "7", "size_leaf_vector": "1"}}, {"base_weights": [0.0013085473, -0.34046376, 0.016033791, -0.7138631, 0.56863064, 0.45143077, -0.014400337], "categories": [], "categories_nodes": [], "categories_segments": [], "categories_sizes": [], "default_left": [0, 0, 0, 0, 0, 0, 0], "id": 112, "left_children": [1, 3, 5, -1, -1, -1, -1], "loss_changes": [3.5333679, 10.250126, 8.924374, 0.0, 0.0, 0.0, 0.0], "parents": [2147483647, 0, 0, 1, 1, 2, 2], "right_children": [2, 4, 6, -1, -1, -1, -1], "split_conditions": [4.3159914, 73.566315, 9.9441395, -0.7138631, 0.56863064, 0.45143077, -0.014400337], "split_indices": [0, 1, 0, 0, 0, 0, 0], "split_type": [0, 0, 0, 0, 0, 0, 0], "sum_hessian": [700.0, 28.0, 672.0, 20.0, 8.0, 43.0, 629.0], "tree_param": {"num_deleted": "0", "num_feature": "2", "num_nodes": "7", "size_leaf_vector": "1"}}, {"base_weights": [0.0004198915, 0.51588786, -0.010835478, 1.4722399, -0.78740585, -0.52557194, 0.0006532031], "categories": [], "categories_nodes": [], "categories_segments": [], "categories_sizes": [], "default_left": [0, 0, 0, 0, 0, 0, 0], "id": 113, "left_children": [1, 3, 5, -1, -1, -1, -1], "loss_changes": [4.0726395, 19.855362, 4.0630164, 0.0, 0.0, 0.0, 0.0], "parents": [2147483647, 0, 0, 1, 1, 2, 2], "right_children": [2, 4, 6, -1, -1, -1, -1], "split_conditions": [2.5386355, 53.99854, 4.3159914, 1.4722399, -0.78740585, -0.52557194, 0.0006532031], "split_indices": [0, 1, 0, 0, 0, 0, 0], "split_type": [0, 0, 0, 0, 0, 0, 0], "sum_hessian": [700.0, 14.0, 686.0, 8.0, 6.0, 14.0, 672.0], "tree_param": {"num_deleted": "0", "num_feature": "2", "num_nodes": "7", "size_leaf_vector": "1"}}, {"base_weights": [0.00022660445, -0.01751326, 0.15788333, -0.0064023933, -1.1738281, 1.1760417, -0.11282295], "categories": [], "categories_nodes": [], "categories_segments": [], "categories_sizes": [], "default_left": [0, 0, 0, 0, 0, 0, 0], "id": 114, "left_children": [1, 3, 5, -1, -1, -1, -1], "loss_changes": [1.9633282, 8.099359, 19.701838, 0.0, 0.0, 0.0, 0.0], "parents": [2147483647, 0, 0, 1, 1, 2, 2], "right_children": [2, 4, 6, -1, -1, -1, -1], "split_conditions": [90.63544, 89.95746, 27.307081, -0.0064023933, -1.1738281, 1.1760417, -0.11282295], "split_indices": [0, 0, 1, 0, 0, 0, 0], "split_type": [0, 0, 0, 0, 0, 0, 0], "sum_hessian": [700.0, 630.0, 70.0, 625.0, 5.0, 14.0, 56.0], "tree_param": {"num_deleted": "0", "num_feature": "2", "num_nodes": "7", "size_leaf_vector": "1"}}, {"base_weights": [-0.00016482105, -0.11218438, 0.036469486, 0.08669368, -0.71545976, -0.0109794345, 0.22817731], "categories": [], "categories_nodes": [], "categories_segments": [], "categories_sizes": [], "default_left": [0, 0, 0, 0, 0, 0, 0], "id": 115, "left_children": [1, 3, 5, -1, -1, -1, -1], "loss_changes": [2.8808265, 20.818262, 4.8144636, 0.0, 0.0, 0.0, 0.0], "parents": [2147483647, 0, 0, 1, 1, 2, 2], "right_children": [2, 4, 6, -1, -1, -1, -1], "split_conditions": [25.677656, 69.60298, 81.446846, 0.08669368, -0.71545976, -0.0109794345, 0.22817731], "split_indices": [1, 0, 0, 0, 0, 0, 0], "split_type": [0, 0, 0, 0, 0, 0, 0], "sum_hessian": [700.0, 172.0, 528.0, 130.0, 42.0, 424.0, 104.0], "tree_param": {"num_deleted": "0", "num_feature": "2", "num_nodes": "7", "size_leaf_vector": "1"}}, {"base_weights": [-0.0022202001, 0.049323432, -0.059656717, 1.515461, 0.020992976, -1.7690735, -0.028108835], "categories": [], "categories_nodes": [], "categories_segments": [], "categories_sizes": [], "default_left": [0, 0, 0, 0, 0, 0, 0], "id": 116, "left_children": [1, 3, 5, -1, -1, -1, -1], "loss_changes": [2.0782437, 15.336635, 17.85453, 0.0, 0.0, 0.0, 0.0], "parents": [2147483647, 0, 0, 1, 1, 2, 2], "right_children": [2, 4, 6, -1, -1, -1, -1], "split_conditions": [52.475643, 2.094496, 53.21135, 1.515461, 0.020992976, -1.7690735, -0.028108835], "split_indices": [0, 1, 0, 0, 0, 0, 0], "split_type": [0, 0, 0, 0, 0, 0, 0], "sum_hessian": [700.0, 369.0, 331.0, 6.0, 363.0, 5.0, 326.0], "tree_param": {"num_deleted": "0", "num_feature": "2", "num_nodes": "7", "size_leaf_vector": "1"}}, {"base_weights": [-0.0003668068, -0.306185, 0.028736591, 0.14203268, -0.69079494, 1.1570572, 0.010837947], "categories": [], "categories_nodes": [], "categories_segments": [], "categories_sizes": [], "default_left": [0, 0, 0, 0, 0, 0, 0], "id": 117, "left_children": [1, 3, 5, -1, -1, -1, -1], "loss_changes": [6.2479434, 10.613843, 12.932715, 0.0, 0.0, 0.0, 0.0], "parents": [2147483647, 0, 0, 1, 1, 2, 2], "right_children": [2, 4, 6, -1, -1, -1, -1], "split_conditions": [8.104622, 41.824303, 9.553532, 0.14203268, -0.69079494, 1.1570572, 0.010837947], "split_indices": [1, 0, 1, 0, 0, 0, 0], "split_type": [0, 0, 0, 0, 0, 0, 0], "sum_hessian": [700.0, 60.0, 640.0, 28.0, 32.0, 9.0, 631.0], "tree_param": {"num_deleted": "0", "num_feature": "2", "num_nodes": "7", "size_leaf_vector": "1"}}, {"base_weights": [0.0008704557, -0.08170229, 0.06106913, -0.020539846, -2.0298223, 0.36655337, -0.07770789], "categories": [], "categories_nodes": [], "categories_segments": [], "categories_sizes": [], "default_left": [0, 0, 0, 0, 0, 0, 0], "id": 118, "left_children": [1, 3, 5, -1, -1, -1, -1], "loss_changes": [3.489499, 35.227238, 17.240526, 0.0, 0.0, 0.0, 0.0], "parents": [2147483647, 0, 0, 1, 1, 2, 2], "right_children": [2, 4, 6, -1, -1, -1, -1], "split_conditions": [41.039684, 39.72873, 33.68958, -0.020539846, -2.0298223, 0.36655337, -0.07770789], "split_indices": [0, 0, 1, 0, 0, 0, 0], "split_type": [0, 0, 0, 0, 0, 0, 0], "sum_hessian": [700.0, 295.0, 405.0, 287.0, 8.0, 126.0, 