{"learner": {"attributes": {"scikit_learn": "{\"_estimator_type\": \"regressor\"}"}, "feature_names": ["x1", "x2"], "feature_types": ["float", "float"], "gradient_booster": {"model": {"gbtree_model_param": {"num_parallel_tree": "1", "num_trees": "96"}, "iteration_indptr": [0, 1, 2, 3, 4, 5, 6, 7, 8, 9, 10, 11, 12, 13, 14, 15, 16, 17, 18, 19, 20, 21, 22, 23, 24, 25, 26, 27, 28, 29, 30, 31, 32, 33, 34, 35, 36, 37, 38, 39, 40, 41, 42, 43, 44, 45, 46, 47, 48, 49, 50, 51, 52, 53, 54, 55, 56, 57, 58, 59, 60, 61, 62, 63, 64, 65, 66, 67, 68, 69, 70, 71, 72, 73, 74, 75, 76, 77, 78, 79, 80, 81, 82, 83, 84, 85, 86, 87, 88, 89, 90, 91, 92, 93, 94, 95, 96], "tree_info": [0, 0, 0, 0, 0, 0, 0, 0, 0, 0, 0, 0, 0, 0, 0, 0, 0, 0, 0, 0, 0, 0, 0, 0, 0, 0, 0, 0, 0, 0, 0, 0, 0, 0, 0, 0, 0, 0, 0, 0, 0, 0, 0, 0, 0, 0, 0, 0, 0, 0, 0, 0, 0, 0, 0, 0, 0, 0, 0, 0, 0, 0, 0, 0, 0, 0, 0, 0, 0, 0, 0, 0, 0, 0, 0, 0, 0, 0, 0, 0, 0, 0, 0, 0, 0, 0, 0, 0, 0, 0, 0, 0, 0, 0, 0, 0], "trees": [{"base_weights": [-0.012034298, -4.04736, 10.630416, 0.12208037, -12.511058, 14.624246, 3.8648834], "categories": [], "categories_nodes": [], "categories_segments": [], "categories_sizes": [], "default_left": [0, 0, 0, 0, 0, 0, 0], "id": 0, "left_children": [1, 3, 5, -1, -1, -1, -1], "loss_changes": [30147.996, 17963.57, 5158.414, 0.0, 0.0, 0.0, 0.0], "parents": [2147483647, 0, 0, 1, 1, 2, 2], "right_children": [2, 4, 6, -1, -1, -1, -1], "split_conditions": [73.84492, 51.90598, 90.07018, 0.12208037, -12.511058, 14.624246, 3.8648834], "split_indices": [1, 1, 1, 0, 0, 0, 0], "split_type": [0, 0, 0, 0, 0, 0, 0], "sum_hessian": [700.0, 508.0, 192.0, 341.0, 167.0, 120.0, 72.0], "tree_param": {"num_deleted": "0", "num_feature": "2", "num_nodes": "7", "size_leaf_vector": "1"}}, {"base_weights": [0.0072653494, -2.874088, 0.93514514, 0.3313888, -9.462681, 6.6109443, 0.016052796], "categories": [], "categories_nodes": [], "categories_segments": [], "categories_sizes": [], "default_left": [0, 0, 0, 0, 0, 0, 0], "id": 1, "left_children": [1, 3, 5, -1, -1, -1, -1], "loss_changes": [1876.8458, 3614.584, 2769.8994, 0.0, 0.0, 0.0, 0.0], "parents": [2147483647, 0, 0, 1, 1, 2, 2], "right_children": [2, 4, 6, -1, -1, -1, -1], "split_conditions": [25.224102, 17.389524, 37.32518, 0.3313888, -9.462681, 6.6109443, 0.016052796], "split_indices": [1, 1, 1, 0, 0, 0, 0], "split_type": [0, 0, 0, 0, 0, 0, 0], "sum_hessian": [700.0, 170.0, 530.0, 115.0, 55.0, 73.0, 457.0], "tree_param": {"num_deleted": "0", "num_feature": "2", "num_nodes": "7", "size_leaf_vector": "1"}}, {"base_weights": [-0.007336686, 0.44076598, -3.9896667, -0.024370262, 6.2208495, -5.829652, 2.6996346], "categories": [], "categories_nodes": [], "categories_segments": [], "categories_sizes": [], "default_left": [0, 0, 0, 0, 0, 0, 0], "id": 2, "left_children": [1, 3, 5, -1, -1, -1, -1], "loss_changes": [1252.6879, 1696.6117, 889.6211, 0.0, 0.0, 0.0, 0.0], "parents": [2147483647, 0, 0, 1, 1, 2, 2], "right_children": [2, 4, 6, -1, -1, -1, -1], "split_conditions": [90.90325, 84.417046, 98.40835, -0.024370262, 6.2208495, -5.829652, 2.6996346], "split_indices": [1, 1, 1, 0, 0, 0, 0], "split_type": [0, 0, 0, 0, 0, 0, 0], "sum_hessian": [700.0, 630.0, 70.0, 584.0, 46.0, 55.0, 15.0], "tree_param": {"num_deleted": "0", "num_feature": "2", "num_nodes": "7", "size_leaf_vector": "1"}}, {"base_weights": [-0.011477526, -1.7117255, 1.2647971, -0.52500606, -6.674619, 7.7237053, 0.5077445], "categories": [], "categories_nodes": [], "categories_segments": [], "categories_sizes": [], "default_left": [0, 0, 0, 0, 0, 0, 0], "id": 3, "left_children": [1, 3, 5, -1, -1, -1, -1], "loss_changes": [1523.3235, 1769.2543, 1956.8613, 0.0, 0.0, 0.0, 0.0], "parents": [2147483647, 0, 0, 1, 1, 2, 2], "right_children": [2, 4, 6, -1, -1, -1, -1], "split_conditions": [46.147747, 37.32518, 51.90598, -0.52500606, -6.674619, 7.7237053, 0.5077445], "split_indices": [1, 1, 1, 0, 0, 0, 0], "split_type": [0, 0, 0, 0, 0, 0, 0], "sum_hessian": [700.0, 300.0, 400.0, 243.0, 57.0, 41.0, 359.0], "tree_param": {"num_deleted": "0", "num_feature": "2", "num_nodes": "7", "size_leaf_vector": "1"}}, {"base_weights": [-0.01696755, 0.6530866, -1.7840172, -0.12667239, 8.696083, -9.716972, -0.59994686], "categories": [], "categories_nodes": [], "categories_segments": [], "categories_sizes": [], "default_left": [0, 0, 0, 0, 0, 0, 0], "id": 4, "left_children": [1, 3, 5, -1, -1, -1, -1], "loss_changes": [831.16235, 3193.3452, 1807.0535, 0.0, 0.0, 0.0, 0.0], "parents": [2147483647, 0, 0, 1, 1, 2, 2], "right_children": [2, 4, 6, -1, -1, -1, -1], "split_conditions": [73.84492, 68.952675, 77.9851, -0.12667239, 8.696083, -9.716972, -0.59994686], "split_indices": [1, 1, 1, 0, 0, 0, 0], "split_type": [0, 0, 0, 0, 0, 0, 0], "sum_hessian": [700.0, 508.0, 192.0, 464.0, 44.0, 24.0, 168.0], "tree_param": {"num_deleted": "0", "num_feature": "2", "num_nodes": "7", "size_leaf_vector": "1"}}, {"base_weights": [-0.017652743, 1.1356721, -0.37199342, 0.6943315, 5.5027895, -6.5122986, -0.13419788], "categories": [], "categories_nodes": [], "categories_segments": [], "categories_sizes": [], "default_left": [0, 0, 0, 0, 0, 0, 0], "id": 5, "left_children": [1, 3, 5, -1, -1, -1, -1], "loss_changes": [286.9001, 314.19794, 783.2198, 0.0, 0.0, 0.0, 0.0], "parents": [2147483647, 0, 0, 1, 1, 2, 2], "right_children": [2, 4, 6, -1, -1, -1, -1], "split_conditions": [24.34823, 22.66564, 27.307081, 0.6943315, 5.5027895, -6.5122986, -0.13419788], "split_indices": [1, 1, 1, 0, 0, 0, 0], "split_type": [0, 0, 0, 0, 0, 0, 0], "sum_hessian": [700.0, 164.0, 536.0, 150.0, 14.0, 19.0, 517.0], "tree_param": {"num_deleted": "0", "num_feature": "2", "num_nodes": "7", "size_leaf_vector": "1"}}, {"base_weights": [0.003993656, 0.073325485, -2.4885132, -0.009849054, 2.831054, -4.5606976, -0.5668612], "categories": [], "categories_nodes": [], "categories_segments": [], "categories_sizes": [], "default_left": [0, 0, 0, 0, 0, 0, 0], "id": 6, "left_children": [1, 3, 5, -1, -1, -1, -1], "loss_changes": [121.322334, 156.6895, 73.07305, 0.0, 0.0, 0.0, 0.0], "parents": [2147483647, 0, 0, 1, 1, 2, 2], "right_children": [2, 4, 6, -1, -1, -1, -1], "split_conditions": [98.118614, 95.56515, 98.77224, -0.009849054, 2.831054, -4.5606976, -0.5668612], "split_indices": [1, 1, 1, 0, 0, 0, 0], "split_type": [0, 0, 0, 0, 0, 0, 0], "sum_hessian": [700.0, 682.0, 18.0, 663.0, 19.0, 8.0, 10.0], "tree_param": {"num_deleted": "0", "num_feature": "2", "num_nodes": "7", "size_leaf_vector": "1"}}, {"base_weights": [0.006761178, -0.07787692, 1.0222931, -0.021107446, -4.106164, 7.276632, 0.64180636], "categories": [], "categories_nodes": [], "categories_segments": [], "categories_sizes": [], "default_left": [0, 0, 0, 0, 0, 0, 0], "id": 7, "left_children": [1, 3, 5, -1, -1, -1, -1], "loss_changes": [60.332447, 148.10039, 123.833206, 0.0, 0.0, 0.0, 0.0], "parents": [2147483647, 0, 0, 1, 1, 2, 2], "right_children": [2, 4, 6, -1, -1, -1, -1], "split_conditions": [93.62122, 92.71778, 93.72285, -0.021107446, -4.106164, 7.276632, 0.64180636], "split_indices": [1, 1, 1, 0, 0, 0, 0], "split_type": [0, 0, 0, 0, 0, 0, 0], "sum_hessian": [700.0, 647.0, 53.0, 639.0, 8.0, 2.0, 51.0], "tree_param": {"num_deleted": "0", "num_feature": "2", "num_nodes": "7", "size_leaf_vector": "1"}}, {"base_weights": [0.0054158526, 0.64076823, -0.11648607, -0.4114517, 3.8497021, -6.365915, 0.046745088], "categories": [], "categories_nodes": [], "categories_segments": [], "categories_sizes": [], "default_left": [0, 0, 0, 0, 0, 0, 0], "id": 8, "left_children": [1, 3, 5, -1, -1, -1, -1], "loss_changes": [54.36757, 383.1289, 601.1374, 0.0, 0.0, 0.0, 0.0], "parents": [2147483647, 0, 0, 1, 1, 2, 2], "right_children": [2, 4, 6, -1, -1, -1, -1], "split_conditions": [16.76192, 12.210992, 18.513292, -0.4114517, 3.8497021, -6.365915, 0.046745088], "split_indices": [1, 1, 1, 0, 0, 0, 0], "split_type": [0, 0, 0, 0, 0, 0, 0], "sum_hessian": [700.0, 112.0, 588.0, 85.0, 27.0, 14.0, 574.0], "tree_param": {"num_deleted": "0", "num_feature": "2", "num_nodes": "7", "size_leaf_vector": "1"}}, {"base_weights": [0.0031257416, -1.1426876, 0.087217346, -0.66671216, -6.2117386, 1.7720647, 0.04218659], "categories": [], "categories_nodes": [], "categories_segments": [], "categories_sizes": [], "default_left": [0, 0, 0, 0, 0, 0, 0], "id": 9, "left_children": [1, 3, 5, -1, -1, -1, -1], "loss_changes": [67.6433, 111.67026, 49.54419, 0.0, 0.0, 0.0, 0.0], "parents": [2147483647, 0, 0, 1, 1, 2, 2], "right_children": [2, 4, 6, -1, -1, -1, -1], "split_conditions": [6.535634, 6.22918, 8.479201, -0.66671216, -6.2117386, 1.7720647, 0.04218659], "split_indices": [1, 1, 1, 0, 0, 0, 0], "split_type": [0, 0, 0, 0, 0, 0, 0], "sum_hessian": [700.0, 47.0, 653.0, 44.0, 3.0, 16.0, 637.0], "tree_param": {"num_deleted": "0", "num_feature": "2", "num_nodes": "7", "size_leaf_vector": "1"}}, {"base_weights": [-0.013562832, 0.2509031, -0.15710025, 0.088745214, 3.4190998, -3.8432596, -0.03136444], "categories": [], "categories_nodes": [], "categories_segments": [], "categories_sizes": [], "default_left": [0, 0, 0, 0, 0, 0, 0], "id": 10, "left_children": [1, 3, 5, -1, -1, -1, -1], "loss_changes": [26.649908, 126.592354, 210.76385, 0.0, 0.0, 0.0, 0.0], "parents": [2147483647, 0, 0, 1, 1, 2, 2], "right_children": [2, 4, 6, -1, -1, -1, -1], "split_conditions": [38.01956, 36.223545, 40.84532, 0.088745214, 3.4190998, -3.8432596, -0.03136444], "split_indices": [1, 1, 1, 0, 0, 0, 0], "split_type": [0, 0, 0, 0, 0, 0, 0], "sum_hessian": [700.0, 246.0, 454.0, 235.0, 11.0, 14.0, 440.0], "tree_param": {"num_deleted": "0", "num_feature": "2", "num_nodes": "7", "size_leaf_vector": "1"}}, {"base_weights": [0.0019895006, 0.033346564, -0.70047504, -0.0063889916, 4.4450583, -3.559991, 0.5011666], "categories": [], "categories_nodes": [], "categories_segments": [], "categories_sizes": [], "default_left": [0, 0, 0, 0, 0, 0, 0], "id": 11, "left_children": [1, 3, 5, -1, -1, -1, -1], "loss_changes": [15.464444, 117.831215, 104.86754, 0.0, 0.0, 0.0, 0.0], "parents": [2147483647, 0, 0, 1, 1, 2, 2], "right_children": [2, 4, 6, -1, -1, -1, -1], "split_conditions": [96.786, 95.80735, 97.58737, -0.0063889916, 4.4450583, -3.559991, 0.5011666], "split_indices": [1, 1, 1, 0, 0, 0, 0], "split_type": [0, 0, 0, 0, 0, 0, 0], "sum_hessian": [700.0, 671.0, 29.0, 666.0, 5.0, 8.0, 21.0], "tree_param": {"num_deleted": "0", "num_feature": "2", "num_nodes": "7", "size_leaf_vector": "1"}}, {"base_weights": [-0.0017487312, 0.34796315, -0.16348682, 0.1786878, 2.8501477, -0.5500563, 0.044523247], "categories": [], "categories_nodes": [], "categories_segments": [], "categories_sizes": [], "default_left": [0, 0, 0, 0, 0, 0, 0], "id": 12, "left_children": [1, 3, 5, -1, -1, -1, -1], "loss_changes": [39.706665, 93.52063, 38.621452, 0.0, 0.0, 0.0, 0.0], "parents": [2147483647, 0, 0, 1, 1, 2, 2], "right_children": [2, 4, 6, -1, -1, -1, -1], "split_conditions": [33.94502, 31.910048, 58.82023, 0.1786878, 2.8501477, -0.5500563, 0.044523247], "split_indices": [1, 1, 1, 0, 0, 0, 0], "split_type": [0, 0, 0, 0, 0, 0, 0], "sum_hessian": [700.0, 221.0, 479.0, 208.0, 13.0, 167.0, 312.0], "tree_param": {"num_deleted": "0", "num_feature": "2", "num_nodes": "7", "size_leaf_vector": "1"}}, {"base_weights": [0.003598397, 1.4593096, -0.021723535, -0.8521042, 2.324459, -1.0657463, 0.0062320875], "categories": [], "categories_nodes": [], "categories_segments": [], "categories_sizes": [], "default_left": [0, 0, 0, 0, 0, 0, 0], "id": 13, "left_children": [1, 3, 5, -1, -1, -1, -1], "loss_changes": [25.871555, 25.977304, 20.145193, 0.0, 0.0, 0.0, 0.0], "parents": [2147483647, 0, 0, 1, 1, 2, 2], "right_children": [2, 4, 6, -1, -1, -1, -1], "split_conditions": [2.094496, 0.7562875, 3.5311356, -0.8521042, 2.324459, -1.0657463, 0.0062320875], "split_indices": [1, 1, 1, 0, 0, 0, 0], "split_type": [0, 0, 0, 0, 0, 0, 0], "sum_hessian": [700.0, 11.0, 689.0, 3.0, 8.0, 17.0, 672.0], "tree_param": {"num_deleted": "0", "num_feature": "2", "num_nodes": "7", "size_leaf_vector": "1"}}, {"base_weights": [0.0005947472, 0.14511354, -0.23485945, 0.0059448136, 1.2938694, -1.3078221, 0.04967247], "categories": [], "categories_nodes": [], "categories_segments": [], "categories_sizes": [], "default_left": [0, 0, 0, 0, 0, 0, 0], "id": 14, "left_children": [1, 3, 5, -1, -1, -1, -1], "loss_changes": [23.887398, 69.53615, 81.577965, 0.0, 0.0, 0.0, 0.0], "parents": [2147483647, 0, 0, 1, 1, 2, 2], "right_children": [2, 4, 6, -1, -1, -1, -1], "split_conditions": [65.5242, 58.82023, 72.20709, 0.0059448136, 1.2938694, -1.3078221, 0.04967247], "split_indices": [1, 1, 1, 0, 0, 0, 0], "split_type": [0, 0, 0, 0, 0, 0, 0], "sum_hessian": [700.0, 434.0, 266.0, 388.0, 46.0, 55.0, 211.0], "tree_param": {"num_deleted": "0", "num_feature": "2", "num_nodes": "7", "size_leaf_vector": "1"}}, {"base_weights": [-0.0029570162, 0.049731478, -0.47117507, 0.017902197, 2.2474992, -5.2039948, -0.18584487], "categories": [], "categories_nodes": [], "categories_segments": [], "categories_sizes": [], "default_left": [0, 0, 0, 0, 0, 0, 0], "id": 15, "left_children": [1, 3, 5, -1, -1, -1, -1], "loss_changes": [17.316893, 44.10034, 94.91243, 0.0, 0.0, 0.0, 0.0], "parents": [2147483647, 0, 0, 1, 1, 2, 2], "right_children": [2, 4, 6, -1, -1, -1, -1], "split_conditions": [90.90325, 88.69249, 91.892654, 0.017902197, 2.2474992, -5.2039948, -0.18584487], "split_indices": [1, 1, 1, 0, 0, 0, 0], "split_type": [0, 0, 0, 0, 0, 0, 0], "sum_hessian": [700.0, 630.0, 70.0, 622.0, 8.0, 3.0, 67.0], "tree_param": {"num_deleted": "0", "num_feature": "2", "num_nodes": "7", "size_leaf_vector": "1"}}, {"base_weights": [-0.0033571948, -0.3183246, 0.08738269, -0.016906286, -2.0736787, 2.1292377, 0.009579488], "categories": [], "categories_nodes": [], "categories_segments": [], "categories_sizes": [], "default_left": [0, 0, 0, 0, 0, 0, 0], "id": 16, "left_children": [1, 3, 5, -1, -1, -1, -1], "loss_changes": [20.06247, 83.03299, 86.55986, 0.0, 0.0, 0.0, 0.0], "parents": [2147483647, 0, 0, 1, 1, 2, 2], "right_children": [2, 4, 6, -1, -1, -1, -1], "split_conditions": [23.295948, 20.185345, 25.929676, -0.016906286, -2.0736787, 2.1292377, 0.009579488], "split_indices": [1, 1, 1, 0, 0, 0, 0], "split_type": [0, 0, 0, 0, 0, 0, 0], "sum_hessian": [700.0, 156.0, 544.0, 134.0, 22.0, 19.0, 525.0], "tree_param": {"num_deleted": "0", "num_feature": "2", "num_nodes": "7", "size_leaf_vector": "1"}}, {"base_weights": [7.2615294e-05, -0.68197477, 0.038021006, -0.17112659, -1.2729063, 2.5681696, 0.022675667], "categories": [], "categories_nodes": [], "categories_segments": [], "categories_sizes": [], "default_left": [0, 0, 0, 0, 0, 0, 0], "id": 17, "left_children": [1, 3, 5, -1, -1, -1, -1], "loss_changes": [18.169634, 10.951595, 25.76105, 0.0, 0.0, 0.0, 0.0], "parents": [2147483647, 0, 0, 1, 1, 2, 2], "right_children": [2, 4, 6, -1, -1, -1, -1], "split_conditions": [4.16729, 2.9247284, 5.7086854, -0.17112659, -1.2729063, 2.5681696, 0.022675667], "split_indices": [1, 1, 1, 0, 0, 0, 0], "split_type": [0, 0, 0, 0, 0, 0, 0], "sum_hessian": [700.0, 36.0, 664.0, 20.0, 16.0, 3.0, 661.0], "tree_param": {"num_deleted": "0", "num_feature": "2", "num_nodes": "7", "size_leaf_vector": "1"}}, {"base_weights": [-0.0023904357, -0.12809205, 0.18372747, -0.09137522, -3.9146194, 0.9148537, 0.03796097], "categories": [], "categories_nodes": [], "categories_segments": [], "categories_sizes": [], "default_left": [0, 0, 0, 0, 0, 0, 0], "id": 18, "left_children": [1, 3, 5, -1, -1, -1, -1], "loss_changes": [16.423655, 57.895573, 30.12563, 0.0, 0.0, 0.0, 0.0], "parents": [2147483647, 0, 0, 1, 1, 2, 2], "right_children": [2, 4, 6, -1, -1, -1, -1], "split_conditions": [63.629135, 63.181355, 68.952675, -0.09137522, -3.9146194, 0.9148537, 0.03796097], "split_indices": [1, 1, 1, 0, 0, 0, 0], "split_type": [0, 0, 0, 0, 0, 0, 0], "sum_hessian": [700.0, 418.0, 282.0, 415.0, 3.0, 46.0, 236.0], "tree_param": {"num_deleted": "0", "num_feature": "2", "num_nodes": "7", "size_leaf_vector": "1"}}, {"base_weights": [-0.0024481704, 0.28766033, -0.09586833, 0.15602267, 3.3494534, -3.0454614, -0.03340884], "categories": [], "categories_nodes": [], "categories_segments": [], "categories_sizes": [], "default_left": [0, 0, 0, 0, 0, 0, 0], "id": 19, "left_children": [1, 3, 5, -1, -1, -1, -1], "loss_changes": [19.026066, 68.39849, 97.72443, 0.0, 0.0, 0.0, 0.0], "parents": [2147483647, 0, 0, 1, 1, 2, 2], "right_children": [2, 4, 6, -1, -1, -1, -1], "split_conditions": [25.224102, 24.34823, 26.702827, 0.15602267, 3.3494534, -3.0454614, -0.03340884], "split_indices": [1, 1, 1, 0, 0, 0, 0], "split_type": [0, 0, 0, 0, 0, 0, 0], "sum_hessian": [700.0, 170.0, 530.0, 164.0, 6.0, 10.0, 520.0], "tree_param": {"num_deleted": "0", "num_feature": "2", "num_nodes": "7", "size_leaf_vector": "1"}}, {"base_weights": [0.00032381937, 0.21137041, -0.1100071, 0.103569195, 2.4559805, -1.8152535, -0.072037034], "categories": [], "categories_nodes": [], "categories_segments": [], "categories_sizes": [], "default_left": [0, 0, 0, 0, 0, 0, 0], "id": 20, "left_children": [1, 3, 5, -1, -1, -1, -1], "loss_changes": [16.346012, 58.060814, 29.718208, 0.0, 0.0, 0.0, 0.0], "parents": [2147483647, 0, 0, 1, 1, 2, 2], "right_children": [2, 4, 6, -1, -1, -1, -1], "split_conditions": [37.103878, 35.462215, 39.0906, 0.103569195, 2.4559805, -1.8152535, -0.072037034], "split_indices": [1, 1, 1, 0, 0, 0, 0], "split_type": [0, 0, 0, 0, 0, 0, 0], "sum_hessian": [700.0, 240.0, 460.0, 230.0, 10.0, 9.0, 451.0], "tree_param": {"num_deleted": "0", "num_feature": "2", "num_nodes": "7", "size_leaf_vector": "1"}}, {"base_weights": [0.0035779194, -0.34620774, 0.05965334, -0.23469482, -2.880209, 1.9595746, 0.0047156266], "categories": [], "categories_nodes": [], "categories_segments": [], "categories_sizes": [], "default_left": [0, 0, 0, 0, 0, 0, 0], "id": 21, "left_children": [1, 3, 5, -1, -1, -1, -1], "loss_changes": [13.77033, 26.733692, 63.13905, 0.0, 0.0, 0.0, 0.0], "parents": [2147483647, 0, 0, 1, 1, 2, 2], "right_children": [2, 4, 6, -1, -1, -1, -1], "split_conditions": [13.535408, 13.252467, 16.76192, -0.23469482, -2.880209, 1.9595746, 0.0047156266], "split_indices": [1, 1, 1, 0, 0, 0, 0], "split_type": [0, 0, 0, 0, 0, 0, 0], "sum_hessian": [700.0, 96.0, 604.0, 93.0, 3.0, 16.0, 588.0], "tree_param": {"num_deleted": "0", "num_feature": "2", "num_nodes": "7", "size_leaf_vector": "1"}}, {"base_weights": [0.0024215055, -0.07003372, 0.16327429, -0.028835675, -1.0243866, 1.3166312, 0.027098363], "categories": [], "categories_nodes": [], "categories_segments": [], "categories_sizes": [], "default_left": [0, 0, 0, 0, 0, 0, 0], "id": 22, "left_children": [1, 3, 5, -1, -1, -1, -1], "loss_changes": [8.181327, 19.000118, 34.203285, 0.0, 0.0, 0.0, 0.0], "parents": [2147483647, 0, 0, 1, 1, 2, 2], "right_children": [2, 4, 6, -1, -1, -1, -1], "split_conditions": [70.836296, 68.952675, 73.73571, -0.028835675, -1.0243866, 1.3166312, 0.027098363], "split_indices": [1, 1, 1, 0, 0, 0, 0], "split_type": [0, 0, 0, 0, 0, 0, 0], "sum_hessian": [700.0, 483.0, 217.0, 464.0, 19.0, 22.0, 195.0], "tree_param": {"num_deleted": "0", "num_feature": "2", "num_nodes": "7", "size_leaf_vector": "1"}}, {"base_weights": [0.00077109126, -0.07617475, 0.21579936, -0.0485642, -3.6050873, 0.9794582, 0.061675336], "categories": [], "categories_nodes": [], "categories_segments": [], "categories_sizes": [], "default_left": [0, 0, 0, 0, 0, 0, 0], "id": 23, "left_children": [1, 3, 5, -1, -1, -1, -1], "loss_changes": [11.614856, 50.19894, 21.713753, 0.0, 0.0, 0.0, 0.0], "parents": [2147483647, 0, 0, 1, 1, 2, 2], "right_children": [2, 4, 6, -1, -1, -1, -1], "split_conditions": [76.10279, 75.61633, 79.87142, -0.0485642, -3.6050873, 0.9794582, 0.061675336], "split_indices": [1, 1, 1, 0, 0, 0, 0], "split_type": [0, 0, 0, 0, 0, 0, 0], "sum_hessian": [700.0, 516.0, 184.0, 513.0, 3.0, 30.0, 154.0], "tree_param": {"num_deleted": "0", "num_feature": "2", "num_nodes": "7", "size_leaf_vector": "1"}}, {"base_weights": [0.0016167323, -0.23660514, 0.09129709, -0.17546234, -2.1027882, 1.5865643, 0.030204136], "categories": [], "categories_nodes": [], "categories_segments": [], "categories_sizes": [], "default_left": [0, 0, 0, 0, 0, 0, 0], "id": 24, "left_children": [1, 3, 5, -1, -1, -1, -1], "loss_changes": [14.997642, 21.538944, 46.540726, 0.0, 0.0, 0.0, 0.0], "parents": [2147483647, 0, 0, 1, 1, 2, 2], "right_children": [2, 4, 6, -1, -1, -1, -1], "split_conditions": [29.166258, 27.68278, 32.458584, -0.17546234, -2.1027882, 1.5865643, 0.030204136], "split_indices": [1, 1, 1, 0, 0, 0, 0], "split_type": [0, 0, 0, 0, 0, 0, 0], "sum_hessian": [700.0, 191.0, 509.0, 186.0, 5.0, 19.0, 490.0], "tree_param": {"num_deleted": "0", "num_feature": "2", "num_nodes": "7", "size_leaf_vector": "1"}}, {"base_weights": [-0.001395722, -0.20889632, 0.093316995, -0.12364157, -2.7854135, 1.0545214, 0.04064575], "categories": [], "categories_nodes": [], "categories_segments": [], "categories_sizes": [], "default_left": [0, 0, 0, 0, 0, 0, 0], "id": 25, "left_children": [1, 3, 5, -1, -1, -1, -1], "loss_changes": [13.796207, 47.980877, 24.359755, 0.0, 0.0, 0.0, 0.0], "parents": [2147483647, 0, 0, 1, 1, 2, 2], "right_children": [2, 4, 6, -1, -1, -1, -1], "split_conditions": [33.68958, 32.64613, 37.32518, -0.12364157, -2.7854135, 1.0545214, 0.04064575], "split_indices": [1, 1, 1, 0, 0, 0, 0], "split_type": [0, 0, 0, 0, 0, 0, 0], "sum_hessian": [700.0, 219.0, 481.0, 213.0, 6.0, 24.0, 457.0], "tree_param": {"num_deleted": "0", "num_feature": "2", "num_nodes": "7", "size_leaf_vector": "1"}}, {"base_weights": [-0.00081901444, -0.18348297, 0.047148176, -0.02594984, -1.5575424, 0.9578584, 0.02700933], "categories": [], "categories_nodes": [], "categories_segments": [], "categories_sizes": [], "default_left": [0, 0, 0, 0, 0, 0, 0], "id": 26, "left_children": [1, 3, 5, -1, -1, -1, -1], "loss_changes": [6.150727, 31.562725, 10.171532, 0.0, 0.0, 0.0, 0.0], "parents": [2147483647, 0, 0, 1, 1, 2, 2], "right_children": [2, 4, 6, -1, -1, -1, -1], "split_conditions": [22.01832, 19.74705, 23.295948, -0.02594984, -1.5575424, 0.9578584, 0.02700933], "split_indices": [1, 1, 1, 0, 0, 0, 0], "split_type": [0, 0, 0, 0, 0, 0, 0], "sum_hessian": [700.0, 145.0, 555.0, 131.0, 14.0, 11.0, 544.0], "tree_param": {"num_deleted": "0", "num_feature": "2", "num_nodes": "7", "size_leaf_vector": "1"}}, {"base_weights": [4.2739848e-05, 0.047055457, -0.2642933, 0.031370077, 2.360649, -2.3608704, -0.13712741], "categories": [], "categories_nodes": [], "categories_segments": [], "categories_sizes": [], "default_left": [0, 0, 0, 0, 0, 0, 0], "id": 27, "left_children": [1, 3, 5, -1, -1, -1, -1], "loss_changes": [8.723873, 21.554544, 27.937248, 0.0, 0.0, 0.0, 0.0], "parents": [2147483647, 0, 0, 1, 1, 2, 2], "right_children": [2, 4, 6, -1, -1, -1, -1], "split_conditions": [86.21276, 86.137, 86.814224, 0.031370077, 2.360649, -2.3608704, -0.13712741], "split_indices": [1, 1, 1, 0, 0, 0, 0], "split_type": [0, 0, 0, 0, 0, 0, 0], "sum_hessian": [700.0, 595.0, 105.0, 592.0, 3.0, 5.0, 100.0], "tree_param": {"num_deleted": "0", "num_feature": "2", "num_nodes": "7", "size_leaf_vector": "1"}}, {"base_weights": [-0.00077539845, -0.025508437, 0.2545459, -0.010889779, -0.9453949, 1.4945068, 0.11955797], "categories": [], "categories_nodes": [], "categories_segments": [], "categories_sizes": [], "default_left": [0, 0, 0, 0, 0, 0, 0], "id": 28, "left_children": [1, 3, 5, -1, -1, -1, -1], "loss_changes": [4.4332175, 8.596108, 10.198864, 0.0, 0.0, 0.0, 0.0], "parents": [2147483647, 0, 0, 1, 1, 2, 2], "right_children": [2, 4, 6, -1, -1, -1, -1], "split_conditions": [92.71778, 90.90325, 93.20281, -0.010889779, -0.9453949, 1.4945068, 0.11955797], "split_indices": [1, 1, 1, 0, 0, 0, 0], "split_type": [0, 0, 0, 0, 0, 0, 0], "sum_hessian": [700.0, 639.0, 61.0, 630.0, 9.0, 5.0, 56.0], "tree_param": {"num_deleted": "0", "num_feature": "2", "num_nodes": "7", "size_leaf_vector": "1"}}, {"base_weights": [0.0013922149, -0.15779138, 0.05344773, -0.10481536, -3.1248271, 2.7520905, 0.03282412], "categories": [], "categories_nodes": [], "categories_segments": [], "categories_sizes": [], "default_left": [0, 0, 0, 0, 0, 0, 0], "id": 29, "left_children": [1, 3, 5, -1, -1, -1, -1], "loss_changes": [5.8171887, 26.86491, 29.351559, 0.0, 0.0, 0.0, 0.0], "parents": [2147483647, 0, 0, 1, 1, 2, 2], "right_children": [2, 4, 6, -1, -1, -1, -1], "split_conditions": [25.677656, 25.224102, 25.929676, -0.10481536, -3.1248271, 2.7520905, 0.03282412], "split_indices": [1, 1, 1, 0, 0, 0, 0], "split_type": [0, 0, 0, 0, 0, 0, 0], "sum_hessian": [700.0, 172.0, 528.0, 170.0, 2.0, 3.0, 525.0], "tree_param": {"num_deleted": "0", "num_feature": "2", "num_nodes": "7", "size_leaf_vector": "1"}}, {"base_weights": [-0.003344665, 0.40743065, -0.010483736, -0.11158425, 0.9450429, -0.014853004, 0.5910767], "categories": [], "categories_nodes": [], "categories_segments": [], "categories_sizes": [], "default_left": [0, 0, 0, 0, 0, 0, 0], "id": 30, "left_children": [1, 3, 5, -1, -1, -1, -1], "loss_changes": [2.059992, 3.4537973, 1.8223606, 0.0, 0.0, 0.0, 0.0], "parents": [2147483647, 0, 0, 1, 1, 2, 2], "right_children": [2, 4, 6, -1, -1, -1, -1], "split_conditions": [2.094496, 1.1031264, 99.49078, -0.11158425, 0.9450429, -0.014853004, 0.5910767], "split_indices": [1, 1, 1, 0, 0, 0, 0], "split_type": [0, 0, 0, 0, 0, 0, 0], "sum_hessian": [700.0, 11.0, 689.0, 6.0, 5.0, 685.0, 4.0], "tree_param": {"num_deleted": "0", "num_feature": "2", "num_nodes": "7", "size_leaf_vector": "1"}}, {"base_weights": [-0.00026505615, 0.04695672, -0.06579642, 0.012806363, 1.559533, -1.4707336, -0.0364005], "categories": [], "categories_nodes": [], "categories_segments": [], "categories_sizes": [], "default_left": [0, 0, 0, 0, 0, 0, 0], "id": 31, "left_children": [1, 3, 5, -1, -1, -1, -1], "loss_changes": [2.1723392, 21.055279, 12.088493, 0.0, 0.0, 0.0, 0.0], "parents": [2147483647, 0, 0, 1, 1, 2, 2], "right_children": [2, 4, 6, -1, -1, -1, -1], "split_conditions": [61.69269, 60.773678, 62.46636, 0.012806363, 1.559533, -1.4707336, -0.0364005], "split_indices": [1, 1, 1, 0, 0, 0, 0], "split_type": [0, 0, 0, 0, 0, 0, 0], "sum_hessian": [700.0, 407.0, 293.0, 399.0, 8.0, 5.0, 288.0], "tree_param": {"num_deleted": "0", "num_feature": "2", "num_nodes": "7", "size_leaf_vector": "1"}}, {"base_weights": [0.002557466, 0.06603173, -0.080071524, 0.04771051, 1.8541641, -2.5525513, -0.047058307], "categories": [], "categories_nodes": [], "categories_segments": [], "categories_sizes": [], "default_left": [0, 0, 0, 0, 0, 0, 0], "id": 32, "left_children": [1, 3, 5, -1, -1, -1, -1], "loss_changes": [3.6819022, 12.9175625, 24.775354, 0.0, 0.0, 0.0, 0.0], "parents": [2147483647, 0, 0, 1, 1, 2, 2], "right_children": [2, 4, 6, -1, -1, -1, -1], "split_conditions": [60.18816, 59.82253, 60.773678, 0.04771051, 1.8541641, -2.5525513, -0.047058307], "split_indices": [1, 1, 1, 0, 0, 0, 0], "split_type": [0, 0, 0, 0, 0, 0, 0], "sum_hessian": [700.0, 396.0, 304.0, 393.0, 3.0, 3.0, 301.0], "tree_param": {"num_deleted": "0", "num_feature": "2", "num_nodes": "7", "size_leaf_vector": "1"}}, {"base_weights": [-0.0009947572, -0.19275716, 0.011209812, -0.03759799, -0.75749654, 0.44584972, -0.008751845], "categories": [], "categories_nodes": [], "categories_segments": [], "categories_sizes": [], "default_left": [0, 0, 0, 0, 0, 0, 0], "id": 33, "left_children": [1, 3, 5, -1, -1, -1, -1], "loss_changes": [1.6427653, 3.6517482, 5.7301497, 0.0, 0.0, 0.0, 0.0], "parents": [2147483647, 0, 0, 1, 1, 2, 2], "right_children": [2, 4, 6, -1, -1, -1, -1], "split_conditions": [5.855093, 3.9618826, 9.553532, -0.03759799, -0.75749654, 0.44584972, -0.008751845], "split_indices": [1, 1, 1, 0, 0, 0, 0], "split_type": [0, 0, 0, 0, 0, 0, 0], "sum_hessian": [700.0, 41.0, 659.0, 33.0, 8.0, 28.0, 631.0], "tree_param": {"num_deleted": "0", "num_feature": "2", "num_nodes": "7", "size_leaf_vector": "1"}}, {"base_weights": [0.0003070287, 0.10289057, -0.019374207, -0.036521293, 1.2793173, -1.8565598, -0.0068006287], "categories": [], "categories_nodes": [], "categories_segments": [], "categories_sizes": [], "default_left": [0, 0, 0, 0, 0, 0, 0], "id": 34, "left_children": [1, 3, 5, -1, -1, -1, -1], "loss_changes": [1.417292, 18.579605, 13.593271, 0.0, 0.0, 0.0, 0.0], "parents": [2147483647, 0, 0, 1, 1, 2, 2], "right_children": [2, 4, 6, -1, -1, -1, -1], "split_conditions": [16.76192, 14.6374, 17.389524, -0.036521293, 1.2793173, -1.8565598, -0.0068006287], "split_indices": [1, 1, 1, 0, 0, 0, 0], "split_type": [0, 0, 0, 0, 0, 0, 0], "sum_hessian": [700.0, 112.0, 588.0, 101.0, 11.0, 3.0, 585.0], "tree_param": {"num_deleted": "0", "num_feature": "2", "num_nodes": "7", "size_leaf_vector": "1"}}, {"base_weights": [0.0025665157, 0.008405781, -0.5043106, -0.0026579443, 0.33129352, -0.84954834, -0.1272583], "categories": [], "categories_nodes": [], "categories_segments": [], "categories_sizes": [], "default_left": [0, 0, 0, 0, 0, 0, 0], "id": 35, "left_children": [1, 3, 5, -1, -1, -1, -1], "loss_changes": [2.079052, 2.4800854, 0.9332695, 0.0, 0.0, 0.0, 0.0], "parents": [2147483647, 0, 0, 1, 1, 2, 2], "right_children": [2, 4, 6, -1, -1, -1, -1], "split_conditions": [99.24835, 96.786, 99.49078, -0.0026579443, 0.33129352, -0.84954834, -0.1272583], "split_indices": [1, 1, 1, 0, 0, 0, 0], "split_type": [0, 0, 0, 0, 0, 0, 0], "sum_hessian": [700.0, 693.0, 7.0, 671.0, 22.0, 3.0, 4.0], "tree_param": {"num_deleted": "0", "num_feature": "2", "num_nodes": "7", "size_leaf_vector": "1"}}, {"base_weights": [0.00095078745, -0.10125466, 0.032352924, -0.051490214, -0.9581172, 0.4765615, 0.019550856], "categories": [], "categories_nodes": [], "categories_segments": [], "categories_sizes": [], "default_left": [0, 0, 0, 0, 0, 0, 0], "id": 36, "left_children": [1, 3, 5, -1, -1, -1, -1], "loss_changes": [2.2531137, 6.9864793, 3.044488, 0.0, 0.0, 0.0, 0.0], "parents": [2147483647, 0, 0, 1, 1, 2, 2], "right_children": [2, 4, 6, -1, -1, -1, -1], "split_conditions": [24.34823, 23.295948, 25.981321, -0.051490214, -0.9581172, 0.4765615, 0.019550856], "split_indices": [1, 1, 1, 0, 0, 0, 0], "split_type": [0, 0, 0, 0, 0, 0, 0], "sum_hessian": [700.0, 164.0, 536.0, 156.0, 8.0, 14.0, 522.0], "tree_param": {"num_deleted": "0", "num_feature": "2", "num_nodes": "7", "size_leaf_vector": "1"}}, {"base_weights": [0.0005650867, -0.00884718, 0.21138102, -0.0010358554, -1.7504272, 1.0515747, 0.07907896], "categories": [], "categories_nodes": [], "categories_segments": [], "categories_sizes": [], "default_left": [0, 0, 0, 0, 0, 0, 0], "id": 37, "left_children": [1, 3, 5, -1, -1, -1, -1], "loss_changes": [1.3928334, 9.140107, 3.2516236, 0.0, 0.0, 0.0, 0.0], "parents": [2147483647, 0, 0, 1, 1, 2, 2], "right_children": [2, 4, 6, -1, -1, -1, -1], "split_conditions": [96.786, 96.31151, 96.9821, -0.0010358554, -1.7504272, 1.0515747, 0.07907896], "split_indices": [1, 1, 1, 0, 0, 0, 0], "split_type": [0, 0, 0, 0, 0, 0, 0], "sum_hessian": [700.0, 671.0, 29.0, 669.0, 2.0, 3.0, 26.0], "tree_param": {"num_deleted": "0", "num_feature": "2", "num_nodes": "7", "size_leaf_vector": "1"}}, {"base_weights": [0.00016913639, -0.26027602, 0.011391632, -0.01933997, -0.79354054, 0.32656652, 0.001735839], "categories": [], "categories_nodes": [], "categories_segments": [], "categories_sizes": [], "default_left": [0, 0, 0, 0, 0, 0, 0], "id": 38, "left_children": [1, 3, 5, -1, -1, -1, -1], "loss_changes": [2.051879, 3.71065, 2.0475495, 0.0, 0.0, 0.0, 0.0], "parents": [2147483647, 0, 0, 1, 1, 2, 2], "right_children": [2, 4, 6, -1, -1, -1, -1], "split_conditions": [3.5311356, 2.9247284, 6.535634, -0.01933997, -0.79354054, 0.32656652, 0.001735839], "split_indices": [1, 1, 1, 0, 0, 0, 0], "split_type": [0, 0, 0, 0, 0, 0, 0], "sum_hessian": [700.0, 28.0, 672.0, 20.0, 8.0, 19.0, 653.0], "tree_param": {"num_deleted": "0", "num_feature": "2", "num_nodes": "7", "size_leaf_vector": "1"}}, {"base_weights": [-0.0005268309, -0.047490492, 0.0315719, 0.020996531, -0.44423676, 0.43225214, 0.0049156267], "categories": [], "categories_nodes": [], "categories_segments": [], "categories_sizes": [], "default_left": [0, 0, 0, 0, 0, 0, 0], "id": 39, "left_children": [1, 3, 5, -1, -1, -1, -1], "loss_changes": [1.0582385, 7.75334, 4.4517026, 0.0, 0.0, 0.0, 0.0], "parents": [2147483647, 0, 0, 1, 1, 2, 2], "right_children": [2, 4, 6, -1, -1, -1, -1], "split_conditions": [43.951168, 37.32518, 48.050694, 0.020996531, -0.44423676, 0.43225214, 0.0049156267], "split_indices": [1, 1, 1, 0, 0, 0, 0], "split_type": [0, 0, 0, 0, 0, 0, 0], "sum_hessian": [700.0, 284.0, 416.0, 243.0, 41.0, 25.0, 391.0], "tree_param": {"num_deleted": "0", "num_feature": "2", "num_nodes": "7", "size_leaf_vector": "1"}}, {"base_weights": [0.00048086137, -0.06960119, 0.033537425, -0.01880833, -0.77944744, 1.997776, 0.01689082], "categories": [], "categories_nodes": [], "categories_segments": [], "categories_sizes": [], "default_left": [0, 0, 0, 0, 0, 0, 0], "id": 40, "left_children": [1, 3, 5, -1, -1, -1, -1], "loss_changes": [1.6263213, 8.097743, 15.563158, 0.0, 0.0, 0.0, 0.0], "parents": [2147483647, 0, 0, 1, 1, 2, 2], "right_children": [2, 4, 6, -1, -1, -1, -1], "split_conditions": [34.187218, 32.458584, 35.012527, -0.01880833, -0.77944744, 1.997776, 0.01689082], "split_indices": [1, 1, 1, 0, 0, 0, 0], "split_type": [0, 0, 0, 0, 0, 0, 0], "sum_hessian": [700.0, 224.0, 476.0, 210.0, 14.0, 3.0, 473.0], "tree_param": {"num_deleted": "0", "num_feature": "2", "num_nodes": "7", "size_leaf_vector": "1"}}, {"base_weights": [-0.0005333883, -0.031583834, 0.07123666, -0.018654456, -1.5978394, 1.12736, 0.055809967], "categories": [], "categories_nodes": [], "categories_segments": [], "categories_sizes": [], "default_left": [0, 0, 0, 0, 0, 0, 0], "id": 41, "left_children": [1, 3, 5, -1, -1, -1, -1], "loss_changes": [1.5644228, 9.89304, 3.3910913, 0.0, 0.0, 0.0, 0.0], "parents": [2147483647, 0, 0, 1, 1, 2, 2], "right_children": [2, 4, 6, -1, -1, -1, -1], "split_conditions": [72.20709, 71.5825, 72.43388, -0.018654456, -1.5978394, 1.12736, 0.055809967], "split_indices": [1, 1, 1, 0, 0, 0, 0], "split_type": [0, 0, 0, 0, 0, 0, 0], "sum_hessian": [700.0, 489.0, 211.0, 486.0, 3.0, 2.0, 209.0], "tree_param": {"num_deleted": "0", "num_feature": "2", "num_nodes": "7", "size_leaf_vector": "1"}}, {"base_weights": [0.001161521, 0.020618815, -0.18026622, 0.008704354, 1.266215, -1.2452959, -0.0571134], "categories": [], "categories_nodes": [], "categories_segments": [], "categories_sizes": [], "default_left": [0, 0, 0, 0, 0, 0, 0], "id": 42, "left_children": [1, 3, 5, -1, -1, -1, -1], "loss_changes": [2.478312, 9.397923, 8.847852, 0.0, 0.0, 0.0, 0.0], "parents": [2147483647, 0, 0, 1, 1, 2, 2], "right_children": [2, 4, 6, -1, -1, -1, -1], "split_conditions": [91.892654, 90.07018, 92.71778, 0.008704354, 1.266215, -1.2452959, -0.0571134], "split_indices": [1, 1, 1, 0, 0, 0, 0], "split_type": [0, 0, 0, 0, 0, 0, 0], "sum_hessian": [700.0, 633.0, 67.0, 628.0, 5.0, 6.0, 61.0], "tree_param": {"num_deleted": "0", "num_feature": "2", "num_nodes": "7", "size_leaf_vector": "1"}}, {"base_weights": [-0.0015796873, 0.046932273, -0.086090446, 0.03382085, 1.4872894, -0.9343236, -0.06547096], "categories": [], "categories_nodes": [], "categories_segments": [], "categories_sizes": [], "default_left": [0, 0, 0, 0, 0, 0, 0], "id": 43, "left_children": [1, 3, 5, -1, -1, -1, -1], "loss_changes": [2.8779879, 8.372469, 4.4163017, 0.0, 0.0, 0.0, 0.0], "parents": [2147483647, 0, 0, 1, 1, 2, 2], "right_children": [2, 4, 6, -1, -1, -1, -1], "split_conditions": [66.686424, 66.13706, 67.6468, 0.03382085, 1.4872894, -0.9343236, -0.06547096], "split_indices": [1, 1, 1, 0, 0, 0, 0], "split_type": [0, 0, 0, 0, 0, 0, 0], "sum_hessian": [700.0, 445.0, 255.0, 442.0, 3.0, 5.0, 250.0], "tree_param": {"num_deleted": "0", "num_feature": "2", "num_nodes": "7", "size_leaf_vector": "1"}}, {"base_weights": [-0.0009797078, 0.14689246, -0.033638466, 0.09528607, 0.8129222, -0.9576619, -0.023852887], "categories": [], "categories_nodes": [], "categories_segments": [], "categories_sizes": [], "default_left": [0, 0, 0, 0, 0, 0, 0], "id": 44, "left_children": [1, 3, 5, -1, -1, -1, -1], "loss_changes": [3.3902953, 4.2877054, 5.176367, 0.0, 0.0, 0.0, 0.0], "parents": [2147483647, 0, 0, 1, 1, 2, 2], "right_children": [2, 4, 6, -1, -1, -1, -1], "split_conditions": [18.513292, 17.530294, 19.74705, 0.09528607, 0.8129222, -0.9576619, -0.023852887], "split_indices": [1, 1, 1, 0, 0, 0, 0], "split_type": [0, 0, 0, 0, 0, 0, 0], "sum_hessian": [700.0, 126.0, 574.0, 118.0, 8.0, 5.0, 569.0], "tree_param": {"num_deleted": "0", "num_feature": "2", "num_nodes": "7", "size_leaf_vector": "1"}}, {"base_weights": [0.00026337735, 0.02172642, -0.08077235, 0.011297472, 0.49269485, -0.8208144, -0.032274865], "categories": [], "categories_nodes": [], "categories_segments": [], "categories_sizes": [], "default_left": [0, 0, 0, 0, 0, 0, 0], "id": 45, "left_children": [1, 3, 5, -1, -1, -1, -1], "loss_changes": [1.2209854, 2.72043, 5.249364, 0.0, 0.0, 0.0, 0.0], "parents": [2147483647, 0, 0, 1, 1, 2, 2], "right_children": [2, 4, 6, -1, -1, -1, -1], "split_conditions": [80.65611, 79.545, 81.74497, 0.011297472, 0.49269485, -0.8208144, -0.032274865], "split_indices": [1, 1, 1, 0, 0, 0, 0], "split_type": [0, 0, 0, 0, 0, 0, 0], "sum_hessian": [700.0, 554.0, 146.0, 543.0, 11.0, 8.0, 138.0], "tree_param": {"num_deleted": "0", "num_feature": "2", "num_nodes": "7", "size_leaf_vector": "1"}}, {"base_weights": [9.630342e-05, 0.05514452, -0.018744474, 0.006650642, 0.4885258, -1.2072754, -0.011864748], "categories": [], "categories_nodes": [], "categories_segments": [], "categories_sizes": [], "default_left": [0, 0, 0, 0, 0, 0, 0], "id": 46, "left_children": [1, 3, 5, -1, -1, -1, -1], "loss_changes": [0.72807664, 3.7586756, 4.2621255, 0.0, 0.0, 0.0, 0.0], "parents": [2147483647, 0, 0, 1, 1, 2, 2], "right_children": [2, 4, 6, -1, -1, -1, -1], "split_conditions": [25.981321, 23.754332, 26.702827, 0.006650642, 0.4885258, -1.2072754, -0.011864748], "split_indices": [1, 1, 1, 0, 0, 0, 0], "split_type": [0, 0, 0, 0, 0, 0, 0], "sum_hessian": [700.0, 178.0, 522.0, 161.0, 17.0, 2.0, 520.0], "tree_param": {"num_deleted": "0", "num_feature": "2", "num_nodes": "7", "size_leaf_vector": "1"}}, {"base_weights": [0.00079322845, -0.043267496, 0.036039773, -0.018867074, -2.5502217, 0.5670064, 0.014761742], "categories": [], "categories_nodes": [], "categories_segments": [], "categories_sizes": [], "default_left": [0, 0, 0, 0, 0, 0, 0], "id": 47, "left_children": [1, 3, 5, -1, -1, -1, -1], "loss_changes": [1.0902042, 19.037155, 4.3978205, 0.0, 0.0, 0.0, 0.0], "parents": [2147483647, 0, 0, 1, 1, 2, 2], "right_children": [2, 4, 6, -1, -1, -1, -1], "split_conditions": [48.09729, 48.050694, 49.717476, -0.018867074, -2.5502217, 0.5670064, 0.014761742], "split_indices": [1, 1, 1, 0, 0, 0, 0], "split_type": [0, 0, 0, 0, 0, 0, 0], "sum_hessian": [700.0, 311.0, 389.0, 309.0, 2.0, 14.0, 375.0], "tree_param": {"num_deleted": "0", "num_feature": "2", "num_nodes": "7", "size_leaf_vector": "1"}}, {"base_weights": [0.00045764394, 0.026790224, -0.03381938, 0.008452831, 0.493219, -1.303482, -0.016890671], "categories": [], "categories_nodes": [], "categories_segments": [], "categories_sizes": [], "default_left": [0, 0, 0, 0, 0, 0, 0], "id": 48, "left_children": [1, 3, 5, -1, -1, -1, -1], "loss_changes": [0.63363034, 3.3914068, 6.533577, 0.0, 0.0, 0.0, 0.0], "parents": [2147483647, 0, 0, 1, 1, 2, 2], "right_children": [2, 4, 6, -1, -1, -1, -1], "split_conditions": [60.18816, 57.99838, 60.773678, 0.008452831, 0.493219, -1.303482, -0.016890671], "split_indices": [1, 1, 1, 0, 0, 0, 0], "split_type": [0, 0, 0, 0, 0, 0, 0], "sum_hessian": [700.0, 396.0, 304.0, 382.0, 14.0, 3.0, 301.0], "tree_param": {"num_deleted": "0", "num_feature": "2", "num_nodes": "7", "size_leaf_vector": "1"}}, {"base_weights": [-0.00045165798, 0.046838682, -0.0156799, 0.028095972, 0.82232285, -0.24411754, 0.0024230368], "categories": [], "categories_nodes": [], "categories_segments": [], "categories_sizes": [], "default_left": [0, 0, 0, 0, 0, 0, 0], "id": 49, "left_children": [1, 3, 5, -1, -1, -1, -1], "loss_changes": [0.5055587, 2.4623256, 2.1964848, 0.0, 0.0, 0.0, 0.0], "parents": [2147483647, 0, 0, 1, 1, 2, 2], "right_children": [2, 4, 6, -1, -1, -1, -1], "split_conditions": [25.224102, 24.723108, 31.910048, 0.028095972, 0.82232285, -0.24411754, 0.0024230368], "split_indices": [1, 1, 1, 0, 0, 0, 0], "split_type": [0, 0, 0, 0, 0, 0, 0], "sum_hessian": [700.0, 170.0, 530.0, 167.0, 3.0, 38.0, 492.0], "tree_param": {"num_deleted": "0", "num_feature": "2", "num_nodes": "7", "size_leaf_vector": "1"}}, {"base_weights": [0.0008641405, -0.18563691, 0.0049349577, -0.0039399466, -0.68431854, 0.124675505, -0.0038524694], "categories": [], "categories_nodes": [], "categories_segments": [], "categories_sizes": [], "default_left": [0, 0, 0, 0, 0, 0, 0], "id": 50, "left_children": [1, 3, 5, -1, -1, -1, -1], "loss_changes": [0.53312355, 1.3564379, 0.72334945, 0.0, 0.0, 0.0, 0.0], "parents": [2147483647, 0, 0, 1, 1, 2, 2], "right_children": [2, 4, 6, -1, -1, -1, -1], "split_conditions": [2.4191763, 2.094496, 8.104622, -0.0039399466, -0.68431854, 0.124675505, -0.0038524694], "split_indices": [1, 1, 1, 0, 0, 0, 0], "split_type": [0, 0, 0, 0, 0, 0, 0], "sum_hessian": [700.0, 14.0, 686.0, 11.0, 3.0, 46.0, 640.0], "tree_param": {"num_deleted": "0", "num_feature": "2", "num_nodes": "7", "size_leaf_vector": "1"}}, {"base_weights": [0.00015405717, 0.050501198, -0.061346415, 0.04118572, 0.92983246, -0.9276352, -0.05007964], "categories": [], "categories_nodes": [], "categories_segments": [], "categories_sizes": [], "default_left": [0, 0, 0, 0, 0, 0, 0], "id": 51, "left_children": [1, 3, 5, -1, -1, -1, -1], "loss_changes": [2.1736555, 3.1235795, 3.037794, 0.0, 0.0, 0.0, 0.0], "parents": [2147483647, 0, 0, 1, 1, 2, 2], "right_children": [2, 4, 6, -1, -1, -1, -1], "split_conditions": [58.217045, 57.99838, 58.82023, 0.04118572, 0.92983246, -0.9276352, -0.05007964], "split_indices": [1, 1, 1, 0, 0, 0, 0], "split_type": [0, 0, 0, 0, 0, 0, 0], "sum_hessian": [700.0, 385.0, 315.0, 382.0, 3.0, 3.0, 312.0], "tree_param": {"num_deleted": "0", "num_feature": "2", "num_nodes": "7", "size_leaf_vector": "1"}}, {"base_weights": [-0.00061834283, 0.011011521, -0.14016525, 0.006214464, 0.78178406, -1.512085, -0.05832056], "categories": [], "categories_nodes": [], "categories_segments": [], "categories_sizes": [], "default_left": [0, 0, 0, 0, 0, 0, 0], "id": 52, "left_children": [1, 3, 5, -1, -1, -1, -1], "loss_changes": [1.1392045, 2.3910828, 5.9751697, 0.0, 0.0, 0.0, 0.0], "parents": [2147483647, 0, 0, 1, 1, 2, 2], "right_children": [2, 4, 6, -1, -1, -1, -1], "split_conditions": [93.62122, 93.20281, 93.72285, 0.006214464, 0.78178406, -1.512085, -0.05832056], "split_indices": [1, 1, 1, 0, 0, 0, 0], "split_type": [0, 0, 0, 0, 0, 0, 0], "sum_hessian": [700.0, 647.0, 53.0, 644.0, 3.0, 2.0, 51.0], "tree_param": {"num_deleted": "0", "num_feature": "2", "num_nodes": "7", "size_leaf_vector": "1"}}, {"base_weights": [-2.0265239e-05, 0.0066055944, -0.06495338, 0.0020988234, 0.32084486, -0.7447281, -0.020049311], "categories": [], "categories_nodes": [], "categories_segments": [], "categories_sizes": [], "default_left": [0, 0, 0, 0, 0, 0, 0], "id": 53, "left_children": [1, 3, 5, -1, -1, -1, -1], "loss_changes": [0.30202568, 0.9014489, 1.9691708, 0.0, 0.0, 0.0, 0.0], "parents": [2147483647, 0, 0, 1, 1, 2, 2], "right_children": [2, 4, 6, -1, -1, -1, -1], "split_conditions": [92.43962, 90.07018, 92.71778, 0.0020988234, 0.32084486, -0.7447281, -0.020049311], "split_indices": [1, 1, 1, 0, 0, 0, 0], "split_type": [0, 0, 0, 0, 0, 0, 0], "sum_hessian": [700.0, 636.0, 64.0, 628.0, 8.0, 3.0, 61.0], "tree_param": {"num_deleted": "0", "num_feature": "2", "num_nodes": "7", "size_leaf_vector": "1"}}, {"base_weights": [0.0002031095, -0.012636083, 0.029877644, -0.008261491, -0.54208374, 0.36333883, -0.027084854], "categories": [], "categories_nodes": [], "categories_segments": [], "categories_sizes": [], "default_left": [0, 0, 0, 0, 0, 0, 0], "id": 54, "left_children": [1, 3, 5, -1, -1, -1, -1], "loss_changes": [0.2674565, 1.1304194, 4.0367355, 0.0, 0.0, 0.0, 0.0], "parents": [2147483647, 0, 0, 1, 1, 2, 2], "right_children": [2, 4, 6, -1, -1, -1, -1], "split_conditions": [72.20709, 71.5825, 76.55129, -0.008261491, -0.54208374, 0.36333883, -0.027084854], "split_indices": [1, 1, 1, 0, 0, 0, 0], "split_type": [0, 0, 0, 0, 0, 0, 0], "sum_hessian": [700.0, 489.0, 211.0, 486.0, 3.0, 30.0, 181.0], "tree_param": {"num_deleted": "0", "num_feature": "2", "num_nodes": "7", "size_leaf_vector": "1"}}, {"base_weights": [-0.00030567916, 0.02964344, -0.023989152, 0.018926708, 0.8447418, -0.6271854, -0.0097892685], "categories": [], "categories_nodes": [], "categories_segments": [], "categories_sizes": [], "default_left": [0, 0, 0, 0, 0, 0, 0], "id": 55, "left_children": [1, 3, 5, -1, -1, -1, -1], "loss_changes": [0.4979298, 2.6919212, 3.3514645, 0.0, 0.0, 0.0, 0.0], "parents": [2147483647, 0, 0, 1, 1, 2, 2], "right_children": [2, 4, 6, -1, -1, -1, -1], "split_conditions": [48.050694, 47.46309, 48.666893, 0.018926708, 0.8447418, -0.6271854, -0.0097892685], "split_indices": [1, 1, 1, 0, 0, 0, 0], "split_type": [0, 0, 0, 0, 0, 0, 0], "sum_hessian": [700.0, 309.0, 391.0, 306.0, 3.0, 8.0, 383.0], "tree_param": {"num_deleted": "0", "num_feature": "2", "num_nodes": "7", "size_leaf_vector": "1"}}, {"base_weights": [0.00034649804, -0.059271477, 0.039202575, -0.04115363, -1.2855263, 0.52969867, 0.024890605], "categories": [], "categories_nodes": [], "categories_segments": [], "categories_sizes": [], "default_left": [0, 0, 0, 0, 0, 0, 0], "id": 56, "left_children": [1, 3, 5, -1, -1, -1, -1], "loss_changes": [1.6262047, 6.101232, 2.9703012, 0.0, 0.0, 0.0, 0.0], "parents": [2147483647, 0, 0, 1, 1, 2, 2], "right_children": [2, 4, 6, -1, -1, -1, -1], "split_conditions": [43.207687, 42.81996, 44.59027, -0.04115363, -1.2855263, 0.52969867, 0.024890605], "split_indices": [1, 1, 1, 0, 0, 0, 0], "split_type": [0, 0, 0, 0, 0, 0, 0], "sum_hessian": [700.0, 276.0, 424.0, 273.0, 3.0, 11.0, 413.0], "tree_param": {"num_deleted": "0", "num_feature": "2", "num_nodes": "7", "size_leaf_vector": "1"}}, {"base_weights": [-1.331879e-05, -0.008527477, 0.106413916, -0.005249515, -0.7137248, 0.84916687, 0.043609306], "categories": [], "categories_nodes": [], "categories_segments": [], "categories_sizes": [], "default_left": [0, 0, 0, 0, 0, 0, 0], "id": 57, "left_children": [1, 3, 5, -1, -1, -1, -1], "loss_changes": [0.63611037, 1.4987998, 2.3886805, 0.0, 0.0, 0.0, 0.0], "parents": [2147483647, 0, 0, 1, 1, 2, 2], "right_children": [2, 4, 6, -1, -1, -1, -1], "split_conditions": [93.72285, 93.62122, 94.30759, -0.005249515, -0.7137248, 0.84916687, 0.043609306], "split_indices": [1, 1, 1, 0, 0, 0, 0], "split_type": [0, 0, 0, 0, 0, 0, 0], "sum_hessian": [700.0, 649.0, 51.0, 647.0, 2.0, 3.0, 48.0], "tree_param": {"num_deleted": "0", "num_feature": "2", "num_nodes": "7", "size_leaf_vector": "1"}}, {"base_weights": [-0.0008427134, -0.0067119193, 0.08912588, 0.0006282492, -0.16619241, 0.7797038, -0.022258157], "categories": [], "categories_nodes": [], "categories_segments": [], "categories_sizes": [], "default_left": [0, 0, 0, 0, 0, 0, 0], "id": 58, "left_children": [1, 3, 5, -1, -1, -1, -1], "loss_changes": [0.3707572, 0.7715388, 3.3248868, 0.0, 0.0, 0.0, 0.0], "parents": [2147483647, 0, 0, 1, 1, 2, 2], "right_children": [2, 4, 6, -1, -1, -1, -1], "split_conditions": [95.08636, 90.90325, 95.56515, 0.0006282492, -0.16619241, 0.7797038, -0.022258157], "split_indices": [1, 1, 1, 0, 0, 0, 0], "split_type": [0, 0, 0, 0, 0, 0, 0], "sum_hessian": [700.0, 658.0, 42.0, 630.0, 28.0, 5.0, 37.0], "tree_param": {"num_deleted": "0", "num_feature": "2", "num_nodes": "7", "size_leaf_vector": "1"}}, {"base_weights": [-0.00026647374, -0.31302643, 0.0015262287, 0.07588892, -0.008086924], "categories": [], "categories_nodes": [], "categories_segments": [], "categories_sizes": [], "default_left": [0, 0, 0, 0, 0], "id": 59, "left_children": [1, -1, 3, -1, -1], "loss_changes": [0.3935183, 0.0, 0.49958593, 0.0, 0.0], "parents": [2147483647, 0, 0, 2, 2], "right_children": [2, -1, 4, -1, -1], "split_conditions": [0.7562875, -0.31302643, 11.833619, 0.07588892, -0.008086924], "split_indices": [1, 0, 1, 0, 0], "split_type": [0, 0, 0, 0, 0], "sum_hessian": [700.0, 3.0, 697.0, 79.0, 618.0], "tree_param": {"num_deleted": "0", "num_feature": "2", "num_nodes": "5", "size_leaf_vector": "1"}}, {"base_weights": [-0.0003649811, -0.04023516, 0.011886313, -0.017266273, -0.646033, 0.4651315, 0.0058889445], "categories": [], "categories_nodes": [], "categories_segments": [], "categories_sizes": [], "default_left": [0, 0, 0, 0, 0, 0, 0], "id": 60, "left_children": [1, 3, 5, -1, -1, -1, -1], "loss_changes": [0.3428896, 2.2847383, 1.4569762, 0.0, 0.0, 0.0, 0.0], "parents": [2147483647, 0, 0, 1, 1, 2, 2], "right_children": [2, 4, 6, -1, -1, -1, -1], "split_conditions": [24.34823, 23.605047, 25.224102, -0.017266273, -0.646033, 0.4651315, 0.0058889445], "split_indices": [1, 1, 1, 0, 0, 0, 0], "split_type": [0, 0, 0, 0, 0, 0, 0], "sum_hessian": [700.0, 164.0, 536.0, 159.0, 5.0, 6.0, 530.0], "tree_param": {"num_deleted": "0", "num_feature": "2", "num_nodes": "7", "size_leaf_vector": "1"}}, {"base_weights": [0.0015949789, 0.07821355, -0.00953169, 0.017666597, 0.46525097, -0.6442769, -0.006399501], "categories": [], "categories_nodes": [], "categories_segments": [], "categories_sizes": [], "default_left": [0, 0, 0, 0, 0, 0, 0], "id": 61, "left_children": [1, 3, 5, -1, -1, -1, -1], "loss_changes": [0.5983547, 2.077401, 1.214608, 0.0, 0.0, 0.0, 0.0], "parents": [2147483647, 0, 0, 1, 1, 2, 2], "right_children": [2, 4, 6, -1, -1, -1, -1], "split_conditions": [12.839429, 10.566468, 12.951492, 0.017666597, 0.46525097, -0.6442769, -0.006399501], "split_indices": [1, 1, 1, 0, 0, 0, 0], "split_type": [0, 0, 0, 0, 0, 0, 0], "sum_hessian": [700.0, 88.0, 612.0, 77.0, 11.0, 2.0, 610.0], "tree_param": {"num_deleted": "0", "num_feature": "2", "num_nodes": "7", "size_leaf_vector": "1"}}, {"base_weights": [0.0008199368, -0.0061364346, 0.079522386, -0.0010572283, -0.14344987, 0.5728607, 0.041506168], "categories": [], "categories_nodes": [], "categories_segments": [], "categories_sizes": [], "default_left": [0, 0, 0, 0, 0, 0, 0], "id": 62, "left_children": [1, 3, 5, -1, -1, -1, -1], "loss_changes": [0.38427383, 0.44969922, 1.0452497, 0.0, 0.0, 0.0, 0.0], "parents": [2147483647, 0, 0, 1, 1, 2, 2], "right_children": [2, 4, 6, -1, -1, -1, -1], "split_conditions": [93.20281, 88.69249, 93.62122, -0.0010572283, -0.14344987, 0.5728607, 0.041506168], "split_indices": [1, 1, 1, 0, 0, 0, 0], "split_type": [0, 0, 0, 0, 0, 0, 0], "sum_hessian": [700.0, 644.0, 56.0, 622.0, 22.0, 3.0, 53.0], "tree_param": {"num_deleted": "0", "num_feature": "2", "num_nodes": "7", "size_leaf_vector": "1"}}, {"base_weights": [-0.000618351, -0.0290815, 0.02013463, -0.016238498, -0.6471202, 0.7654521, 0.008932537], "categories": [], "categories_nodes": [], "categories_segments": [], "categories_sizes": [], "default_left": [0, 0, 0, 0, 0, 0, 0], "id": 63, "left_children": [1, 3, 5, -1, -1, -1, -1], "loss_changes": [0.41466284, 2.3389833, 3.3829033, 0.0, 0.0, 0.0, 0.0], "parents": [2147483647, 0, 0, 1, 1, 2, 2], "right_children": [2, 4, 6, -1, -1, -1, -1], "split_conditions": [45.437733, 44.978466, 46.147747, -0.016238498, -0.6471202, 0.7654521, 0.008932537], "split_indices": [1, 1, 1, 0, 0, 0, 0], "split_type": [0, 0, 0, 0, 0, 0, 0], "sum_hessian": [700.0, 295.0, 405.0, 290.0, 5.0, 5.0, 400.0], "tree_param": {"num_deleted": "0", "num_feature": "2", "num_nodes": "7", "size_leaf_vector": "1"}}, {"base_weights": [-0.00027044897, -0.03849056, 0.019459307, -0.022595527, -0.9666748, 0.6495183, 0.01116277], "categories": [], "categories_nodes": [], "categories_segments": [], "categories_sizes": [], "default_left": [0, 0, 0, 0, 0, 0, 0], "id": 64, "left_children": [1, 3, 5, -1, -1, -1, -1], "loss_changes": [0.5293545, 3.5042484, 2.412993, 0.0, 0.0, 0.0, 0.0], "parents": [2147483647, 0, 0, 1, 1, 2, 2], "right_children": [2, 4, 6, -1, -1, -1, -1], "split_conditions": [36.775936, 36.223545, 37.32518, -0.022595527, -0.9666748, 0.6495183, 0.01116277], "split_indices": [1, 1, 1, 0, 0, 0, 0], "split_type": [0, 0, 0, 0, 0, 0, 0], "sum_hessian": [700.0, 238.0, 462.0, 235.0, 3.0, 5.0, 457.0], "tree_param": {"num_deleted": "0", "num_feature": "2", "num_nodes": "7", "size_leaf_vector": "1"}}, {"base_weights": [7.927877e-05, 0.069348454, -0.0050048186, 0.023305045, 0.5699997, -0.16709585, -0.00067793386], "categories": [], "categories_nodes": [], "categories_segments": [], "categories_sizes": [], "default_left": [0, 0, 0, 0, 0, 0, 0], "id": 65, "left_children": [1, 3, 5, -1, -1, -1, -1], "loss_changes": [0.24721912, 1.0931972, 0.45856914, 0.0, 0.0, 0.0, 0.0], "parents": [2147483647, 0, 0, 1, 1, 2, 2], "right_children": [2, 4, 6, -1, -1, -1, -1], "split_conditions": [6.535634, 6.22918, 8.479201, 0.023305045, 0.5699997, -0.16709585, -0.00067793386], "split_indices": [1, 1, 1, 0, 0, 0, 0], "split_type": [0, 0, 0, 0, 0, 0, 0], "sum_hessian": [700.0, 47.0, 653.0, 44.0, 3.0, 16.0, 637.0], "tree_param": {"num_deleted": "0", "num_feature": "2", "num_nodes": "7", "size_leaf_vector": "1"}}, {"base_weights": [0.0006901065, -0.03373325, 0.02919515, -0.026808046, -0.57065964, 0.57720184, 0.023365172], "categories": [], "categories_nodes": [], "categories_segments": [], "categories_sizes": [], "default_left": [0, 0, 0, 0, 0, 0, 0], "id": 66, "left_children": [1, 3, 5, -1, -1, -1, -1], "loss_changes": [0.68883353, 1.1671288, 1.2133428, 0.0, 0.0, 0.0, 0.0], "parents": [2147483647, 0, 0, 1, 1, 2, 2], "right_children": [2, 4, 6, -1, -1, -1, -1], "split_conditions": [48.666893, 48.296886, 49.159454, -0.026808046, -0.57065964, 0.57720184, 0.023365172], "split_indices": [1, 1, 1, 0, 0, 0, 0], "split_type": [0, 0, 0, 0, 0, 0, 0], "sum_hessian": [700.0, 317.0, 383.0, 314.0, 3.0, 3.0, 380.0], "tree_param": {"num_deleted": "0", "num_feature": "2", "num_nodes": "7", "size_leaf_vector": "1"}}, {"base_weights": [-0.00040195262, 0.025760008, -0.011873793, 0.011122453, 0.53134155, -0.6402359, -0.0066669425], "categories": [], "categories_nodes": [], "categories_segments": [], "categories_sizes": [], "default_left": [0, 0, 0, 0, 0, 0, 0], "id": 67, "left_children": [1, 3, 5, -1, -1, -1, -1], "loss_changes": [0.21069407, 1.5777925, 1.5923637, 0.0, 0.0, 0.0, 0.0], "parents": [2147483647, 0, 0, 1, 1, 2, 2], "right_children": [2, 4, 6, -1, -1, -1, -1], "split_conditions": [32.64613, 31.910048, 33.30019, 0.011122453, 0.53134155, -0.6402359, -0.0066669425], "split_indices": [1, 1, 1, 0, 0, 0, 0], "split_type": [0, 0, 0, 0, 0, 0, 0], "sum_hessian": [700.0, 213.0, 487.0, 208.0, 5.0, 3.0, 484.0], "tree_param": {"num_deleted": "0", "num_feature": "2", "num_nodes": "7", "size_leaf_vector": "1"}}, {"base_weights": [0.0002923413, 0.00976359, -0.027175903, 0.0045223124, 0.30801392, -0.2942721, -0.008049688], "categories": [], "categories_nodes": [], "categories_segments": [], "categories_sizes": [], "default_left": [0, 0, 0, 0, 0, 0, 0], "id": 68, "left_children": [1, 3, 5, -1, -1, -1, -1], "loss_changes": [0.18263651, 0.8146041, 0.9171683, 0.0, 0.0, 0.0, 0.0], "parents": [2147483647, 0, 0, 1, 1, 2, 2], "right_children": [2, 4, 6, -1, -1, -1, -1], "split_conditions": [76.82734, 75.61633, 77.9851, 0.0045223124, 0.30801392, -0.2942721, -0.008049688], "split_indices": [1, 1, 1, 0, 0, 0, 0], "split_type": [0, 0, 0, 0, 0, 0, 0], "sum_hessian": [700.0, 521.0, 179.0, 513.0, 8.0, 11.0, 168.0], "tree_param": {"num_deleted": "0", "num_feature": "2", "num_nodes": "7", "size_leaf_vector": "1"}}, {"base_weights": [0.00047367546, -0.004484313, 0.04318739, 0.0016958144, -0.12375567, 0.7686208, 0.011927], "categories": [], "categories_nodes": [], "categories_segments": [], "categories_sizes": [], "default_left": [0, 0, 0, 0, 0, 0, 0], "id": 69, "left_children": [1, 3, 5, -1, -1, -1, -1], "loss_changes": [0.14864731, 0.46385342, 1.6462778, 0.0, 0.0, 0.0, 0.0], "parents": [2147483647, 0, 0, 1, 1, 2, 2], "right_children": [2, 4, 6, -1, -1, -1, -1], "split_conditions": [90.07018, 86.72942, 90.90325, 0.0016958144, -0.12375567, 0.7686208, 0.011927], "split_indices": [1, 1, 1, 0, 0, 0, 0], "split_type": [0, 0, 0, 0, 0, 0, 0], "sum_hessian": [700.0, 628.0, 72.0, 598.0, 30.0, 2.0, 70.0], "tree_param": {"num_deleted": "0", "num_feature": "2", "num_nodes": "7", "size_leaf_vector": "1"}}, {"base_weights": [0.0005162766, 0.03500454, -0.020146433, 0.025074055, 0.8872884, -0.531517, -0.0154087525], "categories": [], "categories_nodes": [], "categories_segments": [], "categories_sizes": [], "default_left": [0, 0, 0, 0, 0, 0, 0], "id": 70, "left_children": [1, 3, 5, -1, -1, -1, -1], "loss_changes": [0.5002525, 2.2036765, 1.0553799, 0.0, 0.0, 0.0, 0.0], "parents": [2147483647, 0, 0, 1, 1, 2, 2], "right_children": [2, 4, 6, -1, -1, -1, -1], "split_conditions": [40.99049, 40.84532, 41.6154, 0.025074055, 0.8872884, -0.531517, -0.0154087525], "split_indices": [1, 1, 1, 0, 0, 0, 0], "split_type": [0, 0, 0, 0, 0, 0, 0], "sum_hessian": [700.0, 262.0, 438.0, 260.0, 2.0, 3.0, 435.0], "tree_param": {"num_deleted": "0", "num_feature": "2", "num_nodes": "7", "size_leaf_vector": "1"}}, {"base_weights": [-0.000375881, -0.0027294834, 0.06612905, -0.0012506386, -0.25160217, 0.37180582, 0.021439986], "categories": [], "categories_nodes": [], "categories_segments": [], "categories_sizes": [], "default_left": [0, 0, 0, 0, 0, 0, 0], "id": 71, "left_children": [1, 3, 5, -1, -1, -1, -1], "loss_changes": [0.10990534, 0.24921925, 0.31987828, 0.0, 0.0, 0.0, 0.0], "parents": [2147483647, 0, 0, 1, 1, 2, 2], "right_children": [2, 4, 6, -1, -1, -1, -1], "split_conditions": [97.56102, 96.9821, 97.58737, -0.0012506386, -0.25160217, 0.37180582, 0.021439986], "split_indices": [1, 1, 1, 0, 0, 0, 0], "split_type": [0, 0, 0, 0, 0, 0, 0], "sum_hessian": [700.0, 677.0, 23.0, 674.0, 3.0, 2.0, 21.0], "tree_param": {"num_deleted": "0", "num_feature": "2", "num_nodes": "7", "size_leaf_vector": "1"}}, {"base_weights": [0.00029103257, 0.010113247, -0.012871704, 0.0031244755, 0.9385783, -0.28869376, -0.001374347], "categories": [], "categories_nodes": [], "categories_segments": [], "categories_sizes": [], "default_left": [0, 0, 0, 0, 0, 0, 0], "id": 72, "left_children": [1, 3, 5, -1, -1, -1, -1], "loss_changes": [0.090760514, 2.605577, 0.9509706, 0.0, 0.0, 0.0, 0.0], "parents": [2147483647, 0, 0, 1, 1, 2, 2], "right_children": [2, 4, 6, -1, -1, -1, -1], "split_conditions": [61.022514, 60.773678, 62.46636, 0.0031244755, 0.9385783, -0.28869376, -0.001374347], "split_indices": [1, 1, 1, 0, 0, 0, 0], "split_type": [0, 0, 0, 0, 0, 0, 0], "sum_hessian": [700.0, 401.0, 299.0, 399.0, 2.0, 11.0, 288.0], "tree_param": {"num_deleted": "0", "num_feature": "2", "num_nodes": "7", "size_leaf_vector": "1"}}, {"base_weights": [0.00055113394, 0.020847011, -0.025413563, 0.009631145, 0.37708282, -0.49428558, -0.019181099], "categories": [], "categories_nodes": [], "categories_segments": [], "categories_sizes": [], "default_left": [0, 0, 0, 0, 0, 0, 0], "id": 73, "left_children": [1, 3, 5, -1, -1, -1, -1], "loss_changes": [0.36994016, 1.5705926, 0.8905653, 0.0, 0.0, 0.0, 0.0], "parents": [2147483647, 0, 0, 1, 1, 2, 2], "right_children": [2, 4, 6, -1, -1, -1, -1], "split_conditions": [59.82253, 57.99838, 60.18816, 0.009631145, 0.37708282, -0.49428558, -0.019181099], "split_indices": [1, 1, 1, 0, 0, 0, 0], "split_type": [0, 0, 0, 0, 0, 0, 0], "sum_hessian": [700.0, 393.0, 307.0, 382.0, 11.0, 3.0, 304.0], "tree_param": {"num_deleted": "0", "num_feature": "2", "num_nodes": "7", "size_leaf_vector": "1"}}, {"base_weights": [-3.765449e-05, -0.08666793, 0.0058959834, -0.045405842, -0.49825287, 0.30661774, 0.0040476914], "categories": [], "categories_nodes": [], "categories_segments": [], "categories_sizes": [], "default_left": [0, 0, 0, 0, 0, 0, 0], "id": 74, "left_children": [1, 3, 5, -1, -1, -1, -1], "loss_changes": [0.36084792, 0.7416048, 0.3639337, 0.0, 0.0, 0.0, 0.0], "parents": [2147483647, 0, 0, 1, 1, 2, 2], "right_children": [2, 4, 6, -1, -1, -1, -1], "split_conditions": [6.22918, 5.855093, 6.535634, -0.045405842, -0.49825287, 0.30661774, 0.0040476914], "split_indices": [1, 1, 1, 0, 0, 0, 0], "split_type": [0, 0, 0, 0, 0, 0, 0], "sum_hessian": [700.0, 44.0, 656.0, 41.0, 3.0, 3.0, 653.0], "tree_param": {"num_deleted": "0", "num_feature": "2", "num_nodes": "7", "size_leaf_vector": "1"}}, {"base_weights": [0.00017947036, -0.024233688, 0.008347791, -0.007226448, -0.7537384, 0.33898416, 0.0025870276], "categories": [], "categories_nodes": [], "categories_segments": [], "categories_sizes": [], "default_left": [0, 0, 0, 0, 0, 0, 0], "id": 75, "left_children": [1, 3, 5, -1, -1, -1, -1], "loss_changes": [0.13999186, 2.178161, 1.0010047, 0.0, 0.0, 0.0, 0.0], "parents": [2147483647, 0, 0, 1, 1, 2, 2], "right_children": [2, 4, 6, -1, -1, -1, -1], "split_conditions": [25.929676, 25.677656, 27.307081, -0.007226448, -0.7537384, 0.33898416, 0.0025870276], "split_indices": [1, 1, 1, 0, 0, 0, 0], "split_type": [0, 0, 0, 0, 0, 0, 0], "sum_hessian": [700.0, 175.0, 525.0, 172.0, 3.0, 8.0, 517.0], "tree_param": {"num_deleted": "0", "num_feature": "2", "num_nodes": "7", "size_leaf_vector": "1"}}, {"base_weights": [0.0008116272, -0.02270016, 0.041023638, -0.017674772, -0.38577017, 0.75476074, 0.029711246], "categories": [], "categories_nodes": [], "categories_segments": [], "categories_sizes": [], "default_left": [0, 0, 0, 0, 0, 0, 0], "id": 76, "left_children": [1, 3, 5, -1, -1, -1, -1], "loss_changes": [0.6636961, 0.80146503, 2.06876, 0.0, 0.0, 0.0, 0.0], "parents": [2147483647, 0, 0, 1, 1, 2, 2], "right_children": [2, 4, 6, -1, -1, -1, -1], "split_conditions": [66.13706, 65.67367, 66.686424, -0.017674772, -0.38577017, 0.75476074, 0.029711246], "split_indices": [1, 1, 1, 0, 0, 0, 0], "split_type": [0, 0, 0, 0, 0, 0, 0], "sum_hessian": [700.0, 442.0, 258.0, 437.0, 5.0, 3.0, 255.0], "tree_param": {"num_deleted": "0", "num_feature": "2", "num_nodes": "7", "size_leaf_vector": "1"}}, {"base_weights": [-0.00076925737, -0.019330269, 0.010217575, -0.010162014, -0.6058502, 0.117182925, -0.0034520286], "categories": [], "categories_nodes": [], "categories_segments": [], "categories_sizes": [], "default_left": [0, 0, 0, 0, 0, 0, 0], "id": 77, "left_children": [1, 3, 5, -1, -1, -1, -1], "loss_changes": [0.14315017, 1.3973356, 0.64522326, 0.0, 0.0, 0.0, 0.0], "parents": [2147483647, 0, 0, 1, 1, 2, 2], "right_children": [2, 4, 6, -1, -1, -1, -1], "split_conditions": [40.84532, 40.193092, 48.050694, -0.010162014, -0.6058502, 0.117182925, -0.0034520286], "split_indices": [1, 1, 1, 0, 0, 0, 0], "split_type": [0, 0, 0, 0, 0, 0, 0], "sum_hessian": [700.0, 260.0, 440.0, 257.0, 3.0, 49.0, 391.0], "tree_param": {"num_deleted": "0", "num_feature": "2", "num_nodes": "7", "size_leaf_vector": "1"}}, {"base_weights": [-0.00071893167, -0.004999968, 0.047736987, -0.0033787582, -0.26395416, 0.42741394, 0.01872875], "categories": [], "categories_nodes": [], "categories_segments": [], "categories_sizes": [], "default_left": [0, 0, 0, 0, 0, 0, 0], "id": 78, "left_children": [1, 3, 5, -1, -1, -1, -1], "loss_changes": [0.14565521, 0.2698915, 0.61977935, 0.0, 0.0, 0.0, 0.0], "parents": [2147483647, 0, 0, 1, 1, 2, 2], "right_children": [2, 4, 6, -1, -1, -1, -1], "split_conditions": [93.20281, 92.808365, 93.62122, -0.0033787582, -0.26395416, 0.42741394, 0.01872875], "split_indices": [1, 1, 1, 0, 0, 0, 0], "split_type": [0, 0, 0, 0, 0, 0, 0], "sum_hessian": [700.0, 644.0, 56.0, 641.0, 3.0, 3.0, 53.0], "tree_param": {"num_deleted": "0", "num_feature": "2", "num_nodes": "7", "size_leaf_vector": "1"}}, {"base_weights": [0.00025066262, 0.17497253, -0.000750968, -0.09548537, 0.0009048745], "categories": [], "categories_nodes": [], "categories_segments": [], "categories_sizes": [], "default_left": [0, 0, 0, 0, 0], "id": 79, "left_children": [1, -1, 3, -1, -1], "loss_changes": [0.12281114, 0.0, 0.10957835, 0.0, 0.0], "parents": [2147483647, 0, 0, 2, 2], "right_children": [2, -1, 4, -1, -1], "split_conditions": [0.7562875, 0.17497253, 2.4191763, -0.09548537, 0.0009048745], "split_indices": [1, 0, 1, 0, 0], "split_type": [0, 0, 0, 0, 0], "sum_hessian": [700.0, 3.0, 697.0, 11.0, 686.0], "tree_param": {"num_deleted": "0", "num_feature": "2", "num_nodes": "5", "size_leaf_vector": "1"}}, {"base_weights": [0.0005567472, 0.043485288, -0.004198877, 0.023118574, 0.3737564, -0.067695394, 0.0014913431], "categories": [], "categories_nodes": [], "categories_segments": [], "categories_sizes": [], "default_left": [0, 0, 0, 0, 0, 0, 0], "id": 80, "left_children": [1, 3, 5, -1, -1, -1, -1], "loss_changes": [0.14329314, 0.4622169, 0.22844835, 0.0, 0.0, 0.0, 0.0], "parents": [2147483647, 0, 0, 1, 1, 2, 2], "right_children": [2, 4, 6, -1, -1, -1, -1], "split_conditions": [9.553532, 8.764275, 17.742876, 0.023118574, 0.3737564, -0.067695394, 0.0014913431], "split_indices": [1, 1, 1, 0, 0, 0, 0], "split_type": [0, 0, 0, 0, 0, 0, 0], "sum_hessian": [700.0, 69.0, 631.0, 66.0, 3.0, 51.0, 580.0], "tree_param": {"num_deleted": "0", "num_feature": "2", "num_nodes": "7", "size_leaf_vector": "1"}}, {"base_weights": [-0.0003000877, 0.037739206, -0.007597439, 0.02487131, 0.50127155, -0.4384613, -0.004643424], "categories": [], "categories_nodes": [], "categories_segments": [], "categories_sizes": [], "default_left": [0, 0, 0, 0, 0, 0, 0], "id": 81, "left_children": [1, 3, 5, -1, -1, -1, -1], "loss_changes": [0.19487458, 0.6615421, 0.74763054, 0.0, 0.0, 0.0, 0.0], "parents": [2147483647, 0, 0, 1, 1, 2, 2], "right_children": [2, 4, 6, -1, -1, -1, -1], "split_conditions": [16.76192, 16.703394, 17.389524, 0.02487131, 0.50127155, -0.4384613, -0.004643424], "split_indices": [1, 1, 1, 0, 0, 0, 0], "split_type": [0, 0, 0, 0, 0, 0, 0], "sum_hessian": [700.0, 112.0, 588.0, 110.0, 2.0, 3.0, 585.0], "tree_param": {"num_deleted": "0", "num_feature": "2", "num_nodes": "7", "size_leaf_vector": "1"}}, {"base_weights": [0.00011669926, -0.014600758, 0.022968473, -0.009079116, -0.27004158, 0.42777252, 0.016931029], "categories": [], "categories_nodes": [], "categories_segments": [], "categories_sizes": [], "default_left": [0, 0, 0, 0, 0, 0, 0], "id": 82, "left_children": [1, 3, 5, -1, -1, -1, -1], "loss_changes": [0.23609568, 0.5998116, 0.6648523, 0.0, 0.0, 0.0, 0.0], "parents": [2147483647, 0, 0, 1, 1, 2, 2], "right_children": [2, 4, 6, -1, -1, -1, -1], "split_conditions": [64.35777, 63.629135, 65.02011, -0.009079116, -0.27004158, 0.42777252, 0.016931029], "split_indices": [1, 1, 1, 0, 0, 0, 0], "split_type": [0, 0, 0, 0, 0, 0, 0], "sum_hessian": [700.0, 426.0, 274.0, 418.0, 8.0, 3.0, 271.0], "tree_param": {"num_deleted": "0", "num_feature": "2", "num_nodes": "7", "size_leaf_vector": "1"}}, {"base_weights": [-0.00018957848, 0.0054134713, -0.014965552, 0.0011433866, 0.18217087, -0.4499105, -0.008055602], "categories": [], "categories_nodes": [], "categories_segments": [], "categories_sizes": [], "default_left": [0, 0, 0, 0, 0, 0, 0], "id": 83, "left_children": [1, 3, 5, -1, -1, -1, -1], "loss_changes": [0.058117166, 0.38396916, 0.57642704, 0.0, 0.0, 0.0, 0.0], "parents": [2147483647, 0, 0, 1, 1, 2, 2], "right_children": [2, 4, 6, -1, -1, -1, -1], "split_conditions": [73.84492, 73.06505, 74.80732, 0.0011433866, 0.18217087, -0.4499105, -0.008055602], "split_indices": [1, 1, 1, 0, 0, 0, 0], "split_type": [0, 0, 0, 0, 0, 0, 0], "sum_hessian": [700.0, 508.0, 192.0, 497.0, 11.0, 2.0, 190.0], "tree_param": {"num_deleted": "0", "num_feature": "2", "num_nodes": "7", "size_leaf_vector": "1"}}, {"base_weights": [0.00050410326, -0.022119774, 0.018601911, -0.015916202, -0.65578204, 0.34539795, 0.015176108], "categories": [], "categories_nodes": [], "categories_segments": [], "categories_sizes": [], "default_left": [0, 0, 0, 0, 0, 0, 0], "id": 84, "left_children": [1, 3, 5, -1, -1, -1, -1], "loss_changes": [0.28743073, 1.2160245, 0.43137842, 0.0, 0.0, 0.0, 0.0], "parents": [2147483647, 0, 0, 1, 1, 2, 2], "right_children": [2, 4, 6, -1, -1, -1, -1], "split_conditions": [48.09729, 48.050694, 48.296886, -0.015916202, -0.65578204, 0.34539795, 0.015176108], "split_indices": [1, 1, 1, 0, 0, 0, 0], "split_type": [0, 0, 0, 0, 0, 0, 0], "sum_hessian": [700.0, 311.0, 389.0, 309.0, 2.0, 3.0, 386.0], "tree_param": {"num_deleted": "0", "num_feature": "2", "num_nodes": "7", "size_leaf_vector": "1"}}, {"base_weights": [-0.0005659057, 0.016382042, -0.00760363, 0.00922656, 0.37542725, -0.2520968, -0.004600447], "categories": [], "categories_nodes": [], "categories_segments": [], "categories_sizes": [], "default_left": [0, 0, 0, 0, 0, 0, 0], "id": 85, "left_children": [1, 3, 5, -1, -1, -1, -1], "loss_changes": [0.08373632, 0.52577925, 0.36303207, 0.0, 0.0, 0.0, 0.0], "parents": [2147483647, 0, 0, 1, 1, 2, 2], "right_children": [2, 4, 6, -1, -1, -1, -1], "split_conditions": [31.54069, 31.036196, 32.458584, 0.00922656, 0.37542725, -0.2520968, -0.004600447], "split_indices": [1, 1, 1, 0, 0, 0, 0], "split_type": [0, 0, 0, 0, 0, 0, 0], "sum_hessian": [700.0, 205.0, 495.0, 202.0, 3.0, 5.0, 490.0], "tree_param": {"num_deleted": "0", "num_feature": "2", "num_nodes": "7", "size_leaf_vector": "1"}}, {"base_weights": [0.0007470984, -0.02081469, 0.017503357, -0.013788437, -0.5496063, 0.39678192, 0.013588516], "categories": [], "categories_nodes": [], "categories_segments": [], "categories_sizes": [], "default_left": [0, 0, 0, 0, 0, 0, 0], "id": 86, "left_children": [1, 3, 5, -1, -1, -1, -1], "loss_changes": [0.25363207, 1.1330571, 0.5811103, 0.0, 0.0, 0.0, 0.0], "parents": [2147483647, 0, 0, 1, 1, 2, 2], "right_children": [2, 4, 6, -1, -1, -1, -1], "split_conditions": [47.46309, 46.349403, 48.050694, -0.013788437, -0.5496063, 0.39678192, 0.013588516], "split_indices": [1, 1, 1, 0, 0, 0, 0], "split_type": [0, 0, 0, 0, 0, 0, 0], "sum_hessian": [700.0, 306.0, 394.0, 303.0, 3.0, 3.0, 391.0], "tree_param": {"num_deleted": "0", "num_feature": "2", "num_nodes": "7", "size_leaf_vector": "1"}}, {"base_weights": [5.7138834e-07, -0.004911369, 0.050704464, -0.0039440435, -0.1577301, 0.22936334, 0.019989014], "categories": [], "categories_nodes": [], "categories_segments": [], "categories_sizes": [], "default_left": [0, 0, 0, 0, 0, 0, 0], "id": 87, "left_children": [1, 3, 5, -1, -1, -1, -1], "loss_changes": [0.17483625, 0.09398619, 0.33564574, 0.0, 0.0, 0.0, 0.0], "parents": [2147483647, 0, 0, 1, 1, 2, 2], "right_children": [2, 4, 6, -1, -1, -1, -1], "split_conditions": [92.71778, 92.43962, 93.62122, -0.0039440435, -0.1577301, 0.22936334, 0.019989014], "split_indices": [1, 1, 1, 0, 0, 0, 0], "split_type": [0, 0, 0, 0, 0, 0, 0], "sum_hessian": [700.0, 639.0, 61.0, 636.0, 3.0, 8.0, 53.0], "tree_param": {"num_deleted": "0", "num_feature": "2", "num_nodes": "7", "size_leaf_vector": "1"}}, {"base_weights": [-9.649116e-05, -0.002319627, 0.05548548, -4.622498e-05, -0.04517858, 0.25862885, -0.0024393254], "categories": [], "categories_nodes": [], "categories_segments": [], "categories_sizes": [], "default_left": [0, 0, 0, 0, 0, 0, 0], "id": 88, "left_children": [1, 3, 5, -1, -1, -1, -1], "loss_changes": [0.08674866, 0.06576697, 0.318341, 0.0, 0.0, 0.0, 0.0], "parents": [2147483647, 0, 0, 1, 1, 2, 2], "right_children": [2, 4, 6, -1, -1, -1, -1], "split_conditions": [96.9821, 92.808365, 97.58737, -4.622498e-05, -0.04517858, 0.25862885, -0.0024393254], "split_indices": [1, 1, 1, 0, 0, 0, 0], "split_type": [0, 0, 0, 0, 0, 0, 0], "sum_hessian": [700.0, 674.0, 26.0, 641.0, 33.0, 5.0, 21.0], "tree_param": {"num_deleted": "0", "num_feature": "2", "num_nodes": "7", "size_leaf_vector": "1"}}, {"base_weights": [-3.358403e-05, 0.03014988, -0.0067001344, 0.012305346, 0.33429828, -0.21838634, -0.004460104], "categories": [], "categories_nodes": [], "categories_segments": [], "categories_sizes": [], "default_left": [0, 0, 0, 0, 0, 0, 0], "id": 89, "left_children": [1, 3, 5, -1, -1, -1, -1], "loss_changes": [0.14125694, 0.68516433, 0.27168152, 0.0, 0.0, 0.0, 0.0], "parents": [2147483647, 0, 0, 1, 1, 2, 2], "right_children": [2, 4, 6, -1, -1, -1, -1], "split_conditions": [18.513292, 17.742876, 19.74705, 0.012305346, 0.33429828, -0.21838634, -0.004460104], "split_indices": [1, 1, 1, 0, 0, 0, 0], "split_type": [0, 0, 0, 0, 0, 0, 0], "sum_hessian": [700.0, 126.0, 574.0, 120.0, 6.0, 5.0, 569.0], "tree_param": {"num_deleted": "0", "num_feature": "2", "num_nodes": "7", "size_leaf_vector": "1"}}, {"base_weights": [-8.197518e-05, -0.045973204, 0.0030613847, 0.0080743935, -0.113936424, 0.1875763, 0.001928172], "categories": [], "categories_nodes": [], "categories_segments": [], "categories_sizes": [], "default_left": [0, 0, 0, 0, 0, 0, 0], "id": 90, "left_children": [1, 3, 5, -1, -1, -1, -1], "loss_changes": [0.10126185, 0.16621616, 0.13701348, 0.0, 0.0, 0.0, 0.0], "parents": [2147483647, 0, 0, 1, 1, 2, 2], "right_children": [2, 4, 6, -1, -1, -1, -1], "split_conditions": [6.22918, 3.1586144, 6.535634, 0.0080743935, -0.113936424, 0.1875763, 0.001928172], "split_indices": [1, 1, 1, 0, 0, 0, 0], "split_type": [0, 0, 0, 0, 0, 0, 0], "sum_hessian": [700.0, 44.0, 656.0, 25.0, 19.0, 3.0, 653.0], "tree_param": {"num_deleted": "0", "num_feature": "2", "num_nodes": "7", "size_leaf_vector": "1"}}, {"base_weights": [-0.0001034621, 0.040417038, -0.013354772, 0.030139685, 0.32144675, -0.30722046, -0.011094662], "categories": [], "categories_nodes": [], "categories_segments": [], "categories_sizes": [], "default_left": [0, 0, 0, 0, 0, 0, 0], "id": 91, "left_children": [1, 3, 5, -1, -1, -1, -1], "loss_changes": [0.3769415, 0.48997742, 0.34793666, 0.0, 0.0, 0.0, 0.0], "parents": [2147483647, 0, 0, 1, 1, 2, 2], "right_children": [2, 4, 6, -1, -1, -1, -1], "split_conditions": [25.677656, 24.723108, 25.929676, 0.030139685, 0.32144675, -0.30722046, -0.011094662], "split_indices": [1, 1, 1, 0, 0, 0, 0], "split_type": [0, 0, 0, 0, 0, 0, 0], "sum_hessian": [700.0, 172.0, 528.0, 167.0, 5.0, 3.0, 525.0], "tree_param": {"num_deleted": "0", "num_feature": "2", "num_nodes": "7", "size_leaf_vector": "1"}}, {"base_weights": [5.4110475e-05, 0.008975558, -0.016278112, 0.0024495493, 0.10817664, -0.4051361, -0.00986297], "categories": [], "categories_nodes": [], "categories_segments": [], "categories_sizes": [], "default_left": [0, 0, 0, 0, 0, 0, 0], "id": 92, "left_children": [1, 3, 5, -1, -1, -1, -1], "loss_changes": [0.10228678, 0.2936488, 0.6146599, 0.0, 0.0, 0.0, 0.0], "parents": [2147483647, 0, 0, 1, 1, 2, 2], "right_children": [2, 4, 6, -1, -1, -1, -1], "split_conditions": [68.01408, 64.35777, 68.04993, 0.0024495493, 0.10817664, -0.4051361, -0.00986297], "split_indices": [1, 1, 1, 0, 0, 0, 0], "split_type": [0, 0, 0, 0, 0, 0, 0], "sum_hessian": [700.0, 453.0, 247.0, 426.0, 27.0, 3.0, 244.0], "tree_param": {"num_deleted": "0", "num_feature": "2", "num_nodes": "7", "size_leaf_vector": "1"}}, {"base_weights": [-0.00014128257, 0.017312026, -0.009439244, 0.011294472, 0.3755417, -0.38599396, -0.0061081266], "categories": [], "categories_nodes": [], "categories_segments": [], "categories_sizes": [], "default_left": [0, 0, 0, 0, 0, 0, 0], "id": 93, "left_children": [1, 3, 5, -1, -1, -1, -1], "loss_changes": [0.11392182, 0.5217411, 0.57213354, 0.0, 0.0, 0.0, 0.0], "parents": [2147483647, 0, 0, 1, 1, 2, 2], "right_children": [2, 4, 6, -1, -1, -1, -1], "split_conditions": [37.32518, 37.103878, 38.01956, 0.011294472, 0.3755417, -0.38599396, -0.0061081266], "split_indices": [1, 1, 1, 0, 0, 0, 0], "split_type": [0, 0, 0, 0, 0, 0, 0], "sum_hessian": [700.0, 243.0, 457.0, 240.0, 3.0, 3.0, 454.0], "tree_param": {"num_deleted": "0", "num_feature": "2", "num_nodes": "7", "size_leaf_vector": "1"}}, {"base_weights": [4.0497827e-05, 0.00840451, -0.013836311, 0.0036294297, 0.17761739, -0.40570068, -0.009296505], "categories": [], "categories_nodes": [], "categories_segments": [], "categories_sizes": [], "default_left": [0, 0, 0, 0, 0, 0, 0], "id": 94, "left_children": [1, 3, 5, -1, -1, -1, -1], "loss_changes": [0.08147842, 0.35326153, 0.4658814, 0.0, 0.0, 0.0, 0.0], "parents": [2147483647, 0, 0, 1, 1, 2, 2], "right_children": [2, 4, 6, -1, -1, -1, -1], "split_conditions": [65.67367, 64.35777, 65.845184, 0.0036294297, 0.17761739, -0.40570068, -0.009296505], "split_indices": [1, 1, 1, 0, 0, 0, 0], "split_type": [0, 0, 0, 0, 0, 0, 0], "sum_hessian": [700.0, 437.0, 263.0, 426.0, 11.0, 2.0, 261.0], "tree_param": {"num_deleted": "0", "num_feature": "2", "num_nodes": "7", "size_leaf_vector": "1"}}, {"base_weights": [-0.00016075603, -0.004431994, 0.015558472, -0.00075840554, -0.16968028, 0.2191925, 0.00555155], "categories": [], "categories_nodes": [], "categories_segments": [], "categories_sizes": [], "default_left": [0, 0, 0, 0, 0, 0, 0], "id": 95, "left_children": [1, 3, 5, -1, -1, -1, -1], "loss_changes": [0.04713449, 0.33496523, 0.30444562, 0.0, 0.0, 0.0, 0.0], "parents": [2147483647, 0, 0, 1, 1, 2, 2], "right_children": [2, 4, 6, -1, -1, -1, -1], "split_conditions": [80.56702, 78.861496, 81.17698, -0.00075840554, -0.16968028, 0.2191925, 0.00555155], "split_indices": [1, 1, 1, 0, 0, 0, 0], "split_type": [0, 0, 0, 0, 0, 0, 0], "sum_hessian": [700.0, 551.0, 149.0, 540.0, 11.0, 6.0, 143.0], "tree_param": {"num_deleted": "0", "num_feature": "2", "num_nodes": "7", "size_leaf_vector": "1"}}]}, "name": "gbtree"}, "learner_model_param": {"base_score": "8E-1", "boost_from_average": "0", "num_class": "0", "num_feature": "2", "num_target": "1"}, "objective": {"name": "reg:squarederror", "reg_loss_param": {"scale_pos_weight": "1"}}}, "version": [3, 0, 2]}