{"learner": {"attributes": {"scikit_learn": "{\"_estimator_type\": \"regressor\"}"}, "feature_names": ["x1", "x2"], "feature_types": ["float", "float"], "gradient_booster": {"model": {"gbtree_model_param": {"num_parallel_tree": "1", "num_trees": "143"}, "iteration_indptr": [0, 1, 2, 3, 4, 5, 6, 7, 8, 9, 10, 11, 12, 13, 14, 15, 16, 17, 18, 19, 20, 21, 22, 23, 24, 25, 26, 27, 28, 29, 30, 31, 32, 33, 34, 35, 36, 37, 38, 39, 40, 41, 42, 43, 44, 45, 46, 47, 48, 49, 50, 51, 52, 53, 54, 55, 56, 57, 58, 59, 60, 61, 62, 63, 64, 65, 66, 67, 68, 69, 70, 71, 72, 73, 74, 75, 76, 77, 78, 79, 80, 81, 82, 83, 84, 85, 86, 87, 88, 89, 90, 91, 92, 93, 94, 95, 96, 97, 98, 99, 100, 101, 102, 103, 104, 105, 106, 107, 108, 109, 110, 111, 112, 113, 114, 115, 116, 117, 118, 119, 120, 121, 122, 123, 124, 125, 126, 127, 128, 129, 130, 131, 132, 133, 134, 135, 136, 137, 138, 139, 140, 141, 142, 143], "tree_info": [0, 0, 0, 0, 0, 0, 0, 0, 0, 0, 0, 0, 0, 0, 0, 0, 0, 0, 0, 0, 0, 0, 0, 0, 0, 0, 0, 0, 0, 0, 0, 0, 0, 0, 0, 0, 0, 0, 0, 0, 0, 0, 0, 0, 0, 0, 0, 0, 0, 0, 0, 0, 0, 0, 0, 0, 0, 0, 0, 0, 0, 0, 0, 0, 0, 0, 0, 0, 0, 0, 0, 0, 0, 0, 0, 0, 0, 0, 0, 0, 0, 0, 0, 0, 0, 0, 0, 0, 0, 0, 0, 0, 0, 0, 0, 0, 0, 0, 0, 0, 0, 0, 0, 0, 0, 0, 0, 0, 0, 0, 0, 0, 0, 0, 0, 0, 0, 0, 0, 0, 0, 0, 0, 0, 0, 0, 0, 0, 0, 0, 0, 0, 0, 0, 0, 0, 0, 0, 0, 0, 0, 0, 0], "trees": [{"base_weights": [597.23035, 333.42834, 846.18335, 211.09053, 448.96735, 698.5946, 977.49536], "categories": [], "categories_nodes": [], "categories_segments": [], "categories_sizes": [], "default_left": [0, 0, 0, 0, 0, 0, 0], "id": 0, "left_children": [1, 3, 5, -1, -1, -1, -1], "loss_changes": [45755536.0, 4739324.0, 6293968.0, 0.0, 0.0, 0.0, 0.0], "parents": [2147483647, 0, 0, 1, 1, 2, 2], "right_children": [2, 4, 6, -1, -1, -1, -1], "split_conditions": [49.26181, 22.460482, 73.5071, 211.09053, 448.96735, 698.5946, 977.49536], "split_indices": [0, 0, 0, 0, 0, 0, 0], "split_type": [0, 0, 0, 0, 0, 0, 0], "sum_hessian": [700.0, 341.0, 359.0, 167.0, 174.0, 172.0, 187.0], "tree_param": {"num_deleted": "0", "num_feature": "2", "num_nodes": "7", "size_leaf_vector": "1"}}, {"base_weights": [0.2516202, 17.071733, -5.040572, -5.813622, 62.94626, -87.63142, 5.598841], "categories": [], "categories_nodes": [], "categories_segments": [], "categories_sizes": [], "default_left": [0, 0, 0, 0, 0, 0, 0], "id": 1, "left_children": [1, 3, 5, -1, -1, -1, -1], "loss_changes": [62485.758, 176741.56, 469726.12, 0.0, 0.0, 0.0, 0.0], "parents": [2147483647, 0, 0, 1, 1, 2, 2], "right_children": [2, 4, 6, -1, -1, -1, -1], "split_conditions": [22.460482, 14.866273, 31.435598, -5.813622, 62.94626, -87.63142, 5.598841], "split_indices": [0, 0, 0, 0, 0, 0, 0], "split_type": [0, 0, 0, 0, 0, 0, 0], "sum_hessian": [700.0, 167.0, 533.0, 112.0, 55.0, 60.0, 473.0], "tree_param": {"num_deleted": "0", "num_feature": "2", "num_nodes": "7", "size_leaf_vector": "1"}}, {"base_weights": [-0.035513543, 7.3219805, -20.151026, -1.3830278, 71.99004, -69.640274, -0.71660614], "categories": [], "categories_nodes": [], "categories_segments": [], "categories_sizes": [], "default_left": [0, 0, 0, 0, 0, 0, 0], "id": 2, "left_children": [1, 3, 5, -1, -1, -1, -1], "loss_changes": [103895.38, 289448.7, 180767.53, 0.0, 0.0, 0.0, 0.0], "parents": [2147483647, 0, 0, 1, 1, 2, 2], "right_children": [2, 4, 6, -1, -1, -1, -1], "split_conditions": [73.5071, 63.75575, 81.01134, -1.3830278, 71.99004, -69.640274, -0.71660614], "split_indices": [0, 0, 0, 0, 0, 0, 0], "split_type": [0, 0, 0, 0, 0, 0, 0], "sum_hessian": [700.0, 513.0, 187.0, 453.0, 60.0, 52.0, 135.0], "tree_param": {"num_deleted": "0", "num_feature": "2", "num_nodes": "7", "size_leaf_vector": "1"}}, {"base_weights": [0.0003547995, 13.597883, -12.917298, 0.6978378, 80.89998, -88.056335, -2.9838917], "categories": [], "categories_nodes": [], "categories_segments": [], "categories_sizes": [], "default_left": [0, 0, 0, 0, 0, 0, 0], "id": 3, "left_children": [1, 3, 5, -1, -1, -1, -1], "loss_changes": [123305.016, 296868.0, 268436.44, 0.0, 0.0, 0.0, 0.0], "parents": [2147483647, 0, 0, 1, 1, 2, 2], "right_children": [2, 4, 6, -1, -1, -1, -1], "split_conditions": [49.26181, 39.72873, 54.264465, 0.6978378, 80.89998, -88.056335, -2.9838917], "split_indices": [0, 0, 0, 0, 0, 0, 0], "split_type": [0, 0, 0, 0, 0, 0, 0], "sum_hessian": [700.0, 341.0, 359.0, 287.0, 54.0, 41.0, 318.0], "tree_param": {"num_deleted": "0", "num_feature": "2", "num_nodes": "7", "size_leaf_vector": "1"}}, {"base_weights": [0.07196202, -10.269641, 1.2537452, 0.24549933, -22.704063, 15.418672, 0.24155399], "categories": [], "categories_nodes": [], "categories_segments": [], "categories_sizes": [], "default_left": [0, 0, 0, 0, 0, 0, 0], "id": 4, "left_children": [1, 3, 5, -1, -1, -1, -1], "loss_changes": [8580.17, 9419.551, 9028.974, 0.0, 0.0, 0.0, 0.0], "parents": [2147483647, 0, 0, 1, 1, 2, 2], "right_children": [2, 4, 6, -1, -1, -1, -1], "split_conditions": [9.9441395, 5.808361, 14.866273, 0.24549933, -22.704063, 15.418672, 0.24155399], "split_indices": [0, 0, 0, 0, 0, 0, 0], "split_type": [0, 0, 0, 0, 0, 0, 0], "sum_hessian": [700.0, 71.0, 629.0, 39.0, 32.0, 41.0, 588.0], "tree_param": {"num_deleted": "0", "num_feature": "2", "num_nodes": "7", "size_leaf_vector": "1"}}, {"base_weights": [-0.009709536, -1.5749588, 3.3970532, 1.1185033, -11.979212, 25.702507, -0.65498126], "categories": [], "categories_nodes": [], "categories_segments": [], "categories_sizes": [], "default_left": [0, 0, 0, 0, 0, 0, 0], "id": 5, "left_children": [1, 3, 5, -1, -1, -1, -1], "loss_changes": [3743.3857, 13492.685, 19991.361, 0.0, 0.0, 0.0, 0.0], "parents": [2147483647, 0, 0, 1, 1, 2, 2], "right_children": [2, 4, 6, -1, -1, -1, -1], "split_conditions": [67.91023, 54.264465, 73.5071, 1.1185033, -11.979212, 25.702507, -0.65498126], "split_indices": [0, 0, 0, 0, 0, 0, 0], "split_type": [0, 0, 0, 0, 0, 0, 0], "sum_hessian": [700.0, 480.0, 220.0, 382.0, 98.0, 33.0, 187.0], "tree_param": {"num_deleted": "0", "num_feature": "2", "num_nodes": "7", "size_leaf_vector": "1"}}, {"base_weights": [0.020235091, -1.6918672, 2.4668717, 0.00291658, -22.57607, 19.941086, -0.5024178], "categories": [], "categories_nodes": [], "categories_segments": [], "categories_sizes": [], "default_left": [0, 0, 0, 0, 0, 0, 0], "id": 6, "left_children": [1, 3, 5, -1, -1, -1, -1], "loss_changes": [2940.5872, 14617.875, 15005.072, 0.0, 0.0, 0.0, 0.0], "parents": [2147483647, 0, 0, 1, 1, 2, 2], "right_children": [2, 4, 6, -1, -1, -1, -1], "split_conditions": [58.43143, 54.264465, 63.75575, 0.00291658, -22.57607, 19.941086, -0.5024178], "split_indices": [0, 0, 0, 0, 0, 0, 0], "split_type": [0, 0, 0, 0, 0, 0, 0], "sum_hessian": [700.0, 412.0, 288.0, 382.0, 30.0, 41.0, 247.0], "tree_param": {"num_deleted": "0", "num_feature": "2", "num_nodes": "7", "size_leaf_vector": "1"}}, {"base_weights": [-0.0064964187, 1.2219201, -5.1188293, 0.27155036, 27.153437, -19.760498, -2.5722291], "categories": [], "categories_nodes": [], "categories_segments": [], "categories_sizes": [], "default_left": [0, 0, 0, 0, 0, 0, 0], "id": 7, "left_children": [1, 3, 5, -1, -1, -1, -1], "loss_changes": [4408.5864, 13941.431, 5020.132, 0.0, 0.0, 0.0, 0.0], "parents": [2147483647, 0, 0, 1, 1, 2, 2], "right_children": [2, 4, 6, -1, -1, -1, -1], "split_conditions": [81.01134, 79.157906, 83.83287, 0.27155036, 27.153437, -19.760498, -2.5722291], "split_indices": [0, 0, 0, 0, 0, 0, 0], "split_type": [0, 0, 0, 0, 0, 0, 0], "sum_hessian": [700.0, 565.0, 135.0, 546.0, 19.0, 19.0, 116.0], "tree_param": {"num_deleted": "0", "num_feature": "2", "num_nodes": "7", "size_leaf_vector": "1"}}, {"base_weights": [-0.0027793907, 1.5897202, -1.5156463, -0.2657537, 28.590513, -17.415373, -0.82197136], "categories": [], "categories_nodes": [], "categories_segments": [], "categories_sizes": [], "default_left": [0, 0, 0, 0, 0, 0, 0], "id": 8, "left_children": [1, 3, 5, -1, -1, -1, -1], "loss_changes": [1691.2869, 17141.547, 3956.2124, 0.0, 0.0, 0.0, 0.0], "parents": [2147483647, 0, 0, 1, 1, 2, 2], "right_children": [2, 4, 6, -1, -1, -1, -1], "split_conditions": [49.26181, 45.24395, 51.07473, -0.2657537, 28.590513, -17.415373, -0.82197136], "split_indices": [0, 0, 0, 0, 0, 0, 0], "split_type": [0, 0, 0, 0, 0, 0, 0], "sum_hessian": [700.0, 341.0, 359.0, 320.0, 21.0, 14.0, 345.0], "tree_param": {"num_deleted": "0", "num_feature": "2", "num_nodes": "7", "size_leaf_vector": "1"}}, {"base_weights": [0.014387302, 2.0528703, -0.96617913, -0.3171014, 23.190317, -27.075615, 0.36453593], "categories": [], "categories_nodes": [], "categories_segments": [], "categories_sizes": [], "default_left": [0, 0, 0, 0, 0, 0, 0], "id": 9, "left_children": [1, 3, 5, -1, -1, -1, -1], "loss_changes": [1403.1898, 11429.048, 16478.629, 0.0, 0.0, 0.0, 0.0], "parents": [2147483647, 0, 0, 1, 1, 2, 2], "right_children": [2, 4, 6, -1, -1, -1, -1], "split_conditions": [31.435598, 27.864647, 34.566727, -0.3171014, 23.190317, -27.075615, 0.36453593], "split_indices": [0, 0, 0, 0, 0, 0, 0], "split_type": [0, 0, 0, 0, 0, 0, 0], "sum_hessian": [700.0, 227.0, 473.0, 205.0, 22.0, 22.0, 451.0], "tree_param": {"num_deleted": "0", "num_feature": "2", "num_nodes": "7", "size_leaf_vector": "1"}}, {"base_weights": [-0.0054821773, 2.8192565, -0.8941537, -0.39402652, 26.617252, -19.614319, 0.025254672], "categories": [], "categories_nodes": [], "categories_segments": [], "categories_sizes": [], "default_left": [0, 0, 0, 0, 0, 0, 0], "id": 10, "left_children": [1, 3, 5, -1, -1, -1, -1], "loss_changes": [1762.2164, 12857.395, 9191.424, 0.0, 0.0, 0.0, 0.0], "parents": [2147483647, 0, 0, 1, 1, 2, 2], "right_children": [2, 4, 6, -1, -1, -1, -1], "split_conditions": [22.460482, 18.657005, 25.243694, -0.39402652, 26.617252, -19.614319, 0.025254672], "split_indices": [0, 0, 0, 0, 0, 0, 0], "split_type": [0, 0, 0, 0, 0, 0, 0], "sum_hessian": [700.0, 167.0, 533.0, 148.0, 19.0, 24.0, 509.0], "tree_param": {"num_deleted": "0", "num_feature": "2", "num_nodes": "7", "size_leaf_vector": "1"}}, {"base_weights": [0.009453283, 1.8176411, -1.2484393, 0.25852793, 22.69683, -27.63693, -0.45957997], "categories": [], "categories_nodes": [], "categories_segments": [], "categories_sizes": [], "default_left": [0, 0, 0, 0, 0, 0, 0], "id": 11, "left_children": [1, 3, 5, -1, -1, -1, -1], "loss_changes": [1596.698, 9369.402, 8605.457, 0.0, 0.0, 0.0, 0.0], "parents": [2147483647, 0, 0, 1, 1, 2, 2], "right_children": [2, 4, 6, -1, -1, -1, -1], "split_conditions": [39.72873, 37.330933, 41.824303, 0.25852793, 22.69683, -27.63693, -0.45957997], "split_indices": [0, 0, 0, 0, 0, 0, 0], "split_type": [0, 0, 0, 0, 0, 0, 0], "sum_hessian": [700.0, 287.0, 413.0, 268.0, 19.0, 11.0, 402.0], "tree_param": {"num_deleted": "0", "num_feature": "2", "num_nodes": "7", "size_leaf_vector": "1"}}, {"base_weights": [0.0014745655, -1.2057914, 1.0785731, 0.5525337, -2.107549, 4.975301, 0.4277732], "categories": [], "categories_nodes": [], "categories_segments": [], "categories_sizes": [], "default_left": [0, 0, 0, 0, 0, 0, 0], "id": 12, "left_children": [1, 3, 5, -1, -1, -1, -1], "loss_changes": [912.84186, 525.99255, 938.7239, 0.0, 0.0, 0.0, 0.0], "parents": [2147483647, 0, 0, 1, 1, 2, 2], "right_children": [2, 4, 6, -1, -1, -1, -1], "split_conditions": [47.206696, 14.866273, 54.264465, 0.5525337, -2.107549, 4.975301, 0.4277732], "split_indices": [0, 0, 0, 0, 0, 0, 0], "split_type": [0, 0, 0, 0, 0, 0, 0], "sum_hessian": [700.0, 330.0, 370.0, 112.0, 218.0, 52.0, 318.0], "tree_param": {"num_deleted": "0", "num_feature": "2", "num_nodes": "7", "size_leaf_vector": "1"}}, {"base_weights": [-0.0024977124, -2.241231, 0.34362632, -0.20450513, -8.519623, 10.688753, -0.008234721], "categories": [], "categories_nodes": [], "categories_segments": [], "categories_sizes": [], "default_left": [0, 0, 0, 0, 0, 0, 0], "id": 13, "left_children": [1, 3, 5, -1, -1, -1, -1], "loss_changes": [543.9606, 1200.2699, 2213.2368, 0.0, 0.0, 0.0, 0.0], "parents": [2147483647, 0, 0, 1, 1, 2, 2], "right_children": [2, 4, 6, -1, -1, -1, -1], "split_conditions": [12.429723, 9.9441395, 14.866273, -0.20450513, -8.519623, 10.688753, -0.008234721], "split_indices": [0, 0, 0, 0, 0, 0, 0], "split_type": [0, 0, 0, 0, 0, 0, 0], "sum_hessian": [700.0, 93.0, 607.0, 71.0, 22.0, 19.0, 588.0], "tree_param": {"num_deleted": "0", "num_feature": "2", "num_nodes": "7", "size_leaf_vector": "1"}}, {"base_weights": [-0.004783968, 0.39124298, -1.0875131, -0.086701386, 16.296638, -14.312587, -0.18475376], "categories": [], "categories_nodes": [], "categories_segments": [], "categories_sizes": [], "default_left": [0, 0, 0, 0, 0, 0, 0], "id": 14, "left_children": [1, 3, 5, -1, -1, -1, -1], "loss_changes": [301.0072, 3908.7866, 2241.8984, 0.0, 0.0, 0.0, 0.0], "parents": [2147483647, 0, 0, 1, 1, 2, 2], "right_children": [2, 4, 6, -1, -1, -1, -1], "split_conditions": [73.5071, 71.32448, 74.99605, -0.086701386, 16.296638, -14.312587, -0.18475376], "split_indices": [0, 0, 0, 0, 0, 0, 0], "split_type": [0, 0, 0, 0, 0, 0, 0], "sum_hessian": [700.0, 513.0, 187.0, 499.0, 14.0, 11.0, 176.0], "tree_param": {"num_deleted": "0", "num_feature": "2", "num_nodes": "7", "size_leaf_vector": "1"}}, {"base_weights": [0.005589228, 0.9590847, -0.65772545, 0.7024847, 11.159385, -2.9024384, 0.5248175], "categories": [], "categories_nodes": [], "categories_segments": [], "categories_sizes": [], "default_left": [0, 0, 0, 0, 0, 0, 0], "id": 15, "left_children": [1, 3, 5, -1, -1, -1, -1], "loss_changes": [443.99054, 745.9709, 1100.4736, 0.0, 0.0, 0.0, 0.0], "parents": [2147483647, 0, 0, 1, 1, 2, 2], "right_children": [2, 4, 6, -1, -1, -1, -1], "split_conditions": [39.72873, 38.673534, 60.956432, 0.7024847, 11.159385, -2.9024384, 0.5248175], "split_indices": [0, 0, 0, 0, 0, 0, 0], "split_type": [0, 0, 0, 0, 0, 0, 0], "sum_hessian": [700.0, 287.0, 413.0, 281.0, 6.0, 142.0, 271.0], "tree_param": {"num_deleted": "0", "num_feature": "2", "num_nodes": "7", "size_leaf_vector": "1"}}, {"base_weights": [0.013531068, 0.6942625, -1.2327012, 0.05360988, 17.15965, -14.453722, -0.73177665], "categories": [], "categories_nodes": [], "categories_segments": [], "categories_sizes": [], "default_left": [0, 0, 0, 0, 0, 0, 0], "id": 16, "left_children": [1, 3, 5, -1, -1, -1, -1], "loss_changes": [595.54877, 4788.1416, 1631.8611, 0.0, 0.0, 0.0, 0.0], "parents": [2147483647, 0, 0, 1, 1, 2, 2], "right_children": [2, 4, 6, -1, -1, -1, -1], "split_conditions": [63.75575, 62.20867, 65.19613, 0.05360988, 17.15965, -14.453722, -0.73177665], "split_indices": [0, 0, 0, 0, 0, 0, 0], "split_type": [0, 0, 0, 0, 0, 0, 0], "sum_hessian": [700.0, 453.0, 247.0, 437.0, 16.0, 8.0, 239.0], "tree_param": {"num_deleted": "0", "num_feature": "2", "num_nodes": "7", "size_leaf_vector": "1"}}, {"base_weights": [-0.0024967764, 0.6079697, -0.8748849, 0.256176, 10.615792, -13.713857, -0.3175376], "categories": [], "categories_nodes": [], "categories_segments": [], "categories_sizes": [], "default_left": [0, 0, 0, 0, 0, 0, 0], "id": 17, "left_children": [1, 3, 5, -1, -1, -1, -1], "loss_changes": [373.8591, 1451.3252, 2063.6619, 0.0, 0.0, 0.0, 0.0], "parents": [2147483647, 0, 0, 1, 1, 2, 2], "right_children": [2, 4, 6, -1, -1, -1, -1], "split_conditions": [58.43143, 57.00612, 59.684284, 0.256176, 10.615792, -13.713857, -0.3175376], "split_indices": [0, 0, 0, 0, 0, 0, 0], "split_type": [0, 0, 0, 0, 0, 0, 0], "sum_hessian": [700.0, 412.0, 288.0, 399.0, 13.0, 11.0, 277.0], "tree_param": {"num_deleted": "0", "num_feature": "2", "num_nodes": "7", "size_leaf_vector": "1"}}, {"base_weights": [-0.0044976533, -1.9016594, 0.15996915, -0.16128846, -5.8847876, 5.565176, 0.013860442], "categories": [], "categories_nodes": [], "categories_segments": [], "categories_sizes": [], "default_left": [0, 0, 0, 0, 0, 0, 0], "id": 18, "left_children": [1, 3, 5, -1, -1, -1, -1], "loss_changes": [219.03032, 387.2496, 510.1, 0.0, 0.0, 0.0, 0.0], "parents": [2147483647, 0, 0, 1, 1, 2, 2], "right_children": [2, 4, 6, -1, -1, -1, -1], "split_conditions": [8.023375, 5.808361, 9.9441395, -0.16128846, -5.8847876, 5.565176, 0.013860442], "split_indices": [0, 0, 0, 0, 0, 0, 0], "split_type": [0, 0, 0, 0, 0, 0, 0], "sum_hessian": [700.0, 55.0, 645.0, 39.0, 16.0, 16.0, 629.0], "tree_param": {"num_deleted": "0", "num_feature": "2", "num_nodes": "7", "size_leaf_vector": "1"}}, {"base_weights": [0.013238477, -0.75660557, 0.27080372, -0.1458472, -12.07336, 1.3045534, -0.40408888], "categories": [], "categories_nodes": [], "categories_segments": [], "categories_sizes": [], "default_left": [0, 0, 0, 0, 0, 0, 0], "id": 19, "left_children": [1, 3, 5, -1, -1, -1, -1], "loss_changes": [139.20271, 1214.7164, 367.5016, 0.0, 0.0, 0.0, 0.0], "parents": [2147483647, 0, 0, 1, 1, 2, 2], "right_children": [2, 4, 6, -1, -1, -1, -1], "split_conditions": [23.818277, 22.460482, 54.264465, -0.1458472, -12.07336, 1.3045534, -0.40408888], "split_indices": [0, 0, 0, 0, 0, 0, 0], "split_type": [0, 0, 0, 0, 0, 0, 0], "sum_hessian": [700.0, 175.0, 525.0, 167.0, 8.0, 207.0, 318.0], "tree_param": {"num_deleted": "0", "num_feature": "2", "num_nodes": "7", "size_leaf_vector": "1"}}, {"base_weights": [-0.004757023, 0.19115222, -0.5403559, -0.13123031, 2.1720455, -7.016, -0.2883237], "categories": [], "categories_nodes": [], "categories_segments": [], "categories_sizes": [], "default_left": [0, 0, 0, 0, 0, 0, 0], "id": 20, "left_children": [1, 3, 5, -1, -1, -1, -1], "loss_changes": [73.65836, 328.52823, 304.80646, 0.0, 0.0, 0.0, 0.0], "parents": [2147483647, 0, 0, 1, 1, 2, 2], "right_children": [2, 4, 6, -1, -1, -1, -1], "split_conditions": [73.5071, 62.79004, 74.543945, -0.13123031, 2.1720455, -7.016, -0.2883237], "split_indices": [0, 0, 0, 0, 0, 0, 0], "split_type": [0, 0, 0, 0, 0, 0, 0], "sum_hessian": [700.0, 513.0, 187.0, 442.0, 71.0, 6.0, 181.0], "tree_param": {"num_deleted": "0", "num_feature": "2", "num_nodes": "7", "size_leaf_vector": "1"}}, {"base_weights": [-0.007510957, 0.53194326, -0.26697943, 0.1683672, 11.986506, -7.3715625, -0.050642896], "categories": [], "categories_nodes": [], "categories_segments": [], "categories_sizes": [], "default_left": [0, 0, 0, 0, 0, 0, 0], "id": 21, "left_children": [1, 3, 5, -1, -1, -1, -1], "loss_changes": [98.26194, 947.5119, 728.15564, 0.0, 0.0, 0.0, 0.0], "parents": [2147483647, 0, 0, 1, 1, 2, 2], "right_children": [2, 4, 6, -1, -1, -1, -1], "split_conditions": [31.435598, 29.712172, 32.866455, 0.1683672, 11.986506, -7.3715625, -0.050642896], "split_indices": [0, 0, 0, 0, 0, 0, 0], "split_type": [0, 0, 0, 0, 0, 0, 0], "sum_hessian": [700.0, 227.0, 473.0, 221.0, 6.0, 13.0, 460.0], "tree_param": {"num_deleted": "0", "num_feature": "2", "num_nodes": "7", "size_leaf_vector": "1"}}, {"base_weights": [-0.0041164965, -0.7754882, 0.10358169, 0.16066967, -5.2173467, 0.520688, -0.28639093], "categories": [], "categories_nodes": [], "categories_segments": [], "categories_sizes": [], "default_left": [0, 0, 0, 0, 0, 0, 0], "id": 22, "left_children": [1, 3, 5, -1, -1, -1, -1], "loss_changes": [58.31613, 358.45044, 100.34771, 0.0, 0.0, 0.0, 0.0], "parents": [2147483647, 0, 0, 1, 1, 2, 2], "right_children": [2, 4, 6, -1, -1, -1, -1], "split_conditions": [11.483683, 9.9441395, 54.264465, 0.16066967, -5.2173467, 0.520688, -0.28639093], "split_indices": [0, 0, 0, 0, 0, 0, 0], "split_type": [0, 0, 0, 0, 0, 0, 0], "sum_hessian": [700.0, 85.0, 615.0, 71.0, 14.0, 297.0, 318.0], "tree_param": {"num_deleted": "0", "num_feature": "2", "num_nodes": "7", "size_leaf_vector": "1"}}, {"base_weights": [0.011266833, -0.22417855, 0.27362686, 0.11230043, -4.18458, 8.899353, -0.10578942], "categories": [], "categories_nodes": [], "categories_segments": [], "categories_sizes": [], "default_left": [0, 0, 0, 0, 0, 0, 0], "id": 23, "left_children": [1, 3, 5, -1, -1, -1, -1], "loss_changes": [43.363132, 493.52893, 1087.4915, 0.0, 0.0, 0.0, 0.0], "parents": [2147483647, 0, 0, 1, 1, 2, 2], "right_children": [2, 4, 6, -1, -1, -1, -1], "split_conditions": [52.475643, 49.26181, 54.264465, 0.11230043, -4.18458, 8.899353, -0.10578942], "split_indices": [0, 0, 0, 0, 0, 0, 0], "split_type": [0, 0, 0, 0, 0, 0, 0], "sum_hessian": [700.0, 369.0, 331.0, 341.0, 28.0, 13.0, 318.0], "tree_param": {"num_deleted": "0", "num_feature": "2", "num_nodes": "7", "size_leaf_vector": "1"}}, {"base_weights": [0.006732176, -0.34703162, 0.28166574, -0.09357204, -8.728963, 2.962494, 0.012800514], "categories": [], "categories_nodes": [], "categories_segments": [], "categories_sizes": [], "default_left": [0, 0, 0, 0, 0, 0, 0], "id": 24, "left_children": [1, 3, 5, -1, -1, -1, -1], "loss_changes": [68.27809, 651.39886, 284.67078, 0.0, 0.0, 0.0, 0.0], "parents": [2147483647, 0, 0, 1, 1, 2, 2], "right_children": [2, 4, 6, -1, -1, -1, -1], "split_conditions": [42.899403, 41.824303, 49.26181, -0.09357204, -8.728963, 2.962494, 0.012800514], "split_indices": [0, 0, 0, 0, 0, 0, 0], "split_type": [0, 0, 0, 0, 0, 0, 0], "sum_hessian": [700.0, 306.0, 394.0, 298.0, 8.0, 35.0, 359.0], "tree_param": {"num_deleted": "0", "num_feature": "2", "num_nodes": "7", "size_leaf_vector": "1"}}, {"base_weights": [0.008867267, 0.44183546, -0.26013345, 0.19342163, 5.745913, -6.0302224, -0.13733126], "categories": [], "categories_nodes": [], "categories_segments": [], "categories_sizes": [], "default_left": [0, 0, 0, 0, 0, 0, 0], "id": 25, "left_children": [1, 3, 5, -1, -1, -1, -1], "loss_changes": [81.75954, 353.32474, 305.98688, 0.0, 0.0, 0.0, 0.0], "parents": [2147483647, 0, 0, 1, 1, 2, 2], "right_children": [2, 4, 6, -1, -1, -1, -1], "split_conditions": [37.330933, 36.019066, 37.728416, 0.19342163, 5.745913, -6.0302224, -0.13733126], "split_indices": [0, 0, 0, 0, 0, 0, 0], "split_type": [0, 0, 0, 0, 0, 0, 0], "sum_hessian": [700.0, 268.0, 432.0, 257.0, 11.0, 8.0, 424.0], "tree_param": {"num_deleted": "0", "num_feature": "2", "num_nodes": "7", "size_leaf_vector": "1"}}, {"base_weights": [-0.0063465545, -0.111996025, 1.6129405, -0.051457647, -4.035791, 5.1811657, 0.6493129], "categories": [], "categories_nodes": [], "categories_segments": [], "categories_sizes": [], "default_left": [0, 0, 0, 0, 0, 0, 0], "id": 26, "left_children": [1, 3, 5, -1, -1, -1, -1], "loss_changes": [120.10549, 156.3313, 144.48874, 0.0, 0.0, 0.0, 0.0], "parents": [2147483647, 0, 0, 1, 1, 2, 2], "right_children": [2, 4, 6, -1, -1, -1, -1], "split_conditions": [93.9499, 92.9376, 95.041145, -0.051457647, -4.035791, 5.1811657, 0.6493129], "split_indices": [0, 0, 0, 0, 0, 0, 0], "split_type": [0, 0, 0, 0, 0, 0, 0], "sum_hessian": [700.0, 658.0, 42.0, 649.0, 9.0, 8.0, 34.0], "tree_param": {"num_deleted": "0", "num_feature": "2", "num_nodes": "7", "size_leaf_vector": "1"}}, {"base_weights": [0.010903945, 0.21818839, -0.23800153, 0.12219526, 6.2293906, -8.208232, 0.073299654], "categories": [], "categories_nodes": [], "categories_segments": [], "categories_sizes": [], "default_left": [0, 0, 0, 0, 0, 0, 0], "id": 27, "left_children": [1, 3, 5, -1, -1, -1, -1], "loss_changes": [36.219482, 220.24284, 792.086, 0.0, 0.0, 0.0, 0.0], "parents": [2147483647, 0, 0, 1, 1, 2, 2], "right_children": [2, 4, 6, -1, -1, -1, -1], "split_conditions": [54.264465, 53.57747, 55.680126, 0.12219526, 6.2293906, -8.208232, 0.073299654], "split_indices": [0, 0, 0, 0, 0, 0, 0], "split_type": [0, 0, 0, 0, 0, 0, 0], "sum_hessian": [700.0, 382.0, 318.0, 377.0, 5.0, 11.0, 307.0], "tree_param": {"num_deleted": "0", "num_feature": "2", "num_nodes": "7", "size_leaf_vector": "1"}}, {"base_weights": [0.011234327, 0.21442313, -0.431051, 0.10274875, 9.038188, -7.276324, -0.20617676], "categories": [], "categories_nodes": [], "categories_segments": [], "categories_sizes": [], "default_left": [0, 0, 0, 0, 0, 0, 0], "id": 28, "left_children": [1, 3, 5, -1, -1, -1, -1], "loss_changes": [63.089493, 473.0432, 338.6907, 0.0, 0.0, 0.0, 0.0], "parents": [2147483647, 0, 0, 1, 1, 2, 2], "right_children": [2, 4, 6, -1, -1, -1, -1], "split_conditions": [67.91023, 67.15732, 69.09377, 0.10274875, 9.038188, -7.276324, -0.20617676], "split_indices": [0, 0, 0, 0, 0, 0, 0], "split_type": [0, 0, 0, 0, 0, 0, 0], "sum_hessian": [700.0, 480.0, 220.0, 475.0, 5.0, 6.0, 214.0], "tree_param": {"num_deleted": "0", "num_feature": "2", "num_nodes": "7", "size_leaf_vector": "1"}}, {"base_weights": [0.0034644227, -0.22927235, 0.21468893, -0.020993616, -4.9884295, 7.166382, 0.040300243], "categories": [], "categories_nodes": [], "categories_segments": [], "categories_sizes": [], "default_left": [0, 0, 0, 0, 0, 0, 0], "id": 29, "left_children": [1, 3, 5, -1, -1, -1, -1], "loss_changes": [34.510178, 330.96652, 445.83633, 0.0, 0.0, 0.0, 0.0], "parents": [2147483647, 0, 0, 1, 1, 2, 2], "right_children": [2, 4, 6, -1, -1, -1, -1], "split_conditions": [47.41738, 45.24395, 49.26181, -0.020993616, -4.9884295, 7.166382, 0.040300243], "split_indices": [0, 0, 0, 0, 0, 0, 0], "split_type": [0, 0, 0, 0, 0, 0, 0], "sum_hessian": [700.0, 333.0, 367.0, 320.0, 13.0, 8.0, 359.0], "tree_param": {"num_deleted": "0", "num_feature": "2", "num_nodes": "7", "size_leaf_vector": "1"}}, {"base_weights": [-0.004837216, 0.5840358, -0.11780464, 0.08114336, 4.809952, -5.437563, -0.035195988], "categories": [], "categories_nodes": [], "categories_segments": [], "categories_sizes": [], "default_left": [0, 0, 0, 0, 0, 0, 0], "id": 30, "left_children": [1, 3, 5, -1, -1, -1, -1], "loss_changes": [46.70175, 239.75517, 258.6494, 0.0, 0.0, 0.0, 0.0], "parents": [2147483647, 0, 0, 1, 1, 2, 2], "right_children": [2, 4, 6, -1, -1, -1, -1], "split_conditions": [14.866273, 13.681863, 15.61526, 0.08114336, 4.809952, -5.437563, -0.035195988], "split_indices": [0, 0, 0, 0, 0, 0, 0], "split_type": [0, 0, 0, 0, 0, 0, 0], "sum_hessian": [700.0, 112.0, 588.0, 101.0, 11.0, 8.0, 580.0], "tree_param": {"num_deleted": "0", "num_feature": "2", "num_nodes": "7", "size_leaf_vector": "1"}}, {"base_weights": [-0.0005200205, -0.11150589, 0.5117949, -0.05810035, -2.621175, 3.8142498, 0.25338563], "categories": [], "categories_nodes": [], "categories_segments": [], "categories_sizes": [], "default_left": [0, 0, 0, 0, 0, 0, 0], "id": 31, "left_children": [1, 3, 5, -1, -1, -1, -1], "loss_changes": [39.915733, 77.18317, 105.70665, 0.0, 0.0, 0.0, 0.0], "parents": [2147483647, 0, 0, 1, 1, 2, 2], "right_children": [2, 4, 6, -1, -1, -1, -1], "split_conditions": [82.12573, 81.01134, 83.83287, -0.05810035, -2.621175, 3.8142498, 0.25338563], "split_indices": [0, 0, 0, 0, 0, 0, 0], "split_type": [0, 0, 0, 0, 0, 0, 0], "sum_hessian": [700.0, 576.0, 124.0, 565.0, 11.0, 8.0, 116.0], "tree_param": {"num_deleted": "0", "num_feature": "2", "num_nodes": "7", "size_leaf_vector": "1"}}, {"base_weights": [0.001971355, -0.046592876, 0.5514794, 0.018100683, -1.3285266, 7.6631927, 0.014473244], "categories": [], "categories_nodes": [], "categories_segments": [], "categories_sizes": [], "default_left": [0, 0, 0, 0, 0, 0, 0], "id": 32, "left_children": [1, 3, 5, -1, -1, -1, -1], "loss_changes": [18.73289, 53.515743, 217.574, 0.0, 0.0, 0.0, 0.0], "parents": [2147483647, 0, 0, 1, 1, 2, 2], "right_children": [2, 4, 6, -1, -1, -1, -1], "split_conditions": [92.08724, 89.38926, 92.65876, 0.018100683, -1.3285266, 7.6631927, 0.014473244], "split_indices": [0, 0, 0, 0, 0, 0, 0], "split_type": [0, 0, 0, 0, 0, 0, 0], "sum_hessian": [700.0, 644.0, 56.0, 614.0, 30.0, 3.0, 53.0], "tree_param": {"num_deleted": "0", "num_feature": "2", "num_nodes": "7", "size_leaf_vector": "1"}}, {"base_weights": [5.084268e-05, 0.39302367, -0.06070491, -0.080188856, 2.1479194, -4.1404014, 0.0005917104], "categories": [], "categories_nodes": [], "categories_segments": [], "categories_sizes": [], "default_left": [0, 0, 0, 0, 0, 0, 0], "id": 33, "left_children": [1, 3, 5, -1, -1, -1, -1], "loss_changes": [16.760485, 78.233475, 152.04597, 0.0, 0.0, 0.0, 0.0], "parents": [2147483647, 0, 0, 1, 1, 2, 2], "right_children": [2, 4, 6, -1, -1, -1, -1], "split_conditions": [12.429723, 10.3123865, 13.681863, -0.080188856, 2.1479194, -4.1404014, 0.0005917104], "split_indices": [0, 0, 0, 0, 0, 0, 0], "split_type": [0, 0, 0, 0, 0, 0, 0], "sum_hessian": [700.0, 93.0, 607.0, 74.0, 19.0, 8.0, 599.0], "tree_param": {"num_deleted": "0", "num_feature": "2", "num_nodes": "7", "size_leaf_vector": "1"}}, {"base_weights": [-0.0044585704, 0.07707746, -0.24627754, 0.0035614434, 2.2736995, -2.0351522, 0.1326435], "categories": [], "categories_nodes": [], "categories_segments": [], "categories_sizes": [], "default_left": [0, 0, 0, 0, 0, 0, 0], "id": 34, "left_children": [1, 3, 5, -1, -1, -1, -1], "loss_changes": [13.840571, 84.77254, 120.24803, 0.0, 0.0, 0.0, 0.0], "parents": [2147483647, 0, 0, 1, 1, 2, 2], "right_children": [2, 4, 6, -1, -1, -1, -1], "split_conditions": [74.99605, 72.81888, 79.94104, 0.0035614434, 2.2736995, -2.0351522, 0.1326435], "split_indices": [0, 0, 0, 0, 0, 0, 0], "split_type": [0, 0, 0, 0, 0, 0, 0], "sum_hessian": [700.0, 524.0, 176.0, 508.0, 16.0, 30.0, 146.0], "tree_param": {"num_deleted": "0", "num_feature": "2", "num_nodes": "7", "size_leaf_vector": "1"}}, {"base_weights": [0.00053684926, 0.46579137, -0.035912488, 0.0624036, 5.1899967, -3.631724, -0.0024592632], "categories": [], "categories_nodes": [], "categories_segments": [], "categories_sizes": [], "default_left": [0, 0, 0, 0, 0, 0, 0], "id": 35, "left_children": [1, 3, 5, -1, -1, -1, -1], "loss_changes": [11.904438, 96.86614, 78.30082, 0.0, 0.0, 0.0, 0.0], "parents": [2147483647, 0, 0, 1, 1, 2, 2], "right_children": [2, 4, 6, -1, -1, -1, -1], "split_conditions": [7.4550643, 7.0568748, 8.023375, 0.0624036, 5.1899967, -3.631724, -0.0024592632], "split_indices": [0, 0, 0, 0, 0, 0, 0], "split_type": [0, 0, 0, 0, 0, 0, 0], "sum_hessian": [700.0, 50.0, 650.0, 47.0, 3.0, 5.0, 645.0], "tree_param": {"num_deleted": "0", "num_feature": "2", "num_nodes": "7", "size_leaf_vector": "1"}}, {"base_weights": [-0.0048327697, -0.23343688, 0.2825918, -0.104263924, -2.3952804, 1.3569866, 0.19610849], "categories": [], "categories_nodes": [], "categories_segments": [], "categories_sizes": [], "default_left": [0, 0, 0, 0, 0, 0, 0], "id": 36, "left_children": [1, 3, 5, -1, -1, -1, -1], "loss_changes": [46.12618, 108.93768, 28.631134, 0.0, 0.0, 0.0, 0.0], "parents": [2147483647, 0, 0, 1, 1, 2, 2], "right_children": [2, 4, 6, -1, -1, -1, -1], "split_conditions": [55.52008, 52.475643, 58.43143, -0.104263924, -2.3952804, 1.3569866, 0.19610849], "split_indices": [0, 0, 0, 0, 0, 0, 0], "split_type": [0, 0, 0, 0, 0, 0, 0], "sum_hessian": [700.0, 390.0, 310.0, 369.0, 21.0, 22.0, 288.0], "tree_param": {"num_deleted": "0", "num_feature": "2", "num_nodes": "7", "size_leaf_vector": "1"}}, {"base_weights": [-0.0013543101, -0.04804749, 0.81458324, -0.0006380991, -2.0992513, 3.4944458, 0.20290756], "categories": [], "categories_nodes": [], "categories_segments": [], "categories_sizes": [], "default_left": [0, 0, 0, 0, 0, 0, 0], "id": 37, "left_children": [1, 3, 5, -1, -1, -1, -1], "loss_changes": [26.74634, 64.57022, 61.580814, 0.0, 0.0, 0.0, 0.0], "parents": [2147483647, 0, 0, 1, 1, 2, 2], "right_children": [2, 4, 6, -1, -1, -1, -1], "split_conditions": [94.29097, 92.9376, 95.39286, -0.0006380991, -2.0992513, 3.4944458, 0.20290756], "split_indices": [0, 0, 0, 0, 0, 0, 0], "split_type": [0, 0, 0, 0, 0, 0, 0], "sum_hessian": [700.0, 663.0, 37.0, 649.0, 14.0, 6.0, 31.0], "tree_param": {"num_deleted": "0", "num_feature": "2", "num_nodes": "7", "size_leaf_vector": "1"}}, {"base_weights": [0.0020848655, 0.2355378, -0.094877616, -0.015137007, 5.7242126, -4.3368125, 0.010273098], "categories": [], "categories_nodes": [], "categories_segments": [], "categories_sizes": [], "default_left": [0, 0, 0, 0, 0, 0, 0], "id": 38, "left_children": [1, 3, 5, -1, -1, -1, -1], "loss_changes": [15.8903055, 283.51642, 221.2816, 0.0, 0.0, 0.0, 0.0], "parents": [2147483647, 0, 0, 1, 1, 2, 2], "right_children": [2, 4, 6, -1, -1, -1, -1], "split_conditions": [27.864647, 26.806364, 28.869373, -0.015137007, 5.7242126, -4.3368125, 0.010273098], "split_indices": [0, 0, 0, 0, 0, 0, 0], "split_type": [0, 0, 0, 0, 0, 0, 0], "sum_hessian": [700.0, 205.0, 495.0, 197.0, 8.0, 11.0, 484.0], "tree_param": {"num_deleted": "0", "num_feature": "2", "num_nodes": "7", "size_leaf_vector": "1"}}, {"base_weights": [0.001982255, 0.24969739, -0.07595431, -0.08683389, 8.002321, -1.3536888, 0.0027872117], "categories": [], "categories_nodes": [], "categories_segments": [], "categories_sizes": [], "default_left": [0, 0, 0, 0, 0, 0, 0], "id": 39, "left_children": [1, 3, 5, -1, -1, -1, -1], "loss_changes": [13.552518, 439.00693, 53.729916, 0.0, 0.0, 0.0, 0.0], "parents": [2147483647, 0, 0, 1, 1, 2, 2], "right_children": [2, 4, 6, -1, -1, -1, -1], "split_conditions": [22.460482, 20.990559, 26.806364, -0.08683389, 8.002321, -1.3536888, 0.0027872117], "split_indices": [0, 0, 0, 0, 0, 0, 0], "split_type": [0, 0, 0, 0, 0, 0, 0], "sum_hessian": [700.0, 167.0, 533.0, 161.0, 6.0, 30.0, 503.0], "tree_param": {"num_deleted": "0", "num_feature": "2", "num_nodes": "7", "size_leaf_vector": "1"}}, {"base_weights": [0.009354095, 0.33620355, -0.07872895, 0.08644232, 5.3904395, -5.9685345, 0.018678354], "categories": [], "categories_nodes": [], "categories_segments": [], "categories_sizes": [], "default_left": [0, 0, 0, 0, 0, 0, 0], "id": 40, "left_children": [1, 3, 5, -1, -1, -1, -1], "loss_changes": [20.208187, 187.62453, 317.37317, 0.0, 0.0, 0.0, 0.0], "parents": [2147483647, 0, 0, 1, 1, 2, 2], "right_children": [2, 4, 6, -1, -1, -1, -1], "split_conditions": [18.657005, 18.159771, 20.162731, 0.08644232, 5.3904395, -5.9685345, 0.018678354], "split_indices": [0, 0, 0, 0, 0, 0, 0], "split_type": [0, 0, 0, 0, 0, 0, 0], "sum_hessian": [700.0, 148.0, 552.0, 142.0, 6.0, 8.0, 544.0], "tree_param": {"num_deleted": "0", "num_feature": "2", "num_nodes": "7", "size_leaf_vector": "1"}}, {"base_weights": [0.00019942269, 0.17085701, -0.16192585, 0.08327376, 5.0616403, -4.5750647, -0.07420298], "categories": [], "categories_nodes": [], "categories_segments": [], "categories_sizes": [], "default_left": [0, 0, 0, 0, 0, 0, 0], "id": 41, "left_children": [1, 3, 5, -1, -1, -1, -1], "loss_changes": [19.422869, 146.07445, 139.02847, 0.0, 0.0, 0.0, 0.0], "parents": [2147483647, 0, 0, 1, 1, 2, 2], "right_children": [2, 4, 6, -1, -1, -1, -1], "split_conditions": [49.26181, 48.452297, 49.836777, 0.08327376, 5.0616403, -4.5750647, -0.07420298], "split_indices": [0, 0, 0, 0, 0, 0, 0], "split_type": [0, 0, 0, 0, 0, 0, 0], "sum_hessian": [700.0, 341.0, 359.0, 336.0, 5.0, 6.0, 353.0], "tree_param": {"num_deleted": "0", "num_feature": "2", "num_nodes": "7", "size_leaf_vector": "1"}}, {"base_weights": [0.0016221986, 0.3791824, -0.041530114, 0.048870143, 4.0044723, -5.716816, -0.005257906], "categories": [], "categories_nodes": [], "categories_segments": [], "categories_sizes": [], "default_left": [0, 0, 0, 0, 0, 0, 0], "id": 42, "left_children": [1, 3, 5, -1, -1, -1, -1], "loss_changes": [11.436856, 86.02269, 129.65868, 0.0, 0.0, 0.0, 0.0], "parents": [2147483647, 0, 0, 1, 1, 2, 2], "right_children": [2, 4, 6, -1, -1, -1, -1], "split_conditions": [9.9441395, 9.367476, 10.3123865, 0.048870143, 4.0044723, -5.716816, -0.005257906], "split_indices": [0, 0, 0, 0, 0, 0, 0], "split_type": [0, 0, 0, 0, 0, 0, 0], "sum_hessian": [700.0, 71.0, 629.0, 66.0, 5.0, 3.0, 626.0], "tree_param": {"num_deleted": "0", "num_feature": "2", "num_nodes": "7", "size_leaf_vector": "1"}}, {"base_weights": [0.0023082157, 0.034635656, -0.6746197, 0.00087910076, 1.2573242, -4.6424155, -0.2553528], "categories": [], "categories_nodes": [], "categories_segments": [], "categories_sizes": [], "default_left": [0, 0, 0, 0, 0, 0, 0], "id": 43, "left_children": [1, 3, 5, -1, -1, -1, -1], "loss_changes": [15.363591, 27.652311, 52.048637, 0.0, 0.0, 0.0, 0.0], "parents": [2147483647, 0, 0, 1, 1, 2, 2], "right_children": [2, 4, 6, -1, -1, -1, -1], "split_conditions": [95.39286, 93.07573, 95.48653, 0.00087910076, 1.2573242, -4.6424155, -0.2553528], "split_indices": [0, 0, 0, 0, 0, 0, 0], "split_type": [0, 0, 0, 0, 0, 0, 0], "sum_hessian": [700.0, 669.0, 31.0, 652.0, 17.0, 2.0, 29.0], "tree_param": {"num_deleted": "0", "num_feature": "2", "num_nodes": "7", "size_leaf_vector": "1"}}, {"base_weights": [0.0016383146, -0.09633233, 0.30351505, -0.036604784, -1.8965454, 2.290446, 0.07081653], "categories": [], "categories_nodes": [], "categories_segments": [], "categories_sizes": [], "default_left": [0, 0, 0, 0, 0, 0, 0], "id": 44, "left_children": [1, 3, 5, -1, -1, -1, -1], "loss_changes": [20.761353, 56.917397, 79.363014, 0.0, 0.0, 0.0, 0.0], "parents": [2147483647, 0, 0, 1, 1, 2, 2], "right_children": [2, 4, 6, -1, -1, -1, -1], "split_conditions": [75.513725, 73.5071, 79.157906, -0.036604784, -1.8965454, 2.290446, 0.07081653], "split_indices": [0, 0, 0, 0, 0, 0, 0], "split_type": [0, 0, 0, 0, 0, 0, 0], "sum_hessian": [700.0, 529.0, 171.0, 513.0, 16.0, 17.0, 154.0], "tree_param": {"num_deleted": "0", "num_feature": "2", "num_nodes": "7", "size_leaf_vector": "1"}}, {"base_weights": [0.0006154451, -0.061370466, 0.24080658, 0.00065481686, -2.8835754, 4.0163913, -0.01081893], "categories": [], "categories_nodes": [], "categories_segments": [], "categories_sizes": [], "default_left": [0, 0, 0, 0, 0, 0, 0], "id": 45, "left_children": [1, 3, 5, -1, -1, -1, -1], "loss_changes": [10.451593, 97.67871, 136.84825, 0.0, 0.0, 0.0, 0.0], "parents": [2147483647, 0, 0, 1, 1, 2, 2], "right_children": [2, 4, 6, -1, -1, -1, -1], "split_conditions": [80.34809, 79.157906, 81.01134, 0.00065481686, -2.8835754, 4.0163913, -0.01081893], "split_indices": [0, 0, 0, 0, 0, 0, 0], "split_type": [0, 0, 0, 0, 0, 0, 0], "sum_hessian": [700.0, 557.0, 143.0, 546.0, 11.0, 8.0, 135.0], "tree_param": {"num_deleted": "0", "num_feature": "2", "num_nodes": "7", "size_leaf_vector": "1"}}, {"base_weights": [0.00095111394, -0.08816363, 0.14353117, -0.039597966, -1.0866363, 1.3060833, 0.035135083], "categories": [], "categories_nodes": [], "categories_segments": [], "categories_sizes": [], "default_left": [0, 0, 0, 0, 0, 0, 0], "id": 46, "left_children": [1, 3, 5, -1, -1, -1, -1], "loss_changes": [8.91955, 20.905294, 33.97846, 0.0, 0.0, 0.0, 0.0], "parents": [2147483647, 0, 0, 1, 1, 2, 2], "right_children": [2, 4, 6, -1, -1, -1, -1], "split_conditions": [61.18529, 58.43143, 63.75575, -0.039597966, -1.0866363, 1.3060833, 0.035135083], "split_indices": [0, 0, 0, 0, 0, 0, 0], "split_type": [0, 0, 0, 0, 0, 0, 0], "sum_hessian": [700.0, 431.0, 269.0, 412.0, 19.0, 22.0, 247.0], "tree_param": {"num_deleted": "0", "num_feature": "2", "num_nodes": "7", "size_leaf_vector": "1"}}, {"base_weights": [-0.001635814, 0.5841729, -0.038912073, 0.2357466, 1.8355421, -0.41177428, 0.038044754], "categories": [], "categories_nodes": [], "categories_segments": [], "categories_sizes": [], "default_left": [0, 0, 0, 0, 0, 0, 0], "id": 47, "left_children": [1, 3, 5, -1, -1, -1, -1], "loss_changes": [15.330299, 17.879692, 18.9539, 0.0, 0.0, 0.0, 0.0], "parents": [2147483647, 0, 0, 1, 1, 2, 2], "right_children": [2, 4, 6, -1, -1, -1, -1], "split_conditions": [6.337497, 5.1478753, 19.598286, 0.2357466, 1.8355421, -0.41177428, 0.038044754], "split_indices": [0, 0, 0, 0, 0, 0, 0], "split_type": [0, 0, 0, 0, 0, 0, 0], "sum_hessian": [700.0, 41.0, 659.0, 33.0, 8.0, 112.0, 547.0], "tree_param": {"num_deleted": "0", "num_feature": "2", "num_nodes": "7", "size_leaf_vector": "1"}}, {"base_weights": [0.0004248517, 0.1585675, -0.08704437, 0.047734246, 3.999246, -4.0643682, -0.0062268917], "categories": [], "categories_nodes": [], "categories_segments": [], "categories_sizes": [], "default_left": [0, 0, 0, 0, 0, 0, 0], "id": 48, "left_children": [1, 3, 5, -1, -1, -1, -1], "loss_changes": [9.710465, 106.22782, 145.26434, 0.0, 0.0, 0.0, 0.0], "parents": [2147483647, 0, 0, 1, 1, 2, 2], "right_children": [2, 4, 6, -1, -1, -1, -1], "split_conditions": [34.566727, 33.660427, 36.019066, 0.047734246, 3.999246, -4.0643682, -0.0062268917], "split_indices": [0, 0, 0, 0, 0, 0, 0], "split_type": [0, 0, 0, 0, 0, 0, 0], "sum_hessian": [700.0, 249.0, 451.0, 243.0, 6.0, 8.0, 443.0], "tree_param": {"num_deleted": "0", "num_feature": "2", "num_nodes": "7", "size_leaf_vector": "1"}}, {"base_weights": [-0.00076987775, 0.14829743, -0.12636, 0.035375554, 5.208596, -4.0502067, -0.06340936], "categories": [], "categories_nodes": [], "categories_segments": [], "categories_sizes": [], "default_left": [0, 0, 0, 0, 0, 0, 0], "id": 49, "left_children": [1, 3, 5, -1, -1, -1, -1], "loss_changes": [13.1424265, 183.24106, 93.85348, 0.0, 0.0, 0.0, 0.0], "parents": [2147483647, 0, 0, 1, 1, 2, 2], "right_children": [2, 4, 6, -1, -1, -1, -1], "split_conditions": [45.24395, 44.076275, 46.077877, 0.035375554, 5.208596, -4.0502067, -0.06340936], "split_indices": [0, 0, 0, 0, 0, 0, 0], "split_type": [0, 0, 0, 0, 0, 0, 0], "sum_hessian": [700.0, 320.0, 380.0, 314.0, 6.0, 5.0, 375.0], "tree_param": {"num_deleted": "0", "num_feature": "2", "num_nodes": "7", "size_leaf_vector": "1"}}, {"base_weights": [-0.0049427836, -0.15046786, 0.14913198, -0.10002287, -3.118459, 2.67135, 0.07271236], "categories": [], "categories_nodes": [], "categories_segments": [], "categories_sizes": [], "default_left": [0, 0, 0, 0, 0, 0, 0], "id": 50, "left_children": [1, 3, 5, -1, -1, -1, -1], "loss_changes": [15.74008, 53.7371, 65.53247, 0.0, 0.0, 0.0, 0.0], "parents": [2147483647, 0, 0, 1, 1, 2, 2], "right_children": [2, 4, 6, -1, -1, -1, -1], "split_conditions": [51.832966, 51.07473, 52.475643, -0.10002287, -3.118459, 2.67135, 0.07271236], "split_indices": [0, 0, 0, 0, 0, 0, 0], "split_type": [0, 0, 0, 0, 0, 0, 0], "sum_hessian": [700.0, 360.0, 340.0, 355.0, 5.0, 9.0, 331.0], "tree_param": {"num_deleted": "0", "num_feature": "2", "num_nodes": "7", "size_leaf_vector": "1"}}, {"base_weights": [-0.0008610196, 0.11058848, -0.054467823, 0.037991136, 4.166542, -1.417832, 0.02139567], "categories": [], "categories_nodes": [], "categories_segments": [], "categories_sizes": [], "default_left": [0, 0, 0, 0, 0, 0, 0], "id": 51, "left_children": [1, 3, 5, -1, -1, -1, -1], "loss_changes": [4.194114, 66.97664, 49.055954, 0.0, 0.0, 0.0, 0.0], "parents": [2147483647, 0, 0, 1, 1, 2, 2], "right_children": [2, 4, 6, -1, -1, -1, -1], "split_conditions": [31.435598, 30.461376, 34.920956, 0.037991136, 4.166542, -1.417832, 0.02139567], "split_indices": [0, 0, 0, 0, 0, 0, 0], "split_type": [0, 0, 0, 0, 0, 0, 0], "sum_hessian": [700.0, 227.0, 473.0, 224.0, 3.0, 24.0, 449.0], "tree_param": {"num_deleted": "0", "num_feature": "2", "num_nodes": "7", "size_leaf_vector": "1"}}, {"base_weights": [0.0028934178, 0.13640887, -0.096173614, 0.06897013, 2.9397147, -1.9770705, -0.028407639], "categories": [], "categories_nodes": [], "categories_segments": [], "categories_sizes": [], "default_left": [0, 0, 0, 0, 0, 0, 0], "id": 52, "left_children": [1, 3, 5, -1, -1, -1, -1], "loss_changes": [9.285231, 56.323616, 51.310535, 0.0, 0.0, 0.0, 0.0], "parents": [2147483647, 0, 0, 1, 1, 2, 2], "right_children": [2, 4, 6, -1, -1, -1, -1], "split_conditions": [41.824303, 40.895294, 43.61265, 0.06897013, 2.9397147, -1.9770705, -0.028407639], "split_indices": [0, 0, 0, 0, 0, 0, 0], "split_type": [0, 0, 0, 0, 0, 0, 0], "sum_hessian": [700.0, 298.0, 402.0, 292.0, 6.0, 13.0, 389.0], "tree_param": {"num_deleted": "0", "num_feature": "2", "num_nodes": "7", "size_leaf_vector": "1"}}, {"base_weights": [0.0014233501, 0.046161402, -0.22227909, 0.02705414, 2.8147278, -1.313094, -0.06126448], "categories": [], "categories_nodes": [], "categories_segments": [], "categories_sizes": [], "default_left": [0, 0, 0, 0, 0, 0, 0], "id": 53, "left_children": [1, 3, 5, -1, -1, -1, -1], "loss_changes": [7.025877, 30.870186, 20.469099, 0.0, 0.0, 0.0, 0.0], "parents": [2147483647, 0, 0, 1, 1, 2, 2], "right_children": [2, 4, 6, -1, -1, -1, -1], "split_conditions": [83.83287, 82.97418, 86.846794, 0.02705414, 2.8147278, -1.313094, -0.06126448], "split_indices": [0, 0, 0, 0, 0, 0, 0], "split_type": [0, 0, 0, 0, 0, 0, 0], "sum_hessian": [700.0, 584.0, 116.0, 581.0, 3.0, 14.0, 102.0], "tree_param": {"num_deleted": "0", "num_feature": "2", "num_nodes": "7", "size_leaf_vector": "1"}}, {"base_weights": [-0.0003445417, 0.24245359, -0.046924923, 0.08794212, 2.9832509, -2.429531, -0.030581322], "categories": [], "categories_nodes": [], "categories_segments": [], "categories_sizes": [], "default_left": [0, 0, 0, 0, 0, 0, 0], "id": 54, "left_children": [1, 3, 5, -1, -1, -1, -1], "loss_changes": [7.9394264, 47.591404, 22.861574, 0.0, 0.0, 0.0, 0.0], "parents": [2147483647, 0, 0, 1, 1, 2, 2], "right_children": [2, 4, 6, -1, -1, -1, -1], "split_conditions": [14.866273, 14.008402, 15.253904, 0.08794212, 2.9832509, -2.429531, -0.030581322], "split_indices": [0, 0, 0, 0, 0, 0, 0], "split_type": [0, 0, 0, 0, 0, 0, 0], "sum_hessian": [700.0, 112.0, 588.0, 107.0, 5.0, 3.0, 585.0], "tree_param": {"num_deleted": "0", "num_feature": "2", "num_nodes": "7", "size_leaf_vector": "1"}}, {"base_weights": [-0.00016218178, -0.047087986, 0.6251993, -0.031122642, -2.6296844, 1.9948643, 0.38769105], "categories": [], "categories_nodes": [], "categories_segments": [], "categories_sizes": [], "default_left": [0, 0, 0, 0, 0, 0, 0], "id": 55, "left_children": [1, 3, 5, -1, -1, -1, -1], "loss_changes": [20.600698, 26.84268, 15.166639, 0.0, 0.0, 0.0, 0.0], "parents": [2147483647, 0, 0, 1, 1, 2, 2], "right_children": [2, 4, 6, -1, -1, -1, -1], "split_conditions": [93.07573, 92.9376, 93.9499, -0.031122642, -2.6296844, 1.9948643, 0.38769105], "split_indices": [0, 0, 0, 0, 0, 0, 0], "split_type": [0, 0, 0, 0, 0, 0, 0], "sum_hessian": [700.0, 652.0, 48.0, 649.0, 3.0, 6.0, 42.0], "tree_param": {"num_deleted": "0", "num_feature": "2", "num_nodes": "7", "size_leaf_vector": "1"}}, {"base_weights": [0.0009565149, -0.057968423, 0.1317763, -0.030233117, -3.3786469, 1.2724429, 0.035127245], "categories": [], "categories_nodes": [], "categories_segments": [], "categories_sizes": [], "default_left": [0, 0, 0, 0, 0, 0, 0], "id": 56, "left_children": [1, 3, 5, -1, -1, -1, -1], "loss_changes": [5.411331, 44.47427, 23.988573, 0.0, 0.0, 0.0, 0.0], "parents": [2147483647, 0, 0, 1, 1, 2, 2], "right_children": [2, 4, 6, -1, -1, -1, -1], "split_conditions": [68.4233, 67.91023, 71.32448, -0.030233117, -3.3786469, 1.2724429, 0.035127245], "split_indices": [0, 0, 0, 0, 0, 0, 0], "split_type": [0, 0, 0, 0, 0, 0, 0], "sum_hessian": [700.0, 483.0, 217.0, 480.0, 3.0, 16.0, 201.0], "tree_param": {"num_deleted": "0", "num_feature": "2", "num_nodes": "7", "size_leaf_vector": "1"}}, {"base_weights": [-0.003009886, -1.0628214, 0.0030678445, 0.67378616, -0.008652225], "categories": [], "categories_nodes": [], "categories_segments": [], "categories_sizes": [], "default_left": [0, 0, 0, 0, 0], "id": 57, "left_children": [1, -1, 3, -1, -1], "loss_changes": [4.518576, 0.0, 5.4927135, 0.0, 0.0], "parents": [2147483647, 0, 0, 2, 2], "right_children": [2, -1, 4, -1, -1], "split_conditions": [1.0837651, -1.0628214, 2.5386355, 0.67378616, -0.008652225], "split_indices": [0, 0, 0, 0, 0], "split_type": [0, 0, 0, 0, 0], "sum_hessian": [700.0, 3.0, 697.0, 11.0, 686.0], "tree_param": {"num_deleted": "0", "num_feature": "2", "num_nodes": "5", "size_leaf_vector": "1"}}, {"base_weights": [-0.0003320147, 0.08461496, -0.07742973, 0.042720295, 2.3677368, -2.9136353, -0.046135888], "categories": [], "categories_nodes": [], "categories_segments": [], "categories_sizes": [], "default_left": [0, 0, 0, 0, 0, 0, 0], "id": 58, "left_children": [1, 3, 5, -1, -1, -1, -1], "loss_changes": [4.5975537, 31.84616, 32.527695, 0.0, 0.0, 0.0, 0.0], "parents": [2147483647, 0, 0, 1, 1, 2, 2], "right_children": [2, 4, 6, -1, -1, -1, -1], "split_conditions": [47.41738, 46.869316, 48.452297, 0.042720295, 2.3677368, -2.9136353, -0.046135888], "split_indices": [0, 0, 0, 0, 0, 0, 0], "split_type": [0, 0, 0, 0, 0, 0, 0], "sum_hessian": [700.0, 333.0, 367.0, 328.0, 5.0, 3.0, 364.0], "tree_param": {"num_deleted": "0", "num_feature": "2", "num_nodes": "7", "size_leaf_vector": "1"}}, {"base_weights": [0.0005015701, 0.055278987, -0.06526724, 0.013346456, 1.7963257, -3.0238342, -0.027610488], "categories": [], "categories_nodes": [], "categories_segments": [], "categories_sizes": [], "default_left": [0, 0, 0, 0, 0, 0, 0], "id": 59, "left_children": [1, 3, 5, -1, -1, -1, -1], "loss_changes": [2.5290627, 27.937511, 35.456314, 0.0, 0.0, 0.0, 0.0], "parents": [2147483647, 0, 0, 1, 1, 2, 2], "right_children": [2, 4, 6, -1, -1, -1, -1], "split_conditions": [54.264465, 53.21135, 54.67103, 0.013346456, 1.7963257, -3.0238342, -0.027610488], "split_indices": [0, 0, 0, 0, 0, 0, 0], "split_type": [0, 0, 0, 0, 0, 0, 0], "sum_hessian": [700.0, 382.0, 318.0, 374.0, 8.0, 3.0, 315.0], "tree_param": {"num_deleted": "0", "num_feature": "2", "num_nodes": "7", "size_leaf_vector": "1"}}, {"base_weights": [-0.0023460523, -0.15024033, 0.08518854, -0.109652065, -0.98330945, 2.0233052, 0.04470762], "categories": [], "categories_nodes": [], "categories_segments": [], "categories_sizes": [], "default_left": [0, 0, 0, 0, 0, 0, 0], "id": 60, "left_children": [1, 3, 5, -1, -1, -1, -1], "loss_changes": [9.087851, 8.717329, 34.508972, 0.0, 0.0, 0.0, 0.0], "parents": [2147483647, 0, 0, 1, 1, 2, 2], "right_children": [2, 4, 6, -1, -1, -1, -1], "split_conditions": [36.426987, 34.566727, 37.330933, -0.109652065, -0.98330945, 2.0233052, 0.04470762], "split_indices": [0, 0, 0, 0, 0, 0, 0], "split_type": [0, 0, 0, 0, 0, 0, 0], "sum_hessian": [700.0, 260.0, 440.0, 249.0, 11.0, 8.0, 432.0], "tree_param": {"num_deleted": "0", "num_feature": "2", "num_nodes": "7", "size_leaf_vector": "1"}}, {"base_weights": [-0.00021765269, -0.06990813, 0.094815545, -0.030453306, -2.6885784, 2.3603582, 0.023934228], "categories": [], "categories_nodes": [], "categories_segments": [], "categories_sizes": [], "default_left": [0, 0, 0, 0, 0, 0, 0], "id": 61, "left_children": [1, 3, 5, -1, -1, -1, -1], "loss_changes": [4.649287, 41.762383, 47.637154, 0.0, 0.0, 0.0, 0.0], "parents": [2147483647, 0, 0, 1, 1, 2, 2], "right_children": [2, 4, 6, -1, -1, -1, -1], "split_conditions": [57.651646, 57.00612, 58.43143, -0.030453306, -2.6885784, 2.3603582, 0.023934228], "split_indices": [0, 0, 0, 0, 0, 0, 0], "split_type": [0, 0, 0, 0, 0, 0, 0], "sum_hessian": [700.0, 404.0, 296.0, 399.0, 5.0, 8.0, 288.0], "tree_param": {"num_deleted": "0", "num_feature": "2", "num_nodes": "7", "size_leaf_vector": "1"}}, {"base_weights": [0.00030373098, 0.11146415, -0.041545495, 0.012811215, 2.1159837, -2.6640146, -0.005039881], "categories": [], "categories_nodes": [], "categories_segments": [], "categories_sizes": [], "default_left": [0, 0, 0, 0, 0, 0, 0], "id": 62, "left_children": [1, 3, 5, -1, -1, -1, -1], "loss_changes": [3.265667, 37.94123, 48.81134, 0.0, 0.0, 0.0, 0.0], "parents": [2147483647, 0, 0, 1, 1, 2, 2], "right_children": [2, 4, 6, -1, -1, -1, -1], "split_conditions": [25.243694, 24.53491, 26.806364, 0.012811215, 2.1159837, -2.6640146, -0.005039881], "split_indices": [0, 0, 0, 0, 0, 0, 0], "split_type": [0, 0, 0, 0, 0, 0, 0], "sum_hessian": [700.0, 191.0, 509.0, 183.0, 8.0, 6.0, 503.0], "tree_param": {"num_deleted": "0", "num_feature": "2", "num_nodes": "7", "size_leaf_vector": "1"}}, {"base_weights": [-0.00214186, -0.043676376, 0.102853134, -0.015213703, -3.5905914, 2.0939739, -0.024786767], "categories": [], "categories_nodes": [], "categories_segments": [], "categories_sizes": [], "default_left": [0, 0, 0, 0, 0, 0, 0], "id": 63, "left_children": [1, 3, 5, -1, -1, -1, -1], "loss_changes": [3.0614946, 50.725574, 50.627045, 0.0, 0.0, 0.0, 0.0], "parents": [2147483647, 0, 0, 1, 1, 2, 2], "right_children": [2, 4, 6, -1, -1, -1, -1], "split_conditions": [71.90459, 71.32448, 73.5071, -0.015213703, -3.5905914, 2.0939739, -0.024786767], "split_indices": [0, 0, 0, 0, 0, 0, 0], "split_type": [0, 0, 0, 0, 0, 0, 0], "sum_hessian": [700.0, 502.0, 198.0, 499.0, 3.0, 11.0, 187.0], "tree_param": {"num_deleted": "0", "num_feature": "2", "num_nodes": "7", "size_leaf_vector": "1"}}, {"base_weights": [-0.000590255, 0.015203572, -0.2426261, -0.028211772, 0.1225194, -1.6366678, -0.016129343], "categories": [], "categories_nodes": [], "categories_segments": [], "categories_sizes": [], "default_left": [0, 0, 0, 0, 0, 0, 0], "id": 64, "left_children": [1, 3, 5, -1, -1, -1, -1], "loss_changes": [2.683382, 3.0738387, 13.550676, 0.0, 0.0, 0.0, 0.0], "parents": [2147483647, 0, 0, 1, 1, 2, 2], "right_children": [2, 4, 6, -1, -1, -1, -1], "split_conditions": [93.9499, 66.350174, 94.29097, -0.028211772, 0.1225194, -1.6366678, -0.016129343], "split_indices": [0, 0, 0, 0, 0, 0, 0], "split_type": [0, 0, 0, 0, 0, 0, 0], "sum_hessian": [700.0, 658.0, 42.0, 469.0, 189.0, 5.0, 37.0], "tree_param": {"num_deleted": "0", "num_feature": "2", "num_nodes": "7", "size_leaf_vector": "1"}}, {"base_weights": [-0.00024524258, -0.08748814, 0.05560709, -0.041828744, -2.1199696, 0.6979693, 0.00017437512], "categories": [], "categories_nodes": [], "categories_segments": [], "categories_sizes": [], "default_left": [0, 0, 0, 0, 0, 0, 0], "id": 65, "left_children": [1, 3, 5, -1, -1, -1, -1], "loss_changes": [3.4206414, 25.339039, 15.240052, 0.0, 0.0, 0.0, 0.0], "parents": [2147483647, 0, 0, 1, 1, 2, 2], "right_children": [2, 4, 6, -1, -1, -1, -1], "split_conditions": [37.625957, 37.330933, 42.899403, -0.041828744, -2.1199696, 0.6979693, 0.00017437512], "split_indices": [0, 0, 0, 0, 0, 0, 0], "split_type": [0, 0, 0, 0, 0, 0, 0], "sum_hessian": [700.0, 273.0, 427.0, 268.0, 5.0, 33.0, 394.0], "tree_param": {"num_deleted": "0", "num_feature": "2", "num_nodes": "7", "size_leaf_vector": "1"}}, {"base_weights": [-0.0053840126, -0.14987226, 0.015602672, -0.081030644, -1.5924988, 0.94384, 0.0064167725], "categories": [], "categories_nodes": [], "categories_segments": [], "categories_sizes": [], "default_left": [0, 0, 0, 0, 0, 0, 0], "id": 66, "left_children": [1, 3, 5, -1, -1, -1, -1], "loss_changes": [2.128001, 8.709793, 5.220807, 0.0, 0.0, 0.0, 0.0], "parents": [2147483647, 0, 0, 1, 1, 2, 2], "right_children": [2, 4, 6, -1, -1, -1, -1], "split_conditions": [11.7526245, 11.483683, 12.429723, -0.081030644, -1.5924988, 0.94384, 0.0064167725], "split_indices": [0, 0, 0, 0, 0, 0, 0], "split_type": [0, 0, 0, 0, 0, 0, 0], "sum_hessian": [700.0, 88.0, 612.0, 85.0, 3.0, 5.0, 607.0], "tree_param": {"num_deleted": "0", "num_feature": "2", "num_nodes": "7", "size_leaf_vector": "1"}}, {"base_weights": [4.7852413e-05, -0.05950783, 0.10380483, -0.03243634, -1.3703749, 1.7214898, 0.04467995], "categories": [], "categories_nodes": [], "categories_segments": [], "categories_sizes": [], "default_left": [0, 0, 0, 0, 0, 0, 0], "id": 67, "left_children": [1, 3, 5, -1, -1, -1, -1], "loss_changes": [4.3378787, 15.782806, 24.408314, 0.0, 0.0, 0.0, 0.0], "parents": [2147483647, 0, 0, 1, 1, 2, 2], "right_children": [2, 4, 6, -1, -1, -1, -1], "split_conditions": [63.18372, 62.20867, 63.75575, -0.03243634, -1.3703749, 1.7214898, 0.04467995], "split_indices": [0, 0, 0, 0, 0, 0, 0], "split_type": [0, 0, 0, 0, 0, 0, 0], "sum_hessian": [700.0, 445.0, 255.0, 437.0, 8.0, 8.0, 247.0], "tree_param": {"num_deleted": "0", "num_feature": "2", "num_nodes": "7", "size_leaf_vector": "1"}}, {"base_weights": [-0.0008077717, -0.038899705, 0.07636471, -0.013352353, -1.3460083, 1.0898081, 0.020990571], "categories": [], "categories_nodes": [], "categories_segments": [], "categories_sizes": [], "default_left": [0, 0, 0, 0, 0, 0, 0], "id": 68, "left_children": [1, 3, 5, -1, -1, -1, -1], "loss_changes": [2.063665, 15.676814, 12.996632, 0.0, 0.0, 0.0, 0.0], "parents": [2147483647, 0, 0, 1, 1, 2, 2], "right_children": [2, 4, 6, -1, -1, -1, -1], "split_conditions": [66.350174, 65.19613, 67.91023, -0.013352353, -1.3460083, 1.0898081, 0.020990571], "split_indices": [0, 0, 0, 0, 0, 0, 0], "split_type": [0, 0, 0, 0, 0, 0, 0], "sum_hessian": [700.0, 469.0, 231.0, 461.0, 8.0, 11.0, 220.0], "tree_param": {"num_deleted": "0", "num_feature": "2", "num_nodes": "7", "size_leaf_vector": "1"}}, {"base_weights": [0.0016536332, 0.09649914, -0.02031349, 0.009085483, 1.9306717, -1.746327, 0.0011446797], "categories": [], "categories_nodes": [], "categories_segments": [], "categories_sizes": [], "default_left": [0, 0, 0, 0, 0, 0, 0], "id": 69, "left_children": [1, 3, 5, -1, -1, -1, -1], "loss_changes": [1.4624819, 21.146248, 21.113142, 0.0, 0.0, 0.0, 0.0], "parents": [2147483647, 0, 0, 1, 1, 2, 2], "right_children": [2, 4, 6, -1, -1, -1, -1], "split_conditions": [17.167929, 16.365595, 17.638699, 0.009085483, 1.9306717, -1.746327, 0.0011446797], "split_indices": [0, 0, 0, 0, 0, 0, 0], "split_type": [0, 0, 0, 0, 0, 0, 0], "sum_hessian": [700.0, 131.0, 569.0, 126.0, 5.0, 6.0, 563.0], "tree_param": {"num_deleted": "0", "num_feature": "2", "num_nodes": "7", "size_leaf_vector": "1"}}, {"base_weights": [0.0011707257, 0.022326337, -0.12922886, 0.011491524, 1.1002808, -2.6943665, -0.019862767], "categories": [], "categories_nodes": [], "categories_segments": [], "categories_sizes": [], "default_left": [0, 0, 0, 0, 0, 0, 0], "id": 70, "left_children": [1, 3, 5, -1, -1, -1, -1], "loss_changes": [1.936722, 7.0417347, 27.439312, 0.0, 0.0, 0.0, 0.0], "parents": [2147483647, 0, 0, 1, 1, 2, 2], "right_children": [2, 4, 6, -1, -1, -1, -1], "split_conditions": [87.357864, 86.846794, 87.737305, 0.011491524, 1.1002808, -2.6943665, -0.019862767], "split_indices": [0, 0, 0, 0, 0, 0, 0], "split_type": [0, 0, 0, 0, 0, 0, 0], "sum_hessian": [700.0, 603.0, 97.0, 598.0, 5.0, 3.0, 94.0], "tree_param": {"num_deleted": "0", "num_feature": "2", "num_nodes": "7", "size_leaf_vector": "1"}}, {"base_weights": [-0.000810966, 0.035265855, -0.38681945, 0.024217697, 0.6132762, -1.5218964, -0.30037862], "categories": [], "categories_nodes": [], "categories_segments": [], "categories_sizes": [], "default_left": [0, 0, 0, 0, 0, 0, 0], "id": 71, "left_children": [1, 3, 5, -1, -1, -1, -1], "loss_changes": [9.77574, 4.0849285, 5.4298735, 0.0, 0.0, 0.0, 0.0], "parents": [2147483647, 0, 0, 1, 1, 2, 2], "right_children": [2, 4, 6, -1, -1, -1, -1], "split_conditions": [91.73135, 90.63544, 92.08724, 0.024217697, 0.6132762, -1.5218964, -0.30037862], "split_indices": [0, 0, 0, 0, 0, 0, 0], "split_type": [0, 0, 0, 0, 0, 0, 0], "sum_hessian": [700.0, 641.0, 59.0, 630.0, 11.0, 3.0, 56.0], "tree_param": {"num_deleted": "0", "num_feature": "2", "num_nodes": "7", "size_leaf_vector": "1"}}, {"base_weights": [0.0012928096, -0.10538807, 0.07682284, -0.058167, -3.4789581, 1.4276395, 0.046465095], "categories": [], "categories_nodes": [], "categories_segments": [], "categories_sizes": [], "default_left": [0, 0, 0, 0, 0, 0, 0], "id": 72, "left_children": [1, 3, 5, -1, -1, -1, -1], "loss_changes": [5.6564813, 46.154984, 16.78785, 0.0, 0.0, 0.0, 0.0], "parents": [2147483647, 0, 0, 1, 1, 2, 2], "right_children": [2, 4, 6, -1, -1, -1, -1], "split_conditions": [40.348286, 39.72873, 41.824303, -0.058167, -3.4789581, 1.4276395, 0.046465095], "split_indices": [0, 0, 0, 0, 0, 0, 0], "split_type": [0, 0, 0, 0, 0, 0, 0], "sum_hessian": [700.0, 290.0, 410.0, 287.0, 3.0, 8.0, 402.0], "tree_param": {"num_deleted": "0", "num_feature": "2", "num_nodes": "7", "size_leaf_vector": "1"}}, {"base_weights": [0.0009707942, 0.035976417, -0.10286493, 0.021587871, 1.2769877, -1.1538035, -0.026273796], "categories": [], "categories_nodes": [], "categories_segments": [], "categories_sizes": [], "default_left": [0, 0, 0, 0, 0, 0, 0], "id": 73, "left_children": [1, 3, 5, -1, -1, -1, -1], "loss_changes": [2.5517194, 9.347015, 14.216871, 0.0, 0.0, 0.0, 0.0], "parents": [2147483647, 0, 0, 1, 1, 2, 2], "right_children": [2, 4, 6, -1, -1, -1, -1], "split_conditions": [74.99605, 74.543945, 76.949295, 0.021587871, 1.2769877, -1.1538035, -0.026273796], "split_indices": [0, 0, 0, 0, 0, 0, 0], "split_type": [0, 0, 0, 0, 0, 0, 0], "sum_hessian": [700.0, 524.0, 176.0, 519.0, 5.0, 11.0, 165.0], "tree_param": {"num_deleted": "0", "num_feature": "2", "num_nodes": "7", "size_leaf_vector": "1"}}, {"base_weights": [0.000158982, -0.068504825, 0.035602808, -0.029080993, -0.81184894, 1.0398636, 0.0088622505], "categories": [], "categories_nodes": [], "categories_segments": [], "categories_sizes": [], "default_left": [0, 0, 0, 0, 0, 0, 0], "id": 74, "left_children": [1, 3, 5, -1, -1, -1, -1], "loss_changes": [1.7084683, 6.980399, 12.424415, 0.0, 0.0, 0.0, 0.0], "parents": [2147483647, 0, 0, 1, 1, 2, 2], "right_children": [2, 4, 6, -1, -1, -1, -1], "split_conditions": [32.518333, 31.435598, 34.566727, -0.029080993, -0.81184894, 1.0398636, 0.0088622505], "split_indices": [0, 0, 0, 0, 0, 0, 0], "split_type": [0, 0, 0, 0, 0, 0, 0], "sum_hessian": [700.0, 238.0, 462.0, 227.0, 11.0, 11.0, 451.0], "tree_param": {"num_deleted": "0", "num_feature": "2", "num_nodes": "7", "size_leaf_vector": "1"}}, {"base_weights": [0.00044346537, 0.047194194, -0.08514232, 0.032576226, 1.1332397, -1.0310495, -0.05742954], "categories": [], "categories_nodes": [], "categories_segments": [], "categories_sizes": [], "default_left": [0, 0, 0, 0, 0, 0, 0], "id": 75, "left_children": [1, 3, 5, -1, -1, -1, -1], "loss_changes": [2.8088582, 7.1706877, 6.441788, 0.0, 0.0, 0.0, 0.0], "parents": [2147483647, 0, 0, 1, 1, 2, 2], "right_children": [2, 4, 6, -1, -1, -1, -1], "split_conditions": [63.75575, 63.310146, 64.59172, 0.032576226, 1.1332397, -1.0310495, -0.05742954], "split_indices": [0, 0, 0, 0, 0, 0, 0], "split_type": [0, 0, 0, 0, 0, 0, 0], "sum_hessian": [700.0, 453.0, 247.0, 448.0, 5.0, 6.0, 241.0], "tree_param": {"num_deleted": "0", "num_feature": "2", "num_nodes": "7", "size_leaf_vector": "1"}}, {"base_weights": [-0.0025883538, 0.12673597, -0.04326981, 0.056690853, 2.9844131, -1.2067413, -0.02999174], "categories": [], "categories_nodes": [], "categories_segments": [], "categories_sizes": [], "default_left": [0, 0, 0, 0, 0, 0, 0], "id": 76, "left_children": [1, 3, 5, -1, -1, -1, -1], "loss_changes": [3.6935165, 33.458755, 8.213389, 0.0, 0.0, 0.0, 0.0], "parents": [2147483647, 0, 0, 1, 1, 2, 2], "right_children": [2, 4, 6, -1, -1, -1, -1], "split_conditions": [22.460482, 21.296415, 23.10748, 0.056690853, 2.9844131, -1.2067413, -0.02999174], "split_indices": [0, 0, 0, 0, 0, 0, 0], "split_type": [0, 0, 0, 0, 0, 0, 0], "sum_hessian": [700.0, 167.0, 533.0, 164.0, 3.0, 5.0, 528.0], "tree_param": {"num_deleted": "0", "num_feature": "2", "num_nodes": "7", "size_leaf_vector": "1"}}, {"base_weights": [0.0014059037, 0.053655893, -0.04823549, 0.03109018, 1.3121542, -2.504547, -0.020578679], "categories": [], "categories_nodes": [], "categories_segments": [], "categories_sizes": [], "default_left": [0, 0, 0, 0, 0, 0, 0], "id": 77, "left_children": [1, 3, 5, -1, -1, -1, -1], "loss_changes": [1.8208154, 9.671632, 24.404608, 0.0, 0.0, 0.0, 0.0], "parents": [2147483647, 0, 0, 1, 1, 2, 2], "right_children": [2, 4, 6, -1, -1, -1, -1], "split_conditions": [49.26181, 48.452297, 49.44203, 0.03109018, 1.3121542, -2.504547, -0.020578679], "split_indices": [0, 0, 0, 0, 0, 0, 0], "split_type": [0, 0, 0, 0, 0, 0, 0], "sum_hessian": [700.0, 341.0, 359.0, 336.0, 5.0, 3.0, 356.0], "tree_param": {"num_deleted": "0", "num_feature": "2", "num_nodes": "7", "size_leaf_vector": "1"}}, {"base_weights": [0.002391731, 0.051594816, -0.20239751, 0.038974132, 0.6310018, -2.0366821, -0.14570928], "categories": [], "categories_nodes": [], "categories_segments": [], "categories_sizes": [], "default_left": [0, 0, 0, 0, 0, 0, 0], "id": 78, "left_children": [1, 3, 5, -1, -1, -1, -1], "loss_changes": [7.0739026, 4.114289, 13.844839, 0.0, 0.0, 0.0, 0.0], "parents": [2147483647, 0, 0, 1, 1, 2, 2], "right_children": [2, 4, 6, -1, -1, -1, -1], "split_conditions": [81.01134, 79.94104, 81.2901, 0.038974132, 0.6310018, -2.0366821, -0.14570928], "split_indices": [0, 0, 0, 0, 0, 0, 0], "split_type": [0, 0, 0, 0, 0, 0, 0], "sum_hessian": [700.0, 565.0, 135.0, 554.0, 11.0, 3.0, 132.0], "tree_param": {"num_deleted": "0", "num_feature": "2", "num_nodes": "7", "size_leaf_vector": "1"}}, {"base_weights": [-0.0003174035, 0.107610226, -0.02939679, 0.058737062, 1.8645782, -2.4607086, -0.016105805], "categories": [], "categories_nodes": [], "categories_segments": [], "categories_sizes": [], "default_left": [0, 0, 0, 0, 0, 0, 0], "id": 79, "left_children": [1, 3, 5, -1, -1, -1, -1], "loss_changes": [2.2032304, 12.6849, 17.830301, 0.0, 0.0, 0.0, 0.0], "parents": [2147483647, 0, 0, 1, 1, 2, 2], "right_children": [2, 4, 6, -1, -1, -1, -1], "split_conditions": [18.657005, 18.34045, 19.228903, 0.058737062, 1.8645782, -2.4607086, -0.016105805], "split_indices": [0, 0, 0, 0, 0, 0, 0], "split_type": [0, 0, 0, 0, 0, 0, 0], "sum_hessian": [700.0, 148.0, 552.0, 145.0, 3.0, 2.0, 550.0], "tree_param": {"num_deleted": "0", "num_feature": "2", "num_nodes": "7", "size_leaf_vector": "1"}}, {"base_weights": [7.040593e-05, 0.026874661, -0.07321394, 0.0034591735, 2.0088093, -1.2938995, -0.04642499], "categories": [], "categories_nodes": [], "categories_segments": [], "categories_sizes": [], "default_left": [0, 0, 0, 0, 0, 0, 0], "id": 80, "left_children": [1, 3, 5, -1, -1, -1, -1], "loss_changes": [1.3789645, 23.846746, 6.0876975, 0.0, 0.0, 0.0, 0.0], "parents": [2147483647, 0, 0, 1, 1, 2, 2], "right_children": [2, 4, 6, -1, -1, -1, -1], "split_conditions": [73.5071, 72.81888, 73.78969, 0.0034591735, 2.0088093, -1.2938995, -0.04642499], "split_indices": [0, 0, 0, 0, 0, 0, 0], "split_type": [0, 0, 0, 0, 0, 0, 0], "sum_hessian": [700.0, 513.0, 187.0, 508.0, 5.0, 3.0, 184.0], "tree_param": {"num_deleted": "0", "num_feature": "2", "num_nodes": "7", "size_leaf_vector": "1"}}, {"base_weights": [0.0020476843, -0.07390737, 0.06386627, -0.045162927, -1.0462003, 1.761431, 0.032509793], "categories": [], "categories_nodes": [], "categories_segments": [], "categories_sizes": [], "default_left": [0, 0, 0, 0, 0, 0, 0], "id": 81, "left_children": [1, 3, 5, -1, -1, -1, -1], "loss_changes": [3.2962196, 8.756374, 20.542614, 0.0, 0.0, 0.0, 0.0], "parents": [2147483647, 0, 0, 1, 1, 2, 2], "right_children": [2, 4, 6, -1, -1, -1, -1], "split_conditions": [44.076275, 42.899403, 45.24395, -0.045162927, -1.0462003, 1.761431, 0.032509793], "split_indices": [0, 0, 0, 0, 0, 0, 0], "split_type": [0, 0, 0, 0, 0, 0, 0], "sum_hessian": [700.0, 314.0, 386.0, 306.0, 8.0, 6.0, 380.0], "tree_param": {"num_deleted": "0", "num_feature": "2", "num_nodes": "7", "size_leaf_vector": "1"}}, {"base_weights": [0.0020623798, -0.046962507, 0.06586834, -0.0198253, -0.73673505, 2.8725128, 0.028476134], "categories": [], "categories_nodes": [], "categories_segments": [], "categories_sizes": [], "default_left": [0, 0, 0, 0, 0, 0, 0], "id": 82, "left_children": [1, 3, 5, -1, -1, -1, -1], "loss_changes": [2.1958773, 7.4166384, 31.926922, 0.0, 0.0, 0.0, 0.0], "parents": [2147483647, 0, 0, 1, 1, 2, 2], "right_children": [2, 4, 6, -1, -1, -1, -1], "split_conditions": [56.48411, 54.264465, 57.00612, -0.0198253, -0.73673505, 2.8725128, 0.028476134], "split_indices": [0, 0, 0, 0, 0, 0, 0], "split_type": [0, 0, 0, 0, 0, 0, 0], "sum_hessian": [700.0, 396.0, 304.0, 382.0, 14.0, 3.0, 301.0], "tree_param": {"num_deleted": "0", "num_feature": "2", "num_nodes": "7", "size_leaf_vector": "1"}}, {"base_weights": [0.00305782, -0.05338348, 0.027802452, -0.016070727, -0.90149945, 1.0263299, 0.009022141], "categories": [], "categories_nodes": [], "categories_segments": [], "categories_sizes": [], "default_left": [0, 0, 0, 0, 0, 0, 0], "id": 83, "left_children": [1, 3, 5, -1, -1, -1, -1], "loss_changes": [0.9805142, 6.7576575, 9.1420355, 0.0, 0.0, 0.0, 0.0], "parents": [2147483647, 0, 0, 1, 1, 2, 2], "right_children": [2, 4, 6, -1, -1, -1, -1], "split_conditions": [28.571209, 27.864647, 29.712172, -0.016070727, -0.90149945, 1.0263299, 0.009022141], "split_indices": [0, 0, 0, 0, 0, 0, 0], "split_type": [0, 0, 0, 0, 0, 0, 0], "sum_hessian": [700.0, 213.0, 487.0, 205.0, 8.0, 8.0, 479.0], "tree_param": {"num_deleted": "0", "num_feature": "2", "num_nodes": "7", "size_leaf_vector": "1"}}, {"base_weights": [0.0017487095, -0.043164954, 0.047172133, -0.02260179, -0.625618, 2.6297302, 0.017179633], "categories": [], "categories_nodes": [], "categories_segments": [], "categories_sizes": [], "default_left": [0, 0, 0, 0, 0, 0, 0], "id": 84, "left_children": [1, 3, 5, -1, -1, -1, -1], "loss_changes": [1.432169, 4.213767, 26.987444, 0.0, 0.0, 0.0, 0.0], "parents": [2147483647, 0, 0, 1, 1, 2, 2], "right_children": [2, 4, 6, -1, -1, -1, -1], "split_conditions": [50.525238, 49.26181, 51.07473, -0.02260179, -0.625618, 2.6297302, 0.017179633], "split_indices": [0, 0, 0, 0, 0, 0, 0], "split_type": [0, 0, 0, 0, 0, 0, 0], "sum_hessian": [700.0, 352.0, 348.0, 341.0, 11.0, 3.0, 345.0], "tree_param": {"num_deleted": "0", "num_feature": "2", "num_nodes": "7", "size_leaf_vector": "1"}}, {"base_weights": [0.001248995, 0.038582064, -0.12729809, 0.02451802, 0.8718872, -0.45454758, -0.062367376], "categories": [], "categories_nodes": [], "categories_segments": [], "categories_sizes": [], "default_left": [0, 0, 0, 0, 0, 0, 0], "id": 85, "left_children": [1, 3, 5, -1, -1, -1, -1], "loss_changes": [3.3690507, 6.354108, 3.3289208, 0.0, 0.0, 0.0, 0.0], "parents": [2147483647, 0, 0, 1, 1, 2, 2], "right_children": [2, 4, 6, -1, -1, -1, -1], "split_conditions": [78.85972, 76.949295, 81.2901, 0.02451802, 0.8718872, -0.45454758, -0.062367376], "split_indices": [0, 0, 0, 0, 0, 0, 0], "split_type": [0, 0, 0, 0, 0, 0, 0], "sum_hessian": [700.0, 543.0, 157.0, 535.0, 8.0, 25.0, 132.0], "tree_param": {"num_deleted": "0", "num_feature": "2", "num_nodes": "7", "size_leaf_vector": "1"}}, {"base_weights": [0.0005390668, 0.052434564, -0.034306336, 0.03143595, 0.6858995, -2.220253, -0.013255753], "categories": [], "categories_nodes": [], "categories_segments": [], "categories_sizes": [], "default_left": [0, 0, 0, 0, 0, 0, 0], "id": 86, "left_children": [1, 3, 5, -1, -1, -1, -1], "loss_changes": [1.2694308, 3.729569, 19.297058, 0.0, 0.0, 0.0, 0.0], "parents": [2147483647, 0, 0, 1, 1, 2, 2], "right_children": [2, 4, 6, -1, -1, -1, -1], "split_conditions": [38.673534, 37.625957, 39.224403, 0.03143595, 0.6858995, -2.220253, -0.013255753], "split_indices": [0, 0, 0, 0, 0, 0, 0], "split_type": [0, 0, 0, 0, 0, 0, 0], "sum_hessian": [700.0, 281.0, 419.0, 273.0, 8.0, 3.0, 416.0], "tree_param": {"num_deleted": "0", "num_feature": "2", "num_nodes": "7", "size_leaf_vector": "1"}}, {"base_weights": [0.0007484398, 0.023861058, -0.07047503, -0.0006696954, 0.20571075, -0.9037911, -0.034910638], "categories": [], "categories_nodes": [], "categories_segments": [], "categories_sizes": [], "default_left": [0, 0, 0, 0, 0, 0, 0], "id": 87, "left_children": [1, 3, 5, -1, -1, -1, -1], "loss_changes": [1.1556404, 2.36442, 5.0659046, 0.0, 0.0, 0.0, 0.0], "parents": [2147483647, 0, 0, 1, 1, 2, 2], "right_children": [2, 4, 6, -1, -1, -1, -1], "split_conditions": [75.513725, 66.01974, 76.949295, -0.0006696954, 0.20571075, -0.9037911, -0.034910638], "split_indices": [0, 0, 0, 0, 0, 0, 0], "split_type": [0, 0, 0, 0, 0, 0, 0], "sum_hessian": [700.0, 529.0, 171.0, 467.0, 62.0, 6.0, 165.0], "tree_param": {"num_deleted": "0", "num_feature": "2", "num_nodes": "7", "size_leaf_vector": "1"}}, {"base_weights": [0.00040187372, -0.093487464, 0.04074861, -0.07461429, -1.3771566, 0.20828755, 0.009084877], "categories": [], "categories_nodes": [], "categories_segments": [], "categories_sizes": [], "default_left": [0, 0, 0, 0, 0, 0, 0], "id": 88, "left_children": [1, 3, 5, -1, -1, -1, -1], "loss_changes": [2.6592875, 5.0091243, 2.6028178, 0.0, 0.0, 0.0, 0.0], "parents": [2147483647, 0, 0, 1, 1, 2, 2], "right_children": [2, 4, 6, -1, -1, -1, -1], "split_conditions": [28.203457, 28.09632, 39.72873, -0.07461429, -1.3771566, 0.20828755, 0.009084877], "split_indices": [0, 0, 0, 0, 0, 0, 0], "split_type": [0, 0, 0, 0, 0, 0, 0], "sum_hessian": [700.0, 210.0, 490.0, 208.0, 2.0, 77.0, 413.0], "tree_param": {"num_deleted": "0", "num_feature": "2", "num_nodes": "7", "size_leaf_vector": "1"}}, {"base_weights": [-0.0017600937, 0.059642, -0.018301055, 0.010904515, 0.81656903, -1.110644, -0.0063076993], "categories": [], "categories_nodes": [], "categories_segments": [], "categories_sizes": [], "default_left": [0, 0, 0, 0, 0, 0, 0], "id": 89, "left_children": [1, 3, 5, -1, -1, -1, -1], "loss_changes": [0.7130619, 5.487813, 7.2377687, 0.0, 0.0, 0.0, 0.0], "parents": [2147483647, 0, 0, 1, 1, 2, 2], "right_children": [2, 4, 6, -1, -1, -1, -1], "split_conditions": [18.657005, 17.803596, 19.598286, 0.010904515, 0.81656903, -1.110644, -0.0063076993], "split_indices": [0, 0, 0, 0, 0, 0, 0], "split_type": [0, 0, 0, 0, 0, 0, 0], "sum_hessian": [700.0, 148.0, 552.0, 140.0, 8.0, 5.0, 547.0], "tree_param": {"num_deleted": "0", "num_feature": "2", "num_nodes": "7", "size_leaf_vector": "1"}}, {"base_weights": [0.00030243312, 0.024377283, -0.03641713, 0.0059131994, 1.3097229, -2.4057312, -0.0018219549], "categories": [], "categories_nodes": [], "categories_segments": [], "categories_sizes": [], "default_left": [0, 0, 0, 0, 0, 0, 0], "id": 90, "left_children": [1, 3, 5, -1, -1, -1, -1], "loss_changes": [0.62058437, 10.054933, 22.7824, 0.0, 0.0, 0.0, 0.0], "parents": [2147483647, 0, 0, 1, 1, 2, 2], "right_children": [2, 4, 6, -1, -1, -1, -1], "split_conditions": [59.684284, 59.241455, 60.315212, 0.0059131994, 1.3097229, -2.4057312, -0.0018219549], "split_indices": [0, 0, 0, 0, 0, 0, 0], "split_type": [0, 0, 0, 0, 0, 0, 0], "sum_hessian": [700.0, 423.0, 277.0, 418.0, 5.0, 3.0, 274.0], "tree_param": {"num_deleted": "0", "num_feature": "2", "num_nodes": "7", "size_leaf_vector": "1"}}, {"base_weights": [0.00038936577, 0.07219035, -0.023636037, 0.03878429, 1.4989548, -1.3110809, -0.008764051], "categories": [], "categories_nodes": [], "categories_segments": [], "categories_sizes": [], "default_left": [0, 0, 0, 0, 0, 0, 0], "id": 91, "left_children": [1, 3, 5, -1, -1, -1, -1], "loss_changes": [1.2109647, 8.330478, 10.05976, 0.0, 0.0, 0.0, 0.0], "parents": [2147483647, 0, 0, 1, 1, 2, 2], "right_children": [2, 4, 6, -1, -1, -1, -1], "split_conditions": [23.818277, 23.10748, 24.247051, 0.03878429, 1.4989548, -1.3110809, -0.008764051], "split_indices": [0, 0, 0, 0, 0, 0, 0], "split_type": [0, 0, 0, 0, 0, 0, 0], "sum_hessian": [700.0, 175.0, 525.0, 172.0, 3.0, 5.0, 520.0], "tree_param": {"num_deleted": "0", "num_feature": "2", "num_nodes": "7", "size_leaf_vector": "1"}}, {"base_weights": [-0.0005010096, 0.03429685, -0.05022771, 0.015586267, 1.9435577, -1.4838867, -0.030000914], "categories": [], "categories_nodes": [], "categories_segments": [], "categories_sizes": [], "default_left": [0, 0, 0, 0, 0, 0, 0], "id": 92, "left_children": [1, 3, 5, -1, -1, -1, -1], "loss_changes": [1.2147211, 14.723467, 8.3359995, 0.0, 0.0, 0.0, 0.0], "parents": [2147483647, 0, 0, 1, 1, 2, 2], "right_children": [2, 4, 6, -1, -1, -1, -1], "split_conditions": [58.43143, 58.336876, 59.023067, 0.015586267, 1.9435577, -1.4838867, -0.030000914], "split_indices": [0, 0, 0, 0, 0, 0, 0], "split_type": [0, 0, 0, 0, 0, 0, 0], "sum_hessian": [700.0, 412.0, 288.0, 409.0, 3.0, 3.0, 285.0], "tree_param": {"num_deleted": "0", "num_feature": "2", "num_nodes": "7", "size_leaf_vector": "1"}}, {"base_weights": [-0.0010257863, -0.0697304, 0.03310897, -0.04480485, -1.0052795, 0.49015468, 0.014834784], "categories": [], "categories_nodes": [], "categories_segments": [], "categories_sizes": [], "default_left": [0, 0, 0, 0, 0, 0, 0], "id": 93, "left_children": [1, 3, 5, -1, -1, -1, -1], "loss_changes": [1.6463045, 5.3883033, 3.9098816, 0.0, 0.0, 0.0, 0.0], "parents": [2147483647, 0, 0, 1, 1, 2, 2], "right_children": [2, 4, 6, -1, -1, -1, -1], "split_conditions": [32.00496, 31.435598, 34.566727, -0.04480485, -1.0052795, 0.49015468, 0.014834784], "split_indices": [0, 0, 0, 0, 0, 0, 0], "split_type": [0, 0, 0, 0, 0, 0, 0], "sum_hessian": [700.0, 232.0, 468.0, 227.0, 5.0, 17.0, 451.0], "tree_param": {"num_deleted": "0", "num_feature": "2", "num_nodes": "7", "size_leaf_vector": "1"}}, {"base_weights": [0.0013637651, 0.04450502, -0.055781484, 0.033243112, 1.151123, -0.8363851, -0.031695724], "categories": [], "categories_nodes": [], "categories_segments": [], "categories_sizes": [], "default_left": [0, 0, 0, 0, 0, 0, 0], "id": 94, "left_children": [1, 3, 5, -1, -1, -1, -1], "loss_changes": [1.7306702, 4.9467845, 5.6515226, 0.0, 0.0, 0.0, 0.0], "parents": [2147483647, 0, 0, 1, 1, 2, 2], "right_children": [2, 4, 6, -1, -1, -1, -1], "split_conditions": [57.00612, 56.48411, 58.058834, 0.033243112, 1.151123, -0.8363851, -0.031695724], "split_indices": [0, 0, 0, 0, 0, 0, 0], "split_type": [0, 0, 0, 0, 0, 0, 0], "sum_hessian": [700.0, 399.0, 301.0, 396.0, 3.0, 8.0, 293.0], "tree_param": {"num_deleted": "0", "num_feature": "2", "num_nodes": "7", "size_leaf_vector": "1"}}, {"base_weights": [-0.000589017, 0.05525447, -0.021611292, 0.016201528, 0.8475308, -0.7487335, -0.0070547382], "categories": [], "categories_nodes": [], "categories_segments": [], "categories_sizes": [], "default_left": [0, 0, 0, 0, 0, 0, 0], "id": 95, "left_children": [1, 3, 5, -1, -1, -1, -1], "loss_changes": [0.8241381, 5.926887, 5.392759, 0.0, 0.0, 0.0, 0.0], "parents": [2147483647, 0, 0, 1, 1, 2, 2], "right_children": [2, 4, 6, -1, -1, -1, -1], "split_conditions": [25.243694, 24.53491, 27.074467, 0.016201528, 0.8475308, -0.7487335, -0.0070547382], "split_indices": [0, 0, 0, 0, 0, 0, 0], "split_type": [0, 0, 0, 0, 0, 0, 0], "sum_hessian": [700.0, 191.0, 509.0, 183.0, 8.0, 9.0, 500.0], "tree_param": {"num_deleted": "0", "num_feature": "2", "num_nodes": "7", "size_leaf_vector": "1"}}, {"base_weights": [-0.0007768378, -0.032204285, 0.024367113, -0.009989015, -1.1635183, 0.4953186, 0.0119422255], "categories": [], "categories_nodes": [], "categories_segments": [], "categories_sizes": [], "default_left": [0, 0, 0, 0, 0, 0, 0], "id": 96, "left_children": [1, 3, 5, -1, -1, -1, -1], "loss_changes": [0.5547221, 7.829702, 2.2761772, 0.0, 0.0, 0.0, 0.0], "parents": [2147483647, 0, 0, 1, 1, 2, 2], "right_children": [2, 4, 6, -1, -1, -1, -1], "split_conditions": [43.61265, 42.899403, 45.24395, -0.009989015, -1.1635183, 0.4953186, 0.0119422255], "split_indices": [0, 0, 0, 0, 0, 0, 0], "split_type": [0, 0, 0, 0, 0, 0, 0], "sum_hessian": [700.0, 311.0, 389.0, 306.0, 5.0, 9.0, 380.0], "tree_param": {"num_deleted": "0", "num_feature": "2", "num_nodes": "7", "size_leaf_vector": "1"}}, {"base_weights": [-0.0003598794, 0.013660315, -0.06507422, 0.006135874, 0.6254883, -0.4892985, -0.019848205], "categories": [], "categories_nodes": [], "categories_segments": [], "categories_sizes": [], "default_left": [0, 0, 0, 0, 0, 0, 0], "id": 97, "left_children": [1, 3, 5, -1, -1, -1, -1], "loss_changes": [0.6369116, 2.652476, 2.388535, 0.0, 0.0, 0.0, 0.0], "parents": [2147483647, 0, 0, 1, 1, 2, 2], "right_children": [2, 4, 6, -1, -1, -1, -1], "split_conditions": [82.12573, 81.446846, 84.645226, 0.006135874, 0.6254883, -0.4892985, -0.019848205], "split_indices": [0, 0, 0, 0, 0, 0, 0], "split_type": [0, 0, 0, 0, 0, 0, 0], "sum_hessian": [700.0, 576.0, 124.0, 570.0, 6.0, 11.0, 113.0], "tree_param": {"num_deleted": "0", "num_feature": "2", "num_nodes": "7", "size_leaf_vector": "1"}}, {"base_weights": [-0.00071600673, 0.018852238, -0.049148712, 0.0053956984, 0.61656606, -0.6121129, -0.028792089], "categories": [], "categories_nodes": [], "categories_segments": [], "categories_sizes": [], "default_left": [0, 0, 0, 0, 0, 0, 0], "id": 98, "left_children": [1, 3, 5, -1, -1, -1, -1], "loss_changes": [0.6652944, 4.018253, 2.297306, 0.0, 0.0, 0.0, 0.0], "parents": [2147483647, 0, 0, 1, 1, 2, 2], "right_children": [2, 4, 6, -1, -1, -1, -1], "split_conditions": [71.32448, 69.60298, 72.22669, 0.0053956984, 0.61656606, -0.6121129, -0.028792089], "split_indices": [0, 0, 0, 0, 0, 0, 0], "split_type": [0, 0, 0, 0, 0, 0, 0], "sum_hessian": [700.0, 499.0, 201.0, 489.0, 10.0, 6.0, 195.0], "tree_param": {"num_deleted": "0", "num_feature": "2", "num_nodes": "7", "size_leaf_vector": "1"}}, {"base_weights": [-0.0006201169, 0.01940867, -0.023985121, 0.002065357, 0.5482076, -0.3991038, -0.009526945], "categories": [], "categories_nodes": [], "categories_segments": [], "categories_sizes": [], "default_left": [0, 0, 0, 0, 0, 0, 0], "id": 99, "left_children": [1, 3, 5, -1, -1, -1, -1], "loss_changes": [0.32851437, 3.465553, 1.7534223, 0.0, 0.0, 0.0, 0.0], "parents": [2147483647, 0, 0, 1, 1, 2, 2], "right_children": [2, 4, 6, -1, -1, -1, -1], "split_conditions": [53.57747, 52.30654, 55.38543, 0.002065357, 0.5482076, -0.3991038, -0.009526945], "split_indices": [0, 0, 0, 0, 0, 0, 0], "split_type": [0, 0, 0, 0, 0, 0, 0], "sum_hessian": [700.0, 377.0, 323.0, 366.0, 11.0, 11.0, 312.0], "tree_param": {"num_deleted": "0", "num_feature": "2", "num_nodes": "7", "size_leaf_vector": "1"}}, {"base_weights": [-4.900335e-05, 0.020932838, -0.040438842, 0.0125764515, 1.2952677, -0.82584924, -0.016770843], "categories": [], "categories_nodes": [], "categories_segments": [], "categories_sizes": [], "default_left": [0, 0, 0, 0, 0, 0, 0], "id": 100, "left_children": [1, 3, 5, -1, -1, -1, -1], "loss_changes": [0.5949112, 4.9034715, 4.447532, 0.0, 0.0, 0.0, 0.0], "parents": [2147483647, 0, 0, 1, 1, 2, 2], "right_children": [2, 4, 6, -1, -1, -1, -1], "split_conditions": [65.19613, 64.59172, 66.01974, 0.0125764515, 1.2952677, -0.82584924, -0.016770843], "split_indices": [0, 0, 0, 0, 0, 0, 0], "split_type": [0, 0, 0, 0, 0, 0, 0], "sum_hessian": [700.0, 461.0, 239.0, 459.0, 2.0, 6.0, 233.0], "tree_param": {"num_deleted": "0", "num_feature": "2", "num_nodes": "7", "size_leaf_vector": "1"}}, {"base_weights": [0.0002877294, -0.053806975, 0.016908472, -0.03468629, -0.81474304, 1.2055016, 0.007973488], "categories": [], "categories_nodes": [], "categories_segments": [], "categories_sizes": [], "default_left": [0, 0, 0, 0, 0, 0, 0], "id": 101, "left_children": [1, 3, 5, -1, -1, -1, -1], "loss_changes": [0.63117474, 2.3724267, 5.6933594, 0.0, 0.0, 0.0, 0.0], "parents": [2147483647, 0, 0, 1, 1, 2, 2], "right_children": [2, 4, 6, -1, -1, -1, -1], "split_conditions": [21.296415, 20.990559, 22.460482, -0.03468629, -0.81474304, 1.2055016, 0.007973488], "split_indices": [0, 0, 0, 0, 0, 0, 0], "split_type": [0, 0, 0, 0, 0, 0, 0], "sum_hessian": [700.0, 164.0, 536.0, 161.0, 3.0, 3.0, 533.0], "tree_param": {"num_deleted": "0", "num_feature": "2", "num_nodes": "7", "size_leaf_vector": "1"}}, {"base_weights": [0.0012739674, -0.045661148, 0.023410501, -0.024802063, -1.191925, 1.1200485, 0.014106783], "categories": [], "categories_nodes": [], "categories_segments": [], "categories_sizes": [], "default_left": [0, 0, 0, 0, 0, 0, 0], "id": 102, "left_children": [1, 3, 5, -1, -1, -1, -1], "loss_changes": [0.72939444, 5.350191, 4.8509407, 0.0, 0.0, 0.0, 0.0], "parents": [2147483647, 0, 0, 1, 1, 2, 2], "right_children": [2, 4, 6, -1, -1, -1, -1], "split_conditions": [30.461376, 29.712172, 31.435598, -0.024802063, -1.191925, 1.1200485, 0.014106783], "split_indices": [0, 0, 0, 0, 0, 0, 0], "split_type": [0, 0, 0, 0, 0, 0, 0], "sum_hessian": [700.0, 224.0, 476.0, 221.0, 3.0, 3.0, 473.0], "tree_param": {"num_deleted": "0", "num_feature": "2", "num_nodes": "7", "size_leaf_vector": "1"}}, {"base_weights": [0.0002576553, -0.02919762, 0.021112224, -0.015283962, -1.0236816, 0.43845323, 0.0030972639], "categories": [], "categories_nodes": [], "categories_segments": [], "categories_sizes": [], "default_left": [0, 0, 0, 0, 0, 0, 0], "id": 103, "left_children": [1, 3, 5, -1, -1, -1, -1], "loss_changes": [0.43122464, 4.010895, 3.0886967, 0.0, 0.0, 0.0, 0.0], "parents": [2147483647, 0, 0, 1, 1, 2, 2], "right_children": [2, 4, 6, -1, -1, -1, -1], "split_conditions": [40.348286, 39.72873, 42.899403, -0.015283962, -1.0236816, 0.43845323, 0.0030972639], "split_indices": [0, 0, 0, 0, 0, 0, 0], "split_type": [0, 0, 0, 0, 0, 0, 0], "sum_hessian": [700.0, 290.0, 410.0, 287.0, 3.0, 16.0, 394.0], "tree_param": {"num_deleted": "0", "num_feature": "2", "num_nodes": "7", "size_leaf_vector": "1"}}, {"base_weights": [0.00081129523, 0.04549205, -0.041637674, 0.031996343, 0.79591876, -0.7666168, -0.03339803], "categories": [], "categories_nodes": [], "categories_segments": [], "categories_sizes": [], "default_left": [0, 0, 0, 0, 0, 0, 0], "id": 104, "left_children": [1, 3, 5, -1, -1, -1, -1], "loss_changes": [1.3314474, 3.4381514, 2.124883, 0.0, 0.0, 0.0, 0.0], "parents": [2147483647, 0, 0, 1, 1, 2, 2], "right_children": [2, 4, 6, -1, -1, -1, -1], "split_conditions": [49.26181, 48.452297, 49.44203, 0.031996343, 0.79591876, -0.7666168, -0.03339803], "split_indices": [0, 0, 0, 0, 0, 0, 0], "split_type": [0, 0, 0, 0, 0, 0, 0], "sum_hessian": [700.0, 341.0, 359.0, 336.0, 5.0, 3.0, 356.0], "tree_param": {"num_deleted": "0", "num_feature": "2", "num_nodes": "7", "size_leaf_vector": "1"}}, {"base_weights": [-0.000588949, -0.016478315, 0.04131922, 0.0009692902, -0.12238905, 0.59294635, 0.023494314], "categories": [], "categories_nodes": [], "categories_segments": [], "categories_sizes": [], "default_left": [0, 0, 0, 0, 0, 0, 0], "id": 105, "left_children": [1, 3, 5, -1, -1, -1, -1], "loss_changes": [0.46747273, 0.940694, 1.8837806, 0.0, 0.0, 0.0, 0.0], "parents": [2147483647, 0, 0, 1, 1, 2, 2], "right_children": [2, 4, 6, -1, -1, -1, -1], "split_conditions": [72.81888, 62.20867, 73.5071, 0.0009692902, -0.12238905, 0.59294635, 0.023494314], "split_indices": [0, 0, 0, 0, 0, 0, 0], "split_type": [0, 0, 0, 0, 0, 0, 0], "sum_hessian": [700.0, 508.0, 192.0, 437.0, 71.0, 5.0, 187.0], "tree_param": {"num_deleted": "0", "num_feature": "2", "num_nodes": "7", "size_leaf_vector": "1"}}, {"base_weights": [0.00043198318, -0.019105662, 0.030767046, -0.009604629, -1.0214386, 0.4824575, 0.010119121], "categories": [], "categories_nodes": [], "categories_segments": [], "categories_sizes": [], "default_left": [0, 0, 0, 0, 0, 0, 0], "id": 106, "left_children": [1, 3, 5, -1, -1, -1, -1], "loss_changes": [0.41605344, 4.056595, 2.5598972, 0.0, 0.0, 0.0, 0.0], "parents": [2147483647, 0, 0, 1, 1, 2, 2], "right_children": [2, 4, 6, -1, -1, -1, -1], "split_conditions": [60.315212, 59.684284, 62.20867, -0.009604629, -1.0214386, 0.4824575, 0.010119121], "split_indices": [0, 0, 0, 0, 0, 0, 0], "split_type": [0, 0, 0, 0, 0, 0, 0], "sum_hessian": [700.0, 426.0, 274.0, 423.0, 3.0, 11.0, 263.0], "tree_param": {"num_deleted": "0", "num_feature": "2", "num_nodes": "7", "size_leaf_vector": "1"}}, {"base_weights": [-0.001583219, -0.075112164, 0.030017985, -0.061203387, -1.0190531, 0.2100769, 0.014017155], "categories": [], "categories_nodes": [], "categories_segments": [], "categories_sizes": [], "default_left": [0, 0, 0, 0, 0, 0, 0], "id": 107, "left_children": [1, 3, 5, -1, -1, -1, -1], "loss_changes": [1.6311007, 2.7078638, 1.4116714, 0.0, 0.0, 0.0, 0.0], "parents": [2147483647, 0, 0, 1, 1, 2, 2], "right_children": [2, 4, 6, -1, -1, -1, -1], "split_conditions": [28.203457, 28.09632, 34.566727, -0.061203387, -1.0190531, 0.2100769, 0.014017155], "split_indices": [0, 0, 0, 0, 0, 0, 0], "split_type": [0, 0, 0, 0, 0, 0, 0], "sum_hessian": [700.0, 210.0, 490.0, 208.0, 2.0, 39.0, 451.0], "tree_param": {"num_deleted": "0", "num_feature": "2", "num_nodes": "7", "size_leaf_vector": "1"}}, {"base_weights": [-5.6551118e-05, -0.3200178, 0.0017771188, 0.15654135, -0.0009287733], "categories": [], "categories_nodes": [], "categories_segments": [], "categories_sizes": [], "default_left": [0, 0, 0, 0, 0], "id": 108, "left_children": [1, -1, 3, -1, -1], "loss_changes": [0.41184777, 0.0, 0.29245055, 0.0, 0.0], "parents": [2147483647, 0, 0, 2, 2], "right_children": [2, -1, 4, -1, -1], "split_conditions": [1.0837651, -0.3200178, 2.5386355, 0.15654135, -0.0009287733], "split_indices": [0, 0, 0, 0, 0], "split_type": [0, 0, 0, 0, 0], "sum_hessian": [700.0, 3.0, 697.0, 11.0, 686.0], "tree_param": {"num_deleted": "0", "num_feature": "2", "num_nodes": "5", "size_leaf_vector": "1"}}, {"base_weights": [-0.00023533852, 0.021777742, -0.031692665, 0.009202111, 0.873291, -0.2906901, -0.01443661], "categories": [], "categories_nodes": [], "categories_segments": [], "categories_sizes": [], "default_left": [0, 0, 0, 0, 0, 0, 0], "id": 109, "left_children": [1, 3, 5, -1, -1, -1, -1], "loss_changes": [0.4861135, 4.4144983, 1.2874235, 0.0, 0.0, 0.0, 0.0], "parents": [2147483647, 0, 0, 1, 1, 2, 2], "right_children": [2, 4, 6, -1, -1, -1, -1], "split_conditions": [58.43143, 58.058834, 60.956432, 0.009202111, 0.873291, -0.2906901, -0.01443661], "split_indices": [0, 0, 0, 0, 0, 0, 0], "split_type": [0, 0, 0, 0, 0, 0, 0], "sum_hessian": [700.0, 412.0, 288.0, 407.0, 5.0, 17.0, 271.0], "tree_param": {"num_deleted": "0", "num_feature": "2", "num_nodes": "7", "size_leaf_vector": "1"}}, {"base_weights": [0.00042502585, 0.017433671, -0.030713482, 0.01094336, 0.7448578, -0.51117814, -0.016688827], "categories": [], "categories_nodes": [], "categories_segments": [], "categories_sizes": [], "default_left": [0, 0, 0, 0, 0, 0, 0], "id": 110, "left_children": [1, 3, 5, -1, -1, -1, -1], "loss_changes": [0.37180176, 2.1352775, 1.6625799, 0.0, 0.0, 0.0, 0.0], "parents": [2147483647, 0, 0, 1, 1, 2, 2], "right_children": [2, 4, 6, -1, -1, -1, -1], "split_conditions": [63.75575, 63.34782, 64.59172, 0.01094336, 0.7448578, -0.51117814, -0.016688827], "split_indices": [0, 0, 0, 0, 0, 0, 0], "split_type": [0, 0, 0, 0, 0, 0, 0], "sum_hessian": [700.0, 453.0, 247.0, 450.0, 3.0, 6.0, 241.0], "tree_param": {"num_deleted": "0", "num_feature": "2", "num_nodes": "7", "size_leaf_vector": "1"}}, {"base_weights": [3.5994744e-05, 0.022425331, -0.014041838, 0.0069062337, 0.47343615, -0.26782838, -0.0048791533], "categories": [], "categories_nodes": [], "categories_segments": [], "categories_sizes": [], "default_left": [0, 0, 0, 0, 0, 0, 0], "id": 111, "left_children": [1, 3, 5, -1, -1, -1, -1], "loss_changes": [0.22126544, 1.8935355, 1.000926, 0.0, 0.0, 0.0, 0.0], "parents": [2147483647, 0, 0, 1, 1, 2, 2], "right_children": [2, 4, 6, -1, -1, -1, -1], "split_conditions": [37.45401, 36.778313, 39.224403, 0.0069062337, 0.47343615, -0.26782838, -0.0048791533], "split_indices": [0, 0, 0, 0, 0, 0, 0], "split_type": [0, 0, 0, 0, 0, 0, 0], "sum_hessian": [700.0, 270.0, 430.0, 262.0, 8.0, 14.0, 416.0], "tree_param": {"num_deleted": "0", "num_feature": "2", "num_nodes": "7", "size_leaf_vector": "1"}}, {"base_weights": [0.0002985667, 0.019850243, -0.010516074, 0.0030333956, 0.60320175, -0.42618307, -0.004913125], "categories": [], "categories_nodes": [], "categories_segments": [], "categories_sizes": [], "default_left": [0, 0, 0, 0, 0, 0, 0], "id": 112, "left_children": [1, 3, 5, -1, -1, -1, -1], "loss_changes": [0.14843123, 2.4507034, 1.0505964, 0.0, 0.0, 0.0, 0.0], "parents": [2147483647, 0, 0, 1, 1, 2, 2], "right_children": [2, 4, 6, -1, -1, -1, -1], "split_conditions": [34.566727, 33.660427, 35.597267, 0.0030333956, 0.60320175, -0.42618307, -0.004913125], "split_indices": [0, 0, 0, 0, 0, 0, 0], "split_type": [0, 0, 0, 0, 0, 0, 0], "sum_hessian": [700.0, 249.0, 451.0, 243.0, 6.0, 5.0, 446.0], "tree_param": {"num_deleted": "0", "num_feature": "2", "num_nodes": "7", "size_leaf_vector": "1"}}, {"base_weights": [-0.00087284466, -0.07566602, 0.02067468, -0.054924384, -0.41064793, 0.573939, 0.014489012], "categories": [], "categories_nodes": [], "categories_segments": [], "categories_sizes": [], "default_left": [0, 0, 0, 0, 0, 0, 0], "id": 113, "left_children": [1, 3, 5, -1, -1, -1, -1], "loss_changes": [1.1313014, 1.0682926, 1.8568426, 0.0, 0.0, 0.0, 0.0], "parents": [2147483647, 0, 0, 1, 1, 2, 2], "right_children": [2, 4, 6, -1, -1, -1, -1], "split_conditions": [20.162731, 18.657005, 20.990559, -0.054924384, -0.41064793, 0.573939, 0.014489012], "split_indices": [0, 0, 0, 0, 0, 0, 0], "split_type": [0, 0, 0, 0, 0, 0, 0], "sum_hessian": [700.0, 156.0, 544.0, 148.0, 8.0, 5.0, 539.0], "tree_param": {"num_deleted": "0", "num_feature": "2", "num_nodes": "7", "size_leaf_vector": "1"}}, {"base_weights": [-0.00079037424, -0.02664412, 0.034467395, -0.021006254, -0.39806113, 0.325609, 0.025281437], "categories": [], "categories_nodes": [], "categories_segments": [], "categories_sizes": [], "default_left": [0, 0, 0, 0, 0, 0, 0], "id": 114, "left_children": [1, 3, 5, -1, -1, -1, -1], "loss_changes": [0.6399117, 0.8397079, 0.7860693, 0.0, 0.0, 0.0, 0.0], "parents": [2147483647, 0, 0, 1, 1, 2, 2], "right_children": [2, 4, 6, -1, -1, -1, -1], "split_conditions": [57.651646, 57.00612, 58.43143, -0.021006254, -0.39806113, 0.325609, 0.025281437], "split_indices": [0, 0, 0, 0, 0, 0, 0], "split_type": [0, 0, 0, 0, 0, 0, 0], "sum_hessian": [700.0, 404.0, 296.0, 399.0, 5.0, 8.0, 288.0], "tree_param": {"num_deleted": "0", "num_feature": "2", "num_nodes": "7", "size_leaf_vector": "1"}}, {"base_weights": [0.0002920393, 0.02952772, -0.022431115, 0.022341704, 0.5682831, -0.27216473, -0.011170158], "categories": [], "categories_nodes": [], "categories_segments": [], "categories_sizes": [], "default_left": [0, 0, 0, 0, 0, 0, 0], "id": 115, "left_children": [1, 3, 5, -1, -1, -1, -1], "loss_changes": [0.4663555, 1.1758556, 1.1077945, 0.0, 0.0, 0.0, 0.0], "parents": [2147483647, 0, 0, 1, 1, 2, 2], "right_children": [2, 4, 6, -1, -1, -1, -1], "split_conditions": [42.899403, 42.543644, 45.454105, 0.022341704, 0.5682831, -0.27216473, -0.011170158], "split_indices": [0, 0, 0, 0, 0, 0, 0], "split_type": [0, 0, 0, 0, 0, 0, 0], "sum_hessian": [700.0, 306.0, 394.0, 303.0, 3.0, 16.0, 378.0], "tree_param": {"num_deleted": "0", "num_feature": "2", "num_nodes": "7", "size_leaf_vector": "1"}}, {"base_weights": [-0.00039147446, 0.01766575, -0.022070237, 0.01127108, 0.6207428, -0.5209874, -0.0108418325], "categories": [], "categories_nodes": [], "categories_segments": [], "categories_sizes": [], "default_left": [0, 0, 0, 0, 0, 0, 0], "id": 116, "left_children": [1, 3, 5, -1, -1, -1, -1], "loss_changes": [0.2748021, 1.4700345, 1.7814031, 0.0, 0.0, 0.0, 0.0], "parents": [2147483647, 0, 0, 1, 1, 2, 2], "right_children": [2, 4, 6, -1, -1, -1, -1], "split_conditions": [54.264465, 53.934223, 55.38543, 0.01127108, 0.6207428, -0.5209874, -0.0108418325], "split_indices": [0, 0, 0, 0, 0, 0, 0], "split_type": [0, 0, 0, 0, 0, 0, 0], "sum_hessian": [700.0, 382.0, 318.0, 379.0, 3.0, 6.0, 312.0], "tree_param": {"num_deleted": "0", "num_feature": "2", "num_nodes": "7", "size_leaf_vector": "1"}}, {"base_weights": [0.00017821873, 0.053282056, -0.0044254856, -0.080136076, 0.12962924, -0.20786963, -0.0015486475], "categories": [], "categories_nodes": [], "categories_segments": [], "categories_sizes": [], "default_left": [0, 0, 0, 0, 0, 0, 0], "id": 117, "left_children": [1, 3, 5, -1, -1, -1, -1], "loss_changes": [0.17161234, 0.5808095, 0.3777663, 0.0, 0.0, 0.0, 0.0], "parents": [2147483647, 0, 0, 1, 1, 2, 2], "right_children": [2, 4, 6, -1, -1, -1, -1], "split_conditions": [8.023375, 3.438852, 9.12061, -0.080136076, 0.12962924, -0.20786963, -0.0015486475], "split_indices": [0, 0, 0, 0, 0, 0, 0], "split_type": [0, 0, 0, 0, 0, 0, 0], "sum_hessian": [700.0, 55.0, 645.0, 20.0, 35.0, 8.0, 637.0], "tree_param": {"num_deleted": "0", "num_feature": "2", "num_nodes": "7", "size_leaf_vector": "1"}}, {"base_weights": [-0.00023371415, 0.123064674, -0.0029254786, -0.06740461, 0.2575336, -0.4754076, -0.0001581482], "categories": [], "categories_nodes": [], "categories_segments": [], "categories_sizes": [], "default_left": [0, 0, 0, 0, 0, 0, 0], "id": 118, "left_children": [1, 3, 5, -1, -1, -1, -1], "loss_changes": [0.23301508, 0.40154195, 0.89818704, 0.0, 0.0, 0.0, 0.0], "parents": [2147483647, 0, 0, 1, 1, 2, 2], "right_children": [2, 4, 6, -1, -1, -1, -1], "split_conditions": [2.5386355, 1.2154474, 2.6511312, -0.06740461, 0.2575336, -0.4754076, -0.0001581482], "split_indices": [0, 0, 0, 0, 0, 0, 0], "split_type": [0, 0, 0, 0, 0, 0, 0], "sum_hessian": [700.0, 14.0, 686.0, 6.0, 8.0, 3.0, 683.0], "tree_param": {"num_deleted": "0", "num_feature": "2", "num_nodes": "7", "size_leaf_vector": "1"}}, {"base_weights": [0.0003377286, -0.0055644, 0.051188428, -0.0029303823, -0.4163971, 0.3394097, 0.010493352], "categories": [], "categories_nodes": [], "categories_segments": [], "categories_sizes": [], "default_left": [0, 0, 0, 0, 0, 0, 0], "id": 119, "left_children": [1, 3, 5, -1, -1, -1, -1], "loss_changes": [0.21067412, 0.6794463, 0.8526692, 0.0, 0.0, 0.0, 0.0], "parents": [2147483647, 0, 0, 1, 1, 2, 2], "right_children": [2, 4, 6, -1, -1, -1, -1], "split_conditions": [90.41587, 89.95746, 91.09272, -0.0029303823, -0.4163971, 0.3394097, 0.010493352], "split_indices": [0, 0, 0, 0, 0, 0, 0], "split_type": [0, 0, 0, 0, 0, 0, 0], "sum_hessian": [700.0, 628.0, 72.0, 625.0, 3.0, 8.0, 64.0], "tree_param": {"num_deleted": "0", "num_feature": "2", "num_nodes": "7", "size_leaf_vector": "1"}}, {"base_weights": [-0.00062852714, -0.032884832, 0.021418655, -0.021168215, -0.8506851, 0.7129669, 0.014685295], "categories": [], "categories_nodes": [], "categories_segments": [], "categories_sizes": [], "default_left": [0, 0, 0, 0, 0, 0, 0], "id": 120, "left_children": [1, 3, 5, -1, -1, -1, -1], "loss_changes": [0.499228, 2.7128205, 1.9312671, 0.0, 0.0, 0.0, 0.0], "parents": [2147483647, 0, 0, 1, 1, 2, 2], "right_children": [2, 4, 6, -1, -1, -1, -1], "split_conditions": [39.224403, 38.673534, 39.72873, -0.021168215, -0.8506851, 0.7129669, 0.014685295], "split_indices": [0, 0, 0, 0, 0, 0, 0], "split_type": [0, 0, 0, 0, 0, 0, 0], "sum_hessian": [700.0, 284.0, 416.0, 281.0, 3.0, 3.0, 413.0], "tree_param": {"num_deleted": "0", "num_feature": "2", "num_nodes": "7", "size_leaf_vector": "1"}}, {"base_weights": [-0.00024499226, 0.013324925, -0.022757791, 0.0033991535, 0.24473742, -0.5607198, -0.010207482], "categories": [], "categories_nodes": [], "categories_segments": [], "categories_sizes": [], "default_left": [0, 0, 0, 0, 0, 0, 0], "id": 121, "left_children": [1, 3, 5, -1, -1, -1, -1], "loss_changes": [0.2144565, 1.005231, 1.7766961, 0.0, 0.0, 0.0, 0.0], "parents": [2147483647, 0, 0, 1, 1, 2, 2], "right_children": [2, 4, 6, -1, -1, -1, -1], "split_conditions": [62.20867, 59.41307, 62.79004, 0.0033991535, 0.24473742, -0.5607198, -0.010207482], "split_indices": [0, 0, 0, 0, 0, 0, 0], "split_type": [0, 0, 0, 0, 0, 0, 0], "sum_hessian": [700.0, 437.0, 263.0, 420.0, 17.0, 5.0, 258.0], "tree_param": {"num_deleted": "0", "num_feature": "2", "num_nodes": "7", "size_leaf_vector": "1"}}, {"base_weights": [-1.5707737e-05, 0.08304554, -0.002829247, 0.01511156, 0.5309016, -0.3647318, -0.00068362645], "categories": [], "categories_nodes": [], "categories_segments": [], "categories_sizes": [], "default_left": [0, 0, 0, 0, 0, 0, 0], "id": 122, "left_children": [1, 3, 5, -1, -1, -1, -1], "loss_changes": [0.16405591, 0.69174415, 0.52699786, 0.0, 0.0, 0.0, 0.0], "parents": [2147483647, 0, 0, 1, 1, 2, 2], "right_children": [2, 4, 6, -1, -1, -1, -1], "split_conditions": [3.6549668, 3.438852, 3.734819, 0.01511156, 0.5309016, -0.3647318, -0.00068362645], "split_indices": [0, 0, 0, 0, 0, 0, 0], "split_type": [0, 0, 0, 0, 0, 0, 0], "sum_hessian": [700.0, 22.0, 678.0, 20.0, 2.0, 3.0, 675.0], "tree_param": {"num_deleted": "0", "num_feature": "2", "num_nodes": "7", "size_leaf_vector": "1"}}, {"base_weights": [-9.495114e-05, 0.019325322, -0.016456664, 0.011920659, 0.6031647, -0.8596802, -0.00973865], "categories": [], "categories_nodes": [], "categories_segments": [], "categories_sizes": [], "default_left": [0, 0, 0, 0, 0, 0, 0], "id": 123, "left_children": [1, 3, 5, -1, -1, -1, -1], "loss_changes": [0.22306004, 1.3805356, 2.1499119, 0.0, 0.0, 0.0, 0.0], "parents": [2147483647, 0, 0, 1, 1, 2, 2], "right_children": [2, 4, 6, -1, -1, -1, -1], "split_conditions": [45.24395, 44.84455, 45.454105, 0.011920659, 0.6031647, -0.8596802, -0.00973865], "split_indices": [0, 0, 0, 0, 0, 0, 0], "split_type": [0, 0, 0, 0, 0, 0, 0], "sum_hessian": [700.0, 320.0, 380.0, 317.0, 3.0, 2.0, 378.0], "tree_param": {"num_deleted": "0", "num_feature": "2", "num_nodes": "7", "size_leaf_vector": "1"}}, {"base_weights": [0.0005240719, 0.041742343, -0.030058527, 0.035806928, 0.47052765, -0.73565674, -0.024704779], "categories": [], "categories_nodes": [], "categories_segments": [], "categories_sizes": [], "default_left": [0, 0, 0, 0, 0, 0, 0], "id": 124, "left_children": [1, 3, 5, -1, -1, -1, -1], "loss_changes": [0.8849087, 0.7441128, 1.5041966, 0.0, 0.0, 0.0, 0.0], "parents": [2147483647, 0, 0, 1, 1, 2, 2], "right_children": [2, 4, 6, -1, 